tree
version=v3
num_class=1
num_tree_per_iteration=1
label_index=0
max_feature_idx=3
objective=lambdarank
feature_names=Column_0 Column_1 Column_2 Column_3
feature_infos=[4:28137] [0.00048816354712526958:0.39491177639134534] [0.00060710806646699117:0.28003379472402962] [0.00060710806646699117:0.39491177639134534]
tree_sizes=3544 3535 3518 3536 3525 3518 3523 3512 3506 3500 3534 3529 3525 3521 3514 3529 3526 3526 3502 3510 3518 3526 3507 3519 3516 3499 3508 3519 3518 3498 3502 3522 3516 3518 3504 3479 3505 3481 3486 3507 3465 3529 3491 3498 3477 3480 3534 3510 3495 3539 3515 3461 3511 3472 3491 3497 3502 3520 3481 3531 3510 3475 3508 3516 3496 3513 3485 3498 3504 3493 3498 3454 3496 3473 3494 3501 3521 3504 3507 3509 3472 3519 3499 3425 3468 3493 3492 3459 3495 3481 3453 3438 3482 3488 3509 3492 3446 3488 3421 3450 3500 3537 3510 3505 3528 3533 3513 3494 3508 3518 3489 3495 3499 3504 3477 3497 3503 3507 3505 3449 3455 3482 3535 3505 3459 3475 3530 3500 3494 3495 3414 3458 3489 3476 3452 3472 3442 3481 3447 3495 3511 3481 3479 3475 3460 3502 3498 3486 3462 3433 3480 3421 3513 3468 3495 3533 3495 3421 3466 3476 3419 3390 3450 3480 3470 3479 3514 3504 3469 3455 3436 3457 3503 3503 3479 3444 3464 3440 3493 3431 3457 3422 3455 3429 3495 3429 3436 3488 3490 3456 3489 3508 3493 3496 3421 3473 3470 3472 3449 3447

Tree=0
num_leaves=31
num_cat=0
split_feature=1 2 1 3 1 2 1 3 1 2 1 3 3 1 2 1 3 1 0 2 3 2 2 1 1 3 2 1 2 0
split_gain=33689.5 2290.02 1094.32 565.286 621.955 482.46 381.013 335.843 296.468 269.367 391.099 155.571 140.035 129.956 127.318 124.753 92.8194 81.0188 47.7317 47.1211 43.1255 43.0946 42.9355 42.3109 40.9653 47.5618 39.6124 38.131 44.9881 55.6085
threshold=0.017495645627681151 0.027817354061032768 0.018990510714877246 0.1487157774667893 0.052710315498911121 0.038540263442798775 0.016625126924443435 0.028876449092726231 0.021968982419754011 0.063351565136372037 0.099448964343380755 0.086202664723571965 0.055307793583937961 0.020072166853364899 0.11830254119648752 0.020072166853364899 0.019634005391302063 0.054700544796043186 27965.000000000004 0.057827762815173774 0.031716272055583576 0.01751518375315288 0.020157671513969602 0.033663581928644187 0.034849150401957858 0.04410888571857853 0.015884713926722176 0.018385861040472486 0.018793777258084541 7368.5000000000009
decision_type=2 2 2 2 2 2 2 2 2 2 2 2 2 2 2 2 2 2 2 2 2 2 2 2 2 2 2 2 2 2
left_child=6 2 16 4 5 8 -1 13 -3 17 11 -11 18 21 -12 -9 27 -6 -7 -19 -10 -4 -15 -22 25 -17 -8 -2 -29 -30
right_child=1 3 7 -5 9 12 26 15 20 10 14 -13 -14 22 -16 24 -18 19 -20 -21 23 -23 -24 -25 -26 -27 -28 28 29 -31
leaf_value=0.19816793586231557 -0.0043634984042078542 0.15093686270830028 -0.12300931573758239 0.11115423830534608 -0.038572359998106112 0.0091454732021899413 0.039136313205438332 0.088369155420534293 -0.090033152008867509 -0.02595255815092895 -0.10678784849408703 0.047011489751321744 0.079312401593469778 -0.15047523009743993 -0.02375140938384103 -0.076210977475525993 0.053437709766856405 -0.097354755490973888 0.14817337186472329 -0.06987795431031156 -0.02157074026573734 -0.078904875565333016 -0.13146768723350738 -0.062720094929556477 -0.10331994313295244 0.10388732584862093 0.11263358404991666 -0.063590764007950856 -0.20000000000000001 0.054504516943458918
leaf_weight=6281.4958366800129 414.39312052261084 70.303888514172286 419.15331255993806 249.00939354189904 379.50704684421362 1528.5486935561639 116.98609633784508 40.371198829670902 347.80964784967364 839.39873431170417 704.28494918915385 448.28052326224861 377.25814065797022 2474.6471598486096 250.26569125219248 803.24713209889887 181.02336270271917 1804.7364691279508 25.100174305203836 954.10455502639525 362.84113438759232 469.91775713443349 2286.4159115713992 802.60285472379474 967.81592123160954 14.936225591154651 196.51282593776705 328.41200544049207 9.8583999344264139 66.474900877219625
leaf_count=5868 15746 955 32420 11369 25808 96492 3679 1068 31570 87034 73640 29885 14577 246147 27144 66784 5303 168969 452 97497 23046 31520 230264 65368 84203 396 2791 17262 743 2000
internal_value=0 -0.0721596 -0.109602 -0.0374498 -0.0416099 -0.00889163 0.192798 -0.122744 -0.049805 -0.0629807 -0.0365098 -0.000551542 0.0246618 -0.134794 -0.0850172 -0.0854655 -0.0113654 -0.0818931 0.0113916 -0.0878523 -0.0591312 -0.099698 -0.141347 -0.0499089 -0.0893949 -0.0729232 0.0852071 -0.0256863 -0.0475175 0.0216354
internal_weight=0 17620.7 8476.67 9144.05 8895.04 3514.46 6594.99 7476.5 1583.56 5380.58 2242.23 1287.68 1930.91 5650.13 954.551 1826.37 1000.16 3138.35 1553.65 2758.84 1513.25 889.071 4761.06 1165.44 1786 818.183 313.499 819.138 404.745 76.3333
internal_count=1500000 1487662 733856 753806 742437 232460 12338 692802 120939 509977 217703 116919 111521 540351 100784 152451 41054 292274 96944 266466 119984 63940 476411 88414 151383 67180 6470 35751 20005 2743
is_linear=0
shrinkage=0.1


Tree=1
num_leaves=31
num_cat=0
split_feature=1 3 1 1 1 3 3 1 2 3 1 3 1 2 3 0 0 0 0 0 3 0 0 2 1 3 2 2 3 2
split_gain=32544.3 2686.72 691.453 649.442 504.081 247.188 165.58 149.69 170.718 139.781 177.788 133.315 107.003 684.8 146.988 119.722 118.116 156.388 144.087 137.788 114.463 111.713 116.005 101.437 97.0555 88.5045 88.0682 84.2233 83.7996 83.408
threshold=0.017495645627681151 0.031716272055583576 0.018990510714877246 0.15572754646837664 0.016625126924443435 0.025459758040579403 0.16031615112056033 0.020161523485497455 0.029993033362248414 0.034274731124906095 0.028655493381363892 0.1487157774667893 0.066257160141535057 0.063351565136372037 0.086202664723571965 27780.000000000004 23633.500000000004 26527.000000000004 19056.000000000004 19955.500000000004 0.12644871490466136 19853.000000000004 19642.000000000004 0.027817354061032768 0.11438666263594548 0.088314253036800669 0.069532290599299704 0.044697542847139976 0.071113387883164889 0.018893064525069506
decision_type=2 2 2 2 2 2 2 2 2 2 2 2 2 2 2 2 2 2 2 2 2 2 2 2 2 2 2 2 2 2
left_child=4 2 -2 7 -1 -4 -5 -3 9 10 -9 12 13 16 26 20 18 -18 -10 21 24 22 -20 -11 25 27 -14 -16 -15 -7
right_child=1 3 5 6 -6 29 -8 8 11 23 -12 -13 14 28 15 -17 17 -19 19 -21 -22 -23 -24 -25 -26 -27 -28 -29 -30 -31
leaf_value=0.16921259256376198 -0.025544329989187865 0.064028313563767453 -0.1120427500542774 -0.055764635864426149 0.061693720985911631 -0.10270707194105518 0.092392397181084565 -0.1176631093903247 -0.024714265098499121 -0.053286651627339504 0.0042516372278548469 -0.074268588472148234 -0.0096746927738981421 -0.11624931903668152 0.091058976592316099 0.088167535298137242 -0.077638603528982192 -0.012416968199440555 0.052442398264448624 -0.0095870539105962181 0.010121360720056372 0.12540943490645648 -0.086302250974549521 -0.10158794416899078 -0.07613705449602276 -0.020834589442528736 0.034971930549144895 -0.099651892946026721 -0.059770325084095792 -0.068506294565616091
leaf_weight=8893.2378775146826 1475.2054415646126 165.5744412203785 5737.3554340501723 87.476017480312294 458.5266190856928 998.96055019693449 547.92454831251234 145.08440899581183 6631.1539913963934 1812.9703646621783 681.425096344552 587.17845245155331 1052.5239653806202 914.19391394406557 25.547219966421835 89.010825479519553 819.99005615086935 666.42505411541788 267.39219993865117 1354.1350731365092 599.22945167215948 146.43480196635937 77.795055778056849 571.95783151007345 539.30319089407567 1857.6122064766096 761.44912333937827 247.50027513490932 368.63724792251014 2491.6858284547052
leaf_count=5868 40742 1295 416590 1173 6470 53027 4618 3813 283482 92346 20257 5578 52533 21216 622 2140 42383 26013 8022 53809 28507 2148 4262 16085 31813 84490 37704 4441 7680 140873
internal_value=0 -0.0483317 -0.0891143 -0.0275635 0.163941 -0.0992767 0.0719955 -0.0306671 -0.0314427 -0.0525886 -0.0171491 -0.0274493 -0.0257749 -0.0312497 -0.0138707 -0.0262605 -0.0223952 -0.0483969 -0.0178359 0.00687574 -0.0293761 0.0522212 0.0211734 -0.0648704 -0.0382406 -0.0286485 0.00906656 -0.0818084 -0.100019 -0.0782939
internal_weight=0 31721.1 10703.2 21017.9 9351.76 9228 635.401 20382.5 20216.9 3211.44 826.51 17005.5 16418.3 11246.2 5172.18 3358.2 9963.33 1486.42 8476.91 1845.76 3269.19 491.622 345.187 2384.93 2669.96 2130.66 1813.97 273.047 1282.83 3490.65
internal_count=1500000 1487662 651232 836430 12338 610490 5791 830639 829344 132501 24070 696843 691265 449015 242250 152013 420119 68396 351723 68241 149873 14432 12284 108431 121366 89553 90237 5063 28896 193900
is_linear=0
shrinkage=0.1


Tree=2
num_leaves=31
num_cat=0
split_feature=1 2 1 3 1 3 1 3 0 1 0 0 0 0 3 3 2 1 3 2 0 3 3 2 3 1 0 3 0 0
split_gain=26066.5 2005.26 500.648 409.013 374.555 260.695 152.925 179.27 119.585 116.179 93.5278 215.563 161.673 106.204 95.6784 77.6709 73.5245 71.3281 70.4264 69.4532 67.8791 63.3896 78.799 59.7512 56.4152 52.6515 52.3603 48.6015 46.8337 193.231
threshold=0.017495645627681151 0.02662298885891223 0.018990510714877246 0.026603574966688172 0.016625126924443435 0.14134593242834295 0.051457455545009738 0.047369112392569447 18971.000000000004 0.019622964628686453 9197.5000000000018 8041.0000000000009 8196.5000000000018 9025.5000000000018 0.037480162968098286 0.042911753473422264 0.047401844390842822 0.018385861040472486 0.033256987340543422 0.018893064525069506 374.00000000000006 0.016949388817063992 0.017653047015059042 0.017767160641575155 0.05388415642042739 0.019622964628686453 18834.500000000004 0.019847077867135642 20869.500000000004 20619.500000000004
decision_type=2 2 2 2 2 2 2 2 2 2 2 2 2 2 2 2 2 2 2 2 2 2 2 2 2 2 2 2 2 2
left_child=4 2 17 25 -1 6 7 9 26 -3 11 15 14 -14 -13 -11 -8 23 -5 -20 -18 -6 -23 27 -21 -4 -9 -2 29 -22
right_child=1 5 3 18 21 -7 16 8 -10 10 -12 12 13 -15 -16 -17 20 -19 19 24 28 22 -24 -25 -26 -27 -28 -29 -30 -31
leaf_value=0.15347849279888864 -0.015957862668669349 0.11217767327436022 -0.073158549504289669 -0.074529626869157511 0.12587732269590346 0.019595802422274461 -0.057142319407676327 0.02079122509879586 -0.021957940940606942 -0.043537546274531637 -0.040463798068787304 -0.18088709073239051 -0.050860307141600586 0.10686975709054601 0.17954754315946095 0.01697518350462868 -0.12440698808124161 -0.044827048780912808 -0.07724056150345443 -0.023825531620876226 -0.030093803446765263 -0.0031375312520875564 0.095877679066805832 0.035174628536250384 -0.069237766762004216 -0.10577605320851147 0.13063345832139991 -0.16892351526622584 -0.044107213491710595 0.078346426022327137
leaf_weight=8576.9808669574559 383.83623957098462 58.183984971023165 544.6927921284223 2033.4967588805011 106.71102648746455 1232.3890792203892 1387.767488084748 1371.8512461449136 925.20950234273914 887.13382525352063 2905.6820725745347 7.8831371674314132 117.0739519832423 67.186864043120295 112.00754090631381 278.76348937820876 79.444946374598658 689.48342677991604 575.59197442507138 1023.5260727076093 6390.8253142482281 196.80125039373524 135.85992248597904 290.4592306445702 373.34234250370355 5412.73287955657 44.815045166062191 21.959550200088415 2220.6899795292265 168.65860272280406
leaf_count=5868 11540 206 34229 103375 1055 17197 70558 40442 21985 42073 118848 567 6081 818 406 11417 5686 23181 25768 44805 327875 4330 1085 5727 20501 434891 444 558 115213 3271
internal_value=0 -0.0453382 -0.0783463 -0.0861792 0.148865 -0.0248177 -0.028033 -0.0163771 0.00600421 -0.0281983 -0.0300649 -0.00951058 0.0654626 0.00665267 0.155848 -0.0290691 -0.0357401 -0.0220283 -0.061471 -0.0480083 -0.0323877 0.0588134 0.0373006 0.000548801 -0.0359629 -0.102794 0.024266 -0.0242356 -0.0315551 -0.0273056
internal_weight=0 29604.7 11349.1 9963.38 9016.35 18255.6 17023.2 6775.79 2341.88 4433.91 4375.73 1470.05 304.151 184.261 119.891 1165.9 10247.4 1385.74 4005.96 1972.46 8859.62 439.372 332.661 696.255 1396.87 5957.43 1416.67 405.796 8780.17 6559.48
internal_count=1500000 1487662 704575 663569 12338 783087 765890 243287 62871 180416 180210 61362 7872 6899 973 53490 522603 41006 194449 91074 452045 6470 5415 17825 65306 469120 40886 12098 446359 331146
is_linear=0
shrinkage=0.1


Tree=3
num_leaves=31
num_cat=0
split_feature=1 3 1 1 2 1 3 1 0 0 1 0 0 0 1 2 1 0 0 3 0 0 3 3 1 2 1 3 2 2
split_gain=21976.6 1688.04 517.569 277.263 209.144 163.245 133.685 95.5925 78.2417 171.383 93.0202 79.6164 64.7932 105.761 77.2351 105.032 64.5691 60.4346 167.957 96.0031 94.3265 83.398 68.5631 64.9222 54.3734 57.8136 53.2161 52.8961 49.7592 57.9294
threshold=0.017495645627681151 0.03032775719500069 0.018990510714877246 0.016625126924443435 0.022528515065989792 0.14510489483220287 0.026603574966688172 0.02043191958729371 2795.0000000000005 2919.5000000000005 0.062041166735804558 2392.5000000000005 26849.500000000004 26913.500000000004 0.049804045036081997 0.073043857175314406 0.099448964343380755 7368.5000000000009 8196.5000000000018 0.048862505980743605 14120.500000000002 8041.0000000000009 0.063530617624380961 0.052550309580268489 0.018385861040472486 0.01996126950773194 0.019714440545246108 0.097282795513240858 0.069532290599299704 0.061422057797190184
decision_type=2 2 2 2 2 2 2 2 2 2 2 2 2 2 2 2 2 2 2 2 2 2 2 2 2 2 2 2 2 2
left_child=3 2 24 -1 26 7 -4 -6 11 10 -10 -9 14 -14 17 28 27 -11 21 -20 22 -19 -21 -22 25 -2 -3 -17 29 -16
right_child=1 4 6 -5 5 -7 -8 8 9 12 -12 -13 13 -15 15 16 -18 18 19 20 23 -23 -24 -25 -26 -27 -28 -29 -30 -31
leaf_value=0.14211899528985281 -0.011295075121668878 0.067233175845476098 -0.096914751927002968 0.058782207100485401 0.053790446906435696 0.015875744066999844 -0.066253616883919411 -0.037365962686764766 0.13181133159536512 -0.039881154997609462 -0.06072999175266023 -0.097622950183088239 0.093891893401113535 -0.011544546022639591 -0.041611947460731047 -0.011382206374656633 -0.032721708899610256 0.0074132746913368706 -0.026569103755009163 -0.07059779861128937 0.059391027632456551 0.1068415232064448 0.042240940857387603 -0.0031454727247037205 -0.042491989546664083 0.091247751177638226 -0.063010554731524046 0.034475737992498867 -0.070364276704920653 -0.017318729164061544
leaf_weight=8383.2768820894416 633.85896487379796 31.995222219498828 5591.9652998914244 419.18743953958619 150.74683153518708 1010.5692827033345 1906.9580976792786 1495.0378166364389 106.58496946049854 925.41372893063817 32.817332966253161 256.96251246641623 107.75619232514873 812.27171963179717 4703.6650380710489 1103.3052217852091 1154.9524617053685 172.68876852351241 2902.7497862441523 196.06572751951171 358.2312563204905 164.92915557161905 74.237500255694613 309.37208549299976 659.92691933549941 60.204029512242414 1608.2154519903124 325.81173044152092 469.33131990977563 1240.4514605529257
leaf_count=5868 17112 314 469120 6470 1406 11441 116889 72255 1689 33597 1624 14769 3030 36837 263034 37203 78572 4593 120248 4800 6500 954 708 6133 22984 556 71593 6946 14182 68573
internal_value=0 -0.0425687 -0.0788435 0.13815 -0.026279 -0.0231762 -0.0891177 -0.025489 -0.0261957 -0.0238835 0.0864843 -0.0462037 -0.0249077 0.000804459 -0.0265853 -0.0321592 -0.0151379 -0.0167588 -0.0116377 -0.0175821 0.010232 0.0559848 -0.0396072 0.0304112 -0.0219408 -0.00240036 -0.0604699 -0.000927459 -0.0390174 -0.0365423
internal_weight=0 28567.1 8852.91 8802.46 19714.2 18074 7498.92 17063.4 16912.6 15160.6 139.402 1752 15021.2 920.028 14101.2 8997.52 2584.07 5103.69 4178.27 3840.66 937.907 337.618 270.303 667.603 1353.99 694.063 1640.21 1429.12 6413.45 5944.12
internal_count=1500000 1487662 626661 12338 861001 789094 586009 777653 776247 689223 3313 87024 685910 39867 646043 468510 122721 177533 143936 138389 18141 5547 5508 12633 40652 17668 71907 44149 345789 331607
is_linear=0
shrinkage=0.1


Tree=4
num_leaves=31
num_cat=0
split_feature=1 2 1 3 1 3 1 1 2 2 0 0 0 0 2 0 2 0 1 3 3 2 0 0 1 3 3 3 0 1
split_gain=19052.7 1429.4 362.482 328.393 230.818 132.685 113.201 57.1829 105.414 91.8019 60.1499 125.017 92.8667 53.4919 118.168 59.2095 51.0048 55.9649 50.173 48.1806 50.5072 46.3656 45.6352 40.9457 38.4435 36.4496 120.311 40.2287 36.0919 63.0606
threshold=0.017495645627681151 0.027817354061032768 0.018990510714877246 0.027676202131864464 0.016625126924443435 0.1487157774667893 0.02108325623002592 0.05498546192950781 0.037517080358777634 0.057827762815173774 4276.5000000000009 11170.500000000002 3996.5000000000005 13397.500000000002 0.077707457458086868 12444.000000000002 0.015884713926722176 27216.500000000004 0.020072166853364899 0.016949388817063992 0.022704608132673585 0.010158358120444666 11825.000000000002 27832.000000000004 0.019622964628686453 0.061708234292056748 0.061885136503765176 0.059365777455200233 2524.5000000000005 0.044879237328966114
decision_type=2 2 2 2 2 2 2 2 2 2 2 2 2 2 2 2 2 2 2 2 2 2 2 2 2 2 2 2 2 2
left_child=4 2 16 24 21 6 -3 8 -8 -9 12 -12 25 14 -13 22 -2 -18 -5 -6 -21 -1 -16 -7 -4 27 -27 -11 29 -10
right_child=1 5 3 18 19 23 7 9 28 10 11 13 -14 -15 15 -17 17 -19 -20 20 -22 -23 -24 -25 -26 26 -28 -29 -30 -31
leaf_value=0.13953253450641245 -0.043996372608190809 0.07716955143418508 -0.062705918393411705 0.024059248574904251 0.11737810110617475 0.0093048015436194738 -0.034216671324420411 -0.046902753992675073 0.0153606479545989 0.0022241069399035088 -0.055383285016448847 -0.041048366514287671 0.080948194257847397 -0.024009129206200866 0.035095804481063718 0.089571110953815286 -0.00032683953086482513 -0.18524163534016869 -0.053771390307687121 0.015868649500835462 0.11404211385711527 0.12401215195413993 -0.10770419170540416 0.14546280785197838 -0.092408811041553338 0.12605391253925421 -0.018040374069366972 -0.13109573235507743 -0.0056488088413221751 -0.065733222638833744
leaf_weight=5094.0199769143946 531.40743583417498 109.00743849619175 473.76736865311977 84.776155834435485 98.728562991309445 1035.7777884988172 2589.6375658046163 2448.0642260324967 149.59037101262948 40.565464340848848 1277.6536156099173 246.27316770155448 121.50964477274101 3443.7721313283546 84.49956273578573 175.84961385512725 794.25848485555616 16.711495787079912 3601.3545003099134 241.98870432240074 66.889433042437304 3093.8749739935156 30.441335653420538 22.567486504674889 5428.3954995826498 63.607911986298859 650.81330104643712 51.199673883616924 3868.0735481635202 267.13121802243404
leaf_count=2612 19171 686 34468 1410 1055 11266 115190 163463 4627 2223 71455 12885 3214 170145 3152 4155 21011 872 181158 5098 317 3256 2528 103 475766 755 39554 4275 133902 10228
internal_value=0 -0.0404799 -0.0685855 -0.0753992 0.130012 -0.0220575 -0.0243795 -0.0250933 -0.0182881 -0.0305114 -0.0240249 -0.0281666 -0.000548391 -0.0194314 0.0099222 0.0530896 -0.0199164 -0.00413734 -0.0519814 0.0565663 0.0371287 0.133668 -0.00272383 0.0122081 -0.0900246 -0.0128317 -0.00521106 -0.0721607 -0.00866123 -0.036623
internal_weight=0 27606.7 10930.7 9588.29 8595.5 16676 15617.7 15508.7 6874.43 8634.25 6186.19 5258.49 927.696 3980.84 537.064 290.791 1342.38 810.97 3686.13 407.607 308.878 8187.89 114.941 1058.35 5902.16 806.186 714.421 91.7651 4284.8 416.722
internal_count=1500000 1487662 733856 692802 12338 753806 742437 741751 263947 477804 314341 264320 50021 192865 22720 9835 41054 21883 182568 6470 5415 5868 5680 11369 510234 46807 40309 6498 148757 14855
is_linear=0
shrinkage=0.1


Tree=5
num_leaves=31
num_cat=0
split_feature=1 3 1 1 3 3 2 1 1 2 0 1 2 2 0 3 1 3 3 2 1 0 2 0 0 1 0 0 3 0
split_gain=16799.1 1234.22 394.684 215.792 153.08 123.193 114.051 104.941 65.9097 77.7288 50.5048 45.4256 43.3994 42.8249 38.846 38.7423 38.1794 34.9033 37.8731 33.5979 33.0144 32.8354 45.4693 43.3098 81.3435 32.5708 41.354 33.2928 31.7518 30.1
threshold=0.017495645627681151 0.031716272055583576 0.018990510714877246 0.016625126924443435 0.13193824525413272 0.026603574966688172 0.027571542793620171 0.02108325623002592 0.054700544796043186 0.059497902365243167 27832.000000000004 0.018385861040472486 0.05102815912818829 0.020261048714375143 890.50000000000011 0.069091015107578729 0.057361670197638014 0.016949388817063992 0.017653047015059042 0.0084948867240958511 0.019622964628686453 10794.500000000002 0.093532693796954433 19955.500000000004 20472.500000000004 0.15572754646837664 7247.0000000000009 8721.0000000000018 0.057556916339157306 27436.000000000004
decision_type=2 2 2 2 2 2 2 2 2 2 2 2 2 2 2 2 2 2 2 2 2 2 2 2 2 2 2 2 2 2
left_child=3 2 11 19 6 20 -3 -8 12 14 21 13 -9 -2 -10 16 -16 -5 -19 -1 -4 22 -6 -23 -25 -24 -27 -28 -18 -11
right_child=1 4 5 17 10 -7 7 8 9 29 -12 -13 -14 -15 15 -17 28 18 -20 -21 -22 23 25 24 -26 26 27 -29 -30 -31
leaf_value=0.13378029759307705 -0.0084909982170827975 -0.046297374225271769 -0.061940073699226154 0.10413975089691468 -0.11346916388238426 -0.059065177208953878 0.072122813174713737 -0.020013468091836403 -0.11556060312826605 -0.023703068858927326 0.12706846249833934 -0.038233832347680033 0.0016272845067601622 0.082877998705232506 -0.027053312416037756 -0.020641786652244587 -0.14216571412328191 0.0053450517478733578 0.07691977948689846 0.12074980574831398 -0.089924585682182145 0.032713570975477217 -0.040737274112682957 -0.1966507812848739 0.00064291298925813064 0.042729934643204716 -0.16135157106401876 -0.0018018421092239703 -0.05352619472472691 0.018335738574998466
leaf_weight=4189.798908831086 614.07880000004661 2470.1058705678734 464.02907431621861 98.651213281380478 44.972347251139581 2208.2290950750612 114.94957976757723 5104.84046836989 71.152580953203142 4909.727823950001 34.433988625416532 631.80205604215735 1132.2379313585116 55.973615215363679 651.66951390961185 720.05280952510657 41.524673885433003 174.5978411520482 128.21912986508687 3749.5900356986094 4607.0331923822523 564.31767687271349 167.83306936745066 22.079350622370839 390.44576511275955 167.65291282604448 19.539160912274383 39.553771327948198 1508.6029777820513 176.44110639847349
leaf_count=2067 17211 112035 34229 1055 1774 141370 719 189214 6404 258196 226 23039 38759 492 49489 38033 4405 4330 1085 3801 434891 9567 7140 825 7214 1175 227 281 104180 6567
internal_value=0 -0.0384039 -0.0697096 0.124009 -0.0237659 -0.0787792 -0.0264418 -0.0230432 -0.0238074 -0.029769 0.00740628 -0.018997 -0.0160849 -0.000858382 -0.0425555 -0.0407776 -0.0473627 0.0524807 0.0356513 0.127626 -0.0873639 0.00449717 -0.0182008 0.0147106 -0.00991673 -0.00734253 0.0173756 -0.0545572 -0.0559007 -0.0222447
internal_weight=0 26933.3 8581.15 8340.86 18352.1 7279.29 16901.3 14431.2 14316.2 8079.17 1450.83 1301.85 6237.08 670.052 2993 2921.85 2201.8 401.468 302.817 7939.39 5071.06 1416.39 439.551 976.843 412.525 394.579 226.746 59.0929 1550.13 5086.17
internal_count=1500000 1487662 651232 12338 836430 610490 808001 695966 695247 467274 28429 40742 227973 17703 202511 196107 158074 6470 5415 5868 469120 28203 10597 17606 8039 8823 1683 508 108585 264763
is_linear=0
shrinkage=0.1


Tree=6
num_leaves=31
num_cat=0
split_feature=1 3 1 3 1 3 2 1 1 2 2 1 1 0 3 2 0 0 3 1 2 2 3 3 1 0 0 0 1 0
split_gain=14946.5 1060.87 344.568 251.719 201.752 104.968 93.207 89.4876 56.0623 57.5445 56.6211 37.3128 36.4614 40.2421 33.3606 31.5585 31.0204 87.4401 48.9536 37.5412 30.5823 30.2216 28.9994 31.3201 27.7876 27.4434 38.1093 70.6982 45.7417 34.4104
threshold=0.017495645627681151 0.031716272055583576 0.018990510714877246 0.16031615112056033 0.016625126924443435 0.026603574966688172 0.027571542793620171 0.02108325623002592 0.049804045036081997 0.063351565136372037 0.039600638502449277 0.018385861040472486 0.040060860567931053 10665.000000000002 0.076972957969466765 0.055479016112394884 6182.5000000000009 9197.5000000000018 0.044704009501546495 0.029371526540314361 0.020362607023146812 0.011153123159760555 0.016949388817063992 0.022704608132673585 0.019622964628686453 5368.0000000000009 21703.500000000004 18971.000000000004 0.018711564716419014 13166.500000000002
decision_type=2 2 2 2 2 2 2 2 2 2 2 2 2 2 2 2 2 2 2 2 2 2 2 2 2 2 2 2 2 2
left_child=4 2 11 6 21 24 -3 -8 10 -10 16 20 13 14 -12 -14 -9 18 19 -18 -2 -1 -6 -24 -4 -13 27 29 -29 -27
right_child=1 3 5 -5 22 -7 7 8 9 -11 12 25 15 -15 -16 -17 17 -19 -20 -21 -22 -23 23 -25 -26 26 -28 28 -30 -31
leaf_value=0.1269651450329746 -0.0086461079447353352 -0.043568618471424313 -0.059611041472728235 0.037442206066129295 0.096783221497511618 -0.056646820733664331 0.065909045454291618 -0.050546143617102635 -0.034132123783081871 -0.019024422922488678 0.073419190957723174 -0.087662130285620199 -0.011332348698023095 -0.0044367404964196352 -0.2259445937619623 0.040890521988433265 -0.13318761346747848 -0.031110295167292884 -0.080712464037696052 0.041266310155039648 0.069912558060029439 0.11356809982932692 0.016588517901668706 0.095003921774626743 -0.085725011217804542 -0.0090955851894165413 -0.076239748064098056 -0.046209070147264719 0.10757812606421885 -0.076965829926726001
leaf_weight=5183.5229773120955 611.10978891261038 2402.6866442696337 449.4874117479776 664.20228535181377 96.892593986878637 2136.4683233327232 113.99689615308307 405.02865661837859 5508.1570108982269 4649.2680378260557 145.59476584172808 89.298453322713613 2016.9506635512225 180.05457731045317 3.8201744058169416 122.75931002863217 12.812739902175961 1469.7090670111938 41.099884531460702 330.96182823443087 53.927241975499783 2493.9920010243659 232.17655039284728 65.250249238044489 4360.0600650289707 189.87546930149256 124.18040910082345 27.216858917701757 66.833375363436062 123.15318165678764
leaf_count=2949 17239 112035 34229 5746 1055 141370 719 21343 328167 223293 2430 4437 64715 4423 104 1462 536 62380 1494 7583 464 2919 5098 317 434891 6319 5398 1066 774 5045
internal_value=0 -0.0365338 -0.0662893 -0.0229769 0.11903 -0.0750912 -0.0252828 -0.0223539 -0.0230298 -0.027217 -0.0140356 -0.0187326 -0.00356784 0.0273999 0.0657652 -0.00833622 -0.0254742 -0.0199987 0.0224328 0.0347643 -0.00227586 0.122613 0.0492699 0.0337915 -0.0832845 -0.036369 -0.0277472 -0.0129544 0.0630742 -0.0357974
internal_weight=0 26298.7 8231.61 18067.1 8071.83 6946.02 17402.9 15000.2 14886.2 10157.4 4728.79 1285.59 2469.18 329.47 149.415 2139.71 2259.61 1854.58 384.874 343.775 665.037 7677.51 394.319 297.427 4809.55 620.558 531.259 407.079 94.0502 313.029
internal_count=1500000 1487662 651232 836430 12338 610490 830684 718649 717930 551460 166470 40742 73134 6957 2534 66177 93336 71993 9613 8119 17703 5868 6470 5415 469120 23039 18602 13204 1840 11364
is_linear=0
shrinkage=0.1


Tree=7
num_leaves=31
num_cat=0
split_feature=1 3 1 3 1 3 2 1 1 2 2 0 0 0 0 1 1 1 3 3 1 2 0 2 0 1 0 1 2 3
split_gain=13389.6 930.271 321.12 212.001 189.129 105.377 82.7019 78.0742 40.5625 69.9351 50.365 42.1366 32.2489 99.3757 40.8537 40.7088 35.6902 31.5286 31.3833 31.1545 27.9373 41.4168 27.8316 25.4091 25.1767 25.0487 24.4 24.2755 23.7848 34.1041
threshold=0.017495645627681151 0.032056750131818038 0.018990510714877246 0.1487157774667893 0.016625126924443435 0.026603574966688172 0.01985873886476416 0.02043191958729371 0.052710315498911121 0.054599550788965785 0.036148849563552667 2201.5000000000005 19955.500000000004 19853.000000000004 20395.000000000004 0.0608114251919393 0.064548185158012958 0.073871910347858352 0.094763263325786912 0.019634005391302063 0.054700544796043186 0.063876916505253969 10035.500000000002 0.0097460088271469972 26090.500000000004 0.060645806928817311 1402.5000000000002 0.019622964628686453 0.058095951463035415 0.076972957969466765
decision_type=2 2 2 2 2 2 2 2 2 2 2 2 2 2 2 2 2 2 2 2 2 2 2 2 2 2 2 2 2 2
left_child=4 2 19 6 23 27 -3 24 10 11 -9 -10 13 -11 -14 25 -17 -18 28 -2 -16 -22 26 -1 -8 -15 -5 -4 29 -12
right_child=1 3 5 22 -6 -7 7 8 9 12 18 -13 14 15 20 16 17 -19 -20 -21 21 -23 -24 -25 -26 -27 -28 -29 -30 -31
leaf_value=0.12336633184758179 -0.023536317224679807 -0.057900254293060505 -0.057573318412404574 0.05237927566010863 0.046830473295268848 -0.053665865609164337 0.056238881233391269 -0.028091983209018248 -0.092908386417583241 -0.021038426908913579 -0.010883083597789559 -0.03924984196052729 -0.097101549793603081 0.059997324195886693 0.049827101953527082 -0.11605041771731606 0.10580185143094561 -0.065851780683232247 -0.21171512485664518 0.017064980889302483 -0.053439004490803049 -0.02174698650096301 0.036185771481151652 0.11138122015836732 -0.21321697667685613 0.16545393167907455 -0.016564609436279017 -0.082324295324134336 0.032333324903581991 -0.1622717943938973
leaf_weight=4447.8493013856933 1005.5317205129686 707.59521532968211 438.08519165976031 66.309250353486277 386.3916299421544 2281.7638029539157 142.94679830083624 2749.172376479939 156.80465323355747 4618.5332590186445 3777.2623814894469 2194.1792160189652 95.956301931990311 58.178904021391645 42.610031775664538 19.239336737431586 30.529941798653454 16.474471465451643 7.7318472161423406 232.73381171235815 611.2295047986554 1267.4021480570082 640.77112801291514 2936.9264413631754 3.5537683758884659 36.751875721849501 227.28714163048426 4150.8407144892626 128.09303897898644 14.939422796480356
leaf_count=2465 35751 36969 34229 646 6470 147168 1181 114714 12793 269673 129473 136883 7338 633 1324 414 384 674 259 5010 45868 58271 7533 3403 137 70 3190 434891 1792 394
internal_value=0 -0.0347528 -0.0627806 -0.0218493 0.115031 -0.0712286 -0.024446 -0.0229638 -0.0236365 -0.0279619 -0.0177106 -0.0428287 -0.0228196 -0.0183448 -0.0334226 0.058842 -0.00132061 0.0456394 -0.0104449 -0.0159052 -0.0302422 -0.0320583 0.0245033 0.1186 0.0497025 0.100824 -0.000993514 -0.0799614 -0.0100479 -0.0114795
internal_weight=0 25722.5 8108.96 17613.6 7771.17 6870.69 16679.2 15971.6 15825.1 9147.89 6677.2 2350.98 6796.91 4779.71 2017.2 161.175 66.2438 47.0044 3928.03 1238.27 1921.24 1878.63 934.368 7384.78 146.501 94.9308 293.596 4588.93 3920.29 3792.2
internal_count=1500000 1487662 657049 830613 12338 616288 819244 782275 780957 534325 246632 149676 384649 271848 112801 2175 1472 1058 131918 40761 105463 104139 11369 5868 1318 703 3836 469120 131659 129867
is_linear=0
shrinkage=0.1


Tree=8
num_leaves=31
num_cat=0
split_feature=1 3 1 3 1 3 2 1 1 1 2 2 3 3 1 0 2 3 0 2 2 0 3 2 3 1 0 0 0 0
split_gain=12042.4 818.082 286.873 203.351 179.036 70.5925 70.1213 70.0823 41.1891 35.6065 67.2385 35.3932 31.5286 47.0987 37.193 31.0088 28.2973 26.5462 26.1873 24.1173 23.8962 23.6517 23.4251 25.2402 23.3797 35.0003 23.7416 28.3318 24.5127 44.3154
threshold=0.017495645627681151 0.031716272055583576 0.018862938295192849 0.14134593242834295 0.016625126924443435 0.025459758040579403 0.027571542793620171 0.02108325623002592 0.019622964628686453 0.054700544796043186 0.057827762815173774 0.037517080358777634 0.034274731124906095 0.03359091530596419 0.033663581928644187 25896.500000000004 0.020261048714375143 0.16031615112056033 22389.000000000004 0.013380844533570259 0.011153123159760555 6487.5000000000009 0.016949388817063992 0.01469061776934587 0.13609609017243288 0.13241125012544144 22749.500000000004 10910.000000000002 13166.500000000002 16404.500000000004
decision_type=2 2 2 2 2 2 2 2 2 2 2 2 2 2 2 2 2 2 2 2 2 2 2 2 2 2 2 2 2 2
left_child=4 2 16 6 20 8 19 -8 -4 11 -11 12 13 15 21 18 -2 -5 -9 -3 -1 -15 -6 -24 25 -12 27 -27 -29 -30
right_child=1 3 5 17 22 -7 7 9 -10 10 24 -13 -14 14 -16 -17 -18 -19 -20 -21 -22 -23 23 -25 -26 26 -28 28 29 -31
leaf_value=0.11922780356759466 -0.017271098813090031 -0.11263438462173281 -0.051691532043415533 0.0015453962953332241 0.088371618063941823 -0.055169928774362068 0.058358825326794608 -0.034613766240061065 -0.080692984329573461 -0.040678653518834075 -0.02076122199377398 -0.010969958495123118 -0.036064425919888711 -0.16427905496963657 -0.01953642539875667 -0.11777400364118439 0.043150578921978336 0.033868380992256718 0.028209322144306315 -0.038641219083267717 0.10681309410174369 0.073612928840650155 -0.015543472006062832 0.049668796519065646 -0.073585597908928935 -0.065950087608733818 -0.12419123549648503 0.13976976727519774 -0.185058197204513 0.07821607611219944
leaf_weight=4783.8643884651829 986.39310659746116 44.920587458735099 570.69274729591416 419.02755147102289 93.044327854760922 2496.3788720240409 109.54691278369864 286.88327577785822 3451.2490630491957 2317.4247858700401 5504.6779211319226 4155.4283518858429 1320.4086055460066 4.3321916740678708 89.550640864064917 35.591144284349866 84.120340133580612 645.49326033779653 86.315203471807763 2272.7491592412116 2293.8885634259204 118.42098670988344 83.812679448645213 203.3640137330658 81.679165401030332 16.331397935980931 8.1921200840733928 35.515469747013412 7.9899118645116678 31.998519189655781
leaf_count=2949 34169 1560 39226 11451 1055 193998 719 10529 382647 169087 300765 143186 64949 369 3864 1488 1192 5746 2015 110475 2919 1578 2567 2848 5143 1435 563 266 489 753
internal_value=0 -0.0330566 -0.0604998 -0.0212184 0.111613 -0.0683791 -0.0239469 -0.0213164 -0.0765778 -0.0219354 -0.0263212 -0.0161779 -0.0273245 -0.00874394 0.0294678 -0.0285891 -0.0125232 0.0211451 -0.0200837 -0.0400753 0.115204 0.0652173 0.044765 0.0306366 -0.02047 -0.019696 0.0389267 0.0534776 0.0793097 0.0256124
internal_weight=0 25181.3 7588.83 17592.5 7457.97 6518.32 16528 14210.3 4021.94 14100.7 8003.81 6096.93 1941.5 621.093 212.304 408.79 1070.51 1064.52 373.198 2317.67 7077.75 122.753 380.221 287.177 5686.38 5604.71 100.027 91.8353 75.5039 39.9884
internal_count=1500000 1487662 651232 836430 12338 615871 819233 707198 421873 706479 478501 227978 84792 19843 5811 14032 35361 17197 12544 112035 5868 1947 6470 5415 309414 304271 3506 2943 1508 1242
is_linear=0
shrinkage=0.1


Tree=9
num_leaves=31
num_cat=0
split_feature=1 3 1 3 1 3 2 1 0 1 3 1 0 0 0 0 0 0 0 0 0 0 0 1 3 0 0 2 0 1
split_gain=10863.9 719.173 254.28 181.063 169.658 72.0832 61.7039 58.8234 32.5887 31.4322 36.1857 63.907 49.1109 44.032 43.403 64.2131 40.5939 42.6465 53.5702 77.2012 50.2047 96.9803 42.2502 32.2483 31.1164 28.5963 33.8625 30.5377 35.4999 26.3205
threshold=0.017495645627681151 0.031716272055583576 0.018990510714877246 0.13193824525413272 0.016625126924443435 0.025459758040579403 0.027817354061032768 0.018990510714877246 27047.000000000004 0.053133639212132037 0.086202664723571965 0.091156278286149958 27832.000000000004 24670.000000000004 1601.0000000000002 2392.5000000000005 3167.0000000000005 5368.0000000000009 12444.000000000002 13876.000000000002 16984.000000000004 18971.000000000004 18766.000000000004 0.10306844244847752 0.12644871490466136 4276.5000000000009 4172.0000000000009 0.070516535388492438 20724.500000000004 0.020072166853364899
decision_type=2 2 2 2 2 2 2 2 2 2 2 2 2 2 2 2 2 2 2 2 2 2 2 2 2 2 2 2 2 2
left_child=4 2 -2 6 -1 -4 29 -8 -5 -9 -11 12 13 25 -13 24 -17 -18 23 -20 -21 22 -22 -19 -16 26 -12 28 -27 -3
right_child=1 3 5 8 -6 -7 7 9 -10 10 11 14 -14 -15 15 16 17 18 19 20 21 -23 -24 -25 -26 27 -28 -29 -30 -31
leaf_value=0.11235382163562135 -0.016006290685242914 0.022598700416545207 -0.075054767402153791 0.011643728227692956 0.043046944161398377 -0.052801368063363253 0.092446238356281185 -0.015382909234839868 0.077251995945055274 -0.029470356125131304 0.026930440380414641 -0.09945412476521133 0.14075692648615984 -0.078088200708558764 0.012145986210811914 -0.1392723351021585 0.028670833445171035 -0.022965289397482734 0.046275981969073191 -0.077487312805166242 0.019288112415933301 -0.036221983389080011 0.13413261510490704 -0.086629086167195779 0.13185793899131273 -0.087991077162019343 0.16138634830084705 0.017289612418417231 0.059949596752622951 -0.040160155399435377
leaf_weight=6755.828198922798 1212.3777592990591 68.859913743450306 3645.6572899336024 1202.0901112629799 372.68438511007116 2423.0412001981604 45.785236305324361 5664.4767744842684 80.798214956070296 5654.7392347817877 63.429210867034271 74.117106991237961 28.526220965199172 55.859432527562603 53.243980002123863 30.963431443087757 141.74665088870097 125.55720482312609 159.58575458824635 173.71511586452834 112.21501301368698 598.39077696134336 44.831894428003579 217.20916694449261 36.664251301437616 62.230776032432914 26.580121139995754 370.81245889840648 21.938031496712938 2262.2197873738405
leaf_count=5868 40742 887 416590 27305 6470 193900 138 205894 1124 350758 2379 7714 115 2685 3450 3271 6687 6886 5006 14036 5549 39875 760 23162 567 3279 59 10864 670 113310
internal_value=0 -0.0314339 -0.0578169 -0.0203789 0.10873 -0.0661697 -0.023261 -0.0207126 0.0157758 -0.0210904 -0.0251053 -0.0148104 0.0125549 0.00646835 -0.0245506 -0.0212736 -0.0258826 -0.0236509 -0.0288318 -0.0179775 -0.0290133 -0.0178666 0.0520726 -0.0633087 0.0609641 0.0151351 0.0666358 0.00494664 -0.0494313 -0.0383063
internal_weight=0 24657.7 7281.08 17376.6 7128.51 6068.7 16093.7 13762.6 1282.89 13716.8 8052.36 2397.62 629.376 600.85 1768.24 1694.12 1604.22 1573.25 1431.5 1088.74 929.153 755.438 157.047 342.766 89.9082 544.991 90.0093 454.981 84.1688 2331.08
internal_count=1500000 1487662 651232 836430 12338 610490 808001 693804 28429 693666 487772 137014 20051 19936 116963 109249 105232 101961 95274 65226 60220 46184 6309 30048 4017 17251 2438 14813 3949 114197
is_linear=0
shrinkage=0.1


Tree=10
num_leaves=31
num_cat=0
split_feature=1 2 1 1 3 2 1 2 1 3 3 1 2 0 0 0 2 0 0 0 0 0 0 0 0 3 2 2 0 0
split_gain=9810.16 635.652 184.238 163.658 154.644 146.124 52.2423 34.2602 36.872 64.4708 38.1006 33.8397 29.1472 35.3389 29.6899 75.0749 50.5434 45.3075 31.0195 29.8344 103.104 32.7553 30.6909 49.6579 30.1283 29.1572 27.8857 26.7828 26.4839 26.6752
threshold=0.017495645627681151 0.027817354061032768 0.019341924008742028 0.016625126924443435 0.029084501866755017 0.11589362122618053 0.02108325623002592 0.032527400341923453 0.054382547882017795 0.073775204154444704 0.074759445807863353 0.018385861040472486 0.054599550788965785 1328.5000000000002 22389.000000000004 19853.000000000004 0.065530635892024222 19955.500000000004 26755.000000000004 2919.5000000000005 2795.0000000000005 3731.0000000000005 4172.0000000000009 4381.5000000000009 1537.0000000000002 0.061885136503765176 0.074465660044837054 0.066176213590879884 6987.5000000000009 14120.500000000002
decision_type=2 2 2 2 2 2 2 2 2 2 2 2 2 2 2 2 2 2 2 2 2 2 2 2 2 2 2 2 2 2
left_child=3 2 11 -1 -4 6 -3 -8 -9 12 26 -2 -10 -14 15 19 18 -17 -16 20 24 -21 -23 -24 -15 -22 -11 -19 -25 -30
right_child=1 5 4 -5 -6 -7 7 8 9 10 -12 -13 13 14 16 17 -18 27 -20 21 25 22 23 28 -26 -27 -28 -29 29 -31
leaf_value=0.10986267123576213 -0.0013859863748772086 0.052155764126306063 -0.069019127162292929 0.041072199594000519 -0.039100760862558981 0.014768980265991688 -0.035155792066517852 -0.01269339226873919 -0.047724880299607114 0.044952613457379609 -0.015965760668894522 -0.032362023057163777 -0.088276800092203289 0.022603065818303913 -0.089830312166198398 0.060074161910302654 -0.00035842277707161599 0.0067282545536488511 -0.031672643120226392 -0.093475072190772224 0.11353244802710408 0.015937443355381786 -0.15647099393577449 0.00071716448693282323 -0.059453835630282052 -0.17841472933397609 -0.10283812102908152 -0.074385677475809361 -0.052084071794581466 -0.023608098723480589
leaf_weight=6427.4166789668379 640.64448656683817 98.149001070429222 4575.8124735621823 365.51270077085064 2775.6240040063494 1277.9153350333218 1534.4630905805607 5015.3922103156219 935.20891382798436 154.96341529418714 3183.0364424602012 784.59476046853524 93.206216735765338 63.628557572723366 231.12091310881078 153.9661051731091 163.61810196051374 237.10052719106898 152.04285569232889 88.035538293421268 73.261371632572263 129.15995023865253 32.830645587062463 211.03321035744739 150.76933660311624 3.5884401805233201 13.913205698598174 49.143856241600588 639.74069002846954 677.18457732268143
leaf_count=5868 17841 686 527021 6470 148056 41378 76278 188371 73005 4332 163043 40938 8764 2894 26523 1352 6925 14460 9289 6277 545 3705 1758 14930 11737 341 498 2337 51355 43023
internal_value=0 -0.0298745 -0.0513437 0.106161 -0.0577231 -0.0176091 -0.0205468 -0.021057 -0.0193196 -0.0237884 -0.01351 -0.0184383 -0.032223 -0.0276198 -0.02577 -0.0211692 -0.0468851 0.016331 -0.0667528 -0.029147 0.000520854 -0.0340069 -0.030909 -0.0347856 -0.0351012 0.0999002 0.0327766 -0.00719779 -0.032171 -0.0374413
internal_weight=0 24139.1 8776.68 6792.93 7351.44 15362.5 14084.6 13986.4 12451.9 7436.55 3351.91 1425.24 4084.64 3149.43 3056.22 2509.44 546.782 440.21 383.164 2069.23 291.248 1777.98 1689.95 1560.79 214.398 76.8498 168.877 286.244 1527.96 1316.93
internal_count=1500000 1487662 733856 12338 675077 753806 712428 711742 635464 447093 167873 58779 279220 206215 197451 154714 42737 18149 35812 136565 15517 121048 114771 111066 14631 886 4830 16797 109308 94378
is_linear=0
shrinkage=0.1


Tree=11
num_leaves=31
num_cat=0
split_feature=1 2 1 2 3 1 3 1 3 3 3 1 0 1 2 2 0 1 0 0 0 0 0 0 0 0 0 0 0 0
split_gain=8878.18 443.258 374.125 134.019 113.92 56.4701 51.4037 50.9936 49.1632 27.2717 26.6151 54.086 49.7425 42.6688 47.2513 42.5259 41.4894 29.6381 26.2817 27.0903 63.3039 53.0271 25.9235 28.9005 28.8011 37.3965 25.7407 46.7066 42.0067 47.5459
threshold=0.016625126924443435 0.027817354061032768 0.01858012359558139 0.10971731406207898 0.028876449092726231 0.019622964628686453 0.016949388817063992 0.018990510714877246 0.018567559417044858 0.025345471860862338 0.086202664723571965 0.099448964343380755 27832.000000000004 0.055623492895432392 0.036148849563552667 0.057827762815173774 27318.000000000004 0.15572754646837664 5368.0000000000009 21703.500000000004 19853.000000000004 20117.500000000004 23633.500000000004 21779.500000000004 21971.000000000004 22749.500000000004 21703.500000000004 19853.000000000004 26755.000000000004 26913.500000000004
decision_type=2 2 2 2 2 2 2 2 2 2 2 2 2 2 2 2 2 2 2 2 2 2 2 2 2 2 2 2 2 2
left_child=-1 2 6 7 5 18 -2 -3 -8 -7 13 12 16 14 22 -15 -12 -13 -4 20 -20 -22 23 -9 -25 -26 27 -17 -28 -30
right_child=1 3 4 -5 -6 9 8 10 -10 -11 11 17 -14 15 -16 26 -18 -19 19 -21 21 -23 -24 24 25 -27 28 -29 29 -31
leaf_value=0.10772356552112106 0.082892490401044946 0.082003309546767142 -0.082185913725545526 0.011120742278175307 -0.037168925992524353 -0.072569151298293347 -0.011613299901623905 -0.029259932671985862 0.036253323615215091 -0.054777652261264388 0.0028717847642346782 -0.034280689060188177 0.12817818017278895 -0.042541700125130914 -0.011395639007587902 -0.024046580453346601 -0.18779739480122792 0.021891223350037445 -0.035361315829128659 -0.06677328940662712 0.13412924761073014 -0.019721320688396566 -0.056538201637220745 0.092335584943858073 -0.095275301519042843 0.020762358401887407 -0.060695474332568403 0.013761801927819848 0.064662924424453858 -0.034714774878035079
leaf_weight=6094.7167200116091 86.022201718391443 48.596587360843841 114.17273079140432 1513.7488958555041 2799.3878966314733 2852.3563860020258 730.81324730192136 1644.100877541583 303.75838029178703 1234.4231184363925 1098.5650945552625 835.54838029656094 31.574686292791739 1671.1148099172424 4448.20783387337 2152.3491259374132 11.532167040975763 105.82897095446242 421.6586373611608 155.77331847739697 44.796878497581929 44.813866412136122 303.90607222697872 36.127216519322246 36.486701299072593 116.30486176913837 399.37241130659822 385.2188153648749 65.703401882434264 180.13281489873771
leaf_count=5868 1055 174 10356 58463 152658 376597 23822 79992 5576 129125 37062 68432 159 134533 170748 125134 690 1226 26459 11806 391 2445 16951 731 2632 3520 31310 12615 1413 8057
internal_value=0 -0.0275023 -0.0453548 -0.0171016 -0.0532428 -0.0624862 0.00861658 -0.0202497 0.00244072 -0.0671952 -0.0206172 -0.0102207 0.00441135 -0.0225104 -0.0172668 -0.0296241 0.000891031 -0.0279659 -0.0378519 -0.0302636 -0.0191399 0.0571894 -0.0294883 -0.0250035 0.0120386 -0.00694749 -0.0228417 -0.018307 -0.0406764 -0.0081546
internal_weight=0 23872.4 8787.98 15084.4 7667.38 4867.99 1120.59 13570.7 1034.57 4086.78 13522.1 2083.05 1141.67 11439 6585.13 4853.89 1110.1 941.377 781.215 667.043 511.269 89.6107 2136.93 1833.02 188.919 152.792 3182.78 2537.57 645.209 245.836
internal_count=1500000 1494132 740290 753842 709837 557179 30453 695379 29398 505722 695205 107569 37911 587636 274574 313062 37752 69658 51457 41101 29295 2836 103826 86875 6883 6152 178529 137749 40780 9470
is_linear=0
shrinkage=0.1


Tree=12
num_leaves=31
num_cat=0
split_feature=1 2 1 2 3 1 1 3 3 2 1 1 2 3 1 2 2 0 0 2 2 0 0 0 0 0 0 0 0 1
split_gain=8040.19 395.368 337.421 117.787 112.267 76.888 56.2986 39.9943 46.2 25.2577 24.5791 23.9785 60.8797 34.773 33.0238 39.6196 35.8507 31.7927 153.332 55.1068 31.3278 36.743 28.4335 25.0855 45.0755 29.1866 25.6216 26.2128 50.7899 23.6159
threshold=0.016625126924443435 0.029993033362248414 0.018385861040472486 0.10971731406207898 0.027676202131864464 0.019622964628686453 0.020072166853364899 0.016949388817063992 0.023222800748340766 0.011153123159760555 0.020580656891945753 0.045426420630897413 0.044094666806976525 0.069091015107578729 0.057361670197638014 0.057827762815173774 0.035224318231665289 8041.0000000000009 8196.5000000000018 0.035224318231665289 0.035669079577218724 7169.0000000000009 1601.0000000000002 12659.500000000002 7169.0000000000009 12769.500000000002 8041.0000000000009 11519.500000000002 11420.500000000002 0.067896636343874689
decision_type=2 2 2 2 2 2 2 2 2 2 2 2 2 2 2 2 2 2 2 2 2 2 2 2 2 2 2 2 2 2
left_child=9 2 7 11 5 -4 -6 -2 -9 -1 -8 12 17 14 22 16 -16 20 19 -19 -3 -22 -13 24 -24 -25 -26 28 -28 -17
right_child=1 3 4 -5 6 -7 10 8 -10 -11 -12 13 -14 -15 15 29 -18 18 -20 -21 21 -23 23 25 26 -27 27 -29 -30 -31
leaf_value=0.11040188677422558 0.079537636687502231 -0.014843332772736334 -0.033198358253552052 0.010677072342109628 0.029572734668547807 -0.066206707309051913 -0.18189699471730167 -0.0019678905341823962 0.063885270341176262 0.09623718169118399 -0.038021885482272824 0.024655035833365424 0.020308562466643421 -0.013730975879922292 0.0041699889297860367 -0.022747280581992119 -0.05885945042148924 -0.21628937885920863 -0.018224582128430027 0.11704098886736425 -0.046696183392946525 -0.15533775400528499 -0.015247735338441357 0.072712309104361092 -0.10913290203903009 -0.016188200424441853 -0.042976886177926485 -0.098663855596792624 0.13511061339075114 -0.073536928908698937
leaf_weight=3898.5067370464094 83.300748516849126 337.09302840401506 880.99755576268581 1523.2273342699045 125.67476519622505 3546.2848505945731 11.912303129935024 773.55373675303417 123.5492995776076 1859.221758746542 3688.0365319016819 141.12418907531537 516.37279729451984 3792.2925226217485 102.00744121774915 1638.518780278624 782.43397493342491 5.1971887471154323 1654.0963870035775 108.54009786201641 289.83084691142722 34.876276009250432 612.12397294596303 37.650110829155892 76.461539527750574 1929.7708582313207 318.84729353094008 77.177706197995576 16.861258390359581 96.967029907274991
leaf_count=2949 1055 16052 57290 58463 1932 475766 830 22088 1164 2919 221553 9226 12746 186599 6333 108553 74804 213 76341 313 13881 1411 29694 768 4563 83300 17718 4867 425 6184
internal_value=0 -0.0261237 -0.0422076 -0.0155848 -0.0487964 -0.0596383 -0.0362493 0.013256 0.00710143 0.105828 -0.0384851 -0.0187677 -0.0108737 -0.0211845 -0.026033 -0.0343638 -0.0515899 -0.0175009 -0.0105019 0.10181 -0.036197 -0.0583652 -0.0192336 -0.0212518 -0.033335 -0.0144869 -0.0559603 -0.0461134 -0.0340323 -0.0255851
internal_weight=0 23324.8 9233.31 14091.5 8252.91 4427.28 3825.62 980.404 897.103 5757.73 3699.95 12568.2 2946.01 9622.24 5829.94 2619.93 884.441 2429.63 1767.83 113.737 661.8 324.707 3210.02 3068.89 1101.47 1967.42 489.348 412.886 335.709 1735.49
internal_count=1500000 1494132 781678 712454 757371 533056 224315 24307 23252 5868 222383 653991 120957 533034 346435 195874 81137 108211 76867 526 31344 15292 150561 141335 57267 84068 27573 23010 18143 114737
is_linear=0
shrinkage=0.1


Tree=13
num_leaves=31
num_cat=0
split_feature=1 3 1 2 3 1 1 2 2 1 2 3 1 2 3 2 3 1 0 2 2 2 0 0 3 0 0 0 3 0
split_gain=7289.14 348.781 316.265 124.366 77.5577 62.5238 57.117 34.4402 30.9694 29.7714 34.3672 32.7296 33.1073 32.3249 30.749 24.3931 24.3399 83.1837 31.4973 30.124 26.6996 24.2996 22.9804 23.333 22.8675 22.7717 70.5438 55.5974 29.062 22.2159
threshold=0.016625126924443435 0.03359091530596419 0.018990510714877246 0.10971731406207898 0.025459758040579403 0.017880668656167529 0.02043191958729371 0.032993693648787258 0.019567390420813405 0.049804045036081997 0.050621778811663284 0.066420359045282915 0.056546480214689061 0.056396860690282054 0.067049974257478481 0.014061632785617154 0.033916345575971833 0.033663581928644187 11825.000000000002 0.025815066066801527 0.030351557343123687 0.011153123159760555 22389.000000000004 26755.000000000004 0.032056750131818038 13166.500000000002 12944.000000000002 15846.000000000002 0.11830920097814558 11170.500000000002
decision_type=2 2 2 2 2 2 2 2 2 2 2 2 2 2 2 2 2 2 2 2 2 2 2 2 2 2 2 2 2 2
left_child=21 2 5 6 -4 15 -3 16 24 10 -9 12 -11 -14 29 -2 17 18 -8 -20 -21 -1 -15 -24 -6 26 28 -27 -5 -13
right_child=1 3 4 25 8 -7 7 9 -10 11 -12 14 13 22 -16 -17 -18 -19 19 20 -22 -23 23 -25 -26 27 -28 -29 -30 -31
leaf_value=0.10885788269623087 -0.0089021640461721084 0.04799686455439741 -0.064826417302747408 -0.049294330857593605 -0.05110196056527401 -0.016807389983911802 0.081397679169353282 -0.013190139251403991 -0.035255471992365894 -0.01678950791944581 0.019728188361334418 -0.044884814083703359 -0.05552225755138597 -0.023372767157371521 -0.016157719283767746 0.03947184905980846 -0.033104419812674708 -0.1197015483464141 -0.18167813830228616 0.075261450275948202 -0.21161197064262574 0.094548240257332078 -0.087488220195343677 -0.024188671555425575 -0.097544713081418599 -0.067430171356339372 0.13216007644173078 0.0095423140740488691 0.022203942383434622 0.060605472804879351
leaf_weight=3668.5516377886488 143.41466907090398 125.13224499912758 2925.7416526802754 63.437305086990818 657.43358191607695 941.78757986216806 85.152013316583179 3161.7831133751752 2072.0074572905978 1647.5630193177058 352.51283021271229 25.842020101612434 591.48250543771428 1395.8578692773881 3958.7733488682134 381.63714189872553 2329.2979449357808 38.699440399112063 9.7019668902503309 19.602263125125322 3.8877731282263985 1754.1296459227451 121.99289159476757 111.41830646782182 126.40289213446522 107.05846221419051 55.88329597748816 759.96324226038996 547.52526672591921 87.762296387925744
leaf_count=2949 5073 1177 416590 7224 60911 34961 819 121778 157792 90475 5876 2056 59506 97565 203751 7205 134119 1908 552 272 159 2919 18615 6470 4772 5676 197 25959 19407 3267
internal_value=0 -0.0247366 -0.0428621 -0.0163149 -0.0533835 -0.00139195 -0.0192633 -0.019867 -0.0416604 -0.0175514 -0.00988816 -0.0209429 -0.0275301 -0.0354986 -0.0146857 0.0262588 -0.0305353 0.00756958 0.0491883 -0.033443 0.0277818 0.104229 -0.0282293 -0.0572723 -0.0585914 0.0107235 0.0246169 3.78739e-05 0.0147802 0.0366092
internal_weight=0 22848.8 7248.42 15600.3 5781.59 1466.84 14066.5 13941.3 2855.84 11455 3514.3 7940.69 3868.31 2220.75 4072.38 525.052 2486.34 157.043 118.344 33.192 23.49 5422.68 1629.27 233.411 783.836 1533.87 666.846 867.022 610.963 113.604
internal_count=1500000 1494132 687304 806828 640065 47239 748365 747188 223475 609359 127654 481705 272631 182156 209074 12278 137829 3710 1802 983 431 5868 122650 25085 65683 58463 26828 31635 26631 5323
is_linear=0
shrinkage=0.1


Tree=14
num_leaves=31
num_cat=0
split_feature=1 2 1 2 3 1 1 1 0 3 3 2 1 2 3 2 2 0 0 1 0 2 3 3 0 0 0 0 2 1
split_gain=6603.28 302.597 273.406 112.445 78.47 63.9662 44.7727 39.5424 36.6791 35.9048 30.664 23.7646 22.7119 31.7554 23.2778 33.6223 22.1979 21.0018 22.534 20.6335 22.3807 21.326 24.667 27.149 24.116 79.8374 52.2086 33.0787 32.956 26.3513
threshold=0.016625126924443435 0.027817354061032768 0.018385861040472486 0.0835899028717485 0.028876449092726231 0.019622964628686453 0.021968982419754011 0.15572754646837664 1183.5000000000002 0.016949388817063992 0.026203543806695907 0.011153123159760555 0.053133639212132037 0.037517080358777634 0.08122664850102003 0.063876916505253969 0.015734316622383771 8041.0000000000009 28069.000000000004 0.091156278286149958 27832.000000000004 0.10971731406207898 0.099956958783308902 0.094763263325786912 13166.500000000002 12444.000000000002 5460.5000000000009 15846.000000000002 0.12825442862599659 0.13241125012544144
decision_type=2 2 2 2 2 2 2 2 2 2 2 2 2 2 2 2 2 2 2 2 2 2 2 2 2 2 2 2 2 2
left_child=11 2 9 6 5 -4 -3 8 -5 -2 -11 -1 13 -8 15 -15 -7 -16 -19 20 -10 22 23 -21 25 26 29 -26 -28 -23
right_child=1 3 4 7 -6 16 12 -9 19 10 -12 -13 -14 14 17 -17 -18 18 -20 21 -22 24 -24 -25 27 -27 28 -29 -30 -31
leaf_value=0.10750640586317826 0.076151974402638711 0.04166506524748393 -0.029379009144326673 -0.087495450905339278 -0.032322820170125909 -0.073702961575165524 -0.024980569991098614 0.026603032809035781 0.014608883537945348 -4.744034670083359e-05 0.068974166621965677 0.092913796198623347 -0.023953062296928153 -0.0094993694673368902 0.024215219448611467 0.10888231735820884 -0.05550153699135995 -0.18040631513568442 0.1503081398598258 -0.038383888985376487 0.1327027285666029 0.05642269998882507 -0.034914001716703107 0.026952830926978644 -0.083306567870856593 0.09362293209979089 -0.089489647729228017 -0.0019319247013162542 -0.00048426808254326453 -0.045622891773057922
leaf_weight=3440.7155586293738 78.689494054509851 120.32099435117561 833.70662734454891 49.881431595887989 2611.5440642859176 903.43845770723783 2079.0521722523117 586.13359849498374 389.58663965482265 789.57491655580816 70.07929321321717 1651.7505853833281 5981.7785988751639 3561.8796591209393 10.476538574206641 24.15428127348423 2593.5918387287347 20.384593454189602 2.2919619008898726 98.589881461113691 16.737366762012243 130.43216313770972 405.79638940363657 179.18198940414004 55.946436254773289 112.95754788024351 79.839444565586746 466.38254665629938 86.859509297413751 31.39672719151713
leaf_count=2949 1055 1159 57535 5697 152758 132271 112362 5196 12418 22634 586 2919 391960 123022 205 198 373451 696 2 3921 82 5840 39967 5738 5321 1339 9962 23578 3381 1798
internal_value=0 -0.0233953 -0.0391659 -0.0148183 -0.0460137 -0.0542697 -0.019024 0.0036331 -0.00276713 0.0114975 0.00557922 0.102773 -0.0196492 -0.0151311 -0.00947311 -0.00870199 -0.0602038 -0.0928817 -0.14698 -0.000709207 0.0194734 -0.00568722 -0.0191975 0.0037628 0.00389469 0.0211003 -0.00383511 -0.0106479 -0.0431129 0.0366246
internal_weight=0 22370.7 7880.62 14490.1 6942.28 4330.74 11800.3 2689.72 2103.59 938.344 859.654 5092.47 11680 5698.24 3619.19 3586.03 3497.03 33.1531 22.6766 2053.71 406.324 1647.38 683.568 277.772 963.814 441.485 328.528 522.329 166.699 161.829
internal_count=1500000 1494132 740290 753842 716015 563257 629604 124238 119042 24275 23220 5868 628445 236485 124123 123220 505722 903 698 113345 12500 100845 49626 9659 51219 22320 20981 28899 13343 7638
is_linear=0
shrinkage=0.1


Tree=15
num_leaves=31
num_cat=0
split_feature=1 2 1 3 3 1 1 3 2 2 2 3 2 1 2 1 1 0 0 0 2 1 2 2 3 1 3 0 0 2
split_gain=5976.62 259.24 246.696 106.958 67.0502 56.6722 36.8364 31.351 25.9058 24.3595 23.8527 22.2563 19.2503 35.6738 32.835 26.856 22.4616 20.5898 30.7508 26.4371 24.3677 20.1267 22.5378 26.4799 22.266 19.4013 19.0005 19.3986 19.0419 18.2468
threshold=0.016625126924443435 0.027817354061032768 0.018385861040472486 0.12644871490466136 0.028876449092726231 0.019622964628686453 0.02108325623002592 0.016949388817063992 0.019381749160999915 0.10193488598805006 0.0084948867240958511 0.023128591405685253 0.069532290599299704 0.054700544796043186 0.036148849563552667 0.057556916339157306 0.051457455545009738 27780.000000000004 27895.500000000004 27713.500000000004 0.093532693796954433 0.10988898823681417 0.043479301297726834 0.057205337455077152 0.11663700389005162 0.077717861066468663 0.073775204154444704 1537.0000000000002 5912.0000000000009 0.015884713926722176
decision_type=2 2 2 2 2 2 2 2 2 2 2 2 2 2 2 2 2 2 2 2 2 2 2 2 2 2 2 2 2 2
left_child=10 2 7 6 5 29 -3 -2 -9 -5 -1 -7 13 14 16 -14 -8 19 -19 25 -20 -15 -23 -24 -25 26 27 -17 -29 -4
right_child=1 3 4 9 -6 11 12 8 -10 -11 -12 -13 15 21 -16 17 -18 18 20 -21 -22 22 23 24 -26 -27 -28 28 -30 -31
leaf_value=0.10807207453589047 0.072886595167513432 0.045724828364154452 -0.047214215164749621 -0.018418578847545997 -0.0309998585935089 -0.066488631842107002 -0.023496129955329834 -0.00089673569671885358 0.050860908439480823 0.01722183466520574 0.09389888178735184 -0.049987743497129235 -0.18956885804847495 -0.027465361449573723 -0.0094548996725682573 -0.18233832356699115 -0.089540711273697005 0.09681201549900581 -0.19064506627900971 -0.16038040603885692 0.019290166508091205 -0.044291465491822737 0.11892363475820328 0.048247528974359855 -0.10745683193195799 -0.015618509483722308 0.015129887948340241 0.04101864331269392 -0.032808977440514836 -0.016368779756519257
leaf_weight=2538.6487486907135 76.203252017157865 92.76567530851753 308.37642355058779 227.57080532354303 2551.6178201224102 1495.667556064891 1842.6724016432636 734.45946128680225 111.36824662370782 1219.0561410933733 2230.8693651423091 1802.4981202997642 8.2546837558038515 4199.5691155725508 4146.819535978153 7.2227468811906865 52.975680320316314 43.329394935397431 7.5902020898647633 11.709298141067846 20.359569144202396 40.605986636132002 30.866060575237498 27.666844266932458 13.747928450815378 1650.5118113522185 484.23574981221464 45.688092856900766 148.44985913205892 507.22997874364955
leaf_count=2067 1055 722 24441 9383 152758 243497 98678 22035 1185 30823 3801 262225 591 307644 155586 541 3408 670 419 1334 894 4233 914 1318 1534 109031 16020 1578 8521 33094
internal_value=0 -0.0220837 -0.0370284 -0.0141662 -0.0437349 -0.0516339 -0.0170629 0.0114528 0.00591808 0.0116152 0.101443 -0.0574706 -0.0175186 -0.0193975 -0.014439 -0.00950327 -0.0253418 -0.00888883 0.0440593 -0.0104963 -0.0377211 -0.0263453 0.0153229 0.0488131 -0.00343964 -0.00974506 0.00439475 -0.0214213 -0.0154345 -0.0280313
internal_weight=0 21909.1 7587.42 14321.7 6665.39 4113.77 12875 922.031 845.828 1446.63 4769.52 3298.17 12782.3 10354.9 6042.47 2427.35 1895.65 2419.1 71.2792 2347.82 27.9498 4312.46 112.887 72.2808 41.4148 2336.11 685.596 201.361 194.138 815.606
internal_count=1500000 1494132 740290 753842 716015 563257 713636 24275 23220 40206 5868 505722 712914 573315 257672 139599 102086 139008 1983 137025 1313 315643 7999 3766 2852 135691 26660 10640 10099 57535
is_linear=0
shrinkage=0.1


Tree=16
num_leaves=31
num_cat=0
split_feature=1 2 1 2 3 1 1 2 1 1 1 3 3 0 0 1 2 0 0 3 0 0 0 0 3 1 0 2 3 0
split_gain=5407.36 225.778 220.886 93.6985 88.0943 39.8994 29.3423 24.3259 22.8949 18.9324 19.6031 34.264 32.5149 30.7972 68.9143 27.1588 21.9374 19.3355 22.8322 27.1196 22.8567 24.2559 30.5957 42.6639 18.8525 39.6313 27.0523 26.4768 26.1261 39.9638
threshold=0.016625126924443435 0.029993033362248414 0.018862938295192849 0.10971731406207898 0.026603574966688172 0.017495645627681151 0.020072166853364899 0.0097460088271469972 0.019622964628686453 0.030563816992838652 0.033663581928644187 0.036207900022185345 0.03359091530596419 23318.500000000004 23431.500000000004 0.03251884184453329 0.019477037201114884 27436.000000000004 11733.000000000002 0.026747020997383786 13166.500000000002 14417.500000000002 15007.500000000002 14890.500000000002 0.086202664723571965 0.054700544796043186 27780.000000000004 0.061737392333193808 0.061885136503765176 7584.5000000000009
decision_type=2 2 2 2 2 2 2 2 2 2 2 2 2 2 2 2 2 2 2 2 2 2 2 2 2 2 2 2 2 2
left_child=7 2 5 24 8 -2 -6 -1 -4 17 12 13 -11 -12 -15 -14 -16 18 19 -8 -20 -22 23 -23 25 -3 -26 -27 29 -29
right_child=1 3 4 -5 6 -7 9 -9 -10 10 11 -13 15 14 16 -17 -18 -19 20 -21 21 22 -24 -25 26 27 -28 28 -30 -31
leaf_value=0.10624327559217515 0.034658494935347568 -0.01183529770998378 -0.033373239137909474 0.010675014822416775 0.021985956922950731 -0.0062242653288412525 0.036332350647392507 0.091152890028170425 -0.058110411455936865 -0.022646618680489044 -0.081007328802563713 -0.026024469797528229 -0.11958683091887411 0.19527816967065648 -0.1643519412160093 0.052419443746877528 -0.01447799954447415 -0.10857347207809853 0.022561927603416229 -0.06024532123368135 -0.10619138691261852 -0.049826858701495336 -0.035075626733825943 0.15486263678189222 -0.0089764477737480312 -0.031125491826549237 0.059270595637845952 0.10050225294267878 -0.017675078053040343 -0.10983645160592533
leaf_weight=2681.2562270974668 316.82174544719783 5429.0483441211218 440.18920365886333 1497.0624305309611 100.58846782318324 968.34973030888068 30.727017385404906 1775.6938087960589 2493.67188329081 504.54407423101293 226.95059269581179 1333.6405795827195 10.088556281407362 13.835901003330944 13.846096609922823 101.88056942797994 33.14578211861226 41.990361509568174 77.726052580572286 541.00520283626975 44.293880355753572 20.033833329045592 660.82620957103973 20.708763301328872 1899.0051258541644 2591.9175697216633 59.91379580902867 40.770485964603722 1939.3056459613726 11.603827436221762
leaf_count=2465 6446 221672 39546 58463 2072 35674 2713 3403 434891 24977 14294 89732 679 92 1202 1384 1561 4759 4995 52271 5149 2135 56775 331 106258 215483 1278 436 107910 954
internal_value=0 -0.0208133 -0.0341253 -0.0129113 -0.0413999 0.00385419 -0.0312996 0.100231 -0.0543989 -0.032758 -0.0270061 -0.0327772 -0.0118281 -0.0640713 -0.000882295 0.0369215 -0.0586382 -0.0417138 -0.0397018 -0.0550549 -0.0290437 -0.0344215 -0.0298903 0.0542133 -0.0158608 -0.0176161 -0.0068891 -0.0244631 -0.0157929 0.0539005
internal_weight=0 21463.5 7994.86 13468.6 6709.69 1285.17 3775.83 4456.95 2933.86 3675.24 2237.93 1621.42 616.513 287.778 60.8278 111.969 46.9919 1437.31 1395.32 571.732 823.589 745.863 701.569 40.7426 11971.6 10012.6 1958.92 4583.6 1991.68 52.3743
internal_count=1500000 1494132 781678 712454 739558 42120 265121 5868 474437 263049 133921 106881 27040 17149 2855 2063 2763 129128 124369 54984 69385 64390 59241 2466 653991 546455 107536 324783 109300 1390
is_linear=0
shrinkage=0.1


Tree=17
num_leaves=31
num_cat=0
split_feature=1 2 1 2 3 1 1 3 2 3 0 3 2 3 1 2 1 2 2 2 1 0 0 0 0 0 1 3 0 2
split_gain=4886.26 190.933 197.149 94.428 57.2344 53.7061 33.3315 26.0379 25.2381 24.7452 22.563 22.2877 49.0159 20.6604 18.4496 24.5109 17.5575 16.7529 16.1404 15.8529 15.4542 15.1577 14.5042 27.5906 70.4513 28.8509 27.2804 24.4917 23.1125 46.1443
threshold=0.016625126924443435 0.027817354061032768 0.018385861040472486 0.085877911893095987 0.026603574966688172 0.019622964628686453 0.02108325623002592 0.016949388817063992 0.011153123159760555 0.16031615112056033 1601.0000000000002 0.021308013032714058 0.015579216029019434 0.022626868998004281 0.051457455545009738 0.050621778811663284 0.044879237328966114 0.016168101315966871 0.013380844533570259 0.02298842116356736 0.14510489483220287 27832.000000000004 25334.000000000004 18653.500000000004 16048.000000000002 15737.000000000002 0.038212249310823156 0.03500333116043073 19390.500000000004 0.049380548134730508
decision_type=2 2 2 2 2 2 2 2 2 2 2 2 2 2 2 2 2 2 2 2 2 2 2 2 2 2 2 2 2 2
left_child=8 2 7 6 5 19 -3 -2 -1 10 20 12 -10 -9 15 22 -17 -7 -6 -4 -5 -18 23 24 25 -8 27 -27 29 -25
right_child=1 3 4 9 18 17 14 13 11 -11 -12 -13 -14 -15 -16 16 21 -19 -20 -21 -22 -23 -24 28 -26 26 -28 -29 -30 -31
leaf_value=0.10453724143375298 0.068843712630518264 0.044533443627442569 -0.026909717575516232 -0.087769045011445612 -0.069088700856802493 -0.068985544690933098 -0.015021009183073419 -0.00035390028033764316 0.09035260647647271 0.022764720209523564 0.0012445142180495588 0.10756930976086453 0.031958490078799938 0.045775263186222694 -0.020749418984026668 0.043566418562572706 -0.00014674908979689488 -0.050675519073817669 -0.028190928779567404 0.14426246066413548 0.038369706619021698 -0.22188249056414988 -0.033004165565915525 0.036654930609822771 -0.06140495147646139 -0.086871341782682243 -0.015395188515477382 0.12505473784533019 -0.0073921886379520879 -0.20310713594753121
leaf_weight=2790.8027448033135 71.733096122142342 88.389376458559127 757.45204752387144 46.757645382545888 99.763927692922152 714.67585551233515 2427.9478495840267 704.23289248903529 782.14415943311178 588.04729119560216 1847.9792163395323 406.30672677914845 176.1143812664377 112.61972415033961 6264.2106387611202 104.43397842859849 495.45577592650079 1661.2524266145683 2946.8054871321838 5.4495051871053866 12.259572623239363 3.1022107698954633 414.76438096710626 219.62677843333222 341.21954230539995 6.3149393182247868 41.689903361722827 39.960639600642025 1000.1914937162801 8.3315765974111837
leaf_count=2949 1055 722 56820 6848 9458 131806 113199 21926 1531 5246 105874 466 922 1294 418192 1434 11851 303085 214768 78 326 121 20765 5145 17915 567 1422 416 43416 383
internal_value=0 -0.019584 -0.0329666 -0.012798 -0.0392941 -0.048771 -0.0166376 0.0110787 0.0990878 0.00483081 -0.000699341 0.0879425 0.0796206 0.00600594 -0.0171132 -0.0126496 0.0062833 -0.0561831 -0.0295302 -0.025687 -0.0615664 -0.00152647 -0.0151866 -0.0133776 -0.0187656 -0.0129827 0.0432767 0.0961345 -0.000843059 0.0278919
internal_weight=0 21024.7 7073.98 13950.7 6185.4 3138.83 11455.6 888.586 4155.37 2495.04 1907 1364.57 958.259 816.853 11367.2 5103.04 602.992 2375.93 3046.57 762.902 59.0172 498.558 4500.05 4085.28 2857.13 2515.91 87.9655 46.2756 1228.15 227.958
internal_count=1500000 1494132 740290 753842 716015 491789 635548 24275 5868 118294 113048 2919 2453 23220 634826 216634 13406 434891 224226 56898 7174 11972 203228 182463 133519 115604 2405 983 48944 5528
is_linear=0
shrinkage=0.1


Tree=18
num_leaves=31
num_cat=0
split_feature=1 2 1 2 3 1 1 1 0 0 2 1 2 0 0 3 0 0 2 1 1 0 1 1 0 0 0 0 2 0
split_gain=4437.88 161.426 177.966 86.9326 56.9624 35.1915 29.202 25.091 24.5155 21.1202 19.4083 19.3052 18.7336 18.0289 18.8221 24.4472 21.8402 16.6846 21.9677 28.4119 16.7005 17.176 16.2098 37.8049 15.5274 26.1523 15.516 42.8271 28.6678 20.4085
threshold=0.016625126924443435 0.027817354061032768 0.01858012359558139 0.10971731406207898 0.026603574966688172 0.019341924008742028 0.018990510714877246 0.017495645627681151 5091.0000000000009 27832.000000000004 0.0084948867240958511 0.15572754646837664 0.016168101315966871 27780.000000000004 23744.000000000004 0.12381970207172156 22513.500000000004 27713.500000000004 0.066929438489794685 0.1013279031321868 0.048374094330833652 27780.000000000004 0.09369924002675796 0.084348754498217438 27105.000000000004 27047.000000000004 374.00000000000006 575.50000000000011 0.04181688378964861 993.50000000000011
decision_type=2 2 2 2 2 2 2 2 2 2 2 2 2 2 2 2 2 2 2 2 2 2 2 2 2 2 2 2 2 2
left_child=10 2 7 6 5 8 -3 -2 -4 11 -1 17 -7 14 16 -16 -5 26 19 20 21 -19 23 -11 25 -14 -8 28 -28 -29
right_child=1 3 4 13 -6 12 9 -9 -10 22 -12 -13 24 -15 15 -17 -18 18 -20 -21 -22 -23 -24 -25 -26 -27 27 29 -30 -31
leaf_value=0.10529847861302676 0.032241636285037914 0.071001020897393866 -0.087297244102042676 0.009271936330945885 -0.027851706205948096 -0.066104487969473255 -0.054442678677404356 -0.0023088038752118773 -0.015263446824635971 0.0055090247726420037 0.091058143415696208 0.029899308415854354 -0.045770733252340205 0.064580082658128354 -0.11382758655959486 -0.0070102805906963155 0.061115903910710215 0.064327007435669853 -0.14907971011393922 0.10274254739297384 -0.14111770039814531 -0.13779537655258708 -0.081447283692672567 0.12972860193722013 -0.095677061584322737 0.14200738088083154 -0.057009082675102719 -0.053877005233290066 0.067081331164201161 -0.015585845728410444
leaf_weight=2047.347487895986 303.70382518477891 39.435460303153377 53.016998265971779 1148.046447257977 2959.6608413313261 718.13474853501248 102.85161026944843 682.62302615705994 434.06643511470247 143.31755687296391 1797.2324836130429 92.112960818805732 1605.2826740934834 59.633501841686666 24.661095006857067 163.34304180671461 87.446007079444826 12.128892089938747 21.417133975191973 12.457236799877135 17.895874081645161 6.4348112821025998 15.054016738664357 29.551981023396365 62.567477105558282 7.4512969502211481 22.95456248150731 140.8872016074165 98.531374820275232 11567.934184229427
leaf_count=2067 6434 174 6399 47097 224050 138938 8996 24019 27530 6213 3801 1214 298276 979 3539 4525 2323 573 1692 212 1618 505 757 126 13616 1028 1794 11915 3926 655664
internal_value=0 -0.0183804 -0.0309594 -0.0121606 -0.0375948 -0.0476055 -0.0149135 0.00832976 -0.023104 -0.0151893 0.0986415 -0.0157062 -0.0525918 0.0107124 0.00845577 -0.0210218 0.0129414 -0.0160562 -0.0646184 -0.0276389 -0.0721867 -0.00573549 0.0180774 0.0267443 -0.0467994 -0.0449031 -0.0157699 -0.0154337 0.0436347 -0.0160466
internal_weight=0 20632.6 6826.51 13806.1 5840.18 2880.52 12323 986.327 487.083 12283.5 3844.58 12095.6 2393.44 1483.13 1423.5 188.004 1235.49 12003.5 70.3339 48.9168 36.4596 18.5637 187.924 172.87 1675.3 1612.73 11933.2 11830.3 121.486 11708.8
internal_count=1500000 1494132 740290 753842 709837 485787 695379 30453 33929 695205 5868 688109 451858 58463 57484 8064 49420 686895 4600 2908 2696 1078 7096 6339 312920 299304 682295 673299 5720 667579
is_linear=0
shrinkage=0.1


Tree=19
num_leaves=31
num_cat=0
split_feature=1 3 1 3 0 1 0 3 0 1 2 1 3 3 2 3 2 2 0 0 0 0 3 3 0 0 0 0 3 2
split_gain=4000.18 149.851 106.842 157.018 35.4079 34.4795 29.674 30.7012 26.9509 21.4043 40.7997 41.3412 21.0599 22.7484 20.5679 20.351 20.2347 19.9076 26.7735 22.5255 20.9945 22.548 21.0848 19.5563 17.6073 32.5181 41.1552 48.1186 17.0591 49.2354
threshold=0.016625126924443435 0.086202664723571965 0.018385861040472486 0.029084501866755017 27780.000000000004 0.019622964628686453 27713.500000000004 0.16031615112056033 27895.500000000004 0.051457455545009738 0.040201910641480675 0.040601941011048297 0.026203543806695907 0.016949388817063992 0.093532693796954433 0.025459758040579403 0.0097460088271469972 0.063351565136372037 27436.000000000004 27713.500000000004 27105.000000000004 26640.500000000004 0.069091015107578729 0.074759445807863353 7952.0000000000009 9197.5000000000018 8817.5000000000018 8911.0000000000018 0.016949388817063992 0.016446514631848808
decision_type=2 2 2 2 2 2 2 2 2 2 2 2 2 2 2 2 2 2 2 2 2 2 2 2 2 2 2 2 2 2
left_child=16 2 12 5 6 -4 7 -3 -6 10 -5 -12 13 -2 -10 24 -1 -11 20 -20 21 -19 -23 -24 -7 26 -26 -28 29 -18
right_child=1 4 3 9 8 15 -8 -9 14 17 11 -13 -14 -15 -16 -17 28 18 19 -21 -22 22 23 -25 25 -27 27 -29 -30 -31
leaf_value=0.10373505117001568 0.063198288038974371 -0.0037990391542048769 -0.021979886167137485 -0.019925102153829428 0.08883106032871968 -0.068230108085683402 -0.11920664775420289 0.021368105981334089 -0.18052736454481544 -0.02589601303433535 0.031608852379689925 -0.0084531578802581313 0.061308858985281989 0.0028262468447076959 0.018674914072959656 -0.034919404754969317 0.083856731791713171 -0.016553372839117664 0.10501361531150799 -0.01679718382715896 -0.1316522185706841 -0.094614977743454856 0.10759181556596638 -0.040304791191516087 -0.037873386296291139 -0.050855747425097797 0.22700437582681748 -0.014587490778662435 0.1023590767550927 -0.057930998768511127
leaf_weight=2144.2337435053087 68.301556521106249 2638.7444640366593 731.81326050383905 4202.9921947950752 80.336491990135983 517.00485300679429 20.728508760686964 593.79076739877928 6.0366763962665564 4023.2622872964275 289.46847142587649 2338.4764421142099 81.856728631391888 724.01598183841998 36.662475549150258 1010.7263689377469 860.6395570532477 1462.8321297488874 34.797439104877412 26.929758577840403 15.352417660411446 8.9197332786861789 37.626670200610533 11.727219944586976 62.940659911602779 1223.7339355483691 15.671555350027118 17.395074598072824 540.964366303524 25.207992514129728
leaf_count=2465 1055 156593 57559 240040 657 111081 1558 5631 492 311321 6615 79192 684 22634 1108 139223 2304 81968 609 1597 1283 635 567 464 12513 254051 1417 3585 874 225
internal_value=0 -0.0171833 -0.0210246 -0.022881 0.0020507 -0.0413402 5.91758e-05 0.000823963 0.0547098 -0.0175751 -0.013814 -0.00404032 0.0130195 0.00803061 -0.0094877 -0.0463159 0.0975946 -0.0221453 -0.0127034 0.0518712 -0.0152977 -0.0141233 0.0468774 0.0724494 -0.0525871 -0.046459 0.00958245 0.0999122 0.0883667 0.079822
internal_weight=0 20282.1 16905.8 16031.7 3376.3 3579.29 3253.26 3232.54 123.036 12452.4 6830.94 2627.94 874.174 792.318 42.6992 2847.47 3571.05 5621.45 1598.19 61.7272 1536.46 1521.11 58.2736 49.3539 1836.75 1319.74 96.0073 33.0666 1426.81 885.848
internal_count=1500000 1494132 1328093 1303720 166039 579429 163782 162224 2257 724291 325847 85807 24373 23689 1600 521870 5868 398444 87123 2206 84917 83634 1666 1031 382647 271566 17515 5002 3403 2529
is_linear=0
shrinkage=0.1


Tree=20
num_leaves=31
num_cat=0
split_feature=1 3 1 3 1 2 3 3 1 2 0 0 0 1 0 1 3 2 2 0 0 0 3 3 0 1 3 0 0 3
split_gain=3617.77 128.39 87.3693 147.849 30.0624 28.5828 24.7979 23.6537 18.1782 17.7075 17.6483 21.2287 21.5005 20.2064 18.4574 16.5125 34.1738 31.1883 27.0976 25.1488 48.4583 123.919 56.3304 45.5073 29.5522 27.4784 36.8988 33.8336 24.406 23.3852
threshold=0.016625126924443435 0.1105079293661257 0.018385861040472486 0.031716272055583576 0.019341924008742028 0.015884713926722176 0.11217359778897015 0.16031615112056033 0.086665287923572573 0.0097460088271469972 27105.000000000004 10665.000000000002 10794.500000000002 0.030563816992838652 27047.000000000004 0.049804045036081997 0.048862505980743605 0.068650153643903047 0.04846840141026889 13166.500000000002 8041.0000000000009 8196.5000000000018 0.034599736971240545 0.037480162968098286 13526.500000000002 0.034076925524724799 0.032449523379384344 18766.000000000004 8513.5000000000018 0.045793416429123317
decision_type=2 2 2 2 2 2 2 2 2 2 2 2 2 2 2 2 2 2 2 2 2 2 2 2 2 2 2 2 2 2
left_child=9 2 -2 4 -4 -6 8 -8 -3 -1 11 -7 -13 -12 -14 16 18 -17 19 20 -5 23 28 -22 -21 26 -26 29 -23 -28
right_child=1 6 3 15 5 10 7 -9 -10 -11 13 12 14 -15 -16 17 -18 -19 -20 24 21 22 -24 -25 25 -27 27 -29 -30 -31
leaf_value=0.10294845439727435 0.012401410265231567 -0.20635045686862627 -0.016030658275819867 -0.020081812713175305 -0.057647899783484349 -0.045514180535643274 -0.0025124864019551354 0.021381348612838205 0.0605241383079064 0.087994031411681717 -0.09379768616964719 0.085554013757795255 -0.029250049456757563 0.052792253995671057 0.084722540767241505 -0.02200236210820912 0.0036318353481814012 -0.007289982122844086 -0.093520882183714293 -0.11370874187128868 -0.1899704813672648 -0.14960010477730276 -0.025533324242998513 0.10590782248409936 -8.0980079464852478e-05 -0.013496734829933722 -0.11738495118035493 -0.038443275107902838 0.034979993225756963 0.066053209048476669
leaf_weight=1981.440934750688 857.5326491631713 2.6144533717306322 588.70040243354561 1186.2339565555812 757.46031451722411 1011.9074770536481 1261.5041644221637 616.92544847505633 107.40138075780123 1318.8116357785184 85.778913965094034 16.780552150630683 1588.4098697549671 10.561015923012745 14.337470895647128 5521.937847261237 1244.6046090487507 1949.5961691406555 43.718111153226346 34.632956320354424 5.397697251988574 7.3537480916129416 500.49965076833178 140.66294128377922 169.5072453392786 1509.9911290823838 97.947195546130388 297.54663372194045 276.94918472069912 7.4803765593096605
leaf_count=2465 24376 111 40611 62966 150232 170768 79910 5746 5492 3403 18695 2126 248880 581 1636 394316 29537 101860 2023 3261 435 492 30517 562 6543 85237 6678 12947 7444 150
internal_value=0 -0.0160708 -0.0187451 -0.02031 -0.036932 -0.0404625 0.00803747 0.00533487 0.054182 0.0969725 -0.0356903 -0.0341513 -0.0270515 -0.0777281 -0.0282305 -0.0150986 -0.0109522 -0.0181634 -0.0151953 -0.0143865 -0.00667975 0.010399 -0.00534129 0.0949736 -0.0220933 -0.0205697 -0.0392254 -0.0556911 0.0302057 -0.10437
internal_weight=0 19914 17925.5 17068 4073.94 3485.24 1988.45 1878.43 110.016 3300.25 2727.78 2631.44 1619.53 96.3399 1602.75 12994.1 5522.53 7471.53 4277.92 4234.2 2117.1 930.863 784.803 146.061 2117.11 2082.47 572.481 402.974 284.303 105.428
internal_count=1500000 1494132 1402873 1378497 633529 592918 91259 85656 5603 5868 442686 423410 252642 19276 250516 744968 248792 496176 219255 217232 102416 39450 38453 997 114816 111555 26318 19775 7936 6828
is_linear=0
shrinkage=0.1


Tree=21
num_leaves=31
num_cat=0
split_feature=1 3 1 3 0 1 2 1 2 2 2 3 0 0 1 0 3 3 0 0 0 0 0 0 0 0 0 1 0 0
split_gain=3250.6 119.207 88.5724 120.371 33.9027 28.7418 28.6093 29.0463 24.5821 24.2283 18.4511 18.1569 16.9115 46.2854 20.6678 16.4789 15.0819 17.5714 14.3989 36.6296 18.8954 14.3764 40.1045 37.2549 54.3247 31.1595 31.1088 27.8259 26.536 100.869
threshold=0.016625126924443435 0.086202664723571965 0.018385861040472486 0.031716272055583576 27780.000000000004 0.052710315498911121 0.015884713926722176 0.019622964628686453 0.036148849563552667 0.11589362122618053 0.0084948867240958511 0.11985073422166202 26266.500000000004 25962.500000000004 0.10448618997532778 27895.500000000004 0.016949388817063992 0.026203543806695907 17315.500000000004 21703.500000000004 22749.500000000004 14237.500000000002 6987.5000000000009 15425.500000000002 15202.000000000002 6686.5000000000009 15307.500000000002 0.063442805453978887 16884.000000000004 16984.000000000004
decision_type=2 2 2 2 2 2 2 2 2 2 2 2 2 2 2 2 2 2 2 2 2 2 2 2 2 2 2 2 2 2
left_child=10 2 16 6 9 8 -4 18 -5 12 -1 -11 13 -3 -15 -6 -2 -18 -8 -20 -21 22 25 24 -23 -7 -26 -24 -25 -30
right_child=1 4 3 5 15 21 7 -9 -10 11 -12 -13 -14 14 -16 -17 17 -19 19 20 -22 23 27 28 26 -27 -28 -29 29 -31
leaf_value=0.10327435947269964 0.059271211616434005 -0.0069867006857438048 -0.050629917508984212 -0.017450397674043258 0.079852040701434257 -0.017536738910901958 -0.022918440654037801 -0.034764482250413745 -0.0049503301262524869 -0.047618426810616871 0.087702944621577031 0.01426185750589474 -0.049589432859072781 0.11940023609343707 -0.036230157727844887 0.0016707843088600901 0.0041609336786724458 0.054027379303112348 0.049372078922985972 -0.16954050173961677 -0.020360487292155054 -0.0084790040281441433 -0.056476808285997049 -0.049646399658341701 0.14160615800875931 0.06883267346251766 0.017111375013978285 -0.023704783035477388 0.12751172651151521 -0.01940436515670213
leaf_weight=1617.0643666543874 65.296103561729979 1896.089976368472 931.08350451984097 2855.9823868165422 81.579213966382667 1243.1122007638478 263.39552349695805 2545.7348191993324 3502.7562776592895 49.490923795383424 1437.3736674308311 1131.7402570059639 86.54577250406146 42.14960783533752 10.699081596685572 40.267778754234314 695.70654447065317 78.651166522118729 115.3002554030827 9.5676685323996917 75.418714895977246 219.01428829622455 550.16791021381141 266.18752164035686 45.870675769168884 43.222893314668909 35.687186438473873 489.69008933842997 47.767462927848101 2156.6151350434448
leaf_count=2067 1055 113753 167850 157666 657 91459 20982 432205 131435 5937 3801 34774 7362 951 1005 1600 22634 684 4799 1285 6408 14631 60416 22435 1487 2343 2025 33602 1290 151402
internal_value=0 -0.0149715 -0.0185101 -0.020235 0.00223793 -0.0150493 -0.0353111 -0.0305716 -0.0105646 0.000276653 0.0959467 0.0116692 -0.00633467 -0.00441387 0.0878933 0.0540148 0.0131176 0.00922585 -0.00755188 0.0126566 -0.037155 -0.0206436 -0.0264401 -0.0157779 0.017464 -0.0146346 0.0871311 -0.0410438 -0.0198222 -0.0162208
internal_weight=0 19574.8 16236.2 15396.6 3338.56 11456.1 3940.5 3009.42 6358.74 3216.72 3054.44 1181.23 2035.48 1948.94 52.8487 121.847 839.654 774.358 463.682 200.287 84.9864 5097.34 2326.19 2771.14 300.572 1286.34 81.5579 1039.86 2470.57 2204.38
internal_count=1500000 1494132 1328093 1303720 166039 670191 633529 465679 289101 163782 5868 40711 123071 115709 1956 2257 24373 23318 33474 12492 7693 381090 187820 193270 18143 93802 3512 94018 175127 152692
is_linear=0
shrinkage=0.1


Tree=22
num_leaves=31
num_cat=0
split_feature=1 3 1 3 2 1 1 2 0 0 0 0 3 3 2 3 3 3 0 0 0 0 2 1 3 3 1 3 3 2
split_gain=2919.44 108.092 76.7513 113.666 26.2322 30.3286 21.3676 24.2552 20.0887 31.0404 34.1874 27.154 22.0239 21.5558 19.3555 19.3091 19.1742 18.5184 25.7204 94.6263 61.4477 62.7491 37.6673 22.4934 20.9738 17.1559 17.1292 16.766 16.1257 32.423
threshold=0.016625126924443435 0.1105079293661257 0.018385861040472486 0.033256987340543422 0.02662298885891223 0.019341924008742028 0.049804045036081997 0.063351565136372037 25962.500000000004 26090.500000000004 26640.500000000004 25743.000000000004 0.088314253036800669 0.065217874597215328 0.010158358120444666 0.11217359778897015 0.032827052414873555 0.047889773244474111 9197.5000000000018 8041.0000000000009 8196.5000000000018 9025.5000000000018 0.037068412579735865 0.042116485241700516 0.035836050542199065 0.16031615112056033 0.025403334797815636 0.097282795513240858 0.016949388817063992 0.015579216029019434
decision_type=2 2 2 2 2 2 2 2 2 2 2 2 2 2 2 2 2 2 2 2 2 2 2 2 2 2 2 2 2 2
left_child=14 2 -2 4 5 -4 17 -8 11 27 -11 -9 13 -12 -1 -3 26 18 19 -5 -21 23 -23 24 -22 -17 -7 -10 29 -16
right_child=1 15 3 6 -6 16 7 8 9 10 12 -13 -14 -15 28 25 -18 -19 -20 20 21 22 -24 -25 -26 -27 -28 -29 -30 -31
leaf_value=0.10145838507340819 0.013346320555995377 0.047799112364851494 -0.014204674525769616 -0.016659779099001012 -0.014624893086298052 -0.04420792772906721 -0.020813623750393893 -0.011194725543433169 -0.0035436640268586826 -0.090117884700594023 -0.17906897406545286 -0.18068444219095403 -0.0537583705065552 0.037716928330541716 0.082469754668617667 -0.00098882500605269332 -0.11174852947150822 0.0012331943116673228 -0.018961829001655141 0.095197011247673755 -0.12037405048065174 0.083139214250999238 -0.22404300082786444 -0.146791549155185 0.0055614106791626785 0.019491601105336362 -0.028435247939042643 0.12763627674954311 0.099688541957320062 0.011711429246163255
leaf_weight=1743.29308012806 822.89580066858616 116.60849934298312 568.29264987320494 952.62420164560535 731.90164472890683 1905.5636966005804 4608.8434155457071 2370.1265262253582 13.680813703685997 34.873008961556479 4.7157595844473681 9.4903722542803717 36.466435695532709 167.60770022380166 586.24116904150287 1227.1565331733436 36.179133686666319 1533.791013094582 2056.1285706790532 142.2146682459861 17.493312155063904 81.832279842208663 4.196542762219905 19.300800310928025 54.193748450703424 613.48455782368546 1078.0778703662854 33.849881322588772 422.06164920420269 72.800557377384393
leaf_count=2612 24376 5603 40701 53362 62046 419037 348893 133470 711 3107 507 973 3403 4877 1695 79910 2827 41323 121741 886 1386 536 133 2361 2969 5746 133013 235 866 695
internal_value=0 -0.0139358 -0.0164579 -0.0179478 -0.0318785 -0.0353979 -0.0129912 -0.0164195 -0.00883685 0.0159555 0.0015355 -0.0118707 0.0168438 0.0317844 0.0949393 0.00833728 -0.0393862 -0.0078578 -0.0120476 -0.000869889 0.046249 0.00692434 0.0681547 -0.0509688 -0.0251698 0.00583729 -0.0385088 0.0898786 0.0844271 0.0746535
internal_weight=0 19241.6 17284.3 16461.4 4320.01 3588.11 12141.4 7279.65 2670.81 291.194 243.663 2379.62 208.79 172.323 2824.4 1957.25 3019.82 4861.78 3327.98 1271.86 319.231 177.017 86.0288 90.9879 71.6871 1840.64 2983.64 47.5307 1081.1 659.042
internal_count=1500000 1494132 1402873 1378497 657624 595578 720873 496176 147283 12840 11894 134443 8787 5384 5868 91259 554877 224697 183374 61633 8271 7385 669 6716 4355 85656 552050 946 3256 2390
is_linear=0
shrinkage=0.1


Tree=23
num_leaves=31
num_cat=0
split_feature=1 3 1 3 1 2 1 0 2 2 2 2 0 1 1 0 3 2 2 1 1 2 2 1 1 0 0 0 0 3
split_gain=2622.68 103.242 75.6978 88.7571 25.6946 27.9114 23.1272 22.6485 20.8828 20.5583 20.0874 18.7759 17.9488 17.8675 16.6105 20.5717 20.7428 16.3242 16.5953 15.2348 14.1086 33.7256 18.9285 16.5529 14.7311 13.8881 16.8512 13.5743 13.2429 12.8596
threshold=0.016625126924443435 0.086202664723571965 0.018385861040472486 0.029084501866755017 0.054700544796043186 0.036148849563552667 0.020072166853364899 27832.000000000004 0.10971731406207898 0.057827762815173774 0.022528515065989792 0.0097460088271469972 27895.500000000004 0.019714440545246108 0.057361670197638014 2795.0000000000005 0.057710623718693579 0.029256660137187123 0.01985873886476416 0.11139693059765303 0.025541585198654342 0.025441877654702304 0.020157671513969602 0.024316322729826201 0.021815382820382635 5460.5000000000009 7584.5000000000009 18834.500000000004 2919.5000000000005 0.016949388817063992
decision_type=2 2 2 2 2 2 2 2 2 2 2 2 2 2 2 2 2 2 2 2 2 2 2 2 2 2 2 2 2 2
left_child=11 2 -2 6 5 13 -4 8 -3 14 -8 -1 -9 17 -6 -16 28 18 -5 -10 21 22 24 25 -15 -23 -27 -25 -17 -13
right_child=1 7 3 4 9 -7 10 12 19 -11 -12 29 -14 20 15 16 -18 -19 -20 -21 -22 23 -24 27 -26 26 -28 -29 -30 -31
leaf_value=0.10110096923843398 0.013493507542686073 -0.0052931726143092168 -0.018398309107193735 -0.23958358580642455 -0.01384052867619992 -0.0044142660881087122 -0.044418176850773657 0.093203859327808336 0.043692295310278066 -0.014584886434429931 -0.024218335797479333 0.075343708261358167 0.0021395965543160016 -0.18485587817043872 -0.079809718996148082 0.1678679204143001 -0.027409568037056405 -0.26350056525104532 0.046240619819009038 0.0076874833995472409 -0.016230681749446359 0.056219658089186178 -0.12889893598500654 -0.15533476968580218 0.074603136110940632 -0.20126514171157403 -0.011261957373257449 -0.014718355970676134 -0.088221414492584735 0.098145640385276595
leaf_weight=1545.6314748200784 807.11930923534965 1791.3429631439503 802.34673214964914 2.0899979420501031 537.0636294299984 3821.3539240423925 1579.4654592201032 49.380900771124288 129.66476262640208 2798.3400936047983 715.22098108132195 665.60147386061726 38.533768479013816 2.8979488840413969 94.415290975761309 2.07539337594062 1023.5406299662336 1.8373848269693542 72.402269445767161 1254.8030189382262 3094.6769924786495 30.781687603332102 52.679763776068285 14.304734321041908 8.9353506416664441 4.9110791595303445 94.212512747093569 13.199969307461286 74.707946673341212 393.58896777436894
leaf_count=2465 24373 106685 86904 146 53700 155323 357005 162 6508 179892 135520 2529 1600 294 13601 9 94366 83 866 51084 203917 863 4781 1219 367 356 3534 616 10358 874
internal_value=0 -0.0129568 -0.016331 -0.017953 -0.0139818 -0.0102753 -0.0330123 0.00322168 0.00183567 -0.0198844 -0.0381222 0.0940728 0.0532896 -0.0168764 -0.0284477 -0.0350139 -0.0311701 0.0309584 0.0382214 0.0110596 -0.0179773 -0.042333 -0.103227 -0.0173764 0.0110622 -0.00245495 -0.0206757 -0.0878506 -0.0812995 0.0838168
internal_weight=0 18912.3 15648.6 14841.5 11744.4 7214.28 3097.03 3263.73 3175.81 4530.14 2294.69 2604.82 87.9147 3392.93 1731.8 1194.74 1100.32 76.3297 74.4923 1384.47 3316.6 221.923 64.5131 157.41 11.8333 129.905 99.1236 27.5047 76.7833 1059.19
internal_count=1500000 1494132 1328093 1303720 724291 372365 579429 166039 164277 351926 492525 5868 1762 217042 172034 118334 104733 1095 1012 57592 215947 12030 5442 6588 661 4753 3890 1835 10367 3403
is_linear=0
shrinkage=0.1


Tree=24
num_leaves=31
num_cat=0
split_feature=1 2 1 3 0 0 0 2 2 1 0 0 0 1 2 1 3 0 0 0 0 0 1 1 0 3 3 2 0 3
split_gain=2352.74 96.2332 67.3604 81.777 20.8446 21.591 23.1348 21.5653 19.2114 18.868 17.0605 16.4063 15.9504 14.1464 23.8949 30.2713 23.6825 24.0931 22.1725 45.9418 32.2733 39.7538 35.0592 32.5773 25.724 24.7667 22.4897 27.2651 28.7853 21.088
threshold=0.016625126924443435 0.085877911893095987 0.018385861040472486 0.029084501866755017 3731.0000000000005 27216.500000000004 27047.000000000004 0.015884713926722176 0.0084948867240958511 0.020072166853364899 3857.5000000000005 27832.000000000004 2050.5000000000005 0.054700544796043186 0.040757182576207536 0.040060860567931053 0.066420359045282915 27436.000000000004 22389.000000000004 19853.000000000004 22235.500000000004 19955.500000000004 0.0608114251919393 0.055890685261441982 20472.500000000004 0.060481798379164002 0.061885136503765176 0.063351565136372037 21152.000000000004 0.060903908239503368
decision_type=2 2 2 2 2 2 2 2 2 2 2 2 2 2 2 2 2 2 2 2 2 2 2 2 2 2 2 2 2 2
left_child=8 2 -2 4 12 6 7 -6 -1 -9 -11 -3 -4 14 -5 -16 18 -18 19 -15 21 22 25 -23 29 -21 -26 -28 -29 -25
right_child=1 11 3 13 5 -7 -8 9 -10 10 -12 -13 -14 16 15 -17 17 -19 -20 20 -22 23 -24 24 26 -27 27 28 -30 -31
leaf_value=0.10161596796878616 0.013692221508757992 0.0053470916556311622 -0.034553666732516135 -0.014808128888719053 -0.043153953795056779 -0.076348722344973335 0.065680363065109187 -0.0042261479268203865 0.083722132392057752 0.12162251212213229 -0.028419374270214078 0.054554040359077106 -0.078705263922601978 -0.026223349707954938 0.032768102214532836 -0.0058697607078938615 -0.012237252987303333 0.031816076567661729 -0.044566642968617509 0.014673655814177075 0.1822427533184805 -0.16688196208767134 -0.059779905930969761 -0.13276331110170722 0.037931305504457349 0.12328132207215024 -0.092168991086642157 0.10871569108073116 -0.16843636656278263 -0.01488536980583486
leaf_weight=1257.4057155762603 790.95192623848016 2300.9486571592861 178.46283352826913 4063.8820866643946 649.71361201351783 89.757052249880871 26.967375856234867 452.509576866727 1147.6106476209461 7.6183957592147626 1436.3122274939415 69.813254377804697 151.10247419095504 1749.3586097404932 218.13028734104591 2879.6674209965131 2623.841574741833 130.31252926017623 418.71550312184263 32.966610851231962 10.8440302060917 13.308930588420479 20.909612074727193 24.795668333536014 120.46537912721033 57.826345095876604 35.607426444068551 17.410896048881117 4.7752481133211395 39.120505074737594
leaf_count=2067 24377 116985 40671 254544 133264 23414 3535 42077 3801 983 300197 1309 35288 171029 4193 114323 153114 4112 49314 676 421 1811 674 2954 7628 207 3377 307 680 2668
internal_value=0 -0.0120247 -0.0147713 -0.0162281 -0.0310727 -0.0281366 -0.0264548 -0.0274306 0.0930775 -0.0220439 -0.0276277 0.00679612 -0.0547967 -0.0126635 -0.00976499 -0.00314909 -0.0165799 -0.0101529 -0.0235321 -0.019392 0.0122203 0.00719905 0.0569609 -0.0145578 -0.00618667 0.0838463 0.013329 -0.0379521 0.0490627 -0.060615
internal_weight=0 18616.1 16245.3 15454.4 2992.44 2662.88 2573.12 2546.15 2405.02 1896.44 1443.93 2370.76 329.565 12461.9 7161.68 3097.8 5300.26 2754.15 2546.1 2127.39 378.031 367.187 111.703 255.484 242.175 90.793 178.259 57.7936 22.1861 63.9162
internal_count=1500000 1494132 1375838 1351461 579429 503470 480056 476521 5868 343257 301180 118294 75959 772032 373060 118516 398972 157226 241746 192432 21403 20982 1557 19425 17614 883 11992 4364 987 5622
is_linear=0
shrinkage=0.1


Tree=25
num_leaves=31
num_cat=0
split_feature=1 2 1 2 2 0 0 3 0 0 0 0 0 1 0 0 3 0 1 3 1 2 3 1 3 3 0 0 0 0
split_gain=2107.74 88.4137 62.9153 80.6601 20.1223 18.6509 48.7586 19.1008 15.8862 27.6324 51.7021 27.9723 48.6654 26.4062 22.9213 21.309 17.7775 26.8607 22.1594 27.1268 23.4365 19.5449 18.5591 16.5534 15.8585 15.1719 24.7733 27.3744 21.372 16.4301
threshold=0.016625126924443435 0.096406681451630435 0.01858012359558139 0.022528515065989792 0.010158358120444666 23869.500000000004 23318.500000000004 0.027817973387542161 22235.500000000004 18834.500000000004 20117.500000000004 19955.500000000004 19390.500000000004 0.039587977143122226 18089.500000000004 19853.000000000004 0.025809835818286418 17643.500000000004 0.048374094330833652 0.041867791253836925 0.034076925524724799 0.01469061776934587 0.055307793583937961 0.018862938295192849 0.023813343131359948 0.03359091530596419 6563.0000000000009 8911.0000000000018 9930.5000000000018 5460.5000000000009
decision_type=2 2 2 2 2 2 2 2 2 2 2 2 2 2 2 2 2 2 2 2 2 2 2 2 2 2 2 2 2 2
left_child=4 2 -2 5 -1 6 8 -8 9 14 11 12 -11 -10 16 -14 17 -4 19 20 25 -22 -20 -12 -13 -18 29 -28 -29 -27
right_child=1 -3 3 -5 -6 -7 7 -9 13 10 23 24 15 -15 -16 -17 18 -19 22 -21 21 -23 -24 -25 -26 26 27 28 -30 -31
leaf_value=0.09964380364636892 0.01265606793304269 0.0097380726641082757 -0.040991777937668783 -0.011270164141621096 0.08014079770347185 -0.047806330472360138 -0.0027996532134083271 0.088789424911326603 -0.092272866748601273 0.057144007185347193 -0.18475459442594355 0.11386545994710094 -0.12356838991641911 0.038433467475460184 -0.082152784869883963 0.021239428845428805 -0.017527383940902939 0.040335259912304161 -0.096947669501621328 0.034139375825137985 0.021544953983569634 -0.070902032649547864 -0.0054375249929525292 -0.029039407771995915 -0.15807588821749963 -0.0041168932634746162 -0.14764551527253506 0.11718261137683122 -0.058951424008326307 0.14250983205320586
leaf_weight=1351.5552606156816 874.39506850493308 1826.4330364911002 1072.9747632270351 12448.528838156746 869.27252778573165 456.10236694665309 42.883757078622693 48.547159345296677 81.383563029029574 85.149629308583371 7.0301495436287942 46.993191748898425 28.563929539674518 19.080329593620263 85.892828939245192 15.773699592908995 490.84185221341022 42.20892378336157 62.371849628907512 103.09623263980029 27.727225874103169 130.52044453655799 34.378064026073844 236.16894216328183 2.246969849758897 11.499309956303476 12.165339296087039 14.314488134812565 13.280448802177487 22.783011448336765
leaf_count=2612 30572 94906 236673 847791 3256 81798 8271 1976 17530 8758 838 1028 6684 1166 16476 1753 57661 6839 5372 7031 1801 14589 3757 38346 525 579 295 103 923 91
internal_value=0 -0.0111396 -0.0134483 -0.0149075 0.09201 -0.029084 -0.0259651 0.0458315 -0.0284455 -0.0269065 -0.00353173 0.0373022 0.0129064 -0.0674488 -0.0315497 -0.0720511 -0.0294171 -0.0379136 -0.0191513 -0.0138491 -0.0206907 -0.054704 -0.0644314 -0.0335407 0.101456 -0.0111622 0.0310336 -0.0226772 0.0324156 0.0933269
internal_weight=0 18343.3 16516.9 15642.5 2220.83 3193.98 2737.88 91.4309 2646.45 2545.98 421.927 178.727 129.487 100.464 2124.05 44.3376 2038.16 1115.18 922.978 826.228 723.132 158.248 96.7499 243.199 49.2402 564.884 74.0426 39.7603 27.5949 34.2823
internal_count=1500000 1494132 1399226 1368654 5868 520863 439065 10247 428818 410122 57932 18748 17195 18696 352190 8437 335714 243512 92202 83073 76042 16390 9129 39184 1553 59652 1991 1321 1026 670
is_linear=0
shrinkage=0.1


Tree=26
num_leaves=31
num_cat=0
split_feature=1 2 1 3 2 1 2 1 1 0 1 0 0 1 0 0 0 0 3 0 0 1 0 1 0 0 1 1 0 0
split_gain=1885.62 82.821 60.3859 62.8905 25.6177 21.2495 20.9041 20.8126 16.4967 30.0556 23.0094 34.4039 45.1352 45.6939 43.6064 40.6828 27.1663 30.7037 24.518 22.3737 22.0913 20.7531 19.8207 38.3183 19.3654 19.3287 18.3765 67.7817 24.1315 20.904
threshold=0.016625126924443435 0.0835899028717485 0.018385861040472486 0.031716272055583576 0.015884713926722176 0.019622964628686453 0.0092203614722759925 0.05498546192950781 0.063118720324245994 27436.000000000004 0.062041166735804558 22389.000000000004 19853.000000000004 0.061805724723105387 19955.500000000004 20619.500000000004 6344.0000000000009 2795.0000000000005 0.060481798379164002 26913.500000000004 25896.500000000004 0.061032584344362269 26849.500000000004 0.069234885049110587 575.50000000000011 23025.000000000004 0.059860224256000606 0.059632282576706518 23538.000000000004 26755.000000000004
decision_type=2 2 2 2 2 2 2 2 2 2 2 2 2 2 2 2 2 2 2 2 2 2 2 2 2 2 2 2 2 2
left_child=6 2 -2 4 -4 -6 -1 -5 10 19 11 12 13 21 18 -16 17 -15 -14 22 -12 -9 -10 -24 -23 -13 27 28 -27 -29
right_child=1 -3 3 7 5 -7 -8 8 9 -11 20 25 14 16 15 -17 -18 -19 -20 -21 -22 24 23 -25 -26 26 -28 29 -30 -31
leaf_value=0.099915119422586546 0.014512163716150689 0.0068051415905463044 -0.042269116248119409 -0.0071062207731264725 -0.00096884551340100137 -0.02553533358189445 0.079588188503778357 -0.022519291753085618 -0.012740667987399971 0.033167155590304899 -0.06505506023231504 -0.15446355528494793 -0.0030081701098752488 -0.12344047226731258 -0.093550741150154035 0.014911720707729989 -0.030044108692105748 0.10893097598674045 0.098072581485815144 -0.074266024156543264 0.027404187568952423 0.082712312681798142 -0.20158829225090719 0.10956141460115235 -0.078291148434847524 0.030905234552052432 -0.090831085151393293 -0.072283035981548255 -0.064955573348696435 0.18671663519113341
leaf_weight=1141.2453485457772 761.67135374898317 2453.7849094890116 777.25365232458898 6513.28006314704 419.50866846919507 2191.16049748151 908.81871411055181 1076.3762203457845 2646.3758280926777 147.84716294030659 193.61048302178096 16.848695233929902 33.721552189439535 6.3436667618807396 43.324606464826502 171.37727624588842 31.00311999162659 54.86833575903438 83.208208876894787 58.564623120008036 29.822023621876724 8.0281907825265062 4.6082826338242731 28.044777264003642 107.56111738504842 31.574723555706441 64.328409233887214 3.7997511739376959 156.02546058349981 17.323691897559911
leaf_count=2314 24377 124238 167850 325474 33474 432205 3554 110421 174032 4491 21291 2995 659 666 5498 9540 2939 700 557 4444 2243 315 260 242 11403 2614 9326 698 20900 280
internal_value=0 -0.0102783 -0.0129522 -0.0143546 -0.0263324 -0.0215877 0.0909039 -0.0108345 -0.015677 -0.0107501 -0.022354 -0.0187945 -0.0131033 -0.0215966 0.0197855 -0.00697488 0.0462216 0.0848493 0.0689217 -0.0131219 -0.0527143 -0.0268433 -0.0117852 0.0656493 -0.0671087 -0.0505154 -0.0441013 -0.0296992 -0.0488214 0.140127
internal_weight=0 18131.2 15677.5 14915.8 3387.92 2610.67 2050.06 11527.9 5014.59 2885.44 2129.15 1905.71 1615.81 1284.18 331.632 214.702 92.2151 61.212 116.93 2737.59 223.433 1191.97 2679.03 32.6531 115.589 289.901 273.052 208.724 187.6 21.1234
internal_count=1500000 1494132 1369894 1345517 633529 465679 5868 711988 386514 183469 203045 179511 142698 126444 16254 15038 4305 1366 1216 178978 23534 122139 174534 502 11718 36813 33818 24492 23514 978
is_linear=0
shrinkage=0.1


Tree=27
num_leaves=31
num_cat=0
split_feature=1 3 1 2 2 1 3 2 3 1 0 0 0 0 0 1 0 1 0 3 1 0 0 0 0 0 0 0 0 0
split_gain=1688.01 76.2744 57.6591 50.3063 22.017 17.9278 22.5088 16.7203 15.5149 15.2522 24.3067 26.9553 37.7289 32.5584 48.855 30.915 25.7085 43.2561 30.7202 23.1245 20.4128 19.2569 60.2858 22.7849 30.392 25.1858 22.1309 40.3117 51.1938 59.817
threshold=0.016625126924443435 0.092151265170652974 0.018385861040472486 0.022528515065989792 0.0097460088271469972 0.019538257049043165 0.025345471860862338 0.04181688378964861 0.06014256970618561 0.054700544796043186 26755.000000000004 25417.500000000004 25252.500000000004 23869.500000000004 23744.000000000004 0.073871910347858352 26913.500000000004 0.057932863601190633 27318.000000000004 0.08122664850102003 0.059145426196699775 19853.000000000004 20987.000000000004 17562.500000000004 16884.000000000004 16984.000000000004 4276.5000000000009 2795.0000000000005 2919.5000000000005 3731.0000000000005
decision_type=2 2 2 2 2 2 2 2 2 2 2 2 2 2 2 2 2 2 2 2 2 2 2 2 2 2 2 2 2 2
left_child=4 2 -2 5 -1 -4 -7 -3 -8 -5 11 12 13 14 21 20 17 -12 -18 -19 -16 23 -23 24 26 -26 27 -11 -29 -30
right_child=1 7 3 9 -6 6 8 -9 -10 10 16 -13 -14 -15 15 -17 18 19 -20 -21 -22 22 -24 -25 25 -27 -28 28 29 -31
leaf_value=0.099014772018890557 0.014789860962189523 -0.040456298856084323 -0.0089838690941817165 -0.0074897189720220308 0.07718441387667048 -0.038836171736033709 -0.019235915817991764 0.007121216403563755 -0.17028637302078761 -0.02673682197797525 -0.17227445019358739 -0.062516022718190054 0.07911307709322607 -0.063861385971971177 0.1028546515096114 0.17464855668008111 -0.070892487198680951 0.081936824815268428 0.011462132316789263 -0.21883494219951341 -0.1550510076073397 0.023766006484061613 -0.030888363846528256 -0.043543904615994798 0.078493154985118413 -0.0048209350572716685 -0.025188658483317986 0.080470846994437975 -0.066238665274296671 0.029617330682275844
leaf_weight=1093.1819986979172 747.40671276082503 75.962024726555683 576.57836394095466 6604.2172537797687 800.14732866492704 1155.2449136017017 1391.7157688217508 2676.0984086275275 6.8333379935938856 420.34607210916147 7.8027555136941364 126.70820643694606 41.554633617401123 141.07994204905117 6.2721802771557105 22.04318899079226 57.704385969787836 87.527433075360022 210.6204433873063 2.6331190189812324 6.0089979971526191 423.83497181010898 385.28325878237956 351.75611807375572 58.217684288392775 96.309797460213304 1817.2937876269934 97.949878747342154 98.949931992719939 190.30650142114609
leaf_count=2465 24374 7888 51752 431602 3403 318993 155068 141390 1137 39963 873 16936 2874 17753 530 215 6059 2035 10474 161 1040 15466 33688 29905 1220 7160 155900 1642 10028 8006
internal_value=0 -0.00950557 -0.0122906 -0.0136977 0.089789 -0.0249107 -0.0285065 0.00580799 -0.019974 -0.0105788 -0.0149659 -0.01708 -0.0156951 -0.0166524 -0.0149767 0.103811 0.00975909 0.0536046 -0.00624858 0.0731529 -0.0233348 -0.0160115 -0.00225913 -0.0195652 -0.0165305 0.0265674 -0.0190677 -0.00529322 0.0179857 -0.00317345
internal_weight=0 17884.3 15132.2 14384.8 1893.33 3130.37 2553.79 2752.06 1398.55 11254.4 4650.2 4283.92 4157.21 4115.65 3974.57 34.3244 366.288 97.9633 268.325 90.1606 12.2812 3940.25 809.118 3131.13 2779.37 154.527 2624.85 807.552 387.206 289.256
internal_count=1500000 1494132 1344854 1320480 5868 526950 475198 149278 156205 793530 361928 342326 325390 322516 304763 1785 19602 3069 16533 2196 1570 302978 49154 253824 223919 8380 215539 59639 19676 18034
is_linear=0
shrinkage=0.1


Tree=28
num_leaves=31
num_cat=0
split_feature=1 2 1 2 2 3 3 2 3 1 0 0 2 0 2 0 0 0 3 3 3 3 2 1 0 0 0 2 3 3
