tree
version=v3
num_class=1
num_tree_per_iteration=1
label_index=0
max_feature_idx=3
objective=lambdarank
feature_names=Column_0 Column_1 Column_2 Column_3
feature_infos=[4:28137] [0.00025290797790764648:0.39491177639134534] [0.0005828237438083116:0.25801150955361685] [0.0005828237438083116:0.39491177639134534]
tree_sizes=3545 3536 3520 3532 3523 3520 3519 3516 3501 3498 3527 3530 3512 3514 3523 3533 3517 3511 3490 3545 3520 3533 3503 3536 3526 3511 3520 3475 3518 3512 3520 3500 3500 3517 3492 3509 3512 3525 3521 3527 3532 3537 3462 3507 3480 3486 3506 3548 3490 3506 3498 3457 3477 3501 3495 3477 3519 3510 3509 3506 3499 3474 3513 3472 3514 3515 3492 3504 3451 3504 3492 3482 3490 3503 3481 3489 3475 3487 3490 3523 3459 3490 3492 3514 3490 3479 3522 3510 3434 3434 3398 3486 3505 3430 3467 3509 3458 3506 3502 3474 3505 3506 3511 3505 3510 3535 3548 3494 3517 3506 3477 3464 3495 3532 3455 3487 3494 3510 3468 3487 3465 3499 3529 3491 3468 3489 3524 3531 3466 3478 3526 3484 3470 3372 3491 3487 3474 3521 3494 3460 3498 3495 3503 3494 3507 3447 3492 3451 3482 3454 3456 3470 3462 3446 3438 3416 3417 3500 3446 3461 3443 3480 3406 3484 3438 3411 3489 3488 3441 3478 3453 3427 3434 3485 3470 3464 3479 3451 3481 3432 3431 3444 3465 3464 3458 3464 3502 3494 3472 3493 3468 3463 3465 3500 3475 3475 3463 3458 3454 3526 3528 3516 3509 3520 3517 3506 3522 3497 3481 3506 3517 3505 3488 3497 3434 3494 3498 3527 3448 3529 3480 3483 3464 3485 3490 3466 3434 3530 3486 3489 3502 3482 3421 3454 3472 3471 3436 3470 3468 3467 3428 3421 3451 3450 3456 3434 3442 3448 3468 3445 3456 3404 3409 3472 3476 3456 3443 3460 3451 3430 3447 3443 3448 3448 3424 3485 3404 3526 3431 3468 3469 3476 3458 3427 3460 3437 3487 3479 3441 3468 3478 3463 3489 3489 3504 3430 3443 3489 3449 3453 3441 3490 3457 3497 3483 3482 3469 3466 3490 3480 3508 3490 3512 3521 3474 3455 3447 3495 3508 3524 3457 3486 3492 3490 3497 3468 3485 3478 3480 3517 3473 3490 3513 3500 3473 3470 3475 3495 3487 3454 3494 3480 3484 3435 3488 3463 3454 3430 3461 3432 3499 3468 3469 3429 3487 3450 3431 3469 3420 3459 3441 3435 3414 3456 3431 3471 3434 3463 3415 3411 3434 3449 3446 3445 3470 3465 3451 3468 3480 3475 3505 3453 3477 3479 3481 3490 3411 3400 3392 3442 3460 3429 3455 3466 3496 3461 3450 3467 3440 3432 3467 3383 3467 3403 3396 3451 3441 3447 3448 3460 3528 3531 3518 3545 3503 3514 3447 3472 3475 3506 3476 3468 3476 3506 3471 3438 3519 3503 3484 3470 3489 3501 3518 3508 3464 3487 3485 3465 3500 3512 3488 3395 3474 3434 3393 3458 3484 3466 3499 3448 3501 3445 3479 3438 3462 3476 3439 3494 3453 3481 3436 3440 3499 3488 3484 3417 3454 3425 3432 3460 3449 3438 3399 3422 3425 3412 3439 3488 3465 3480 3483 3475 3474 3458 3446 3470 3437 3490 3411 3370 3389 3443 3451 3470 3418 3456 3444 3468 3441 3460 3520 3444 3409 3456 3414 3461 3463 3407 3452 3462 3491 3470 3526 3462 3522 3518 3504 3473 3519 3483 3488 3488 3469 3518 3503 3469 3494 3483 3472 3492 3482 3451 3468 3501 3467 3469 3467 3465 3457 3371 3453 3453 3453 3438 3441 3476 3492 3426 3435 3457 3482 3462 3476 3454 3468 3467 3446 3448 3458 3437 3481 3433 3449 3429 3486 3439 3446 3523 3485 3457 3437 3455 3462 3457 3449 3453 3469 3446 3472 3450 3518 3450 3445 3448 3435 3459 3448 3434 3441 3467 3458 3425 3456 3435 3449 3438 3491 3431 3468 3462 3470 3481 3486 3419 3443 3462 3492 3456 3440 3493 3460 3531 3499 3460 3471 3526 3476 3483 3471 3496 3467 3468 3474 3459 3502 3463 3507 3410 3440 3398 3458 3478 3464 3392 3424 3422 3439 3420 3415 3462 3432 3408 3424 3436 3463 3475 3472 3469 3455 3464 3455 3462 3427 3445 3423 3416 3459 3442 3476 3514 3460 3473 3424 3452 3478 3404 3422 3499 3483 3424 3489 3454 3464 3477 3469 3439 3482 3464 3459 3500 3470 3451 3430 3458 3406 3471 3405 3421 3456 3444 3471 3460 3422 3420 3439 3453 3468 3467 3443 3473 3466 3440 3448 3428 3447 3445 3465 3477 3483 3440

Tree=0
num_leaves=31
num_cat=0
split_feature=1 2 1 3 1 2 1 3 1 2 1 3 3 1 2 1 3 1 0 2 3 2 2 1 1 3 2 1 2 0
split_gain=33689.5 2290.02 1094.32 565.286 621.955 482.558 381.013 335.843 296.477 269.367 391.099 155.571 140.015 129.956 127.318 124.753 92.8194 81.0188 47.7284 47.1211 43.1162 43.0946 42.9355 42.3237 40.9653 47.5618 39.6124 38.131 44.9881 55.6085
threshold=0.017495645627681151 0.027817354061032768 0.018990510714877243 0.14871577746678927 0.052710315498911121 0.038541031471412038 0.016625126924443435 0.028876449092726235 0.021968982419754018 0.063351565136372023 0.099448964343380755 0.086202664723571965 0.055307793583937975 0.020072166853364895 0.1183025411964875 0.020072166853364895 0.019634005391302063 0.054700544796043186 27965.000000000004 0.05782776281517378 0.031716272055583576 0.01751518375315288 0.020157671513969598 0.03366358192864418 0.034849150401957858 0.04410888571857853 0.015884713926722176 0.018385861040472486 0.018793800942842321 7368.5000000000009
decision_type=2 2 2 2 2 2 2 2 2 2 2 2 2 2 2 2 2 2 2 2 2 2 2 2 2 2 2 2 2 2
left_child=6 2 16 4 5 8 -1 13 -3 17 11 -11 18 21 -12 -9 27 -6 -7 -19 -10 -4 -15 -22 25 -17 -8 -2 -29 -30
right_child=1 3 7 -5 9 12 26 15 20 10 14 -13 -14 22 -16 24 -18 19 -20 -21 23 -23 -24 -25 -26 -27 -28 28 29 -31
leaf_value=0.19816793586231557 -0.0043634984042078542 0.15093686270830028 -0.12300931573758239 0.11115423830534608 -0.038572359998106112 0.0091502399596449496 0.039136313205438332 0.088369155420534293 -0.090033151063075093 -0.02595255815092895 -0.10678784849408703 0.047011489751321744 0.079312401593469778 -0.15047523019844158 -0.02375140938384103 -0.076210977014517831 0.053437709766856405 -0.097354755490973888 0.14817337186472329 -0.06987795431031156 -0.021570743207822322 -0.078904875565333016 -0.13146768708223508 -0.062726053353295577 -0.10331994313295244 0.10388732584862093 0.11263358404991666 -0.063590764007950856 -0.20000000000000001 0.054504516943458918
leaf_weight=6281.4958366800129 414.39312052261084 70.303888514172286 419.15331255993806 249.00939354189904 379.50704684421362 1528.5138562981156 116.98609633784508 40.371198829670902 347.80964485826553 839.39873431170417 704.28494918915385 448.28052326224861 377.25814065797022 2474.6471648954466 250.26569125219248 803.24712910749076 181.02336270271917 1804.7364691279508 25.100174305203836 954.10455502639525 362.84114037040854 469.91775713443349 2286.4159065245622 802.63769198184309 967.81592123160954 14.936225591154651 196.51282593776705 328.41200544049207 9.8583999344264139 66.474900877219625
leaf_count=5868 15746 955 32420 11369 25808 96489 3679 1068 31570 87034 73640 29885 14577 246147 27144 66784 5303 168969 452 97497 23046 31520 230264 65371 84203 396 2791 17262 743 2000
internal_value=0 -0.0721596 -0.109602 -0.0374498 -0.0416099 -0.00889163 0.192798 -0.122744 -0.0498083 -0.0629807 -0.0365098 -0.000551542 0.0246659 -0.134794 -0.0850172 -0.0854655 -0.0113654 -0.0818931 0.0113963 -0.0878523 -0.0591344 -0.099698 -0.141347 -0.0499134 -0.0893949 -0.0729232 0.0852071 -0.0256863 -0.0475175 0.0216354
internal_weight=0 17620.7 8476.67 9144.05 8895.04 3514.46 6594.99 7476.5 1583.59 5380.58 2242.23 1287.68 1930.87 5650.13 954.551 1826.37 1000.16 3138.35 1553.61 2758.84 1513.29 889.071 4761.06 1165.48 1786 818.183 313.499 819.138 404.745 76.3333
internal_count=1500000 1487662 733856 753806 742437 232460 12338 692802 120942 509977 217703 116919 111518 540351 100784 152451 41054 292274 96941 266466 119987 63940 476411 88417 151383 67180 6470 35751 20005 2743
is_linear=0
shrinkage=0.1


Tree=1
num_leaves=31
num_cat=0
split_feature=1 3 1 1 1 3 3 1 2 3 1 3 1 2 3 0 0 0 0 0 3 0 0 2 1 3 2 2 3 2
split_gain=32544.3 2686.72 691.446 649.442 504.084 247.188 165.58 149.691 170.721 139.782 177.786 133.315 107.003 684.799 146.99 119.723 118.111 156.391 144.09 137.788 114.464 111.714 116.006 101.44 97.0551 88.5052 88.0677 84.224 83.7992 83.4083
threshold=0.017495645627681151 0.031716272055583576 0.018990510714877243 0.15572754646837664 0.016625126924443435 0.025459758040579403 0.16031615112056033 0.020161523485497452 0.029993033362248411 0.034274731124906102 0.028655493381363889 0.14871577746678927 0.066257160141535057 0.063351565136372023 0.086202664723571965 27780.000000000004 23633.500000000004 26527.000000000004 19056.000000000004 19955.500000000004 0.12644871490466134 19853.000000000004 19642.000000000004 0.027817354061032768 0.11438666263594548 0.088314253036800669 0.069532290599299704 0.044697542847139983 0.071113387883164889 0.018893064525069506
decision_type=2 2 2 2 2 2 2 2 2 2 2 2 2 2 2 2 2 2 2 2 2 2 2 2 2 2 2 2 2 2
left_child=4 2 -2 7 -1 -4 -5 -3 9 10 -9 12 13 16 26 20 18 -18 -10 21 24 22 -20 -11 25 27 -14 -16 -15 -7
right_child=1 3 5 6 -6 29 -8 8 11 23 -12 -13 14 28 15 -17 17 -19 19 -21 -22 -23 -24 -25 -26 -27 -28 -29 -30 -31
leaf_value=0.16921277281794442 -0.025544683535551935 0.064028399354655943 -0.11204270531461401 -0.055764650451501946 0.061693597469620158 -0.10270702897278156 0.092392373415461596 -0.11766284318040102 -0.024714417190722412 -0.053286601713950027 0.0042513918365900518 -0.074268589987860734 -0.0096743770417471626 -0.1162494155627653 0.091059266075480441 0.08816768213860135 -0.077638442397259838 -0.012415989562824411 0.052442465566080822 -0.0095868302640640252 0.010121343479606361 0.12541026808082203 -0.086302626074657426 -0.10158833555967522 -0.076137077352077101 -0.020834677063815973 0.034972194664435331 -0.099652155480275964 -0.059770497831774731 -0.068506191919478848
leaf_weight=8893.2282320177219 1475.2076924804715 165.57437055977061 5737.3560404670425 87.476025281070179 458.5268352823332 998.96041141625028 547.9245907326258 145.08384413865861 6631.1420058320073 1812.9720046560979 681.42713722414919 587.17845854566258 1052.5220645822119 914.19013833405916 25.547296771779656 89.011243561864831 819.98546302279283 666.41972772195004 267.3916304357117 1354.1297136161884 599.22936874172592 146.43408002954675 77.794885242066812 571.9647381390896 539.30311696662102 1857.6142438132229 761.44501211080933 247.50117872671399 368.63709169230424 2491.6883028308512
leaf_count=5868 40742 1295 416590 1173 6470 53027 4618 3813 283482 92346 20257 5578 52533 21216 622 2140 42383 26013 8022 53809 28507 2148 4262 16085 31813 84490 37704 4441 7680 140873
internal_value=0 -0.0483317 -0.0891143 -0.0275635 0.163941 -0.0992766 0.0719955 -0.0306671 -0.0314427 -0.0525888 -0.0171492 -0.0274493 -0.0257749 -0.0312497 -0.0138707 -0.0262606 -0.0223952 -0.0483964 -0.017836 0.00687596 -0.0293762 0.0522214 0.0211734 -0.0648705 -0.0382407 -0.0286486 0.00906682 -0.0818086 -0.100019 -0.0782939
internal_weight=0 31721.1 10703.2 21017.9 9351.76 9228 635.401 20382.5 20216.9 3211.45 826.511 17005.5 16418.3 11246.1 5172.17 3358.21 9963.3 1486.41 8476.89 1845.75 3269.2 491.621 345.187 2384.94 2669.97 2130.66 1813.97 273.048 1282.83 3490.65
internal_count=1500000 1487662 651232 836430 12338 610490 5791 830639 829344 132501 24070 696843 691265 449015 242250 152013 420119 68396 351723 68241 149873 14432 12284 108431 121366 89553 90237 5063 28896 193900
is_linear=0
shrinkage=0.1


Tree=2
num_leaves=31
num_cat=0
split_feature=1 2 1 3 1 3 1 3 0 1 0 0 0 0 3 3 2 1 3 2 0 3 3 2 3 1 0 3 0 0
split_gain=26066.5 2005.26 500.642 409.017 374.556 260.695 152.924 179.261 119.581 116.178 93.5249 215.562 161.673 106.204 95.6778 77.6663 73.5239 71.3326 70.426 69.4536 67.879 63.3896 78.7992 59.7521 56.4157 52.652 52.3609 48.6016 46.834 193.231
threshold=0.017495645627681151 0.026622988858912237 0.018990510714877243 0.026603574966688175 0.016625126924443435 0.14134593242834295 0.051457455545009738 0.04736911239256944 18971.000000000004 0.019622964628686453 9197.5000000000018 8041.0000000000009 8196.5000000000018 9025.5000000000018 0.037480162968098286 0.042911753473422264 0.047401844390842822 0.018385861040472486 0.033256987340543422 0.018893064525069506 374.00000000000006 0.016949388817063992 0.017653047015059042 0.017767160641575155 0.053884156420427397 0.019622964628686453 18834.500000000004 0.019847077867135642 20869.500000000004 20619.500000000004
decision_type=2 2 2 2 2 2 2 2 2 2 2 2 2 2 2 2 2 2 2 2 2 2 2 2 2 2 2 2 2 2
left_child=4 2 17 25 -1 6 7 9 26 -3 11 15 14 -14 -13 -11 -8 23 -5 -20 -18 -6 -23 27 -21 -4 -9 -2 29 -22
right_child=1 5 3 18 21 -7 16 8 -10 10 -12 12 13 -15 -16 -17 20 -19 19 24 28 22 -24 -25 -26 -27 -28 -29 -30 -31
leaf_value=0.153478569373422 -0.015957631516007507 0.11217771135975188 -0.073158464129994591 -0.074529466534463351 0.12587730814655937 0.019595818699261205 -0.057142215020990872 0.020790261772029542 -0.021958101859730843 -0.043537194566361181 -0.040463393625788414 -0.18088711243202332 -0.050860633850776653 0.10686998635764998 0.17954759239621618 0.016973752208812819 -0.12440694551485017 -0.044828035971756719 -0.077240559204579173 -0.023825347273304036 -0.030093785919893208 -0.0031375956924673664 0.095877696518407232 0.035175424558374586 -0.069237768739780867 -0.10577610701909884 0.13063287954146979 -0.16892346912717088 -0.044107263834118685 0.07834634632748444
leaf_weight=8576.9753705017501 383.83554830244975 58.183976329048164 544.69278969813604 2033.4950016551302 106.71103713585762 1232.388970036729 1387.7667254157568 1371.8550242654164 925.20871149370214 887.12901666754624 2905.6681264447689 7.8830843286123118 117.07312796905171 67.18686645955313 112.00692687113769 278.76375188789098 79.444862983538769 689.48817804042483 575.59189945389517 1023.5252822838374 6390.8200365969387 196.80130680574803 135.85991484145052 290.45768927555764 373.34236644829798 5412.7368668014533 44.815278037684038 21.959533324872609 2220.6907940442325 168.65862415730953
leaf_count=5868 11540 206 34229 103375 1055 17197 70558 40442 21985 42073 118848 567 6081 818 406 11417 5686 23181 25768 44805 327875 4330 1085 5727 20501 434891 444 558 115213 3271
internal_value=0 -0.0453382 -0.0783464 -0.0861792 0.148865 -0.0248177 -0.028033 -0.0163771 0.00600362 -0.0281981 -0.0300646 -0.00951059 0.0654627 0.00665281 0.155848 -0.0290691 -0.0357401 -0.0220287 -0.0614709 -0.0480082 -0.0323877 0.0588133 0.0373006 0.000549205 -0.0359628 -0.102794 0.024265 -0.0242354 -0.0315551 -0.0273056
internal_weight=0 29604.7 11349.1 9963.38 9016.35 18255.5 17023.2 6775.77 2341.88 4433.89 4375.71 1470.04 304.15 184.26 119.89 1165.89 10247.4 1385.74 4005.95 1972.46 8859.61 439.372 332.661 696.253 1396.87 5957.43 1416.67 405.795 8780.17 6559.48
internal_count=1500000 1487662 704575 663569 12338 783087 765890 243287 62871 180416 180210 61362 7872 6899 973 53490 522603 41006 194449 91074 452045 6470 5415 17825 65306 469120 40886 12098 446359 331146
is_linear=0
shrinkage=0.1


Tree=3
num_leaves=31
num_cat=0
split_feature=1 3 1 1 2 1 3 1 0 0 1 0 0 0 1 2 1 0 0 3 0 0 3 3 1 2 1 3 2 2
split_gain=21976.6 1688.04 517.568 277.263 209.144 163.245 133.685 95.5927 78.2396 171.382 93.0208 79.6138 64.793 105.76 77.2204 105.022 64.5672 60.4275 167.961 96.0061 94.3228 83.3956 68.5627 64.9162 54.3726 57.8141 53.2162 52.8966 49.7635 57.9245
threshold=0.017495645627681151 0.03032775719500069 0.018990510714877243 0.016625126924443435 0.022528515065989792 0.14510489483220287 0.026603574966688175 0.020431919587293706 2795.0000000000005 2919.5000000000005 0.062041166735804558 2392.5000000000005 26849.500000000004 26913.500000000004 0.049804045036082004 0.073043857175314406 0.099448964343380755 7368.5000000000009 8196.5000000000018 0.048862505980743605 14120.500000000002 8041.0000000000009 0.063530617624380961 0.052550309580268489 0.018385861040472486 0.019961269507731937 0.019714440545246108 0.097282795513240858 0.069532290599299704 0.061422057797190184
decision_type=2 2 2 2 2 2 2 2 2 2 2 2 2 2 2 2 2 2 2 2 2 2 2 2 2 2 2 2 2 2
left_child=3 2 24 -1 26 7 -4 -6 11 10 -10 -9 14 -14 17 28 27 -11 21 -20 22 -19 -21 -22 25 -2 -3 -17 29 -16
right_child=1 4 6 -5 5 -7 -8 8 9 12 -12 -13 13 -15 15 16 -18 18 19 20 23 -23 -24 -25 -26 -27 -28 -29 -30 -31
leaf_value=0.14211895232230742 -0.011295401688978676 0.0672332659152622 -0.096914757726205114 0.058782183518468534 0.053790603609201348 0.015875742079039263 -0.066253696108119306 -0.037365825842393195 0.13181131233336993 -0.039880798372503426 -0.060730556893599436 -0.097621945741859062 0.093891458553576668 -0.011544531978275782 -0.041610830426175249 -0.011382758620032084 -0.032721752004239886 0.0074133750015508114 -0.026570550384298914 -0.07059768535259324 0.059387971145245466 0.10684010402813948 0.042240650177804318 -0.0031454602529581662 -0.04249196857508046 0.091247899811741806 -0.063010528882093936 0.034475400833878588 -0.070364761016923905 -0.017318597032289048
leaf_weight=8383.2767012998229 633.86059959969134 31.99520957027562 5591.9653751299775 419.18750614349847 150.74676924414234 1010.5693500398484 1906.9601921684516 1495.03609396916 106.58484375569969 925.4113880856894 32.817365473834798 256.96148666617228 107.7563679353334 812.27179769368377 4703.6343349168019 1103.3059574266954 1154.9520860951161 172.68865847412962 2902.7687957772287 196.06590882362798 358.23526707466226 164.92986785346875 74.237600856926292 309.37252696964424 659.92783466418041 60.203987860586494 1608.2160507447261 325.81156550958985 469.33285435824655 1240.4487641501473
leaf_count=5868 17112 314 469120 6470 1406 11441 116889 72255 1689 33597 1624 14769 3030 36837 263034 37203 78572 4593 120248 4800 6500 954 708 6133 22984 556 71593 6946 14182 68573
internal_value=0 -0.0425687 -0.0788435 0.13815 -0.026279 -0.0231762 -0.0891177 -0.025489 -0.0261956 -0.0238835 0.0864841 -0.0462035 -0.0249077 0.000804437 -0.0265853 -0.0321587 -0.0151382 -0.0167598 -0.011639 -0.0175834 0.010231 0.0559843 -0.0396072 0.0304097 -0.0219409 -0.00240067 -0.0604699 -0.000927972 -0.0390166 -0.0365414
internal_weight=0 28567.1 8852.92 8802.46 19714.2 18073.9 7498.93 17063.4 16912.6 15160.6 139.402 1752 15021.2 920.028 14101.2 8997.49 2584.07 5103.71 4178.3 3840.68 937.911 337.619 270.304 667.608 1353.99 694.065 1640.21 1429.12 6413.42 5944.08
internal_count=1500000 1487662 626661 12338 861001 789094 586009 777653 776247 689223 3313 87024 685910 39867 646043 468510 122721 177533 143936 138389 18141 5547 5508 12633 40652 17668 71907 44149 345789 331607
is_linear=0
shrinkage=0.1


Tree=4
num_leaves=31
num_cat=0
split_feature=1 2 1 3 1 3 1 1 2 2 0 0 0 0 2 0 2 0 1 3 3 2 0 0 1 3 3 3 0 1
split_gain=19052.7 1429.44 362.486 328.38 230.818 132.683 113.2 57.189 105.545 91.8017 60.1498 125.018 92.867 53.4921 118.168 59.2097 51.005 55.9647 50.1748 48.1806 50.5073 46.3656 45.6353 40.9457 38.4436 36.45 120.311 40.2286 36.1098 63.0617
threshold=0.017495645627681151 0.027817354061032768 0.018990510714877243 0.027676202131864457 0.016625126924443435 0.14871577746678927 0.02108325623002592 0.054985461929507817 0.037517930427312433 0.05782776281517378 4276.5000000000009 11170.500000000002 3996.5000000000005 13397.500000000002 0.077707457458086868 12444.000000000002 0.015884713926722176 27216.500000000004 0.020072166853364895 0.016949388817063992 0.022704608132673585 0.010158358120444664 11825.000000000002 27832.000000000004 0.019622964628686453 0.061708234292056761 0.061885136503765183 0.05936577745520024 2524.5000000000005 0.044879237328966114
decision_type=2 2 2 2 2 2 2 2 2 2 2 2 2 2 2 2 2 2 2 2 2 2 2 2 2 2 2 2 2 2
left_child=4 2 16 24 21 6 -3 8 -8 -9 12 -12 25 14 -13 22 -2 -18 -5 -6 -21 -1 -16 -7 -4 27 -27 -11 29 -10
right_child=1 5 3 18 19 23 7 9 28 10 11 13 -14 -15 15 -17 17 -19 -20 20 -22 -23 -24 -25 -26 26 -28 -29 -30 -31
leaf_value=0.13953250560447497 -0.043996463129658811 0.077169600113108208 -0.062705930326098322 0.024059865481879217 0.11737809078278028 0.0093048273533579209 -0.034225157098049047 -0.046902707134978239 0.015361439100381664 0.0022237190255516644 -0.055383286016513947 -0.041048266482811707 0.080948331367631965 -0.024009108794116472 0.035095771711179287 0.089571144799539426 -0.00032687251199890803 -0.18524159878716237 -0.053772288473999924 0.015868600537185761 0.11404208330912487 0.12401212796847678 -0.10770428434548873 0.14546284337627838 -0.092408858565198926 0.12605369831776428 -0.018040366260197779 -0.13109582659994085 -0.0056407809528965201 -0.065733152871522371
leaf_weight=5094.0196788120084 531.40779128478607 109.00742945351521 473.76760426026885 84.775909659627359 98.728573445929214 1035.7777110859752 2589.7806937883142 2448.0660613556975 149.59025038563414 40.565540741430596 1277.6540078014368 246.27305730688386 121.50968063587788 3443.7718902101624 84.49966321955435 175.84975958568975 794.25835436320631 16.711458945384948 3601.3792788813735 241.98875599738676 66.889437830075622 3093.8747023897013 30.441367342020385 22.567485096049495 5428.3981839347252 63.608014498604462 650.81344268319663 51.199778947513551 3867.8989060249878 267.13134737953078
leaf_count=2612 19171 686 34468 1410 1055 11266 115202 163463 4627 2223 71455 12885 3214 170145 3152 4155 21011 872 181158 5098 317 3256 2528 103 475766 755 39554 4275 133890 10228
internal_value=0 -0.0404799 -0.0685858 -0.0753995 0.130012 -0.0220572 -0.0243792 -0.025093 -0.0182874 -0.0305114 -0.0240249 -0.0281666 -0.000548404 -0.0194313 0.00992228 0.0530896 -0.0199164 -0.00413737 -0.0519823 0.0565663 0.0371287 0.133668 -0.00272387 0.0122082 -0.0900246 -0.0128317 -0.00521105 -0.0721609 -0.00865408 -0.0366227
internal_weight=0 27606.7 10930.7 9588.32 8595.5 16676 15617.7 15508.7 6874.4 8634.25 6186.19 5258.49 927.696 3980.84 537.064 290.791 1342.38 810.97 3686.16 407.607 308.878 8187.89 114.941 1058.35 5902.17 806.187 714.421 91.7653 4284.62 416.722
internal_count=1500000 1487662 733856 692802 12338 753806 742437 741751 263947 477804 314341 264320 50021 192865 22720 9835 41054 21883 182568 6470 5415 5868 5680 11369 510234 46807 40309 6498 148745 14855
is_linear=0
shrinkage=0.1


Tree=5
num_leaves=31
num_cat=0
split_feature=1 3 1 1 3 3 2 1 1 2 0 1 2 2 0 3 1 3 3 2 1 0 2 0 0 1 0 0 3 0
split_gain=16799.1 1234.23 394.685 215.792 153.079 123.194 114.052 104.941 65.9134 77.7249 50.5049 45.4243 43.3967 42.8252 38.8465 38.742 38.181 34.9033 37.873 33.5975 33.0152 32.8353 45.4693 43.3099 81.3434 32.5708 41.3541 33.2928 31.7516 30.1005
threshold=0.017495645627681151 0.031716272055583576 0.018990510714877243 0.016625126924443435 0.1319382452541327 0.026603574966688175 0.027571542793620164 0.02108325623002592 0.054700544796043186 0.059497902365243181 27832.000000000004 0.018385861040472486 0.05102815912818829 0.020261048714375146 890.50000000000011 0.069091015107578715 0.057361670197638014 0.016949388817063992 0.017653047015059042 0.0084948867240958511 0.019622964628686453 10794.500000000002 0.093532693796954419 19955.500000000004 20472.500000000004 0.15572754646837664 7247.0000000000009 8721.0000000000018 0.057556916339157306 27436.000000000004
decision_type=2 2 2 2 2 2 2 2 2 2 2 2 2 2 2 2 2 2 2 2 2 2 2 2 2 2 2 2 2 2
left_child=3 2 11 19 6 20 -3 -8 12 14 21 13 -9 -2 -10 16 -16 -5 -19 -1 -4 22 -6 -23 -25 -24 -27 -28 -18 -11
right_child=1 4 5 17 10 -7 7 8 9 29 -12 -13 -14 -15 15 -17 28 18 -20 -21 -22 23 25 24 -26 26 27 -29 -30 -31
leaf_value=0.13378022132250103 -0.0084912984481374226 -0.046297428526148918 -0.061939767841017693 0.10413965964512838 -0.1134691150797572 -0.05906514264019333 0.072123010317368438 -0.020013030095744344 -0.11556075817798449 -0.023703328947002791 0.12706844411674428 -0.038233607332895818 0.0016270675579260483 0.082878098990679994 -0.027052620897253157 -0.020641599325876739 -0.14216524232987582 0.0053449959504974628 0.076919595597345083 0.120749793309474 -0.089924656384730517 0.032713540199450532 -0.040737314656586532 -0.19665078028650035 0.00064280711866420174 0.042729937197098979 -0.16135156409426199 -0.001801862020650627 -0.053526082781398532 0.0183358130376059
leaf_weight=4189.7984934039414 614.07937362036319 2470.1096065105812 464.02856370821246 98.651244072680129 44.972340666106902 2208.2323440259643 114.94948984589428 5104.8172651594214 71.152676891884767 4909.7220965840388 34.433986421325244 631.80152147772606 1132.2368199473713 55.973564264771994 651.67055621428881 720.05344388855156 41.524715641164221 174.59786970951245 128.21917317291081 3749.5891597497393 4607.0429344344011 564.31767200917238 167.83309682219988 22.079348900006153 390.44581391400425 167.6529095947626 19.539160712854937 39.553772646468133 1508.6021374139818 176.44081936450675
leaf_count=2067 17211 112035 34229 1055 1774 141370 719 189214 6404 258196 226 23039 38759 492 49489 38033 4405 4330 1085 3801 434891 9567 7140 825 7214 1175 227 281 104180 6567
internal_value=0 -0.0384039 -0.0697096 0.124009 -0.0237659 -0.0787793 -0.0264417 -0.0230431 -0.0238073 -0.0297691 0.00740624 -0.0189971 -0.0160846 -0.000858661 -0.0425552 -0.0407774 -0.0473624 0.0524806 0.0356512 0.127626 -0.0873639 0.00449712 -0.0182008 0.0147105 -0.00991682 -0.00734255 0.0173756 -0.0545572 -0.0559005 -0.022245
internal_weight=0 26933.3 8581.16 8340.86 18352.1 7279.3 16901.3 14431.2 14316.2 8079.17 1450.83 1301.85 6237.05 670.053 2993 2921.85 2201.8 401.468 302.817 7939.39 5071.07 1416.39 439.551 976.843 412.525 394.579 226.746 59.0929 1550.13 5086.16
internal_count=1500000 1487662 651232 12338 836430 610490 808001 695966 695247 467274 28429 40742 227973 17703 202511 196107 158074 6470 5415 5868 469120 28203 10597 17606 8039 8823 1683 508 108585 264763
is_linear=0
shrinkage=0.1


Tree=6
num_leaves=31
num_cat=0
split_feature=1 3 1 3 1 3 2 1 1 2 2 1 1 0 3 2 0 0 3 1 2 2 3 3 1 0 0 0 1 0
split_gain=14946.5 1060.88 344.567 251.718 201.752 104.968 93.2078 89.4876 56.0589 57.5378 56.6409 37.3146 36.5199 40.1928 33.3594 31.561 31.0279 87.4518 48.9534 37.5428 30.5818 30.2215 28.9995 31.3201 27.7876 27.4429 38.1086 70.6997 45.7423 34.4112
threshold=0.017495645627681151 0.031716272055583576 0.018990510714877243 0.16031615112056033 0.016625126924443435 0.026603574966688175 0.027571542793620164 0.02108325623002592 0.049804045036082004 0.063351565136372023 0.039601949000438806 0.018385861040472486 0.040060860567931046 10665.000000000002 0.076972957969466765 0.055479016112394884 6182.5000000000009 9197.5000000000018 0.044704009501546495 0.029371526540314361 0.020362607023146812 0.011153123159760555 0.016949388817063992 0.022704608132673585 0.019622964628686453 5368.0000000000009 21703.500000000004 18971.000000000004 0.018711564716419011 13166.500000000002
decision_type=2 2 2 2 2 2 2 2 2 2 2 2 2 2 2 2 2 2 2 2 2 2 2 2 2 2 2 2 2 2
left_child=4 2 11 6 21 24 -3 -8 10 -10 16 20 13 14 -12 -14 -9 18 19 -18 -2 -1 -6 -24 -4 -13 27 29 -29 -27
right_child=1 3 5 -5 22 -7 7 8 9 -11 12 25 15 -15 -16 -17 17 -19 -20 -21 -22 -23 23 -25 -26 26 -28 28 -30 -31
leaf_value=0.12696511079021039 -0.0086457935197516763 -0.043568627850380043 -0.059611120811387468 0.037442191927873264 0.096783204547203877 -0.056646847843836529 0.065909146256887041 -0.050550927581106402 -0.034131523225415066 -0.019024688150977406 0.073422854480006336 -0.087662177558636395 -0.011334191439983442 -0.0043937963609330102 -0.22594434749285452 0.040890805371576862 -0.13318884375563086 -0.031112294903606608 -0.08071132030146437 0.041268219799490038 0.069912249339146554 0.1135680909485125 0.01658847123989126 0.095003937493956164 -0.085725059577162255 -0.0090961734428371809 -0.076239910830981389 -0.046209701371271839 0.10757862174849037 -0.076967043467350796
leaf_weight=5183.5221311695641 611.10862991822069 2402.6897814411204 449.48839134554146 664.20226287841797 96.892593621945707 2136.4717301783676 113.99683490316966 405.03683433917467 5508.1473464119772 4649.2627430600114 145.59250843571499 89.298422908555949 2016.9545321626938 180.0127501146053 3.8199485375080249 122.75897784309927 12.812840493395923 1469.7235997811949 41.099325073650107 330.95923489675624 53.927274930552812 2493.9914494694094 232.17655454130727 65.250225931944442 4360.0676058167883 189.8759158756875 124.18057908061019 27.216895238670986 66.833208528201794 123.15430662073777
leaf_count=2949 17239 112035 34229 5746 1055 141370 719 21343 328167 223293 2430 4437 64715 4421 104 1462 536 62382 1494 7583 464 2919 5098 317 434891 6319 5398 1066 774 5045
internal_value=0 -0.0365338 -0.0662893 -0.0229768 0.11903 -0.0750913 -0.0252828 -0.0223538 -0.0230297 -0.0272168 -0.0140358 -0.0187328 -0.00356604 0.0274289 0.0657691 -0.00833796 -0.0254763 -0.0200001 0.0224345 0.034766 -0.00227558 0.122613 0.0492699 0.0337915 -0.0832845 -0.0363695 -0.0277478 -0.0129552 0.0630743 -0.0357984
internal_weight=0 26298.7 8231.62 18067.1 8071.83 6946.03 17402.9 15000.2 14886.2 10157.4 4728.77 1285.6 2469.14 329.425 149.412 2139.71 2259.63 1854.6 384.871 343.772 665.036 7677.51 394.319 297.427 4809.56 620.559 531.261 407.08 94.0501 313.03
internal_count=1500000 1487662 651232 836430 12338 610490 830684 718649 717930 551460 166470 40742 73132 6955 2534 66177 93338 71995 9613 8119 17703 5868 6470 5415 469120 23039 18602 13204 1840 11364
is_linear=0
shrinkage=0.1


Tree=7
num_leaves=31
num_cat=0
split_feature=1 3 1 3 1 3 2 1 1 2 2 0 0 0 0 1 1 1 3 3 1 2 0 2 0 1 0 1 2 3
split_gain=13389.6 930.698 321.174 211.97 189.128 105.227 82.7182 78.1866 40.6402 69.9627 50.3424 42.1296 32.2406 99.3763 40.8928 40.7089 35.6905 31.529 31.3755 31.1666 27.9365 41.4118 27.8315 25.4093 25.1566 25.0484 24.4 24.2596 23.7768 34.0771
threshold=0.017495645627681151 0.032056750131818031 0.018990510714877243 0.14871577746678927 0.016625126924443435 0.026603574966688175 0.01985873886476416 0.020431919587293706 0.052710315498911121 0.054599550788965799 0.036150581280195701 2201.5000000000005 19955.500000000004 19853.000000000004 20395.000000000004 0.0608114251919393 0.064548185158012958 0.073871910347858352 0.094763263325786898 0.019634005391302063 0.054700544796043186 0.063876916505253969 10035.500000000002 0.0097460088271469954 26090.500000000004 0.060645806928817311 1402.5000000000002 0.019622964628686453 0.058095951463035429 0.076972957969466765
decision_type=2 2 2 2 2 2 2 2 2 2 2 2 2 2 2 2 2 2 2 2 2 2 2 2 2 2 2 2 2 2
left_child=4 2 19 6 23 27 -3 24 10 11 -9 -10 13 -11 -14 25 -17 -18 28 -2 -16 -22 26 -1 -8 -15 -5 -4 29 -12
right_child=1 3 5 22 -6 -7 7 8 9 12 18 -13 14 15 20 16 17 -19 -20 -21 21 -23 -24 -25 -26 -27 -28 -29 -30 -31
leaf_value=0.12336633435654015 -0.023539300746331707 -0.057900031691295886 -0.057581620467701405 0.052379292775884247 0.046830511741182926 -0.053685885318008608 0.05629834497682578 -0.028080750697924962 -0.092907866873482459 -0.021038754150800618 -0.010875764687489759 -0.039253733552261118 -0.097124501282236264 0.059997494507330433 0.049829781782590454 -0.11605061415215515 0.10580248775916881 -0.065851894512227754 -0.2117177563293581 0.017070172084568971 -0.053434668428164279 -0.021744157602874119 0.036185754993414185 0.1113811796537769 -0.21316189850141001 0.16545328380400512 -0.016564590103366163 -0.082323708261196268 0.032333737872108997 -0.16224657184775745
leaf_weight=4447.8481329469942 1005.5477846287831 707.594211861433 438.1158182011568 66.309237428475171 386.39152017065499 2282.0608739709714 142.91962619757396 2749.0618422103726 156.80424731050152 4618.5311352245335 3777.1295274293516 2194.2385607585893 95.973332070745528 58.178804196417332 42.609596686437726 19.239454339724034 30.529900890076533 16.474544230150059 7.7291595414280883 232.72824287065305 611.21021320100408 1267.3820113022812 640.77108530676924 2936.9256898206077 3.5507526060100636 36.75196217559278 227.28708651737543 4150.8158347962526 128.09259841416497 14.931113408878444
leaf_count=2465 35751 36969 34229 646 6470 147168 1181 114732 12793 269673 129455 136883 7338 633 1324 414 384 674 259 5010 45868 58271 7533 3403 137 70 3190 434891 1792 394
internal_value=0 -0.0347527 -0.0627861 -0.0218459 0.115031 -0.0712346 -0.0244424 -0.0229601 -0.0236332 -0.0279627 -0.0177015 -0.0428322 -0.0228194 -0.0183451 -0.033421 0.0588419 -0.00132074 0.0456395 -0.0104373 -0.0159069 -0.0302388 -0.0320548 0.0245033 0.1186 0.0497661 0.100824 -0.000993495 -0.0799615 -0.0100404 -0.0114718
internal_weight=0 25722.6 8109.27 17613.3 7771.17 6870.99 16678.9 15971.3 15824.9 9147.92 6676.94 2351.04 6796.88 4779.71 2017.18 161.175 66.2439 47.0044 3927.88 1238.28 1921.2 1878.59 934.367 7384.77 146.47 94.9308 293.596 4588.93 3920.15 3792.06
internal_count=1500000 1487662 657049 830613 12338 616288 819244 782275 780957 534325 246632 149676 384649 271848 112801 2175 1472 1058 131900 40761 105463 104139 11369 5868 1318 703 3836 469120 131641 129849
is_linear=0
shrinkage=0.1


Tree=8
num_leaves=31
num_cat=0
split_feature=1 3 1 3 1 3 1 2 1 3 2 1 1 0 0 0 2 3 2 3 3 0 0 0 0 0 0 0 0 0
split_gain=12042.4 818.379 274.198 197.753 179.037 117.768 66.9035 77.6064 43.3745 70.3783 43.1421 40.5611 40.268 39.9761 39.0436 34.3268 33.2959 32.3762 29.4428 37.1554 54.1495 52.8881 56.0186 50.1419 35.3944 30.5572 34.0199 46.5516 41.1274 29.0433
threshold=0.017495645627681151 0.033256987340543422 0.018990510714877243 0.16031615112056033 0.016625126924443435 0.026603574966688175 0.020431919587293706 0.032528352333687387 0.054700544796043186 0.073775204154444704 0.05782776281517378 0.057361670197638014 0.074981012887539111 27105.000000000004 26755.000000000004 1328.5000000000002 0.020362607023146812 0.032827052414873555 0.1183025411964875 0.099956958783308889 0.086202664723571965 27832.000000000004 27318.000000000004 575.50000000000011 27713.500000000004 8513.5000000000018 4172.0000000000009 4276.5000000000009 2649.0000000000005 7584.5000000000009
decision_type=2 2 2 2 2 2 2 2 2 2 2 2 2 2 2 2 2 2 2 2 2 2 2 2 2 2 2 2 2 2
left_child=4 2 16 6 -1 -4 -3 -8 -9 10 11 -10 13 14 -11 -12 -2 -7 19 20 23 22 25 -14 -25 26 28 -28 -22 -29
right_child=1 3 5 -5 -6 17 7 8 9 12 15 -13 18 -15 -16 -17 -18 -19 -20 -21 21 -23 -24 24 -26 -27 27 29 -30 -31
leaf_value=0.11520419518597869 -0.020265206498204499 0.049050325760802253 -0.076604906351661561 0.033868322261732003 0.044764831084364569 -0.047638338503175656 -0.038269953759649658 -0.012738436870125262 -0.025350824262912214 0.0098928658423192255 -0.092549257100365434 -0.058338023986176692 0.098782880333437004 -0.14007458545654869 0.1372384665914671 -0.023316010225736539 0.039962304584702277 -0.09905802634839922 -0.00079092536993277728 -0.03619753070539012 0.035314728235818098 0.13527861294262214 -0.20177629755247484 -0.034706256765033271 -0.16378291756838984 -0.0098268430532951409 0.16924264528612798 0.0017994673501150853 -0.10211295504752112 0.12041448008328702
leaf_weight=7077.7475562590989 1141.8338138829713 129.3858004057256 4340.6391455297853 645.49334487516899 380.22160311262996 2591.8413146046441 2802.6165788387152 5117.2576842142153 581.69473963222117 457.76154370117001 73.859391166828573 1037.7288953170937 27.560972964623943 16.855756694916636 25.412416824605316 2356.6168104279495 99.815251467647613 128.5243613866478 716.25641839683522 1278.2841621497646 60.938143159728497 29.236742927692831 13.739734757924451 687.90781500691082 21.921118605183437 623.93615883938037 32.220864961389452 80.293183839414269 33.884994088904932 27.786378403892741
leaf_count=5868 39435 1166 469120 5746 6470 159165 137817 189900 46689 15997 6090 84334 731 773 205 137165 1394 6246 31199 93681 2527 146 550 30311 761 20813 65 3561 1428 647
internal_value=0 -0.0330565 -0.0587604 -0.0204127 0.111613 -0.066381 -0.0225712 -0.0231466 -0.01996 -0.0244756 -0.0338448 -0.0464891 -0.015297 0.0113095 0.0165906 -0.0254199 -0.0154236 -0.0500677 -0.018958 -0.0234178 -0.0134532 0.00297866 -0.00145308 -0.0335541 -0.0386924 0.00175087 0.0324741 0.0637454 -0.013795 0.0322944
internal_weight=0 25181.3 8302.65 16878.6 7457.97 7061 16233.2 16103.8 13301.2 8183.9 4049.9 1619.42 4134 500.03 483.174 2430.48 1241.65 2720.37 3633.97 2917.71 1639.43 902.036 872.799 737.39 709.829 859.06 235.124 140.3 94.8231 108.08
internal_count=1500000 1487662 675360 812302 12338 634531 806556 805390 667573 477673 274278 131023 203395 16975 16202 143255 40829 165411 186420 155221 61540 29737 29591 31803 31072 29041 8228 4273 3955 4208
is_linear=0
shrinkage=0.1


Tree=9
num_leaves=31
num_cat=0
split_feature=1 3 1 3 1 3 2 1 1 1 2 0 0 0 0 3 0 0 0 2 0 0 0 0 1 1 0 0 0 0
split_gain=10868.5 729.413 256.203 170.539 166.454 73.0978 64.7589 59.504 39.6441 30.2966 64.0593 29.7866 30.0674 38.136 30.671 36.49 28.939 181.133 39.7046 28.8789 36.3467 48.3728 54.6171 31.7453 31.7395 28.1741 27.6097 34.2006 30.4749 26.79
threshold=0.017495645627681151 0.031716272055583576 0.019341924008742028 0.14134593242834295 0.016625126924443435 0.025459758040579403 0.027817354061032768 0.018990510714877243 0.018385861040472486 0.045426420630897413 0.044094666806976525 4602.0000000000009 16048.000000000002 16404.500000000004 15737.000000000002 0.034274731124906102 8196.5000000000018 8041.0000000000009 4922.0000000000009 0.069532290599299704 1601.0000000000002 4276.5000000000009 4172.0000000000009 2392.5000000000005 0.093699240026757946 0.038212249310823156 27780.000000000004 27895.500000000004 27713.500000000004 27047.000000000004
decision_type=2 2 2 2 2 2 2 2 2 2 2 2 2 2 2 2 2 2 2 2 2 2 2 2 2 2 2 2 2 2
left_child=4 2 8 6 -1 -4 -3 -8 -2 10 11 -9 14 -14 15 -13 17 18 -17 -11 24 22 23 -22 -21 -16 28 -28 -23 -5
right_child=1 3 5 29 -6 -7 7 9 -10 19 -12 12 13 -15 25 16 -18 -19 -20 20 21 26 -24 -25 -26 -27 27 -29 -30 -31
leaf_value=0.11228350891118406 -0.0013646612057630176 -0.038297040230224288 -0.07652268667320225 0.014408236033313124 0.043641332985270072 -0.053842869622819305 0.093675808090119064 -0.0445070810718141 -0.034963905374790209 -0.026485892881097508 0.019806757963279784 0.023809293736795453 -0.17305342179492331 -0.023713256718266882 0.10854775033660968 0.061479105580523434 -0.032775159154728645 0.10537151594602252 -0.060885069353392024 -0.025144341927478178 0.044775015410271901 -0.018183964413886623 0.12699364084514117 -0.022267525074594993 -0.11731810366347942 -0.071727004650234266 0.098622581449082203 -0.026633736496398854 -0.16379974628803817 0.079985555427526514
leaf_weight=6760.5405742785661 637.17035019447212 2325.9140889337432 3465.2258673301621 995.43583396443864 372.75225198599219 2409.0681849631874 45.676938317876193 375.19763071500347 782.36837917361845 7645.0874829854511 525.58447849284858 293.4803123465681 17.374423104105517 1080.4420498874533 41.946792901260778 30.348396578789107 494.01027214493661 119.08928883448243 210.0721090134175 93.210478873224929 127.27285478345584 2474.5210219413275 44.217527777887881 158.69196632271633 62.346164455637336 10.927674300968645 45.177657190943137 42.124760406557471 14.456245326902716 66.455736461794004
leaf_count=5868 17703 114197 399457 16545 6470 193461 138 19240 40611 422355 12733 7265 1198 45775 631 952 24644 464 8942 3032 5114 132043 147 9208 6783 619 709 1505 1539 652
internal_value=0 -0.0314768 -0.0580084 -0.020316 0.108697 -0.0672216 -0.0228491 -0.0202737 -0.0198826 -0.020648 -0.0121078 -0.0183833 -0.0141175 -0.0260768 -0.00317544 -0.00660815 -0.0170671 0.0045177 -0.045439 -0.0231991 -0.0149929 -0.0124724 0.0235637 0.00757074 -0.062087 0.07129 -0.0170909 0.0381845 -0.0190297 0.0185122
internal_weight=0 24632.9 7293.83 17339.1 7133.29 5874.29 16277.2 13951.3 1419.54 13905.6 3198.47 2672.89 2297.69 1097.82 1199.87 1147 853.52 359.51 240.421 10707.1 3062.02 2906.46 330.182 285.965 155.557 52.8745 2576.28 87.3024 2488.98 1061.89
internal_count=1500000 1487662 651232 836430 12338 592918 819233 705036 58314 704898 122463 109730 90490 46973 43517 42267 35002 10358 9894 582435 160080 150265 14469 14322 9815 1250 135796 2214 133582 17197
is_linear=0
shrinkage=0.1


Tree=10
num_leaves=31
num_cat=0
split_feature=1 3 1 1 3 2 1 3 1 2 1 2 2 1 3 3 0 0 0 0 2 3 2 3 1 3 0 0 0 0
split_gain=9804.25 638.694 238.454 165.288 149.214 62.1031 60.433 54.6881 36.9927 32.6392 36.1091 41.9147 36.7785 32.0237 26.3911 26.1834 25.8173 89.3976 45.425 33.5925 32.1406 30.5071 25.4687 24.9318 32.2775 34.7049 47.0945 49.3835 59.8333 55.726
threshold=0.017495645627681151 0.031716272055583576 0.018862938295192849 0.016625126924443435 0.16031615112056033 0.026009508328555215 0.02108325623002592 0.025459758040579403 0.019622964628686453 0.11589362122618052 0.053133639212132037 0.037517930427312433 0.05782776281517378 0.11438666263594548 0.016949388817063992 0.022704608132673585 13166.500000000002 12444.000000000002 15846.000000000002 5460.5000000000009 0.12825442862599665 0.1319382452541327 0.011153123159760555 0.1105079293661257 0.1030684424484775 0.086202664723571965 27832.000000000004 26266.500000000004 25962.500000000004 24670.000000000004
decision_type=2 2 2 2 2 2 2 2 2 2 2 2 2 2 2 2 2 2 2 2 2 2 2 2 2 2 2 2 2 2
left_child=3 2 -2 22 5 -3 -7 8 -4 10 11 -8 -12 23 -5 -16 17 19 -18 21 -21 -11 -1 24 25 -14 27 28 29 -27
right_child=1 4 7 14 -6 6 9 -9 -10 16 12 -13 13 -15 15 -17 18 -19 -20 20 -22 -23 -24 -25 -26 26 -28 -29 -30 -31
leaf_value=0.11413649309406593 -0.011178606278641312 -0.038212895894307958 -0.046150560551003007 0.088482605364850711 0.027864346028182177 0.050297047673877229 -0.026234477242088688 -0.051235480915262969 -0.075010976316953679 0.063554492505310436 -0.034721960146527855 -0.0084639835347806742 -0.023329224478859271 -0.052772435741193779 0.0097934946656555305 0.084842159835167741 -0.097428351507284558 0.11135005506055143 -0.0031050628290535112 -0.10455761655568772 -0.0033076912091307455 -0.031104993267728438 0.1006821177312264 0.010382484886181688 -0.056833284998412927 -0.0022951737933844182 0.12072158054256894 -0.11087283795165799 0.11630714869496293 -0.13601983605565363
leaf_weight=4353.7954592955066 1039.5697439297073 1925.8405340232057 519.0615324076789 88.053570792922983 640.34124209167203 124.39313499842683 2066.856084598403 2352.8944950813275 3076.5994267948699 86.032892217161134 2689.7728674890022 3709.3914808124537 3337.6118829893821 287.40170999371912 219.63815936283208 58.969063672207994 59.558680853573605 82.460976501344703 357.68932209920604 52.577021714765579 77.662605845602229 56.344036721158773 2078.6975906828302 283.02851347951218 228.53718651272357 930.81655491830315 30.059673756361008 43.236722283181734 41.187014140421525 32.242093632696196
leaf_count=2949 35361 97427 39226 1055 5746 1036 92943 193998 382647 4171 193484 124191 181349 23484 5098 317 3787 938 15979 5759 3350 2923 2919 17474 23246 33781 165 2536 681 1980
internal_value=0 -0.029885 -0.0553663 0.106066 -0.0194979 -0.0213357 -0.0191059 -0.0630885 -0.0708448 -0.0197033 -0.0208324 -0.0148226 -0.0252245 -0.0203251 0.0407606 0.025678 0.00029737 0.0201168 -0.0165689 -0.00747943 -0.0441817 0.0260941 0.109789 -0.0184322 -0.0201885 -0.0182916 -0.00268809 -0.00622959 -0.00172429 -0.00677212
internal_weight=0 24131.2 6988.13 6799.15 17143 16502.7 14576.9 5948.56 3595.66 14452.5 13680.1 5776.25 7903.89 5214.12 366.661 278.607 772.326 355.078 417.248 272.617 130.24 142.377 6432.49 4926.72 4643.69 4415.15 1077.54 1047.48 1004.25 963.059
internal_count=1500000 1487662 651232 12338 836430 830684 733257 615871 421873 732221 695314 217134 478180 284696 6470 5415 36907 17141 19766 16203 9109 7094 5868 261212 243738 220492 39143 38978 36442 35761
is_linear=0
shrinkage=0.1


Tree=11
num_leaves=31
num_cat=0
split_feature=1 2 1 3 3 1 1 3 3 2 3 2 2 2 1 0 0 0 0 2 3 0 0 1 0 0 3 1 0 3
split_gain=8868.79 464.14 385.262 132.941 107.872 75.7062 53.8993 47.4801 44.3578 32.154 24.8508 23.9205 23.8176 23.6256 62.4527 30.9729 107.597 64.0151 29.6268 29.4031 30.3675 25.7749 63.7861 49.2941 35.1838 30.3293 36.4954 34.9643 33.3061 31.6753
threshold=0.016625126924443435 0.027817354061032768 0.018385861040472486 0.12644871490466134 0.029084501866755017 0.019622964628686453 0.02108325623002592 0.016949388817063992 0.02322280074834077 0.10193488598805006 0.025345471860862338 0.011153123159760555 0.013380844533570259 0.040202201521718849 0.040601941011048304 16884.000000000004 16984.000000000004 15928.500000000002 15846.000000000002 0.050621778811663291 0.090218385858784236 6987.5000000000009 12444.000000000002 0.044879237328966114 12769.500000000002 7670.0000000000009 0.06213427112763991 0.1030684424484775 12365.000000000002 0.056777193448507582
decision_type=2 2 2 2 2 2 2 2 2 2 2 2 2 2 2 2 2 2 2 2 2 2 2 2 2 2 2 2 2 2
left_child=11 2 7 6 5 -4 -3 -2 -9 -5 -7 -1 -6 -8 -15 17 19 18 21 -17 -21 -16 23 -23 -24 -25 29 28 -28 -27
right_child=1 3 4 9 12 10 13 8 -10 -11 -12 -13 -14 14 15 16 -18 -19 -20 20 -22 22 24 25 -26 26 27 -29 -30 -31
leaf_value=0.11206022756452123 0.084496082078588761 0.053026888740568746 -0.035616819101642057 -0.021465837953061742 -0.096171509720088144 -0.072626261611333134 -0.027626709822849479 -0.0019431636741814489 0.064612267506735252 0.01834965252277708 -0.056016868295718183 0.098667550326691875 -0.035603993240045012 0.025951739059300434 -0.014958378295373387 -0.081376027550246213 -0.015082493755159677 -0.069123023697223313 0.04161539724331921 0.13780409178299316 -0.17276757113172209 0.010937084392384685 0.02878120277888066 -0.088107051109912862 -0.019321126718551639 -0.044515079448565233 -0.014856534699276095 -0.079754099746137952 -0.14446991171895324 -0.096937865435151427
leaf_weight=4123.0224814644316 85.540417084179353 100.80528070851142 915.55629446337116 242.86365507059963 66.535270987573313 2849.2477529113712 3370.8766865957878 785.98689144863602 114.75992050089553 1230.4398178609554 1317.2720200484691 1971.2499060955597 2684.2591371623712 313.75371561053907 2427.2463456647529 7.789678447181358 4157.8408382634516 300.28781546535902 72.945411193184555 67.495701035950333 3.3024147748947135 153.01646238041576 174.64548032591119 172.50914658652619 1175.7364643894252 305.62428800546331 581.53948114789091 113.63277581706643 20.525233684340492 185.04828560643364
leaf_count=2949 1055 722 57559 9383 3895 376597 170608 22088 1132 30823 133243 2919 144721 6707 131613 510 213669 19544 2738 1072 297 4870 6463 12867 60682 16604 31024 13800 1452 18394
internal_value=0 -0.0273585 -0.0456033 -0.0167574 -0.0530199 -0.0616537 -0.019826 0.0132978 0.00653635 0.0117864 -0.0673751 0.107728 -0.037069 -0.0203658 -0.017974 -0.0193634 -0.0128915 -0.0241881 -0.0216812 0.103028 0.123317 -0.0225508 -0.0289446 -0.0429118 -0.0131 -0.0488875 -0.0432792 -0.0288776 -0.0192752 -0.0642854
internal_weight=0 23997.1 8819.16 15177.9 7832.87 5082.08 13704.6 986.287 900.747 1473.3 4166.52 6094.27 2750.79 13603.8 10232.9 9919.19 4236.43 5682.76 5382.47 78.5878 70.7981 5309.52 2882.28 1531.9 1350.38 1378.88 1206.37 715.697 602.065 490.673
internal_count=1500000 1494132 740290 753842 716015 567399 713636 24275 23220 40206 509840 5868 148616 712914 542306 535599 215548 320051 300507 1879 1369 297769 166156 99011 67145 94141 81274 46276 32476 34998
is_linear=0
shrinkage=0.1


Tree=12
num_leaves=31
num_cat=0
split_feature=1 2 1 3 3 1 1 3 3 1 3 3 0 0 2 0 0 0 0 0 2 2 3 0 0 0 0 3 0 0
split_gain=8039.33 399.832 339.465 125.336 109.303 56.8153 47.9226 44.1533 43.0093 35.1344 49.2268 29.5831 29.2698 36.1235 28.6405 31.9634 27.213 28.328 64.9752 48.0867 27.066 26.4815 24.9877 33.5111 27.9839 33.5346 26.3938 23.813 27.0255 26.9989
threshold=0.016625126924443435 0.029993033362248411 0.018580123595581387 0.029084501866755017 0.12644871490466134 0.019714440545246108 0.019622964628686453 0.016949388817063992 0.018567559417044858 0.054700544796043186 0.073775204154444704 0.025345471860862338 27780.000000000004 27895.500000000004 0.046345805411126574 1402.5000000000002 5368.0000000000009 21703.500000000004 19853.000000000004 20117.500000000004 0.093532693796954419 0.047923361419731303 0.074759445807863367 26755.000000000004 26266.500000000004 25962.500000000004 25036.000000000004 0.081226648501020043 8041.0000000000009 28069.000000000004
decision_type=2 2 2 2 2 2 2 2 2 2 2 2 2 2 2 2 2 2 2 2 2 2 2 2 2 2 2 2 2 2
left_child=-1 2 7 6 9 -5 16 -2 -9 14 -11 -8 22 -14 -3 -16 -4 18 -18 -20 -15 -6 23 -12 25 26 -24 -17 -29 -30
right_child=1 4 3 5 21 -7 11 8 -10 10 12 -13 13 20 15 27 17 -19 19 -21 -22 -23 24 -25 -26 -27 -28 28 29 -31
leaf_value=0.10591157458795696 0.07969562610846441 -0.018361627639570489 -0.082019887726019106 0.046782531142669136 -0.095725859991947104 -0.036229652411422016 -0.06990980873183518 -0.0094111634845531391 0.035183739900268962 -0.030559180050879278 0.0025430244777113462 -0.052086196055599103 0.081904469574951289 -0.17967448393101459 0.054209665785243312 -0.0050280110729978107 -0.034119248727519612 -0.066410726334731648 0.12897483208027294 -0.016601533474229921 0.018340641977777749 0.011971828937943232 -0.016259789433313888 0.12313336624856511 -0.062873285138187393 0.044688036095626611 -0.086642458321326679 0.037292015694637401 -0.20679377951955216 0.15699692166899748
leaf_weight=5756.1399440163514 83.309265749754559 3384.5237404484287 111.97875393288268 84.644412294670474 23.194892477360554 3177.7351274590692 2671.6620043038747 718.95554356949287 309.31097329536715 3945.8918033337395 160.95001309551299 1429.4641705695067 66.146427201805636 10.491453955415638 91.074500369140878 2140.9335372097121 411.47647885622064 152.59110651273295 47.40065216064977 43.526302585920348 20.180640195962042 1456.2065856755362 2612.2350592083531 26.895098422188312 131.64533809479326 89.047230694559403 54.39012895070482 10.14689536415972 17.263202539063062 2.3134493827819815
leaf_count=5868 1055 145098 10359 921 1505 176915 376597 23822 5617 278737 4563 145273 848 742 3980 72337 26471 11812 391 2445 894 38701 146175 292 10061 2604 4975 186 754 2
internal_value=0 -0.0259581 -0.0421562 -0.0492426 -0.0154479 -0.0340759 -0.0594066 0.00967626 0.00400335 -0.0184302 -0.023103 -0.0636973 -0.0138276 0.0403101 -0.0125395 -0.00382709 -0.0364635 -0.0286752 -0.017214 0.0592881 -0.0493908 0.0102833 -0.015532 0.0198088 -0.0178313 -0.0156795 -0.0176954 -0.00626214 -0.0951542 -0.163803
internal_weight=0 23485.6 9242.05 8130.48 14243.5 3262.38 4868.1 1111.58 1028.27 12764.1 7117.87 4101.13 3171.98 96.8185 5646.26 2261.73 766.973 654.995 502.403 90.927 30.6721 1479.4 3075.16 187.845 2887.32 2755.67 2666.63 2170.66 29.7235 19.5767
internal_count=1500000 1494132 781678 751184 712454 177836 573348 30494 29439 672248 449891 521870 171154 2484 222357 77259 51478 41119 29307 2836 1636 40206 168670 4855 163815 153754 151150 73279 942 756
is_linear=0
shrinkage=0.1


Tree=13
num_leaves=31
num_cat=0
split_feature=1 2 1 2 3 1 1 3 1 0 1 2 1 3 2 2 3 0 0 0 3 0 0 0 0 3 3 0 1 0
split_gain=7281.78 346.186 310.842 107.034 83.6666 67.1431 47.532 36.1915 35.8777 35.5181 33.0041 51.2731 32.676 30.6724 24.1885 23.3596 31.9723 26.0699 77.1902 30.1535 24.0661 22.4374 25.0336 34.1017 32.9796 23.1605 22.3809 20.6881 47.0576 31.5805
threshold=0.016625126924443435 0.027817354061032768 0.018385861040472486 0.083589902871748487 0.028876449092726235 0.019622964628686453 0.02108325623002592 0.016949388817063992 0.15572754646837664 1183.5000000000002 0.054382547882017788 0.036150581280195701 0.091156278286149944 0.026203543806695911 0.011153123159760555 0.10971731406207898 0.099956958783308889 13166.500000000002 12944.000000000002 15846.000000000002 0.094763263325786898 23633.500000000004 21887.000000000004 21971.000000000004 22749.500000000004 0.049370132931837549 0.11217359778897014 27436.000000000004 0.064873513829401305 27713.500000000004
decision_type=2 2 2 2 2 2 2 2 2 2 2 2 2 2 2 2 2 2 2 2 2 2 2 2 2 2 2 2 2 2
left_child=14 2 7 6 5 -4 -3 -2 9 -5 11 21 -11 -9 -1 16 20 18 -17 -19 -14 22 -8 -24 -25 -26 -21 -12 -29 -30
right_child=1 3 4 8 -6 -7 10 13 -10 12 27 -13 15 -15 -16 17 -18 19 -20 26 -22 -23 23 24 25 -27 -28 28 29 -31
leaf_value=0.1088525232877879 0.076657960765023625 0.050975532215245235 -0.031450495815514568 -0.08437012304016224 -0.034227309532016761 -0.062444248855665144 -0.027666241100187412 0.00097904390248586249 0.024340111758076072 0.02437441731231034 -0.02640553895084663 -0.0084697014756516999 -0.036270841494050236 0.069193901715722969 0.094575887733442193 0.0054679091343254752 -0.039322739782640302 -0.080936677822583222 0.13800471790213653 0.073810242175982574 0.023856881628030381 -0.054478572011463666 0.12290007158253623 -0.090969284628766578 0.034544716540510077 -0.19555817515725471 -0.010200240212019547 -0.059433139959742934 0.10739269063063912 0.0045656496823819519
leaf_weight=3667.8903326930013 80.52494401198237 94.982003601209726 863.65619026761487 53.010176160139963 2674.3478512352594 3665.3390209519912 1533.6489741185105 800.95352618539619 591.58681222004816 394.66520839917939 5780.8853242366313 4094.4656330046419 100.28256135061383 71.826936987577938 1754.3745705020847 369.41563502734061 413.0816169657046 57.088443166110665 49.875775755383074 34.334211023291573 197.99034175369889 277.30367667705286 24.430217521672603 33.753318307150039 92.936538182781078 4.5902952223550519 415.06113016291056 70.172667136415839 47.255072821048088 81.175267604994588
leaf_count=2949 1055 722 57535 5697 152758 505722 78675 22634 5196 12500 367054 150927 3921 586 2919 22124 39967 5321 196 1835 5738 16619 382 2578 3195 249 21743 5426 842 2935
internal_value=0 -0.0246066 -0.0411505 -0.0154962 -0.0482522 -0.0565339 -0.0194883 0.0125112 0.00260504 -0.00356253 -0.0200442 -0.014844 -0.00145423 0.0065929 0.104233 -0.00768078 -0.0213078 0.00279006 0.0212335 -0.0124783 0.00364129 -0.028115 -0.0237874 0.0144162 -0.00577177 0.0237145 -0.00378176 -0.0253153 0.00641926 0.0424002
internal_weight=0 22968.6 8156.65 14812 7203.34 4529 12135.6 953.305 2676.39 2084.81 12040.6 6061.13 2031.79 872.78 5422.26 1637.13 711.355 925.775 419.291 506.484 298.273 1966.66 1689.36 155.71 131.28 97.5268 449.395 5979.49 198.603 128.43
internal_count=1500000 1494132 740290 753842 716015 563257 629604 24275 124238 119042 628882 252625 113345 23220 5868 100845 49626 51219 22320 28899 9659 101698 85079 6404 6022 3444 23578 376257 9203 3777
is_linear=0
shrinkage=0.1


Tree=14
num_leaves=31
num_cat=0
split_feature=1 2 1 2 3 1 1 3 2 2 1 3 2 1 0 0 3 3 3 2 3 0 0 0 0 0 0 3 0 0
split_gain=6596.78 305.914 275.631 104.23 74.946 59.8504 41.314 32.2476 25.0527 23.6016 22.6357 41.4704 38.5217 27.8991 39.6447 27.7795 22.4187 20.4401 19.7316 45.3279 19.3459 22.5328 37.2204 26.7984 44.0231 26.3925 20.9915 19.4397 19.2844 32.1083
threshold=0.016625126924443435 0.027817354061032768 0.018385861040472486 0.10971731406207898 0.028876449092726235 0.019622964628686453 0.018990510714877243 0.016949388817063992 0.019381749160999915 0.011153123159760555 0.051457455545009738 0.086202664723571965 0.050621778811663291 0.099448964343380755 27832.000000000004 27318.000000000004 0.14871577746678927 0.02312859140568525 0.021308013032714058 0.016168101315966875 0.099956958783308889 11519.500000000002 13876.000000000002 16404.500000000004 19512.000000000004 6057.0000000000009 993.50000000000011 0.13609609017243288 25334.000000000004 18653.500000000004
decision_type=2 2 2 2 2 2 2 2 2 2 2 2 2 2 2 2 2 2 2 2 2 2 2 2 2 2 2 2 2 2
left_child=9 2 7 6 5 -4 -3 -2 -9 -1 12 -12 28 14 15 -13 20 -7 19 -11 -15 25 -23 -24 27 26 -22 -25 29 -8
right_child=1 3 4 -5 -6 17 10 8 -10 18 11 13 -14 16 -16 -17 -18 -19 -20 -21 21 22 23 24 -26 -27 -28 -29 -30 -31
leaf_value=0.10750372729212945 0.073251265521767611 0.079700047501709059 -0.030279834494396571 0.010419340406363067 -0.032681045673584909 -0.068407132001577373 -0.019475412922170757 -0.00055898528506566857 0.049760558982028059 0.092626092105363822 -0.025608764940084613 -0.00043258521501928393 0.011002827711266485 0.057034990103799622 0.11166039495771202 -0.18491230416329835 0.014008016754327099 -0.052987076058038235 0.10961929663931735 0.028366926578830626 -0.13460130278884649 0.040181936550570146 -0.095502999403816943 0.041925306955350961 -0.046661229353995116 -0.094728566066099168 -0.014716802766937815 -0.17840800720486738 -0.035913595356016036 -0.00052441109035546391
leaf_weight=3439.8755654730448 78.034660744688153 43.542783301134477 844.75753530597285 1482.990102744312 2609.2903457566536 1569.3986143462753 3003.0066310194816 746.07243418176949 114.06948103003378 1032.0865996676148 5780.18041471373 1101.2963056266308 601.22900165399187 25.045790907228366 31.675361458677799 8.22353328601457 142.24244288157206 1900.768000741813 497.12045866262633 122.83812949666753 16.528018610202707 85.513888338347897 57.853630335768685 97.45901310746558 220.76572957623284 105.25509317195974 125.56674899684731 4.1758920531719914 435.87157419368305 1273.0273665975619
leaf_count=2949 1055 174 57535 58463 152758 243497 133842 22035 1185 1886 370966 36553 13432 1003 156 682 2354 262225 466 567 2903 4884 6515 6298 20706 13802 10891 302 20827 49089
internal_value=0 -0.0232572 -0.0391678 -0.0147133 -0.0460598 -0.05415 -0.0175458 0.0116985 0.00611424 0.102786 -0.0178687 -0.0212971 -0.0128344 -0.00896899 0.00134933 -0.00179991 -0.0223437 -0.0599609 0.0929616 0.0857915 -0.0293486 -0.0323826 -0.0194288 -0.0328344 -0.0215887 -0.056775 -0.0286614 0.0328724 -0.015876 -0.0138335
internal_weight=0 22503.8 7862.39 14641.4 6924.21 4314.92 13158.5 938.177 860.142 5091.92 13114.9 7801.78 5313.13 2021.6 1141.2 1109.52 880.406 3470.17 1652.05 1154.92 738.164 713.118 465.768 380.254 322.401 247.35 142.095 101.635 4711.91 4276.03
internal_count=1500000 1494132 740290 753842 716015 563257 695379 24275 23220 5868 695205 478015 217190 107049 37391 37235 69658 505722 2919 2453 67304 66301 38705 33821 27306 27596 13794 6600 203758 182931
is_linear=0
shrinkage=0.1


Tree=15
num_leaves=31
num_cat=0
split_feature=1 2 1 3 2 1 1 1 3 3 2 0 2 2 1 1 0 3 0 0 1 2 2 0 0 0 0 0 0 0
split_gain=6007.09 266.998 251.385 101.437 88.8967 51.4484 30.9881 30.4239 36.4525 35.512 31.5788 26.6905 26.2508 25.884 24.5065 24.1441 23.541 23.8303 22.5354 27.4786 33.6209 22.8391 19.6125 18.6864 73.3523 54.917 48.415 44.1945 55.1779 46.5213
threshold=0.016625126924443435 0.029993033362248411 0.018990510714877243 0.025459758040579403 0.10971731406207898 0.017880668656167529 0.020072166853364895 0.049804045036082004 0.069091015107578715 0.048862505980743605 0.04846840141026889 26640.500000000004 0.027817354061032768 0.01469061776934587 0.067896636343874675 0.030563816992838645 26913.500000000004 0.074759445807863367 26090.500000000004 25962.500000000004 0.096466239861060302 0.085877911893095973 0.0084948867240958511 22749.500000000004 19853.000000000004 25252.500000000004 19955.500000000004 17643.500000000004 19056.000000000004 14120.500000000002
decision_type=2 2 2 2 2 2 2 2 2 2 2 2 2 2 2 2 2 2 2 2 2 2 2 2 2 2 2 2 2 2
left_child=22 2 5 -4 7 13 -5 9 14 10 -3 18 -7 -2 23 -8 17 -13 19 -10 21 -21 -1 24 27 -25 -26 29 -29 -9
right_child=1 4 3 6 -6 12 15 8 11 -11 -12 16 -14 -15 -16 -17 -18 -19 -20 20 -22 -23 -24 25 26 -27 -28 28 -30 -31
leaf_value=0.10799410118466919 -0.0065202652291857822 -0.013992891230112976 -0.059814309197994936 0.021539842941050977 0.0096624002861188715 -0.015258017216090783 -0.044588674168922524 -0.03176827698062111 -0.015174185152587907 0.0049580939701578952 -0.097567469585943395 0.11561860804636269 0.090709036922708208 0.041688043027531214 -0.070504467459700543 -0.029157716826877705 0.0013937304403564622 -0.011768981088528051 -0.078650876842640827 0.0092451639670639227 0.10634645217742583 -0.21582553219611947 0.095110797560718607 -0.075672051009797042 0.059746042483070243 -0.019022966376915161 -0.0059755504267278436 -0.10885496495456098 -0.024340818011032592 -0.0013673650396506141
leaf_weight=2538.5564471029211 161.44916564633604 2870.8327962825424 2599.865675279696 95.787318788927223 1481.2432052496588 906.2788713861446 1821.1628411175479 1979.4292856987449 3268.131017056905 1228.7593319010048 45.934726011008024 41.424704140517861 23.996679435716942 359.09698632117943 119.92598468833603 2287.6839758003844 213.65331862476887 22.749847364495508 54.543857099954039 22.959345092065636 41.014354506973177 5.6103039586450896 2210.5828874278232 264.67314975945919 147.03738965303637 484.18193866626825 471.59190911723999 145.31015260552522 164.93712377717748 675.01204804738518
leaf_count=2067 5747 133789 416590 2527 58463 35140 181079 147025 169074 26967 2023 551 54 6620 8242 133921 9515 1462 3894 733 369 162 3801 26232 1695 31190 27912 12825 8886 41445
internal_value=0 -0.0220139 -0.0362296 -0.0442873 -0.0134783 0.00156191 -0.0346864 -0.0162724 -0.0198302 -0.00930176 -0.0153091 -0.0124516 -0.0125246 0.0267361 -0.0259127 -0.0359972 0.0173471 0.0704598 -0.0148921 -0.0138502 0.0483322 -0.0349526 0.101997 -0.0246783 -0.0216759 -0.0390449 0.00964533 -0.0282116 -0.0639246 -0.0240375
internal_weight=0 22004.3 8255.32 6804.5 13749 1450.82 4204.63 12267.7 8122.19 4145.53 2916.77 3670.09 930.276 520.546 4452.1 4108.85 277.828 64.1746 3392.26 3337.72 69.584 28.5696 4749.14 4332.17 3583.32 748.855 618.629 2964.69 310.247 2654.44
internal_count=1500000 1494132 781678 734117 712454 47561 317527 653991 491212 162779 135812 185760 35194 12367 305452 315000 11528 2013 174232 170338 1264 895 5868 297210 239788 57422 29607 210181 21711 188470
is_linear=0
shrinkage=0.1


Tree=16
num_leaves=31
num_cat=0
split_feature=1 2 1 2 3 1 1 3 0 0 3 3 1 0 1 0 0 0 1 0 0 0 3 3 0 0 0 0 0 3
split_gain=5433.77 228.968 224.371 86.5913 79.8669 51.8244 48.4586 42.5599 41.7989 48.8157 38.4775 32.9075 31.0141 30.8695 51.5807 29.8915 143.252 32.3045 29.6116 29.564 28.8985 27.6872 27.2928 29.1071 24.6097 38.6303 40.3408 33.9151 32.6262 35.7503
threshold=0.016625126924443435 0.032528352333687387 0.018385861040472486 0.085877911893095973 0.027676202131864457 0.019341924008742028 0.054700544796043186 0.066420359045282915 22389.000000000004 19853.000000000004 0.057100563561188235 0.067049974257478467 0.020072166853364895 19955.500000000004 0.0608114251919393 2919.5000000000005 2795.0000000000005 3731.0000000000005 0.020580656891945749 11170.500000000002 22235.500000000004 27780.000000000004 0.026203543806695911 0.016949388817063992 6987.5000000000009 14237.500000000002 15519.500000000002 15202.000000000002 15307.500000000002 0.057710623718693593
decision_type=2 2 2 2 2 2 2 2 2 2 2 2 2 2 2 2 2 2 2 2 2 2 2 2 2 2 2 2 2 2
left_child=-1 2 22 6 5 -4 -3 8 9 15 -11 19 -6 14 -12 16 -8 -17 -14 -9 -15 -5 23 -2 -19 -26 27 -27 -29 -30
right_child=1 3 4 21 12 -7 7 11 -10 10 13 -13 18 20 -16 17 -18 24 -20 -21 -22 -23 -24 -25 25 26 -28 28 29 -31
leaf_value=0.10077844750862833 0.067400729145949634 -0.0090062792177846678 -0.023799203526103277 0.0023943886544316069 0.020929309722067056 -0.05525142887529419 -0.043784250696003363 -0.05705282878500384 -0.060396737599657559 -0.081010563362602372 0.089403160699309023 -0.016528931697942825 -0.18907860933354559 -0.011625036252880562 -0.072763135612857285 -0.10719960073598996 0.10754845697900046 -0.010556412193213948 -0.030408788953276058 0.066977223334631422 0.19645985207552344 0.060031104521550117 0.066981117977009549 0.0019212625955410058 -0.063428871580331447 -0.015758932253874345 -0.043467573136234033 0.16141914761643539 0.13661709464006358 -0.079521339995444362
leaf_weight=4435.5127016730257 74.502439866540954 4809.8098887232554 635.41753172974859 2418.5780522563145 118.99188535007852 2984.4623574346806 254.29001202341169 24.780778891639784 432.57103989468305 45.368756958050653 98.595293247140944 2798.3583397349867 11.796465509702101 216.70970808051061 24.484906807541847 67.428071221627761 82.95748547790572 292.45314541867992 3998.9994351539572 85.612856129882857 6.8861888558603814 86.319820566568524 85.696448642236646 764.59094662916323 506.61983047133253 126.13190291728824 400.55258867844532 25.452191541902721 12.991939796833323 18.621348517248407
leaf_count=5868 1055 193676 40192 116660 1985 492864 25061 2021 44543 3228 612 142127 851 14586 610 6885 822 21970 256810 3181 171 1634 636 22634 54525 8446 33543 755 446 1603
internal_value=0 -0.0207812 -0.0333315 -0.0122995 -0.0388872 -0.0497304 -0.016344 -0.0227367 -0.0320018 -0.0263663 0.00558963 -0.0144163 -0.0293828 0.0169228 0.0571427 -0.0333751 -0.00655883 -0.0396111 -0.0308755 0.0391354 -0.00521655 0.00438057 0.0132252 0.00773513 -0.0363154 -0.0432243 -0.0256893 0.0131819 0.0771499 0.00930389
internal_weight=0 21510 8674.46 12835.6 7749.67 3619.88 10330.7 5520.87 2612.11 2179.54 392.045 2908.75 4129.79 346.676 123.08 1787.5 337.247 1450.25 4010.8 110.394 223.596 2504.9 924.79 839.093 1382.82 1090.37 583.75 183.197 57.0655 31.6133
internal_count=1500000 1494132 817027 677105 792702 533056 558811 365135 217806 173263 19207 147329 259646 15979 1222 154056 25883 128173 257661 5202 14757 118294 24325 23689 121288 99318 44793 11250 2804 2049
is_linear=0
shrinkage=0.1


Tree=17
num_leaves=31
num_cat=0
split_feature=1 2 1 2 3 1 1 3 3 0 0 3 1 0 0 0 0 0 0 0 2 3 0 0 0 0 3 2 1 0
split_gain=4908.23 192.216 204.004 83.0543 76.1678 34.838 30.8798 36.7567 30.3152 52.4196 51.7312 29.5067 26.1974 26.1376 31.1463 53.3465 34.6493 27.4199 35.5084 24.8213 22.9705 21.3551 55.8831 36.0245 27.8459 61.5371 21.7899 29.3151 21.3287 22.2706
threshold=0.016625126924443435 0.029993033362248411 0.018862938295192849 0.085877911893095973 0.025459758040579403 0.017495645627681151 0.054700544796043186 0.060481798379164009 0.060683907372889041 7952.0000000000009 20117.500000000004 0.061708234292056761 0.020072166853364895 7952.0000000000009 9197.5000000000018 8817.5000000000018 8911.0000000000018 10665.000000000002 11420.500000000002 19160.000000000004 0.044697542847139983 0.061885136503765183 3051.0000000000005 2795.0000000000005 19853.000000000004 20869.500000000004 0.063222407513707599 0.035224355428861605 0.15572754646837664 10910.000000000002
decision_type=2 2 2 2 2 2 2 2 2 2 2 2 2 2 2 2 2 2 2 2 2 2 2 2 2 2 2 2 2 2
left_child=-1 2 5 6 13 -2 -3 -8 9 -9 19 20 -6 -4 15 -15 -17 -16 -19 -11 -10 22 23 -13 -24 -26 27 -23 -5 -30
right_child=1 3 4 28 12 -7 7 8 11 10 -12 21 -14 14 17 16 -18 18 -20 -21 -22 26 24 -25 25 -27 -28 -29 29 -31
leaf_value=0.099587968828444839 0.033818056381199217 -0.010671866664618291 -0.070126759519032481 -0.00093214267778725596 0.017461795996468955 -0.0048395597355043833 -0.036576241292473798 -0.12378661339085231 0.022183736736624909 0.033049118008254184 -0.14038341049011754 -0.043350777056119533 -0.032200539895648791 -0.048710096414606281 -0.099708397647752744 0.19068897351898784 0.015943342113441374 0.01279343697214127 -0.051070269968805829 0.13347713827270119 -0.068665615241489883 0.080681846426197079 -0.10407246688998731 0.12780278646766222 0.10755995615371988 -0.16444617613507753 -0.015648933987125989 -0.050637902626039705 0.051320816147330722 0.0082366321086785512
leaf_weight=4136.039757444858 309.17434119437712 5330.4243664019814 667.69938722600818 1920.9126386869466 109.21907405353704 947.70149668895465 1230.656251671564 18.775623628171161 32.900462620076723 51.928567856783047 11.861538894823751 16.138017542194575 3867.2813227518709 81.632568676219307 106.48576435425821 18.671382310207264 28.92604113354173 92.605812292131304 1453.9963498813158 46.780693947337568 180.6176714154426 18.032303497660905 34.599898549262434 51.679120222106576 25.799276799894869 12.274257695069535 3505.995796965406 296.74278915902687 170.61338925932068 404.24318959563971
leaf_count=5868 6446 222371 122477 113180 2685 35674 115307 1812 2235 2597 1235 784 315000 13916 20170 1541 3975 11270 248524 152 18200 802 3130 143 353 1402 197124 26513 1808 3306
internal_value=0 -0.0195729 -0.0321758 -0.0123255 -0.0393819 0.00466969 -0.0161042 -0.021336 -0.0169784 0.0307006 0.0569335 -0.0184556 -0.0308365 -0.0532515 -0.0469296 0.000350338 0.0844921 -0.0506257 -0.0472463 0.0806444 -0.0546669 -0.0165038 0.0217862 0.0870744 -0.0391392 0.0198698 -0.0179117 -0.0431151 0.004125 0.0210237
internal_weight=0 21044.4 7683.39 13361 6426.52 1256.88 10865.2 5534.78 4304.13 129.346 110.571 4174.78 3976.5 2450.02 1782.32 129.23 47.5974 1653.09 1546.6 98.7093 213.518 3961.26 140.491 67.8171 72.6734 38.0735 3820.77 314.775 2495.77 574.857
internal_count=1500000 1494132 781678 712454 739558 42120 594160 371789 256482 5796 3984 250686 317685 421873 299396 19432 5516 279964 259794 2749 20435 230251 5812 927 4885 1755 224439 27315 118294 5114
is_linear=0
shrinkage=0.1


Tree=18
num_leaves=31
num_cat=0
split_feature=1 2 1 3 3 1 1 1 0 0 3 3 0 0 0 0 2 0 0 1 1 1 0 0 0 3 1 0 0 2
split_gain=4428.54 160.456 182.731 81.3604 54.3509 35.5767 35.1333 30.2099 28.7501 77.9354 43.9167 36.2889 35.7134 53.9389 28.912 48.3392 39.9017 26.8058 28.7524 26.598 25.6145 25.1665 22.6136 40.674 49.4639 27.8439 28.5397 26.5997 22.563 22.3678
threshold=0.016625126924443435 0.027817354061032768 0.018580123595581387 0.1105079293661257 0.037480162968098286 0.021968982419754018 0.019622964628686453 0.025403334797815636 12444.000000000002 13010.000000000002 0.14871577746678927 0.11217359778897014 21558.000000000004 22749.500000000004 6057.0000000000009 7072.0000000000009 0.12825442862599665 27832.000000000004 27713.500000000004 0.11303695139841852 0.017495645627681151 0.074981012887539111 4172.0000000000009 3996.5000000000005 3857.5000000000005 0.12644871490466134 0.12834588771581235 1402.5000000000002 12944.000000000002 0.0097460088271469954
decision_type=2 2 2 2 2 2 2 2 2 2 2 2 2 2 2 2 2 2 2 2 2 2 2 2 2 2 2 2 2 2
left_child=29 2 20 5 6 -3 -4 -8 14 28 11 -11 21 19 22 -16 -17 18 -7 -14 -2 -13 23 24 25 -5 -27 -28 -10 -1
right_child=1 3 4 8 -6 17 7 -9 9 10 -12 12 13 -15 15 16 -18 -19 -20 -21 -22 -23 -24 -25 -26 26 27 -29 -30 -31
leaf_value=0.10460593539609714 0.033135801892500504 0.041475725711714068 -0.021058036289943963 -0.067891471824034252 -0.016895045233437499 -0.016121363618092542 -0.053845923582751767 -0.036642521671444384 0.04669670512900892 0.054823498129152284 0.028292860745365401 0.080404137105210868 -0.18405443744563971 -0.021394228678743514 -0.15016512392438502 -0.05858346683951017 0.014603961037166158 0.023199029503735698 -0.08695716277993662 0.097021434172577248 -0.0018537173945567488 -0.053381050437490613 0.044040364210146073 -0.15659535981731898 0.16484548648606209 0.067634004285009583 0.033645855060905575 -0.05081560856071652 0.12219260209082641 0.089014456957420968
leaf_weight=2330.3724196087351 301.73395894584792 109.11470812532934 673.17142979321943 60.666675235843286 1029.6884450625803 11503.490276109904 2158.2859098273984 1936.7109622846529 87.402113491203636 71.844036764639895 493.28924709081184 14.868905931711195 3.5527151667047283 192.4202193232486 30.964176622685045 137.49605292995693 162.57385049981531 172.8538757218048 57.588762419363775 64.294780164724216 682.4043106676254 258.67631559295114 124.44564814830665 17.051235875347629 17.591452066786587 59.551501794485375 66.016619886737317 85.681226532557048 72.360943383537233 1520.4722610922763
leaf_count=2465 6434 1155 52115 7565 71950 650555 405105 180667 1789 3109 6420 147 336 13763 2653 14780 3366 6695 4178 2135 24019 23617 4673 472 141 1885 1502 2582 324 3403
internal_value=0 -0.0183628 -0.0309673 -0.0121969 -0.03773 -0.0153613 -0.0422293 -0.0457096 0.00634875 0.0156296 0.00614208 -0.0118991 -0.020879 0.00563803 -0.00898112 -0.0312068 -0.0189315 -0.0158898 -0.0164742 0.0823034 0.00887397 -0.046109 0.00808938 -0.00650471 0.00233524 -0.00817827 0.0089702 -0.0140593 0.0808908 0.0984498
internal_weight=0 20645.8 6782 13863.8 5797.86 11843 4768.17 4095 2020.75 1258.71 1098.95 605.657 533.813 260.268 762.038 331.034 300.07 11733.9 11561.1 67.8475 984.138 273.545 431.004 306.559 289.507 271.916 211.249 151.698 159.763 3850.84
internal_count=1500000 1494132 740290 753842 709837 662583 637887 585772 91259 51640 49527 43107 39998 16234 39619 20799 18146 661428 654733 2471 30453 23764 18820 14147 13675 13534 5969 4084 2113 5868
is_linear=0
shrinkage=0.1


Tree=19
num_leaves=31
num_cat=0
split_feature=1 3 1 3 1 0 3 2 1 2 0 2 1 0 2 2 0 0 3 3 1 3 3 2 0 1 3 0 0 0
split_gain=3992.99 156.353 107.977 149.618 33.33 32.3456 30.2588 29.2574 26.6961 34.4369 24.5003 22.5356 30.8318 22.7355 22.2775 21.647 20.8632 25.1037 20.6848 20.6401 20.0845 19.9646 21.8801 19.573 19.1147 19.0582 41.3838 37.2169 29.5538 24.1706
threshold=0.016625126924443435 0.086202664723571965 0.018385861040472486 0.031716272055583576 0.019538257049043165 27780.000000000004 0.11985073422166199 0.015884713926722176 0.052710315498911121 0.037517930427312433 27895.500000000004 0.05782776281517378 0.057361670197638014 2795.0000000000005 0.0097460088271469954 0.063876916505253969 27105.000000000004 27047.000000000004 0.057710623718693593 0.057710623718693593 0.030563816992838645 0.016949388817063992 0.026203543806695911 0.062074816364110601 10665.000000000002 0.03366358192864418 0.033916345575971826 26366.000000000004 27105.000000000004 27318.000000000004
decision_type=2 2 2 2 2 2 2 2 2 2 2 2 2 2 2 2 2 2 2 2 2 2 2 2 2 2 2 2 2 2
left_child=14 2 21 4 -4 6 -3 -6 9 25 -7 12 18 -14 -1 23 17 24 -10 -15 -18 -2 -23 -11 -9 27 -27 -5 -29 -30
right_child=1 5 3 8 7 10 -8 16 11 15 -12 -13 13 19 -16 -17 20 -19 -20 -21 -22 22 -24 -25 -26 26 -28 28 29 -31
leaf_value=0.1038214579786777 0.065287694092048904 -0.0085545526646178191 -0.019094560687492667 -0.0067724970945734781 -0.060333092133607616 0.084636664059671296 0.010707845746549607 -0.047926388630127104 -0.022153068397580869 -0.0062786169664826906 -0.011635052529547007 -0.016618467490421337 -0.084285902373421151 -0.082379114960640043 0.087690117085864494 0.086610962422221827 -0.096833865000640923 0.10084722878514217 0.019902181662791372 -0.032294708712578044 0.048937920852322854 0.0032487264459301053 0.057998574418840168 -0.2200706755344399 -0.030436624000983899 -0.11151905103398058 -0.024125427394588478 -0.18449955306719262 0.11285268597061911 -0.076870990711433121
leaf_weight=2157.6760588606157 67.777264374712104 1725.0087649429333 692.15355005599486 1173.8414875348135 769.66084174005482 81.262722791638225 1546.7535484534455 1022.1312839033653 887.34179218208737 3327.5569426573929 39.17994452547282 2950.897284556886 105.15522620461707 88.592146298644366 1419.2001919623581 25.127968418877572 93.78328952911761 13.232697160463429 134.70720647764392 1155.244664208898 10.511136800385428 723.27919975699479 81.186615230573807 4.2877942356280974 1607.850350594159 55.815176248561329 1854.0777331835234 20.543256583579932 8.4787442888118658 32.280329828572576
leaf_count=2465 1055 106793 52152 41898 145665 657 56989 167946 74112 118720 1600 181538 13601 10367 3403 262 18427 1625 7106 94366 581 22634 684 180 247133 3078 121451 1621 165 1726
internal_value=0 -0.0171676 -0.0210991 -0.0229631 -0.0391534 0.00242546 0.000551911 -0.0431009 -0.0171994 -0.0129005 0.0533195 -0.0224515 -0.029711 -0.0396367 0.097421 -0.00585638 -0.0382736 -0.0365427 -0.0166101 -0.035862 -0.0821425 0.0131654 0.00877408 -0.00655375 -0.0372339 -0.0204193 -0.0266794 -0.0107393 -0.0866981 -0.0374045
internal_weight=0 20297.7 16905.5 16033.3 4209.32 3392.2 3271.76 3517.17 11823.9 6502.01 120.443 5321.94 2371.04 1348.99 3576.88 3356.97 2747.51 2643.21 1022.05 1243.84 104.294 872.243 804.466 3331.84 2629.98 3145.04 1909.89 1235.14 61.3023 40.7591
internal_count=1500000 1494132 1328093 1303720 633529 166039 163782 581377 670191 289101 2257 381090 199552 118334 5868 119162 435712 416704 81218 104733 19008 24373 23318 118900 415079 169939 124529 45410 3512 1891
is_linear=0
shrinkage=0.1


Tree=20
num_leaves=31
num_cat=0
split_feature=1 3 1 3 3 2 0 0 2 1 1 0 0 0 0 0 0 1 3 1 2 2 3 2 0 0 0 0 1 1
split_gain=3595.12 139.36 97.9137 128.296 52.3297 40.7147 40.6442 34.5717 30.6333 28.8507 28.0294 27.3708 48.4372 70.3929 44.1204 71.3155 63.2112 34.6518 24.681 23.1214 38.1955 22.9358 23.0067 43.6934 21.9996 68.3992 43.9273 42.1147 52.5882 27.9135
threshold=0.016625126924443435 0.086202664723571965 0.018385861040472486 0.033590915305964197 0.033916345575971826 0.016168101315966875 9930.5000000000018 5460.5000000000009 0.025815066066801524 0.14510489483220287 0.019622964628686453 1601.0000000000002 4276.5000000000009 4172.0000000000009 12444.000000000002 13876.000000000002 16404.500000000004 0.058909589767855153 0.033256987340543422 0.049804045036082004 0.037517930427312433 0.011153123159760555 0.016949388817063992 0.015579216029019434 18971.000000000004 18422.500000000004 22513.500000000004 22749.500000000004 0.099448964343380755 0.10988898823681417
decision_type=2 2 2 2 2 2 2 2 2 2 2 2 2 2 2 2 2 2 2 2 2 2 2 2 2 2 2 2 2 2
left_child=21 2 -2 5 6 18 7 -5 -8 11 -7 -3 13 -13 -14 -16 -17 -18 -4 20 -6 -1 23 -23 25 -19 -26 29 -29 -28
right_child=1 9 3 4 19 10 8 -9 -10 -11 -12 12 14 -15 15 16 17 24 -20 -21 -22 22 -24 -25 26 -27 27 28 -30 -31
leaf_value=0.10220413462006375 0.013164770107377127 -0.056807735229645787 -0.050648888821329896 -0.10413019520542224 -0.021613735150992405 -0.0074431379736411424 -0.13159264291152395 0.076797762568762917 0.014036827261358917 0.01912579409698659 -0.033660401786129758 0.014619055994522928 -0.030113273185828699 0.14088863015087391 0.047389868218686335 -0.066686916759696707 -0.19834684814113451 -0.011615556348546049 -0.19880235720694303 -0.020663950853049916 -0.0032190488035843037 0.082182528015477152 0.1008968029714134 0.0038121545219668429 -0.035841507915265088 0.088835098789138117 -0.06107187765367305 0.037906391444380634 -0.027839207215257018 0.13010819263830073
leaf_weight=2230.534147182414 852.99285263186539 90.074142369208857 1097.4662692965967 11.453191093867643 2010.9091806553006 468.53457484748651 20.900596513874916 135.59217045945115 46.759255043652956 796.68002684228122 3145.4592942748395 259.73708369000815 562.06996030011214 53.191569969989359 289.33131442277227 158.43946119293105 8.6819382485700753 180.90714873280376 11.360888621842603 6169.7029167991095 2573.4230723706496 525.35414254023635 477.88925546416431 82.281600001457264 311.12066145334393 108.40777595108375 9.2737807743251306 223.81835558573948 266.55355666507967 43.273475580383092
leaf_count=2949 24373 9595 180045 1105 124862 32576 1552 1131 2001 11441 450032 13701 43767 127 6892 14579 598 10313 510 421727 88179 1375 849 695 21891 2316 703 7506 22094 516
internal_value=0 -0.0160592 -0.0198307 -0.0216244 -0.0156911 -0.0354044 0.0331922 0.0627055 -0.0309491 0.00250318 -0.0302615 -0.00265999 -0.000689206 0.0360823 -0.00601183 0.00245587 -0.00746481 0.000679998 -0.0521668 -0.016667 -0.0112878 0.0964024 0.0844809 0.0715702 0.00219129 0.0260238 -0.00588223 0.011286 0.00216878 0.0963679
internal_weight=0 19906.1 16544.6 15691.6 10968.7 4722.82 214.705 147.045 67.6599 3361.56 3613.99 2564.88 2474.81 312.929 2161.88 1599.81 1310.48 1152.04 1108.83 10754 4584.33 3316.06 1085.52 607.636 1143.35 289.315 854.04 542.919 490.372 52.5473
internal_count=1500000 1494132 1328093 1303720 640557 663163 5789 2236 3553 166039 482608 154598 145003 13828 131175 87408 80516 65937 180555 634768 213041 5868 2919 2070 65339 12629 52710 30819 29600 1219
is_linear=0
shrinkage=0.1


Tree=21
num_leaves=31
num_cat=0
split_feature=1 3 1 3 1 0 1 2 0 2 2 0 0 3 0 2 3 3 2 1 0 0 0 0 0 0 1 2 3 1
split_gain=3244.33 143.624 89.7866 110.161 31.0188 24.7047 24.6415 34.469 20.6167 20.603 19.5751 19.0181 33.5459 20.0155 18.402 17.7419 29.9029 18.5858 16.8562 22.8477 17.7261 18.6908 50.0672 41.654 34.3326 40.6753 23.6726 21.0615 20.4871 22.0065
threshold=0.016625126924443435 0.086202664723571965 0.018385861040472486 0.029084501866755017 0.019622964628686453 27780.000000000004 0.052710315498911121 0.036150581280195701 27713.500000000004 0.0084948867240958511 0.041816883789648603 27105.000000000004 27047.000000000004 0.02312859140568525 374.00000000000006 0.058095951463035429 0.076972957969466765 0.063530617624380961 0.05782776281517378 0.057361670197638014 575.50000000000011 26755.000000000004 21703.500000000004 26913.500000000004 19853.000000000004 19955.500000000004 0.058166321894484306 0.062530026376297829 0.060481798379164009 0.0608114251919393
decision_type=2 2 2 2 2 2 2 2 2 2 2 2 2 2 2 2 2 2 2 2 2 2 2 2 2 2 2 2 2 2
left_child=9 2 -2 4 -4 8 7 -5 10 -1 -3 12 13 -6 -8 16 -9 -17 19 -16 -20 22 24 -23 -22 28 -27 -24 -26 -30
right_child=1 5 3 6 11 -7 14 15 -10 -11 -12 -13 -14 -15 18 17 -18 -19 20 -21 21 23 27 -25 25 26 -28 -29 29 -31
leaf_value=0.10352341448641444 0.013033133910416406 -0.034371642028766462 -0.017884481305919055 -0.019314850023522651 -0.051475179231271012 0.048964682532144511 -0.095308993451821228 -0.0060773789431589681 -0.10326150588328334 0.087067554484811377 0.0046736895387975421 -0.085924733406424952 0.10717660246005334 -0.033371493661688512 -0.016011143702546787 -0.22335961399662674 -0.22917262014894499 0.042073579246449611 0.045963656591010801 -0.036175056209697819 -0.018966401168828938 0.082709863763135466 -0.09181070033486384 -0.015573687034822092 -0.049625331018625929 -0.14380885001827121 -0.0024999195833667501 -0.03835744841743069 0.11473098876789722 0.025590160522906982
leaf_weight=1626.7725303752741 839.82727780437745 134.08608837064821 692.36383177297284 3450.4021031243046 1050.0141193606914 118.19435914093629 33.413641801569611 3375.424018059246 18.358365292893723 1429.3163581915578 3027.9656805066916 93.695275652939017 15.383397317613342 1459.6908642933549 1005.1868625463248 2.7077074511907986 6.0187549088150254 102.43293712171726 45.764507465297356 1274.3796754146751 1901.749571532484 59.513510051183403 103.73646015429404 156.56058667658363 14.974800426512955 12.52674513380043 221.12678544363007 254.68642445793375 61.997964663431048 50.054078410379589
leaf_count=2067 24373 9413 57559 211784 232788 2257 4814 129528 1558 3801 152811 22603 1808 264671 80264 99 326 1464 1315 116906 123533 1458 13612 8180 183 1056 10467 18178 195 929
internal_value=0 -0.0149552 -0.0188097 -0.0205413 -0.0367082 0.00407283 -0.0161292 -0.012229 0.0024045 0.0958271 0.00301798 -0.0416849 -0.0400433 -0.0409457 -0.0213366 -0.00521661 -0.00647447 0.0352378 -0.0208578 -0.0272837 -0.0157764 -0.0167723 -0.0191029 0.0114967 -0.0136016 0.014685 -0.0100758 -0.0538281 0.0602302 0.0749114
internal_weight=0 19582.2 16283.6 15443.8 3311.15 3298.6 12132.7 6936.99 3180.41 3056.09 3162.05 2618.78 2525.09 2509.7 5195.67 3486.58 3381.44 105.141 5162.26 2279.57 2882.69 2836.93 2620.85 216.074 2262.43 360.68 233.654 358.423 127.027 112.052
internal_count=1500000 1494132 1328093 1303720 579429 166039 724291 343201 163782 5868 162224 521870 499267 497459 381090 131417 129854 1563 376276 197170 179106 177791 168153 9638 136363 12830 11523 31790 1307 1124
is_linear=0
shrinkage=0.1


Tree=22
num_leaves=31
num_cat=0
split_feature=1 2 1 3 2 1 2 1 2 3 2 0 0 0 2 3 3 3 1 3 3 0 3 2 0 0 3 3 0 0
split_gain=2915.75 125.974 80.2079 98.1441 28.4194 27.872 20.762 20.137 30.5858 33.7945 30.2774 26.6948 25.1826 18.3488 25.757 16.9197 18.6355 16.2934 16.2362 21.1305 16.0869 20.1729 15.225 35.4195 15.18 142.145 59.8619 19.5425 20.9922 26.0966
threshold=0.016625126924443435 0.083589902871748487 0.018385861040472486 0.031716272055583576 0.015884713926722176 0.019622964628686453 0.0097460088271469954 0.049804045036082004 0.021288911872251296 0.051171211455565323 0.050621778811663291 6057.0000000000009 23538.000000000004 19295.500000000004 0.020733023543647183 0.016949388817063992 0.026203543806695911 0.1105079293661257 0.051457455545009738 0.052933991452276681 0.16031615112056033 1601.0000000000002 0.016949388817063992 0.016446514631848808 8041.0000000000009 8196.5000000000018 0.037480162968098286 0.047889773244474111 8513.5000000000018 12365.000000000002
decision_type=2 2 2 2 2 2 2 2 2 2 2 2 2 2 2 2 2 2 2 2 2 2 2 2 2 2 2 2 2 2
left_child=6 2 15 4 -4 -6 -1 10 9 -9 24 -11 13 18 -15 -2 -17 -10 -13 -20 21 -3 23 -8 -5 26 -26 -27 -29 -30
right_child=1 20 3 7 5 -7 22 8 17 11 -12 12 -14 14 -16 16 -18 -19 19 -21 -22 -23 -24 -25 25 27 -28 28 29 -31
leaf_value=0.1018413155945404 0.063063494344984247 -0.055216220063547865 -0.048377703276421331 -0.020654454766365314 -0.0050623544327085641 -0.032165391694319555 0.079261289904407339 -0.18487426092795711 -0.018045950750639285 -0.18162984286846415 0.019073645763149544 0.077691845285304553 -0.18288243415815006 0.1002368359206311 -0.18458823870139651 0.0039964601883739443 0.056241145025210916 0.0070789736021163556 -0.19283074792178978 -0.023516527446821579 0.021480354934280528 0.0043132463647171694 0.099308888234715786 -0.053428903006796404 -0.20954196905013736 -0.016784526176548055 0.10015099905058758 0.097710441641357254 -0.056600883547713893 0.00343832235384532
leaf_weight=1692.449782536296 63.168648170361848 58.69805547548458 889.97158506383312 1365.888829363048 449.68466321245796 2428.6482448760435 688.27628507763438 20.714424297621008 6379.6151171380989 12.171877104323356 342.36725975503214 8.9683098462410253 8.7527902990113926 23.446678819134835 3.6722320807166389 685.00057475594804 75.832419740618207 268.99147101957351 10.397917588008566 25.319744442647789 580.96789223211817 1884.753330236068 425.62642320660234 20.722733595597674 6.5236500368919215 2598.4458724751112 144.30121968360618 21.61561178509146 79.681918415633845 791.73703286153614
leaf_count=2465 1055 7503 167850 70514 33474 432205 2304 1561 438968 1246 5887 126 840 473 272 22634 688 17235 667 1746 5327 111408 874 225 435 146479 625 507 4429 19978
internal_value=0 -0.013941 -0.0170874 -0.0186658 -0.03276 -0.0279311 0.0948246 -0.014281 -0.0179079 -0.0693947 -0.0096973 -0.0435982 -0.0227423 -0.00322173 0.061668 0.0133326 0.0092037 -0.0170294 -0.0426019 -0.0728063 0.00687989 0.00251528 0.0843582 0.075383 -0.0116641 -0.00829269 0.0867558 -0.0123986 0.000363089 -0.00205162
internal_weight=0 19229.3 16704.9 15880.9 3768.3 2878.33 2827.08 12112.6 6762.05 113.444 5350.56 92.7296 80.5577 71.8049 27.1189 824.002 760.833 6648.61 44.686 35.7177 2524.42 1943.45 1134.63 708.999 5008.19 3642.31 150.825 3491.48 893.035 871.419
internal_count=1500000 1494132 1369894 1345517 633529 465679 5868 711988 463134 6931 248854 5370 4124 3284 745 24377 23322 456203 2539 2413 124238 118911 3403 2529 242967 172453 1060 171393 24914 24407
is_linear=0
shrinkage=0.1


Tree=23
num_leaves=31
num_cat=0
split_feature=1 3 1 3 1 2 1 1 2 0 2 2 2 0 0 0 0 3 0 1 1 3 0 3 2 0 2 0 0 3
split_gain=2622.03 114.84 73.4502 86.6908 27.6945 26.814 22.9765 22.8368 25.4122 20.8304 20.4086 20.2522 19.9449 15.5513 27.2122 24.6658 36.6838 30.1943 26.1062 19.497 50.0175 17.7562 28.1079 62.6629 24.1024 23.6307 20.4265 17.2745 45.6755 29.0471
threshold=0.016625126924443435 0.097282795513240858 0.018385861040472486 0.031716272055583576 0.058166321894484306 0.015884713926722176 0.019622964628686453 0.052710315498911121 0.069532290599299704 27832.000000000004 0.043479301297726834 0.036150581280195701 0.0084948867240958511 13166.500000000002 13876.000000000002 6487.5000000000009 6563.0000000000009 0.033916345575971826 5761.0000000000009 0.019979312529578172 0.026423710157541785 0.032056750131818031 21779.500000000004 0.035836050542199065 0.026858871435028884 19160.000000000004 0.016168101315966875 23538.000000000004 23318.500000000004 0.034599736971240552
decision_type=2 2 2 2 2 2 2 2 2 2 2 2 2 2 2 2 2 2 2 2 2 2 2 2 2 2 2 2 2 2
left_child=12 2 -2 5 -3 -4 -7 11 -9 -10 -6 13 -1 15 -15 18 17 -17 -5 -18 -21 25 23 24 -23 -16 -24 28 -28 -30
right_child=1 4 3 7 10 6 -8 8 9 -11 -12 -13 -14 14 21 16 19 -19 -20 20 -22 22 26 -25 -26 -27 27 -29 29 -31
leaf_value=0.10230460573067157 0.013421068672317708 -0.20258167132803717 -0.046508732320773676 -0.019435504510055459 -0.041886169334124479 -0.0055548556669553911 -0.030220920716514374 -0.021536980128775862 -0.0076661614040645703 0.077038784979170855 0.0091738169358342656 -0.0040200660634895566 0.08477894721729172 -0.10712148557566568 0.065929217291517087 0.11442331807649729 0.070343355974250066 -0.10352507250038359 -0.10955335407720063 -0.13106487167044586 -0.0010658593007214601 -0.12096520816870571 -0.098065045638924375 -0.016182053283522499 -0.053563275695503246 -0.046008524429026816 -0.0086319625033808023 -0.017336306135764448 0.16988692879771294 0.023100391420924009
leaf_weight=1377.0961637801884 806.85713247446984 6.2896474222652605 853.499512119879 458.46167374889956 80.900552069302648 449.74781597053516 2355.6055689765817 4449.0017415310886 1297.7076641999884 29.696519002551213 2416.7473887106171 3415.4806806049965 1228.7744315075834 37.378633185333456 51.256793928449042 44.823573552304879 34.738062032556627 7.4068810853641471 34.569589592194461 30.821853774221381 744.50111425112482 91.188753441432709 24.340158040638926 439.59270887679486 126.86212845767295 29.837506478768773 160.61155113998393 382.95943883556538 27.422298714052886 26.517872043885291
leaf_count=2067 24376 466 167850 33977 8386 33474 432205 349959 58756 367 128843 131766 3801 3986 1209 173 234 613 3167 1760 33814 7626 2414 25371 8587 1899 7899 23856 344 755
internal_value=0 -0.0129558 -0.0159995 -0.0175208 0.00699219 -0.0309884 -0.0262665 -0.0133956 -0.017914 -0.00577115 0.00751995 -0.00916449 0.0940405 -0.0155462 -0.0229462 -0.00791338 0.00228746 0.0835157 -0.0257542 -0.00294991 -0.00623378 -0.0206337 -0.0235097 -0.0379223 -0.0817507 0.0247433 -0.00826749 -0.00460951 0.0181069 0.0977243
internal_weight=0 18914.8 16410.9 15604 2503.94 3658.85 2805.35 11945.2 5776.41 1327.4 2497.65 6168.77 2605.87 2753.29 1397.97 1355.32 862.291 52.2305 493.031 810.061 775.323 1360.59 1279.49 657.644 218.051 81.0943 621.851 597.511 214.552 53.9402
internal_count=1500000 1494132 1356437 1332061 137695 633529 465679 698532 409082 59123 137229 289450 5868 157684 83946 73738 36594 786 37144 35808 35574 79960 76852 41584 16213 3108 35268 32854 8998 1099
is_linear=0
shrinkage=0.1


Tree=24
num_leaves=31
num_cat=0
split_feature=1 3 1 3 2 2 1 2 0 0 0 0 0 1 0 0 0 0 0 1 3 0 0 0 0 0 3 1 1 0
split_gain=2348.92 107.872 65.4157 99.8317 27.0902 20.6079 19.5785 30.447 18.0365 41.9366 22.102 22.1484 35.055 25.9377 28.0433 25.8434 36.3084 20.8516 18.3195 28.1601 20.3412 17.9578 57.854 35.3494 59.0247 29.6762 26.4949 28.1749 23.025 21.5757
threshold=0.016625126924443435 0.1105079293661257 0.018580123595581387 0.031716272055583576 0.015884713926722176 0.0097460088271469954 0.052710315498911121 0.071740426553429507 8721.0000000000018 9025.5000000000018 10665.000000000002 21971.000000000004 21887.000000000004 0.019622964628686453 17315.500000000004 23207.000000000004 23633.500000000004 13166.500000000002 12659.500000000002 0.029371526540314361 0.023639477437355484 14237.500000000002 6987.5000000000009 2795.0000000000005 2919.5000000000005 3658.5000000000005 0.061404734018786371 0.062343135015034766 0.062041166735804558 20987.000000000004
decision_type=2 2 2 2 2 2 2 2 2 2 2 2 2 2 2 2 2 2 2 2 2 2 2 2 2 2 2 2 2 2
left_child=5 2 -2 4 -4 -1 -5 21 -6 -10 -11 12 13 14 -12 -13 -17 18 19 -15 -20 22 23 -8 28 26 -26 -28 -25 -23
right_child=1 -3 3 6 8 -7 7 -9 9 10 11 15 -14 17 -16 16 -18 -19 20 -21 -22 29 -24 24 25 -27 27 -29 -30 -31
leaf_value=0.10065836002476188 0.011728357172199538 0.010493822131912127 -0.047166902432718483 -0.0077864362997339745 -0.038778459194692028 0.081813275737750435 -0.035607513212027077 -0.0036501909077834164 0.077670462977279212 -0.063655295560641478 -0.022254880979901821 -0.084728360926324742 0.096543079263517517 0.00092285376542996622 0.054833006192169131 0.041974291299644112 -0.037992350045041715 -0.030221296469732369 -0.066853373148062903 -0.14577364163403392 0.086794643385147141 -0.0063528302065710045 -0.045073952352149046 0.082240533974388255 -0.13854631471752796 -0.0016557073657440732 0.060142255661821936 -0.07987626160812851 -0.11109769215618787 -0.024739387229052785
leaf_weight=1428.0510530847314 895.4350879864669 1913.9727871676441 797.96208939027747 6075.7082203669943 800.02763751764815 977.46567333453277 404.33993101141823 1561.6956479952787 42.224686047708019 125.3902202911986 88.75938959821724 92.390993621354028 28.889883689313137 158.16435016748437 100.76374994918297 65.88298410146308 410.90731089912333 712.51597915717866 10.795604071640808 14.265913933053524 42.68347899593391 1492.3827738721811 940.75632715401662 99.332415073411539 30.854816239327192 562.25217004082879 23.756628394476138 36.376493918709457 6.5669938710052511 1115.0596891376736
leaf_count=2465 30571 91259 165094 289542 149988 3403 41801 85560 4754 23580 7186 18211 2163 26692 4450 8614 76380 131369 2918 2180 3814 92548 92085 995 4999 38938 977 3199 626 93639
internal_value=0 -0.0119954 -0.0145673 -0.0160537 -0.0309834 0.0930008 -0.0118324 -0.0157509 -0.0261892 -0.0208705 -0.0231179 -0.020173 -0.0122272 -0.0150131 0.0187304 -0.0363225 -0.0269425 -0.0218279 0.00464497 -0.011214 0.0557783 -0.0197617 -0.026634 -0.0117239 0.000997163 -0.0102299 -0.0632135 -0.0245595 0.0702513 -0.0142157
internal_weight=0 18650.1 16736.1 15840.7 3491.62 2405.52 12349.1 6273.37 2693.66 1893.63 1851.41 1726.02 1156.84 1127.95 189.523 569.181 476.79 938.425 225.909 172.43 53.4791 4711.68 2104.24 1163.48 759.14 653.24 90.9879 60.1331 105.899 2607.44
internal_count=1500000 1494132 1402873 1372302 627393 5868 744909 455367 462299 312311 307557 283977 180772 178609 11636 103205 84994 166973 35604 28872 6732 369807 183620 91535 49734 48113 9175 4176 1621 186187
is_linear=0
shrinkage=0.1


Tree=25
num_leaves=31
num_cat=0
split_feature=1 3 1 3 1 2 2 1 2 1 3 0 2 0 0 0 0 0 3 3 3 0 2 2 2 1 1 3 0 0
split_gain=2104.18 98.3599 62.591 70.3665 25.3494 21.6571 21.2853 17.6582 29.6645 29.1407 25.8904 27.1794 22.3569 20.5119 20.6743 17.8642 18.7295 23.8123 28.6632 24.4602 29.7154 22.3735 18.714 26.4015 15.8794 29.4095 15.8496 18.7376 16.9086 23.9214
threshold=0.016625126924443435 0.097282795513240858 0.018385861040472486 0.029084501866755017 0.020072166853364895 0.021016417493749523 0.010158358120444664 0.054985461929507817 0.061737392333193815 0.057361670197638014 0.061885136503765183 7584.5000000000009 0.038022942592518115 27436.000000000004 27895.500000000004 13876.000000000002 15519.500000000002 15202.000000000002 0.05936577745520024 0.060481798379164009 0.069091015107578715 15846.000000000002 0.060089558951008107 0.033418077737516635 0.054884880635074663 0.058166321894484306 0.071874004619719115 0.090218385858784236 11519.500000000002 11420.500000000002
decision_type=2 2 2 2 2 2 2 2 2 2 2 2 2 2 2 2 2 2 2 2 2 2 2 2 2 2 2 2 2 2
left_child=6 2 -2 4 -4 -6 -1 12 15 -10 11 -11 -5 -12 -15 26 17 19 -19 24 -21 -18 23 -20 -17 -26 28 -28 29 -9
right_child=1 -3 3 7 5 -7 -8 8 9 10 13 -13 -14 14 -16 16 21 18 22 20 -22 -23 -24 -25 25 -27 27 -29 -30 -31
leaf_value=0.099741016096482213 0.013638772535190916 0.0074003329393677172 -0.013744179430229712 -0.014503243721499207 -0.043960294440392074 -0.02379632794650274 0.0796519218565198 -0.03404137016835506 -0.13987236974710077 0.10506162909596871 -0.011042161452032377 -0.088915163564878982 -0.0032645391955902141 0.05208229853882837 -0.088709018420868882 -0.12647947911296259 -0.10953857504141536 0.11400510662556969 0.079284012445672708 0.042506816096533 -0.10205222873199792 -0.019644757872449903 0.090903697920089704 -0.17643354022865665 0.036623190118172021 -0.13211276358364563 0.010447471672799032 -0.10379152743733276 -0.071665062711400496 0.20534830278996419
leaf_weight=1358.0978166704481 777.53393393416627 2476.3238198227191 763.61260581592114 3538.50798856049 1191.765107608931 963.12838428025862 862.30377259153465 848.08534453943503 16.775266650831327 36.730956838233396 2238.6324604545953 8.9916309888940287 3541.6038485031168 87.731162347772624 11.83712560799904 22.445355594740249 28.295453209902917 39.478479542071 6.403006620006642 88.638689271989278 16.936778970528394 1287.2348421690804 9.806028154329395 10.928454327280631 28.980678321328014 16.049873895943165 127.50919036941923 16.179589494829997 129.34953800064977 4.1948667144170022
leaf_count=2612 24376 137695 86904 235179 289020 203505 3256 89376 1541 436 124904 954 144133 2231 739 2850 3317 1199 278 4449 1407 106941 330 1200 2156 1676 8360 1268 17514 194
internal_value=0 -0.0111348 -0.0140293 -0.0154559 -0.0294001 -0.034948 0.0919393 -0.0121095 -0.0166075 -0.00853378 -0.00760957 0.0669149 -0.00888143 -0.00906687 0.0353444 -0.0238385 -0.0168942 0.00881668 0.0596203 -0.0107401 0.0193162 -0.0215783 -0.0194965 -0.0819602 -0.0577674 -0.023518 -0.0334355 -0.00241602 -0.0379761 -0.0328631
internal_weight=0 18333.7 15857.4 15079.8 2918.51 2154.89 2220.4 12161.3 5081.21 2400.7 2383.92 45.7226 7080.11 2338.2 99.5683 2680.52 1555.2 239.667 66.616 173.051 105.575 1315.53 27.1375 17.3315 67.4759 45.0306 1125.32 143.689 981.63 852.28
internal_count=1500000 1494132 1356437 1332061 579429 492525 5868 752632 373320 130805 129264 1390 379312 127874 2970 242515 125803 15545 3007 12538 5856 110258 1808 1478 6682 3832 116712 9628 107084 89570
is_linear=0
shrinkage=0.1


Tree=26
num_leaves=31
num_cat=0
split_feature=1 3 1 3 1 2 2 1 2 2 2 1 0 2 0 0 3 2 1 0 0 0 0 1 3 0 0 2 3 3
split_gain=1884.55 92.8262 61.1018 54.5442 30.1571 21.9972 17.4166 18.9969 22.5567 19.9607 18.3743 17.296 28.2051 22.5263 22.2608 19.058 20.0062 17.2335 16.9682 16.9001 15.2833 20.5314 17.0398 22.2099 18.9711 14.2872 18.1235 14.2406 13.7296 13.6407
threshold=0.016625126924443435 0.086202664723571965 0.018385861040472486 0.026603574966688175 0.020072166853364895 0.0092203614722759942 0.013380844533570259 0.054700544796043186 0.05782776281517378 0.036150581280195701 0.04846840141026889 0.058166321894484306 22389.000000000004 0.052193248436176704 27216.500000000004 20619.500000000004 0.05936577745520024 0.10971731406207898 0.056546480214689061 27609.000000000004 15202.000000000002 5761.0000000000009 15519.500000000002 0.057697437121158511 0.055952829405215725 19955.500000000004 21610.500000000004 0.016168101315966875 0.016949388817063992 0.016949388817063992
decision_type=2 2 2 2 2 2 2 2 2 2 2 2 2 2 2 2 2 2 2 2 2 2 2 2 2 2 2 2 2 2
left_child=5 2 28 4 19 -1 -5 9 10 -8 -9 12 13 15 -14 16 -12 -3 -16 -4 21 -15 24 25 -22 -24 -27 -6 -2 -7
right_child=1 17 3 6 27 29 7 8 -10 -11 11 -13 14 20 18 -17 -18 -19 -20 -21 22 -23 23 -25 -26 26 -28 -29 -30 -31
leaf_value=0.10003808035707898 0.060897635013327268 -0.0012948939117412991 -0.011008528991883601 -0.061697168944863802 -0.053229242346185701 0.070234891452657253 -0.014167393166148385 -0.01463981643696933 -0.011592455545211241 -0.0038035910177524113 -0.11132771667460922 -0.051172374401584744 -0.10449794021347797 0.0086261781337269739 0.07733198494280745 0.067868117769572869 0.12810606669385541 0.013517856175187968 -0.11430026658056812 -0.14223039954987612 -0.20479506782625101 -0.051035576026509655 0.00070916163076624006 0.065948639412809706 0.11205472317504162 -0.14312881114271347 0.031418789353313735 -0.031487961372595318 0.010131580436625017 0.096065034843579755
leaf_weight=1147.5883494971822 57.631055909147108 1796.5794199153752 726.44218270748252 71.225086294991343 415.2986419628769 590.59774458847096 3740.5472962599088 754.92748134132125 2680.9774302862388 3693.3156981179854 47.939307145657949 405.71956070960732 66.229137541784439 111.52681736391969 13.967057049507277 8.4768925211392325 3.7637291431892654 1395.4905779788969 6.9048989530419922 9.9491393765483718 2.0390554312616613 119.46711477657664 74.632707219774602 40.39896477072034 25.792855815030634 17.72581096645445 8.9532132842577976 1097.2597645276342 704.60061444093662 312.69229989301675
leaf_count=2314 1055 107576 83479 9458 119827 2678 295242 69918 179892 155305 5868 45492 9987 10703 875 445 155 58463 1075 2340 173 15661 6171 1862 398 2438 813 286143 23318 876
internal_value=0 -0.0102953 -0.0136095 -0.0150959 -0.0293776 0.0908498 -0.0123955 -0.0120986 -0.017315 -0.00901842 -0.026295 -0.0355226 -0.0239321 -0.0140661 -0.0761178 -0.0711119 -0.0938981 0.00518086 0.0139359 -0.0127814 -0.00549511 -0.0222301 0.0173056 0.00325599 0.0888413 -0.0217433 -0.0845524 -0.0374574 0.0139699 0.0791765
internal_weight=0 18097.8 14905.7 14143.5 2248.95 2050.88 11894.5 11823.3 4389.44 7433.86 1708.46 953.537 547.818 460.716 87.1011 60.1799 51.703 3192.07 20.872 736.391 400.537 230.994 169.543 141.711 27.8319 101.312 26.679 1512.56 762.232 903.29
internal_count=1500000 1494132 1328093 1303720 491789 5868 811931 802473 351926 450547 172034 102116 56624 44687 11937 6468 6023 166039 1950 85819 38219 26364 11855 11284 571 9422 3251 405970 24373 3554
is_linear=0
shrinkage=0.1


Tree=27
num_leaves=31
num_cat=0
split_feature=1 3 1 2 2 1 3 3 3 2 3 0 0 0 0 1 2 1 3 1 0 0 0 0 1 0 0 0 1 0
split_gain=1689.49 82.8192 54.0339 56.008 22.6975 17.543 20.6714 15.1494 14.3703 35.8258 13.4997 19.7811 24.5966 22.019 21.8656 16.9711 13.5767 16.7305 13.19 14.041 12.5364 49.6301 21.7142 16.2334 17.9888 26.2615 14.3832 13.7065 14.7791 13.4693
threshold=0.016625126924443435 0.1105079293661257 0.018385861040472486 0.022528515065989792 0.0097460088271469954 0.019538257049043165 0.025345471860862338 0.06014256970618561 0.021308013032714058 0.015154807255123441 0.11217359778897014 18971.000000000004 27780.000000000004 18766.000000000004 16574.500000000004 0.11139693059765303 0.10377628383287694 0.093699240026757946 0.058341485265244505 0.057556916339157306 13166.500000000002 12944.000000000002 15846.000000000002 16803.000000000004 0.11303695139841852 24979.000000000004 16884.000000000004 14689.000000000002 0.15572754646837664 16404.500000000004
decision_type=2 2 2 2 2 2 2 2 2 2 2 2 2 2 2 2 2 2 2 2 2 2 2 2 2 2 2 2 2 2
