tree
version=v3
num_class=1
num_tree_per_iteration=1
label_index=0
max_feature_idx=9
objective=lambdarank
feature_names=Column_0 Column_1 Column_2 Column_3 Column_4 Column_5 Column_6 Column_7 Column_8 Column_9
feature_infos=[4:28137] [1.7816191955504987e-11:0.20584855239390767] [1.855853328698436e-11:0.21213090128904211] [1.855853328698436e-11:0.25592299825819276] [8.2372255847147756e-11:1.0000000000000002] [8.449613258129825e-11:1.0000000000000002] [9.1177734429691725e-11:1.0000000000000002] [0:0.56979898792573236] [0:0.56979898792573236] [0:0.56979898792573236]
tree_sizes=3573 3540 3538 3536 3547 3564 3550 3567 3539 3549 3528 3548 3554 3533 3533 3548 3546 3530 3549 3556 3540 3519 3550 3535 3496 3541 3513 3525 3511 3524 3538 3526 3517 3508 3515 3516 3539 3541 3552 3499 3470 3542 3532 3499 3513 3545 3511 3538 3499 3499 3469 3495 3523 3483 3546 3535 3459 3483 3520 3526 3485 3524 3540 3441 3476 3518 3478 3474 3432 3563 3508 3503 3509 3409 3468 3501 3552 3460 3504 3467 3490 3478 3504 3486 3493 3473 3513 3509 3454 3530 3488 3445 3466 3485 3472 3475 3504 3433 3520 3509

Tree=0
num_leaves=31
num_cat=0
split_feature=9 7 9 0 0 7 9 7 8 8 7 6 4 8 8 8 7 8 7 8 8 2 5 9 3 4 7 1 7 1
split_gain=13736.7 17500.5 1644.33 1025.94 1768.18 1024.86 643.701 487.892 485.386 394.932 352.616 259.88 224.803 149.203 137.861 120.775 119.334 164.736 104.257 127.242 102.473 94.9281 80.1258 80.0616 75.9078 81.5565 70.5731 112.578 68.1095 66.0564
threshold=0.017189839522459616 0.0015741096265335247 0.0097652609729137248 10154.500000000002 6923.0000000000009 0.0010138270226908025 0.036812925905613227 0.0019656656627491977 1.0000000180025095e-35 0.0020423346382626383 0.0010138270226908025 0.12055493141596337 0.23184965527525583 0.00080354542107207263 0.0083708458108699025 0.0012545486955983654 0.0013802543796536954 0.013203441202915079 0.0030932766159607696 0.0033251839687410537 0.0059997691129055827 0.044951888613772556 0.16301581351766889 0.0061375375700415185 0.0047005804846097406 0.60060277330794698 0.0028981385536681567 0.022089314899547918 0.0026169201859344237 0.028821272109643813
decision_type=2 2 2 2 2 2 2 2 2 2 2 2 2 2 2 2 2 2 2 2 2 2 2 2 2 2 2 2 2 2
left_child=1 3 7 4 10 -5 16 11 22 28 -1 -3 18 -7 -4 -13 -2 -18 -11 -20 26 -17 -6 -21 -15 -26 27 -14 -9 -10
right_child=6 2 14 5 8 13 -8 9 29 12 -12 15 20 24 -16 21 17 -19 19 23 -22 -23 -24 -25 25 -27 -28 -29 -30 -31
leaf_value=0.18855436007020651 0.18782549739646279 -0.11092899294412362 -0.036359530030009392 0.18738604630238787 -0.11119206790821612 -0.054665987754304805 0.18310537850670169 -0.13957734705264904 0.061089981812743777 -0.10529198383276472 0.055810653998200316 -0.081619013726801012 -0.0084775285819341118 0.00028450857566997674 0.02645717641094545 0.036883922406157545 0.039618316387586672 0.11657614890659621 -0.16589034814258499 -0.13804872692933504 -0.035703732010795887 -0.12826019872012887 -0.022253412727319358 -0.09535185190058508 0.096054641429874341 -0.17815849202626755 -0.10766675870486252 -0.11644576260344151 -0.17175347692695517 -0.12940974945109024
leaf_weight=759.52281950486213 142.4049188036297 463.32460592714779 718.62305742284661 2239.1165138856595 457.53781402963796 120.4078194158792 3006.2557765995298 1047.3267222161376 375.72172241653607 1386.9314112054999 271.69662227995286 163.83925457685109 203.88371721610019 126.08289353166765 679.9418465794879 353.39579194098769 414.60399641240656 845.15318005750305 1081.0671827823244 1247.6936893684542 313.79163844144205 38.609973232189077 130.09876183583401 677.71530996360525 408.3619505794195 11.14225132530555 1450.0006980053877 183.48846850008704 1769.1412123700138 19.129009917392978
leaf_count=5453 1038 73304 291594 17270 84029 15264 132181 220411 27643 284654 19311 23460 24909 12093 300478 28201 118080 190634 502196 584538 182066 7204 17675 424737 20550 2367 657964 48735 678453 3508
internal_value=0 -0.0414527 -0.10761 0.11697 0.0621156 0.154993 0.157009 -0.121325 -0.0338858 -0.128478 0.15358 -0.0556198 -0.115004 0.0460869 -0.00581986 -0.00951686 0.101057 0.0912482 -0.127972 -0.138435 -0.0885173 0.0206183 -0.0915017 -0.12302 0.0683224 0.0887714 -0.097537 -0.0596194 -0.159789 0.051861
internal_weight=0 16697.6 11778.8 4918.82 2013.71 2905.11 4408.42 10380.2 982.487 9361.04 1031.22 1019.17 6544.57 665.995 1398.56 555.845 1402.16 1259.76 4393.41 3006.48 2151.16 392.006 587.637 1925.41 545.587 419.504 1837.37 387.372 2816.47 394.851
internal_count=5000000 4558067 4332904 225163 157619 67544 441933 3740832 132855 3608663 24764 132169 2709799 50274 592072 58865 309752 308714 1796125 1511471 913674 35405 101704 1009275 35010 22917 731608 73644 898864 31151
is_linear=0
shrinkage=0.1


Tree=1
num_leaves=31
num_cat=0
split_feature=7 7 7 7 7 9 9 0 7 9 0 9 8 0 0 7 7 7 0 9 0 4 9 1 3 7 0 1 9 4
split_gain=16381.7 13056.7 2740.36 1697.82 933.839 1040.65 883.896 782.978 733.064 707.91 543.245 497.45 520.135 495.31 532.215 400.377 362.559 340.716 332.623 267.202 262.024 244.522 164.844 162.923 154.505 149.546 147.224 144.635 143.26 134.939
threshold=0.064806458381989202 0.0013802543796536954 0.010922159890568947 1.0000000180025095e-35 0.048115411193819652 0.036812925905613227 0.021674991075510613 6794.0000000000009 0.0019207362071499295 0.052020000025035935 13669.500000000002 0.036812925905613227 0.0035303121092787556 6923.0000000000009 10301.000000000002 0.0010138270226908025 0.10918615928805299 0.040638748096515645 12814.500000000002 0.017189839522459616 765.00000000000011 0.37027003333699754 0.027836892578455733 0.03618533867362763 0.014992161161803739 0.032198972358296225 8800.5000000000018 0.0055789480906442727 0.0042470138165902329 0.16722298203616567
decision_type=2 2 2 2 2 2 2 2 2 2 2 2 2 2 2 2 2 2 2 2 2 2 2 2 2 2 2 2 2 2
left_child=1 3 8 10 5 6 19 15 -3 17 13 12 29 20 26 28 -2 -7 -16 24 -1 -14 -8 27 -4 -11 -15 -9 -5 -10
right_child=16 2 4 7 -6 9 22 23 11 25 -12 -13 21 14 18 -17 -18 -19 -20 -21 -22 -23 -24 -25 -26 -27 -28 -29 -30 -31
leaf_value=0.023658605552356084 0.10727417024165389 -0.0071803010105802772 -0.060722153449692985 -0.10324816482545185 0.043395871448603712 -0.1135941597509923 0.012275800054899741 0.044739509075339433 -0.12411358524153566 -0.025390224378727674 0.17893422970398021 -0.13794413040992229 -0.079999319030231164 0.050307255224903119 0.17302270809377041 0.10406199473778031 0.15805320112589819 -0.049579050194973391 0.0031122944671013297 -0.070386797759328976 0.17853458331314259 -0.035479845443873122 0.063789574208985608 -0.049042577617134001 0.0089259154512319281 0.052964993973218799 -0.057113812671661046 0.11138229813050274 0.025920623884028899 -0.090448028330347485
leaf_weight=125.99372412730008 2013.1375820794492 1004.0713487419489 455.05739585938863 537.99305017228471 1714.9314863045583 2423.7535225936444 1258.0733072475414 549.74963619816117 3001.2067838793155 865.66368132847128 1919.6238368502818 2312.3360680020414 4209.3947944344327 215.93290291941958 415.51960643869825 139.98885947256349 4662.863810928975 1265.5703451935551 159.42041426291689 1619.1298115559766 821.40335579961538 1745.2327084568387 1227.0900304677925 98.441395712026861 1061.4868359690008 338.95175325358286 311.83214232348837 798.93695752587519 102.16992173460312 1973.5124891594169
leaf_count=596 18538 155858 114680 4128 20298 23590 78215 23482 1364049 9403 903 20639 1393724 33262 501 9748 18804 16505 2169 101544 362 443458 62258 7116 202008 3523 89239 15966 460 764974
internal_value=0 -0.0291664 -0.0597505 0.101498 -0.0250275 -0.0361872 -0.00683231 0.0316189 -0.0895595 -0.0699021 0.140705 -0.0958061 -0.0868908 0.104909 0.0593482 -0.0491327 0.142741 -0.0916347 0.12591 -0.0421353 0.157938 -0.0669512 0.0377116 0.0751524 -0.0119728 -0.00334282 -0.0131629 0.0842175 -0.0826328 -0.110758
internal_weight=0 32672.5 26475.5 6197.01 12229.7 10514.8 5620.84 2227.28 14245.8 4893.94 3969.73 13241.7 10929.3 2050.1 1102.71 780.152 6676 3689.32 574.94 3135.67 947.397 5954.63 2485.16 1447.13 1516.54 1204.62 527.765 1348.69 640.163 4974.72
internal_count=5000000 4962658 4774726 187932 632024 611726 558705 60900 4142702 53021 127032 3986844 3966205 126129 125171 14336 37342 40095 2670 418232 958 1837182 140473 46564 316688 12926 122501 39448 4588 2129023
is_linear=0
shrinkage=0.1


Tree=2
num_leaves=31
num_cat=0
split_feature=9 7 9 7 0 0 7 9 4 3 9 6 4 7 4 8 4 8 2 0 7 8 6 1 1 6 4 8 6 8
split_gain=10917.4 13101.3 1877.5 759.7 516.796 1242.63 500.519 445.893 318.724 215.056 205.981 198.489 320.303 165.093 160.598 126.702 126.33 124.938 109.52 96.6001 93.9261 93.2091 68.9612 62.7672 61.6216 60.7331 60.633 59.5037 58.6597 57.7616
threshold=0.036812925905613227 0.0013802543796536954 0.013282930974576702 1.0000000180025095e-35 10435.500000000002 6923.0000000000009 0.0018260687329445635 0.16260650549916836 0.16487138531647325 0.025299670239951246 0.0027711324862314019 0.95614842803457256 0.91335392915798297 0.0012378407578255532 0.74758572800955447 0.0055911493272511438 0.16032287356780442 0.02546586610325614 0.0077598832962768949 28056.500000000004 0.0023483646527284467 0.0033251839687410537 0.95614842803457256 0.03618533867362763 0.028821272109643813 0.10168261413722236 0.68927501471437802 0.0025679499767170344 0.95614842803457256 0.0022381641329762307
decision_type=2 2 2 2 2 2 2 2 2 2 2 2 2 2 2 2 2 2 2 2 2 2 2 2 2 2 2 2 2 2
left_child=1 3 6 4 5 -1 16 13 21 -4 -5 -9 -13 -2 17 20 27 28 -7 -6 24 -8 -19 -14 -10 -23 -11 -3 -15 -22
right_child=7 2 9 10 19 18 8 11 15 26 -12 12 23 14 -16 -17 -18 22 -20 -21 29 25 -24 -25 -26 -27 -28 -29 -30 -31
leaf_value=0.15589426752286675 0.16030287470170029 -0.064345531205023829 -0.051654719331798139 0.022849828487799723 0.15475547890271288 -0.069524214854016983 -0.12662560293180022 0.10739558712282488 -0.016838716018822485 -0.023491302680939227 0.093411402279679215 -0.055123981445117314 -0.12778062818264241 0.014929819140166972 0.077058201997778075 -0.064733352074022019 0.028533597105918136 0.057022675279874417 0.017620842000974076 -0.042785450221750176 -0.12165419142687205 -0.11451041206052584 -0.045038046713288156 0.11226590268563044 -0.10678833824143852 -0.085621238092162544 0.0037503094225148749 0.042716414930019514 -0.21283517088208589 -0.092303820892347552
leaf_weight=822.14686959749088 165.79144394071773 433.4817142484244 2785.5704767004936 1261.6089848914417 2322.9579755445011 351.31987023656256 3516.9893606294645 4307.6220407830551 243.30014959129039 2680.9333668838954 615.55777839914663 205.59549800655805 11.280140370014122 792.31045304489089 3073.9185370152118 2198.214388649445 328.64948114636354 3641.7269680147583 244.63631314388476 25.021670521935448 860.45432312088087 1771.9117614165589 67.430334665463306 317.27227941807359 110.86631441512145 1234.8413962806808 1175.1915032038523 58.975475115468726 11.471192676341159 3037.6361582162353
leaf_count=942 280 76639 263220 50923 3261 87980 1293534 15635 45778 186004 9708 2448 86 24824 29625 480686 33098 56039 34553 164 307418 601153 1516 960 32780 377785 71782 4839 768 905572
internal_value=0 -0.0369215 -0.0741656 0.0979579 0.123862 0.0761958 -0.0951964 0.0764563 -0.0999883 -0.0304831 0.0459883 0.100266 0.0427676 0.0615866 0.0594294 -0.084226 -0.0194808 0.0474218 -0.0337517 0.15265 -0.0943027 -0.115574 0.0551673 0.104024 -0.044996 -0.102646 -0.0151892 -0.0515241 0.0116793 -0.0987825
internal_weight=0 26080.3 20437 5643.25 3766.08 1418.1 13795.3 12594.4 12974.2 6641.7 1877.17 4841.77 534.148 7752.65 7586.86 6450.47 821.107 4512.94 595.956 2347.98 4252.26 6523.74 3709.16 328.552 354.166 3006.75 3856.12 492.457 803.782 3898.09
internal_count=5000000 4867819 4680288 187531 126900 123475 4159282 132181 4044706 521006 60631 19129 3494 113052 112772 1772234 114576 83147 122533 3425 1291548 2272472 57555 1046 78558 978938 257786 81478 25592 1212990
is_linear=0
shrinkage=0.1


Tree=3
num_leaves=31
num_cat=0
split_feature=9 7 8 9 7 7 0 0 0 9 0 7 6 1 7 0 0 7 0 6 3 1 6 4 9 2 8 3 4 9
split_gain=9472.91 11570.4 1798.75 531.283 513.279 483.4 447.297 558.547 555.055 250.975 172.02 166.188 165.279 117.232 147.883 104.394 100.406 93.1124 87.9814 87.8312 81.0707 77.3181 74.3027 68.0987 67.003 66.806 61.0671 52.8918 52.7558 55.7863
threshold=0.036812925905613227 0.0013802543796536954 0.0089129779631957184 0.086586339066658496 0.0020082105325389971 1.0000000180025095e-35 13616.500000000002 6923.0000000000009 9988.5000000000018 0.0065166351609458094 12664.000000000002 0.015972136290580783 0.073225166569431219 0.025715164483615514 0.0015741096265335247 8710.5000000000018 7643.5000000000009 0.0010138270226908025 10154.500000000002 0.13143192293980546 0.011194401309729768 0.01178637970083924 0.52194259654619135 0.16963968627471879 0.0025410151671533452 0.085131477831753746 0.001078919658188155 0.011194401309729768 0.59236596601430558 0.0036942433453599085
decision_type=2 2 2 2 2 2 2 2 2 2 2 2 2 2 2 2 2 2 2 2 2 2 2 2 2 2 2 2 2 2
left_child=1 5 4 13 12 6 7 -1 15 23 -10 27 -3 14 -2 16 -9 18 -7 -11 -12 -16 -13 -6 -17 -5 -14 -4 29 -19
right_child=3 2 11 25 9 17 -8 8 10 19 20 22 26 -15 21 24 -18 28 -20 -21 -22 -23 -24 -25 -26 -27 -28 -29 -30 -31
leaf_value=0.1403284135315058 0.13423929014504196 -0.095283623642257301 -0.083329879863938375 0.082733780101571119 -0.11615761396131688 0.12072019348584109 0.14726221028240005 -0.051812063489677623 0.13592622814788005 -0.10627640696575512 -0.06633242154718054 -0.028455392466025138 -0.057190914187713708 0.053684795960715993 -0.059517183768891313 -0.094589986894488109 0.081816650070220889 0.009160748161830462 0.052367937988909624 -0.071306303165181592 0.084395255488782073 0.017620026952401526 2.5081201268720317e-05 -0.097281290450222491 0.030325242130221794 0.10719368504665505 0.0043480499445760351 -0.040870979632154865 -0.18687752789106477 0.067341297140734321
leaf_weight=830.60772567254025 99.604856617050245 295.46369031327777 340.39167220517993 6379.9737110394635 4763.024002637947 250.00333676941227 1842.629453131929 115.36173700424843 407.39952353562694 909.35437425237615 72.009516736958176 1708.7954660922987 207.7031912173843 3709.8380240909173 150.81716334959492 276.20397575071547 109.69653243210632 547.6155620443169 763.18173156946432 3416.9666553682764 70.739156730473042 938.85490157309687 1974.4925430213334 3192.0019087989349 50.844762157415971 1353.5131368211005 721.03835740068462 2124.9479107288644 11.741989126079714 235.75666092184838
leaf_count=942 207 72820 84579 33166 1755659 6958 921 18750 2412 300890 1685 112173 40885 64801 7057 85305 10453 33343 13349 817747 587 22418 103101 1030428 5845 4532 79438 282568 2938 4043
internal_value=0 -0.0353842 -0.071474 0.0706922 -0.0918862 0.0916467 0.112009 0.0784025 0.031738 -0.0980412 0.102826 -0.0266382 -0.0301391 0.0449263 0.0176051 -0.0390982 0.0133204 0.0491319 0.0692339 -0.0786567 0.00836073 0.00694377 -0.0131879 -0.108583 -0.07517 0.0870147 -0.00941449 -0.0467333 0.0235166 0.0266702
internal_weight=0 25238 19654.2 12632.6 13505.6 5583.79 3775.49 1932.86 1102.26 12281.3 550.148 6148.63 1224.21 4899.11 1189.28 552.107 225.058 1808.3 1013.19 4326.32 142.749 1089.67 3683.29 7955.03 327.049 7733.49 928.742 2465.34 795.114 783.372
internal_count=5000000 4867819 4680288 132181 4097867 187531 126900 125979 125037 3904724 4684 582421 193143 94483 29682 120353 29203 60631 20307 1118637 2272 29475 215274 2786087 91150 37698 120323 367147 40324 37386
is_linear=0
shrinkage=0.1


Tree=4
num_leaves=31
num_cat=0
split_feature=9 7 9 7 8 7 0 0 4 8 7 4 9 9 7 7 5 4 1 7 8 0 0 5 9 1 7 9 8 2
split_gain=7797.75 10264.8 1616.7 464.527 430.517 407.928 402.353 855.061 195.521 179.853 143.543 146.193 89.6836 76.8664 94.452 76.4283 69.2953 74.2132 69.0811 66.7676 80.1602 64.4873 63.7996 62.5559 60.7493 55.8969 48.6094 60.7131 46.7435 53.3896
threshold=0.036812925905613227 0.0013802543796536954 0.012559386713059258 1.0000000180025095e-35 0.058326512262942352 0.0017150448674600239 10301.000000000002 6923.0000000000009 0.16722298203616567 0.0192362566515142 0.0015741096265335247 0.54852948350219155 0.0023111571087477772 0.0065166351609458094 0.0029191543239386335 0.025136394201232311 0.59127460463726245 0.03784211260096846 0.022089314899547918 0.0019207362071499295 0.010007730189467942 8710.5000000000018 7899.0000000000009 0.07406009550957568 0.0084998297120606799 0.01178637970083924 0.0012378407578255532 0.0022360471354757462 0.023437291454934634 0.079338014067998563
decision_type=2 2 2 2 2 2 2 2 2 2 2 2 2 2 2 2 2 2 2 2 2 2 2 2 2 2 2 2 2 2
left_child=1 3 5 6 10 23 7 -1 24 19 -2 25 21 14 18 -6 17 -5 -10 -4 -21 22 -9 -3 -7 -12 -19 -28 29 -13
right_child=4 2 9 16 15 8 -8 12 13 -11 11 28 -14 -15 -16 -17 -18 26 -20 20 -22 -23 -24 -25 -26 -27 27 -29 -30 -31
leaf_value=0.13000825004266411 0.12598290868306145 -0.061917165823036684 0.08524392499841088 0.0036564886647296557 0.030525867661076202 -0.10790271168492767 0.1322518586513424 -0.045148309561797169 -0.038364589143111756 0.00035442463997185057 -0.047863370940591177 0.02591872753727318 0.050203785057385299 -0.066106395015688935 -0.099098838849658533 0.080428974304140421 -0.12663437589225865 0.066040352774801234 -0.09596616490336661 -0.05954080406222706 -0.028978097149225862 -0.078148988618949727 0.077810982402339343 0.011159284352442457 -0.076419334599570593 0.018023742301986594 -0.02551022043937113 0.06365473655314173 0.054800339360031029 -0.16558355865773203
leaf_weight=824.53808975592256 187.66210330137983 159.00189677637536 44.155573005788028 320.72303924529115 320.01851844636258 5639.9927231941838 2322.3054449159972 120.68875942913292 532.72863943281118 1878.4069504462532 141.41939732932951 415.77537586720427 116.5235469051986 2552.5619331902126 2479.9275398164755 7487.5798240091826 23.21513515478 1167.2602260365675 341.78250682394719 1240.4127346403548 2784.8829013577779 280.39213489840768 64.885087805989315 444.95938748738263 687.60428177175345 1438.6143437463325 145.53794556000503 160.66928842023481 2574.6757619107375 15.086483635008333
leaf_count=942 429 34964 2604 16599 5764 2096421 3541 21054 112192 93640 7722 10497 8913 651922 860192 32254 4595 26148 99961 195694 286027 86591 5859 42230 204441 32687 10491 2798 41804 1024
internal_value=0 -0.033048 -0.0683397 0.0864828 0.0639196 -0.0883068 0.106685 0.0644864 -0.0922673 -0.0252404 0.0402608 0.0367526 -0.0282624 -0.0791833 -0.0891343 0.0783835 0.0450278 0.047249 -0.0608768 -0.0370546 -0.0383961 -0.0478844 -0.00215613 -0.00807919 -0.104481 0.0121266 0.0567375 0.0212753 0.0496987 0.0192133
internal_weight=0 24333.2 18786.4 5546.74 12580.8 12838.6 3729.33 1407.03 12234.6 5947.86 4773.23 4585.57 582.49 5907 3354.44 7807.6 1817.41 1794.19 874.511 4069.45 4025.3 465.966 185.574 603.961 6327.6 1580.03 1473.47 306.207 3005.54 430.862
internal_count=5000000 4867819 4680288 187531 132181 4102323 126900 123359 4025129 577965 94163 93734 122417 1724267 1072345 38018 60631 56036 212153 484325 481721 113504 26913 77194 2300862 40409 39437 13289 53325 11521
is_linear=0
shrinkage=0.1


Tree=5
num_leaves=31
num_cat=0
split_feature=9 7 8 7 7 0 0 8 8 9 6 7 5 4 6 8 1 1 6 8 8 8 8 7 7 0 0 3 7 1
split_gain=6498.01 8983.34 1621.12 412.124 381.752 320.527 711.636 239.763 178.857 178.676 109.44 103.247 82.138 76.7792 71.4691 64.0629 61.8749 61.8357 56.3488 56.1576 53.8627 48.8385 45.6095 44.3641 43.6227 41.6183 41.5702 40.8226 40.5154 40.2471
threshold=0.040382073847810007 0.0013802543796536954 0.0089129779631957184 0.0019656656627491977 1.0000000180025095e-35 10435.500000000002 6923.0000000000009 0.042979658473761076 0.015844732101309354 0.0072333640095636961 0.080412479493957245 1.0000000180025095e-35 0.070265932024079922 0.55566691601115126 0.64538749521126937 0.0021503955656286444 0.0066534757566153249 0.034841145144138767 0.95614842803457256 0.0016837957943248068 0.0036396157218586468 0.09693867576469288 0.0021945166448457689 0.0024350051988888187 0.0010138270226908025 12368.500000000002 1216.0000000000002 0.0085897566487296781 0.029437523188840544 0.03618533867362763
decision_type=2 2 2 2 2 2 2 2 2 2 2 2 2 2 2 2 2 2 2 2 2 2 2 2 2 2 2 2 2 2
left_child=1 4 3 10 5 6 -1 11 16 15 -3 -2 -8 -13 28 -5 -4 18 -9 24 -11 -19 -12 -17 -6 -20 -26 -22 -10 -21
right_child=7 2 8 9 19 -7 12 17 14 20 22 13 -14 -15 -16 23 -18 21 25 29 27 -23 -24 -25 26 -27 -28 -29 -30 -31
leaf_value=0.12350037180751056 0.13363011017445989 -0.081446796512791117 -0.082870173375049913 -0.11045526810319933 0.047727520267938466 0.12402274100127825 -0.065465380389140251 0.056741555134075396 -0.02518060791820554 -0.10953390743957761 -0.022069182659838333 0.0072175098339327982 0.010581723406869527 0.043241009692171498 0.016270148529155433 -0.053664509463979528 -0.033448025757574058 0.063491853170066948 0.02035822078154256 0.073338417649956009 -0.091018451430208799 0.080679406042172164 0.030535914882427392 -0.093425820470074555 -0.18853987665964622 -0.17902782051220945 0.012865320820761994 -0.059982323334635539 0.005962951440782507 -0.089802533440421495
leaf_weight=820.27436701464467 100.13383559393696 268.86892005603295 279.36451888998272 2546.12362524317 695.95591591391712 2290.3467196317288 241.72455441113561 2468.7489723941544 1326.1628537960933 305.28850433600019 628.08223698555958 930.75960190652404 344.37081132730236 1623.9846976837143 1130.8581937559356 296.33429812610848 2717.3401988181286 2947.3385705808178 26.833689886610955 594.82803615483863 513.48979038151447 3765.2649166492629 223.45239776978269 5290.0016348839563 10.479119051713495 17.165700071083847 464.73321158287581 2426.4671120255371 609.79344153526472 15.516462995205073
leaf_count=944 88 71228 66009 992143 17415 3426 68385 16370 97636 107989 85789 25225 54166 29461 57992 84404 357573 28455 618 7390 178187 12196 16533 1975379 1498 894 32241 586215 22034 2117
internal_value=0 -0.0298998 -0.0631095 -0.083694 0.0826231 0.100949 0.0633714 0.0605027 -0.0206809 -0.0893923 -0.0258268 0.0340209 -0.0207825 0.0301167 -0.00370358 -0.0973086 -0.0380554 0.0681237 0.0547424 0.0445968 -0.0695546 0.0731328 -0.00826501 -0.0913166 0.0317798 -0.0574292 0.00842404 -0.0654031 -0.0153709 0.069191
internal_weight=0 24039.9 18561.6 12498.1 5478.23 3696.72 1406.37 11880.2 6063.52 11377.7 1120.4 2654.88 586.095 2554.74 3066.81 8132.46 2996.7 9225.35 2512.75 1781.51 3245.25 6712.6 851.535 5586.34 1171.17 43.9994 475.212 2939.96 1935.96 610.344
internal_count=5000000 4886693 4699111 4097867 187582 126921 123495 113307 601244 3924317 173550 54774 122551 54686 177662 3051926 423582 58533 17882 60661 872391 40651 102322 2059783 51154 1512 33739 764402 119670 9507
is_linear=0
shrinkage=0.1


Tree=6
num_leaves=31
num_cat=0
split_feature=9 7 9 7 7 0 0 0 7 7 4 0 8 0 8 3 7 6 8 7 7 8 6 1 1 1 4 6 7 8
split_gain=5642.89 8208.6 1197.81 352.952 324.49 304.85 369.259 339.576 298.05 181.706 155.12 134.645 126.506 99.3892 94.9593 92.6427 63.6351 61.2996 59.9193 57.8516 56.807 50.778 48.7818 45.7483 45.2526 42.5653 41.2692 37.5973 37.5296 37.4363
threshold=0.036812925905613227 0.0013802543796536954 0.013282930974576702 0.0018260687329445635 1.0000000180025095e-35 13616.500000000002 6794.0000000000009 10154.500000000002 0.048115411193819652 0.0012378407578255532 0.16487138531647325 12961.000000000002 0.011778362055018631 8800.5000000000018 0.035997165541660131 0.029366870263714834 0.011778666405881816 0.072055374191619989 0.0055408145408665484 0.0010138270226908025 0.0023483646527284467 0.0033251839687410537 0.54056381698062927 0.0024907007019982904 0.0077407373329052591 0.10898645606786847 0.31189694353253433 0.65292885719530602 0.0031570573238346874 1.0000000180025095e-35
decision_type=2 2 2 2 2 2 2 2 2 2 2 2 2 2 2 2 2 2 2 2 2 2 2 2 2 2 2 2 2 2
left_child=1 4 3 17 5 6 -1 13 9 -2 21 -9 -4 29 -10 27 28 -3 20 -6 -12 -5 -18 -16 -21 -25 -13 -14 -11 -8
right_child=8 2 12 10 19 -7 7 11 14 16 18 26 15 -15 23 -17 22 -19 -20 24 -22 -23 -24 25 -26 -27 -28 -29 -30 -31
leaf_value=0.12046552667383022 0.11985757556929727 -0.071956574326652631 -0.047089580986206379 -0.10497691831734689 0.059193423329126471 0.12560913327665865 -0.010067299242591012 0.11037478226011779 0.031389113312034742 0.037358580129138751 -0.042088015947234624 -0.080826355527113744 -0.033903889460141994 -0.063579794673507106 -0.21525105230416108 0.0013406722228588173 0.0029666053623157284 -0.0032322640954083031 -0.058303236265461349 -0.002181158190012516 -0.084184803760675442 -0.085964698538015097 0.037476016445575487 0.063937961475425797 0.046965021885128529 0.084317566713439193 0.079940905287391881 0.0290453408715893 -0.021998614912901261 0.065258485319052539
leaf_weight=770.52246973186266 195.2503071204992 161.62059609475546 1552.6709719910286 3101.1048572206055 987.02416789694689 1765.7772416642401 165.33358628224232 436.52719724740018 841.45365502673667 137.76989237830276 353.95310081751086 54.014923905204341 1618.9177360163885 294.76015534003091 5.7547624101862302 2027.0883785103797 559.34611468887306 658.97587629943155 1870.7315375772887 375.48130460770335 3397.3515803522314 2568.1408235382405 1530.2749606504804 7308.96849576768 373.94028883072315 1192.0023554826039 22.668197228107601 100.78701943167835 469.59312615433009 109.79383463828708
leaf_count=894 332 43262 225334 1293534 20307 921 27446 1451 12374 3443 78497 1647 149610 88610 65 141349 15884 71314 489823 25082 1203914 978938 35998 40735 15242 4466 91 4713 18884 5840
internal_value=0 -0.0294383 -0.0627409 -0.0800905 0.0788252 0.0958742 0.0675484 0.0299028 0.0547553 0.0267014 -0.0846924 0.0889068 -0.0230886 -0.0232331 0.0634349 -0.0131426 0.0199573 -0.0167679 -0.0729224 0.0432887 -0.0802128 -0.0963645 0.0282386 0.0666048 0.0223414 0.0667956 -0.0333022 -0.0302146 -0.00853445 0.0199926
internal_weight=0 22767.2 17411.3 12111.9 5355.84 3619.4 1853.62 1083.1 12240.4 2892.23 11291.3 513.21 5299.46 569.888 9348.18 3746.79 2696.98 820.596 5622.04 1736.45 3751.3 5669.25 2089.62 8506.73 749.422 8500.97 76.6831 1719.7 607.363 275.127
internal_count=5000000 4867819 4680288 4159282 187531 126900 125979 125085 132181 74541 4044706 3189 521006 121896 57640 295672 74209 114576 1772234 60631 1282411 2272472 51882 45266 40324 45201 1738 154323 22327 33286
is_linear=0
shrinkage=0.1


Tree=7
num_leaves=31
num_cat=0
split_feature=9 7 8 7 7 0 0 8 9 8 7 6 3 7 5 5 7 9 4 1 3 4 1 7 6 7 0 1 8 8
split_gain=4812.79 7275.15 1220.17 351.745 345.938 265.82 605.685 179.244 171.156 127.726 93.458 84.9577 72.5636 65.5289 61.6166 58.7894 51.0048 48.6732 42.2038 41.1244 54.6837 40.8485 40.7236 40.1298 38.3841 37.8426 37.6139 37.5336 35.8473 34.2988
threshold=0.040382073847810007 0.0013802543796536954 0.0083708458108699025 0.0020082105325389971 1.0000000180025095e-35 10301.000000000002 6923.0000000000009 0.035997165541660131 0.020854562968428459 0.0035303121092787556 0.0010138270226908025 0.073225166569431219 0.011802574975054096 0.048115411193819652 0.30870445688483322 0.070265932024079922 0.0021244090094867762 0.0025083746363448612 0.61560293637554098 0.033550904440813344 0.089241163992022629 0.16032287356780442 0.013995527441388799 0.011124451096245791 0.50991631165430096 0.0031147431176912171 765.00000000000011 0.094673372055278385 0.0020423346382626383 0.0026122828900042132
decision_type=2 2 2 2 2 2 2 2 2 2 2 2 2 2 2 2 2 2 2 2 2 2 2 2 2 2 2 2 2 2
left_child=1 4 3 11 5 6 26 10 24 25 -2 -3 -11 16 -10 -8 -9 -6 -18 21 -21 29 -12 -16 -4 28 -1 -15 -5 -13
right_child=7 2 8 9 17 -7 15 13 14 12 22 19 -14 27 23 -17 18 -19 -20 20 -22 -23 -24 -25 -26 -27 -28 -29 -30 -31
leaf_value=0.050055864184564994 0.11588193361044311 -0.07954035911169284 -0.051022962511436058 -0.097956558046836631 0.026351508667971854 0.11534988964022481 -0.059556614633533025 0.10955549967554468 -0.030194252599849244 -0.087099993397545566 -0.039679328737478453 -0.043547744577081132 -0.062680465005383962 0.057974884124780496 -0.03540228574624623 0.0063325662317693853 0.013709549395717894 0.060905567922257632 0.051496694835982459 -0.094167827039145682 0.078284725211099401 0.018194586408435378 0.022299735078603007 0.0046778470267098146 -0.025793859895972483 -0.10207032497051816 0.12331121766180085 0.075480062880097898 -0.071062715733967594 0.027599043342677848
leaf_weight=77.879619855084457 103.90078084601555 233.10949332639575 1608.9059123753977 976.85804430796998 1081.2428667350905 2192.606760030445 226.22800798891694 89.496257984545082 890.89341730394517 2040.9867054103233 113.45964188076323 293.63171084609348 3013.6743320146925 6964.5644880863256 280.31810440088157 337.34564039538236 635.96082198183285 654.36416820125305 552.22700097964844 106.59028078295523 22.220441361190751 415.05416009167675 1615.1068689121748 2295.295104362187 964.58049602783285 3038.8546961893153 700.96608037827536 1486.2491513420246 1006.0601094621234 88.086111445445567
leaf_count=594 143 72810 325283 394905 49883 3542 68333 377 61949 835260 5764 57646 904178 39270 27925 54102 15016 10778 10682 22020 1515 32699 36059 116851 142680 1345795 350 5996 351392 6203
internal_value=0 -0.0268994 -0.0582763 -0.0777625 0.0759419 0.0938933 0.0588476 0.0524583 -0.0220295 -0.0837626 0.0237683 -0.0255837 -0.0725407 0.0578623 -0.00752536 -0.0201165 0.0367551 0.0393792 0.0312717 -0.0119946 -0.064419 -0.00351941 0.0182316 0.000315706 -0.0415667 -0.095058 0.115986 0.0610535 -0.0843116 -0.0271297
internal_weight=0 22545.8 17275.1 11235.1 5270.63 3535.03 1342.42 11561 6039.99 10076.4 1832.47 1158.69 5054.66 9728.5 3466.51 563.574 1277.68 1735.61 1188.19 925.583 128.811 796.772 1728.57 2575.61 2573.49 5021.77 778.846 8450.81 1982.92 381.718
internal_count=5000000 4886693 4699111 4024423 187582 126921 123379 113307 674688 3831530 41966 192893 1739438 71341 206725 122435 26075 60661 25698 120083 23535 96548 41823 144776 467963 2092092 944 45266 746297 63849
is_linear=0
shrinkage=0.1


Tree=8
num_leaves=31
num_cat=0
split_feature=9 7 9 7 0 0 0 8 8 7 8 7 0 4 7 0 1 6 6 3 4 0 1 7 9 8 9 7 7 0
split_gain=4073.83 6673.69 990.294 429.137 249.986 306.917 303.455 196.827 127.235 113.863 113.246 100.354 97.0012 84.013 66.7063 56.9052 54.8379 54.2639 54.0302 53.4648 50.2101 46.443 40.1977 45.0483 38.2962 38.0998 35.4564 45.0778 34.0134 32.9949
threshold=0.036812925905613227 0.0015741096265335247 0.011738618127087604 1.0000000180025095e-35 13616.500000000002 6923.0000000000009 10154.500000000002 0.058326512262942352 0.0192362566515142 0.0020082105325389971 0.0035303121092787556 0.0012378407578255532 12664.000000000002 0.74758572800955447 0.0010138270226908025 8800.5000000000018 0.01178637970083924 0.34236962837635737 0.12229595578397705 0.025299670239951246 0.035488164571915636 7761.5000000000009 0.075032770827307402 0.022217287797148703 0.027836892578455733 0.0019982701216602811 0.052020000025035935 0.0086749931437373525 0.0031147431176912171 765.00000000000011
decision_type=2 2 2 2 2 2 2 2 2 2 2 2 2 2 2 2 2 2 2 2 2 2 2 2 2 2 2 2 2 2
left_child=1 3 9 4 5 29 15 11 19 18 28 -2 -8 16 -5 21 -13 -12 -3 -4 -16 -7 23 -9 -10 -17 -18 -28 -11 -1
right_child=7 2 8 14 -6 6 12 22 24 10 17 13 -14 -15 20 25 26 -19 -20 -21 -22 -23 -24 -25 -26 -27 27 -29 -30 -31
leaf_value=0.049998562591542457 0.10668264811502137 -0.077642720277845786 -0.047845109692199086 0.05174977978803489 0.11840969473322643 -0.031655206556472325 0.1115299302075296 0.0097655184318006481 -0.019705469057946616 -0.081258971529844432 -0.077718668784151249 -0.047509930671029099 0.0081559170532216688 0.046785234652259589 -0.034725116961646922 -0.06847028191528122 0.0080400027716450283 -0.055196993148070785 -0.022479936407846776 -0.024326657718174563 0.024816040247609299 0.054311896286008292 0.069556093517502193 0.054252659735622093 0.010710902251189201 0.051372832725162909 -0.035352565616543236 0.035879551065340062 -0.098557114707018889 0.11986706996192525
leaf_weight=75.124396256866021 163.79538707830943 269.32427484769141 1809.6253715467465 962.62990450591315 1665.8873154491885 128.84350182230264 362.10424408590188 237.40357135975501 727.51192167107365 1887.862308284457 3023.4436654018937 126.16963844784186 121.13998287824506 1415.4784488484147 167.99934901704546 245.5590641668241 1296.6450073847664 1655.6541059569281 521.12883257193607 2074.9288945943117 902.34714121587604 122.67899215962461 1795.4204155086773 5523.0398050073127 960.39280330168549 29.740330236410955 95.35940768168075 1299.589803286246 2856.9043495161604 673.96107781399041
leaf_count=594 275 84512 315648 20307 921 21014 917 5052 51060 746297 1222999 7777 2272 21507 20640 86135 39722 520045 68072 244231 58740 12224 7022 25944 42573 2475 4038 20844 1345795 348
internal_value=0 -0.0262759 -0.0592314 0.0690445 0.0906475 0.0643572 0.0283864 0.0467022 -0.0253222 -0.0777306 -0.0807884 0.0298805 0.0856161 0.0269089 0.0326491 -0.0241093 0.0169241 -0.0697496 -0.0412751 -0.0352828 0.0154706 0.0102749 0.0564913 0.0524192 -0.002399 -0.0555237 0.0199445 0.0310101 -0.0916745 0.11286
internal_weight=0 21244.8 15786.8 5458.02 3425.04 1759.15 1010.07 11952.9 5572.46 10214.3 9423.86 4397.04 483.244 4233.24 2032.98 526.822 2817.76 4679.1 790.453 3884.55 1070.35 251.522 7555.86 5760.44 1687.9 275.299 2691.59 1394.95 4744.77 749.085
internal_count=5000000 4867819 4641232 226587 126900 125979 125037 132181 653512 3987720 3835136 94163 3189 93888 99687 121848 72381 1743044 152584 559879 79380 33238 38018 30996 93633 88610 64604 24882 2092092 942
is_linear=0
shrinkage=0.1


Tree=9
num_leaves=31
num_cat=0
split_feature=9 7 8 7 0 0 0 8 7 7 4 7 0 7 9 0 6 7 1 8 5 5 0 0 9 0 8 6 9 9
split_gain=3489.65 6018.25 876.818 439.558 224.434 264.834 283.994 176.781 132.47 119.372 105.704 91.1416 63.8309 61.6773 59.2522 49.1052 48.9103 45.8761 44.9233 44.1749 40.4013 39.3409 36.0881 62.5111 37.2966 35.5714 35.3526 34.1148 33.1629 32.5791
threshold=0.036812925905613227 0.0015741096265335247 0.0083708458108699025 1.0000000180025095e-35 13814.500000000002 6923.0000000000009 10154.500000000002 0.042979658473761076 0.0020082105325389971 0.015972136290580783 0.20897748638057825 0.0015741096265335247 12664.000000000002 0.012541457923860669 0.0020220494806535527 8800.5000000000018 0.10919090908737598 0.0012378407578255532 0.034841145144138767 0.0027929803127608745 0.29483918656096647 0.22695298869532834 21817.500000000004 21915.500000000004 0.086586339066658496 7643.5000000000009 0.0011574217427841331 0.62273239269957925 0.029489636780783899 0.0070593111886041527
decision_type=2 2 2 2 2 2 2 2 2 2 2 2 2 2 2 2 2 2 2 2 2 2 2 2 2 2 2 2 2 2
left_child=1 3 8 4 5 -1 15 11 16 27 19 -2 -8 -13 17 25 -3 -5 -9 -10 -15 -11 -20 -24 -25 -7 -18 -4 -23 -12
right_child=7 2 9 14 -6 6 12 18 10 21 29 13 -14 20 -16 -17 26 -19 22 -21 -22 28 23 24 -26 -27 -28 -29 -30 -31
leaf_value=0.1102605831985497 0.097613958001172813 -0.073820937004458242 -0.048759558342077611 0.029644423511474963 0.11622873836061963 -0.036254650932102971 0.107968040815262 0.038780551288985665 -0.097766585058715383 -0.039772568800458742 -0.073177050281048192 -0.020701143962842679 0.029293472626638357 -0.0067143996934202078 0.050887714410819546 -0.051596389813506921 -0.067111592292521657 -0.011418714434430644 0.058843112280035484 -0.079226394393102653 0.029183027629802624 -0.01454276409459305 -0.14480175797631131 0.0034393478516971453 0.049773485913805038 0.040830853223274052 -0.0063484962615616859 -0.020071885005782969 0.0092573038823308192 -0.05462900162987825
leaf_weight=723.29800901212911 151.87494169222191 234.5646457290859 1656.8091288740834 812.0732932612882 1576.5503912301501 98.999608582365909 350.72456487082673 2408.2122954801598 2242.9699049142946 410.92358801708906 2256.4620738629746 357.80247021192918 146.07565946609066 369.38378147553885 800.84792611932789 261.56574871762132 122.18807655549608 409.14962192508392 4975.5191525977571 3009.380546682456 2073.1838944419869 1730.0283802453778 17.897583630401641 202.20715551020112 1233.4506670610281 151.42600723089708 442.53865657647839 552.84702424670104 884.92655938700773 1631.818667095984
leaf_count=942 380 79117 350145 31811 852 18750 917 17882 1099743 42891 930960 17628 2341 10123 21302 88610 26162 46574 30932 1346074 45517 141553 181 4083 5455 14488 48909 82913 38012 454753
internal_value=0 -0.0249244 -0.0570325 0.0664809 0.0889295 0.0640817 0.0309716 0.0433523 -0.0744776 -0.0239121 -0.0778913 0.0221661 0.0848351 0.0180743 0.0297491 -0.0212937 -0.0354382 0.0158869 0.0504299 -0.0871438 0.0237543 -0.0110087 0.0547936 0.040932 0.0432475 0.010357 -0.0194956 -0.041582 -0.00648859 -0.0653929
internal_weight=0 20506.2 15175.5 5330.71 3308.64 1732.09 1008.79 11789.5 9939.92 5235.53 9140.63 2952.25 496.8 2800.37 2022.07 511.991 799.291 1221.22 8837.29 5252.35 2442.57 3025.88 6429.07 1453.56 1435.66 250.426 564.727 2209.66 2614.95 3888.28
internal_count=5000000 4867819 4641232 226587 126900 126048 125106 132181 3985718 655514 3831530 73648 3258 73268 99687 121848 154188 78385 58533 2445817 55640 222456 40651 9719 9538 33238 75071 433058 179565 1385713
is_linear=0
shrinkage=0.1


Tree=10
num_leaves=31
num_cat=0
split_feature=9 7 8 7 7 0 0 0 7 8 8 7 8 0 6 4 6 9 0 4 1 1 0 0 6 3 3 2 7 0
split_gain=3101.59 5372.71 815.839 338.972 273.707 208.734 251.404 242.846 144.178 114.723 104.96 90.5834 73.2461 68.6021 59.3273 54.4756 53.2071 50.4915 47.6637 44.9083 44.7111 42.9558 42.2128 51.0765 39.1356 67.7272 37.6032 31.5764 31.5094 30.9747
threshold=0.040382073847810007 0.0013802543796536954 0.0092405091409448262 1.0000000180025095e-35 0.0020082105325389971 13616.500000000002 6923.0000000000009 9988.5000000000018 0.10918615928805299 0.0035303121092787556 0.017276709602628209 0.0010138270226908025 0.031399662983777617 12664.000000000002 0.073225166569431219 0.84089918538099029 0.11067930226058061 0.027836892578455733 8800.5000000000018 0.042229248372415464 0.03618533867362763 0.05835439178091207 2795.0000000000005 2421.5000000000005 0.95614842803457256 0.054604321836175633 0.026306623117198301 0.062920070048189683 0.0031147431176912171 7899.0000000000009
decision_type=2 2 2 2 2 2 2 2 2 2 2 2 2 2 2 2 2 2 2 2 2 2 2 2 2 2 2 2 2 2
left_child=1 3 4 5 14 6 -1 18 11 28 26 -2 -13 -9 -3 -14 -11 -12 29 -5 -21 24 23 27 -10 -26 -4 -23 -6 -8
right_child=8 2 10 19 9 -7 7 13 21 16 17 12 15 -15 -16 -17 -18 -19 -20 20 -22 22 -24 -25 25 -27 -28 -29 -30 -31
leaf_value=0.108184185571678 0.10756344777589283 -0.070667110555368381 -0.044895817277344818 -0.00066768719407962946 -0.07548031474884026 0.11383048362746945 -0.020988370498081301 0.10353474037542215 0.048940087411019628 -0.082372614814920697 -0.022116274687080557 0.0075389683130146802 0.029278050109206984 0.013871827827486345 -0.011027878606834381 0.05765300620524836 -0.057883638854492638 0.0077429797702586638 -0.051514726884652799 0.044165684109186198 -0.042559803474007306 -0.039514520171638118 0.067815305101267945 -0.14323963317006147 0.026362746475572026 -0.14423620463426773 -0.021574190805138106 0.058008097148354434 -0.093057297626460769 0.048982813918959506
leaf_weight=701.65419345977716 149.95558732980862 203.54799394181464 1326.8718154140224 339.1311188765103 1697.3208326071326 1545.595698894409 139.92419680624153 347.93358706234721 3032.121321843937 1159.4908966833027 937.16084443160798 1246.3024710378377 3219.7076429039007 113.06054996594321 923.84164665982826 856.61073344794568 3778.2054588231549 1431.1446214194293 238.5486284744984 1267.5828097051126 62.370954452548176 43.100750871468335 2208.9030019114725 17.453282122965902 167.76237877109088 27.018557359697297 1443.4983006932889 144.54859134461731 2555.3421003974654 115.47886984463548
leaf_count=944 214 72823 247289 18677 746297 922 22837 2412 9613 569477 78201 33311 52773 2272 120444 8205 1282207 64069 87128 32934 9050 334 6624 146 1063 591 172509 433 1345795 10406
internal_value=0 -0.0232233 -0.0520848 0.0683535 -0.0682985 0.0873982 0.0627372 0.0293446 0.0424777 -0.074003 -0.01953 0.0309139 0.0287544 0.0815446 -0.0217956 0.0352409 -0.0636342 -0.00407261 -0.0193725 0.0318155 0.0400985 0.0536965 0.0637858 0.0203892 0.0461489 0.00269853 -0.0327441 0.0356083 -0.086042 0.0106487
internal_weight=0 20327.7 15456.4 4871.28 10317.7 3202.2 1656.6 954.946 11113.5 9190.36 5138.68 5472.58 5322.62 460.994 1127.39 4076.32 4937.7 2368.31 493.952 1669.08 1329.95 5640.91 2414.01 205.103 3226.9 194.781 2770.37 187.649 4252.66 255.403
internal_count=5000000 4886693 4699111 187582 4137043 126921 125999 125055 113307 3943776 562068 94503 94289 4684 193267 60978 1851684 142270 120371 60661 41984 18804 7537 913 11267 1654 419798 767 2092092 33243
is_linear=0
shrinkage=0.1


Tree=11
num_leaves=31
num_cat=0
split_feature=7 8 7 9 7 7 0 0 0 1 4 8 8 0 9 4 7 8 7 8 0 1 8 1 4 6 0 8 9 4
split_gain=2842.36 4949.76 473.7 566.111 352.96 130.316 190.874 232.448 231.491 84.6176 70.7301 69.8865 58.1272 56.1827 52.5507 51.537 50.1047 45.8125 40.4212 38.0769 35.5612 34.7702 32.8381 32.4473 31.667 81.6322 38.6369 30.3646 28.2535 32.4739
threshold=0.0010138270226908025 0.021731590617254434 0.0017150448674600239 0.0098862811495951473 0.048115411193819652 1.0000000180025095e-35 13669.500000000002 6923.0000000000009 10154.500000000002 0.01813436204479171 0.16722298203616567 0.09693867576469288 0.0010530991082058256 12664.000000000002 0.017189839522459616 0.649850562207405 0.0027856342347465186 0.0025450774988339613 0.0026655808583328474 0.0025450774988339613 8710.5000000000018 0.022089314899547918 0.0021503955656286444 0.034841145144138767 0.87063460220635036 0.95614842803457256 3051.0000000000005 0.0054898881663640936 0.0029275919211572679 0.36040989129174289
decision_type=2 2 2 2 2 2 2 2 2 2 2 2 2 2 2 2 2 2 2 2 2 2 2 2 2 2 2 2 2 2
left_child=5 2 17 10 15 6 7 -1 12 16 -4 24 20 -10 -11 -3 -5 -2 21 -20 -9 28 -7 -13 25 -6 -27 -18 29 -12
right_child=1 4 3 9 11 22 -8 8 13 14 18 23 -14 -15 -16 -17 27 -19 19 -21 -22 -23 -24 -25 -26 26 -28 -29 -30 -31
leaf_value=0.10683039339967695 -0.0040989990891853274 -0.002069125614152169 -0.082641354059152738 0.022049530369830983 0.033434265587488701 0.033145808530618652 0.11222733409847492 -0.0008850317399846637 0.10386837380563239 -0.038358686915205845 -0.051178707556339478 0.041294138344170991 0.0483028912678444 0.025350088127379267 -0.012773208584782304 0.024181668346976191 -0.092868905823689507 0.040245642637381243 -0.089044214520346276 -0.062416589636839409 -0.06141048956000076 -0.071457051148319073 0.074672605423431335 0.059690417538573175 0.052818610240289249 0.050623594176245283 -0.16873008295885691 -0.048152067447600956 0.024735729169925363 0.050667281531357272
leaf_weight=706.65482723875903 1017.389006796584 2028.6529125882662 4187.856701974626 95.403726579621434 2936.2787272821297 693.0837349643698 1524.4656015558867 178.64755167331896 335.13126406923402 1274.7916144175688 236.29820928635309 1330.8415842384857 110.70191824837821 125.165259837755 2168.0500280591077 1184.5982515921351 167.45833692801534 302.16257730836514 686.4034711120039 2467.7285973604012 212.59139365601004 216.99027256626869 262.56279867701232 3429.4676182242692 908.14253346412443 11.015981466742231 29.623735780827701 1629.6173770189926 98.819726125977468 36.088760352577083
leaf_count=958 108122 79919 2198950 11141 31700 18227 903 27201 921 256753 59711 4369 7872 2318 170449 39076 56846 10867 342735 1021380 86859 76563 2196 11078 6102 108 1104 344106 15764 5702
internal_value=0 -0.0120737 -0.0510854 -0.0567693 0.0359071 0.076952 0.0866471 0.0632806 0.0312982 -0.0315838 -0.0737137 0.0464249 -0.0156716 0.0825174 -0.0222468 0.0076085 -0.0485699 0.00605543 -0.0637233 -0.0682113 -0.0337734 -0.0396568 0.0445552 0.0545474 0.0364726 0.0314861 -0.109271 -0.052319 -0.0210679 -0.0376851
internal_weight=0 26443.7 14585.1 13265.5 11858.6 4149 3193.36 1668.89 962.237 5335.32 7930.19 8645.37 501.941 460.297 3442.84 3213.25 1892.48 1319.55 3742.33 3154.13 391.239 588.197 955.647 4760.31 3885.06 2976.92 40.6397 1797.08 371.207 272.387
internal_count=5000000 4852545 4679089 4560100 173456 147455 127032 126129 125171 839295 3720805 54461 121932 3239 427202 118995 412093 118989 1521855 1364115 114060 157740 20423 15447 39014 32912 1212 400952 81177 65413
is_linear=0
shrinkage=0.1


Tree=12
num_leaves=31
num_cat=0
split_feature=7 8 7 8 7 7 0 0 0 7 8 4 0 6 8 9 4 9 6 1 8 1 1 1 0 6 8 0 1 1
split_gain=2611.91 4412.86 426.267 504.89 338.324 132.312 180.164 216.554 206.442 76.3014 78.6616 74.3279 56.0541 52.4648 44.8093 44.7068 41.3123 39.8523 38.7259 53.435 37.1558 36.8234 36.4615 30.8142 30.1408 29.3608 29.2464 27.3507 26.6434 26.1768
threshold=0.0010138270226908025 0.021731590617254434 0.0016495600207990042 0.0070003285416231397 0.048115411193819652 1.0000000180025095e-35 13616.500000000002 6923.0000000000009 10154.500000000002 0.0024350051988888187 0.0027027533163099279 0.37027003333699754 12664.000000000002 0.12951467700680483 0.0010530991082058256 0.086586339066658496 0.649850562207405 0.01952394550852515 0.15686771332558569 0.03618533867362763 0.0011574217427841331 0.072117025261443576 0.034841145144138767 0.04297087946957364 8710.5000000000018 0.16971177497983453 0.0021503955656286444 765.00000000000011 0.0066534757566153249 0.031023493136145965
decision_type=2 2 2 2 2 2 2 2 2 2 2 2 2 2 2 2 2 2 2 2 2 2 2 2 2 2 2 2 2 2
left_child=5 2 18 9 16 6 7 27 14 13 -11 -5 -10 -4 24 -6 -3 -13 -2 28 -15 -21 29 -22 -9 -12 -7 -1 -20 -17
right_child=1 4 3 11 15 26 -8 8 12 10 25 17 -14 20 -16 22 -18 -19 19 21 23 -23 -24 -25 -26 -27 -28 -29 -30 -31
leaf_value=0.046113724358989076 -0.011934371855263774 -0.0028554425044609029 -0.073556442470560868 -0.044147045419737574 0.031255291639183967 0.031462833308138642 0.11046727923673927 -0.00084387503844574594 0.10183128554184179 -0.090299789032436573 -0.076965709682136521 -0.032902955654313087 0.019610736758107816 -0.073219111188441252 0.040977724831913115 0.046460306133943086 0.020757307613864809 -0.0093804629209799477 -0.022382015006788075 -0.096407122193852515 -0.0092556645440093396 0.068847239167298332 0.052791303082577082 -0.079011189013409325 -0.057633193978805203 -0.060551418344591539 0.070803057998430979 0.11172811203785177 0.042713590449383318 0.021629335929771423
leaf_weight=70.961030146689154 527.38020587729989 1993.2588799833902 453.69756699235586 2124.5577973802865 2034.5104166273959 682.9386082199635 1467.0305277452571 176.86364352706005 321.4651321300189 2146.9879694974807 1808.9756738333381 1272.0815013703832 111.73915613774443 156.91772870864952 113.01597216975642 993.18585224333219 1179.3346199359512 1660.3465025884507 71.757045182283036 55.250886478228495 492.79780229640892 17.837148598046042 4737.8827965848031 72.66574019525433 198.18502198698116 2740.8618550999527 261.26597954134922 606.54727346124128 508.04121869220398 741.52731299761217
leaf_count=596 61119 79919 209589 488398 27860 18227 946 27201 921 1219145 1009789 260300 2275 52279 7872 3887 39076 114008 5668 11882 94367 824 19993 26534 86859 1105394 2196 362 19793 2721
internal_value=0 -0.011674 -0.0493085 -0.0545598 0.0337919 0.0750799 0.0851606 0.0619392 0.030378 -0.070397 -0.0745226 -0.0299038 0.0806236 -0.0469053 -0.0142197 0.0441855 0.00592202 -0.0195845 0.00821993 0.0244999 -0.0301668 -0.0560768 0.0482498 -0.0182197 -0.0308528 -0.0670776 0.0423485 0.104856 0.0346572 0.035846
internal_weight=0 25789.9 14110.2 12929.9 11679.7 4010.01 3065.81 1598.78 921.269 7872.9 6696.83 5056.99 433.204 1176.08 488.065 8507.11 3172.59 2932.43 1180.27 652.886 722.381 73.088 6472.6 565.464 375.049 4549.84 944.205 677.508 579.798 1734.71
internal_count=5000000 4852545 4679089 4579803 173456 147455 127032 126086 125128 3717097 3334328 862706 3196 382769 121932 54461 118995 374308 99286 38167 173180 12706 26601 120901 114060 2115183 20423 958 25461 6608
is_linear=0
shrinkage=0.1


Tree=13
num_leaves=31
num_cat=0
split_feature=7 8 7 9 7 7 0 0 8 4 8 5 4 4 6 7 0 9 8 1 6 1 0 9 1 0 0 0 0 8
split_gain=2389.04 3968.34 377.613 507.059 286.73 137.614 169.198 360.058 85.6255 60.6496 49.9743 40.6806 39.6204 38.6152 38.207 36.7719 34.0681 32.4878 31.9483 29.8931 33.4864 29.3554 42.8057 28.9254 27.3993 26.7974 41.2529 26.5068 25.9615 25.0612
threshold=0.0010138270226908025 0.023437291454934634 0.0017150448674600239 0.0098862811495951473 0.048115411193819652 1.0000000180025095e-35 10435.500000000002 6923.0000000000009 0.013203441202915079 0.16722298203616567 0.09693867576469288 0.070265932024079922 0.035488164571915636 0.74758572800955447 0.52194259654619135 0.002690230060859312 28056.500000000004 0.029489636780783899 0.0024553762722719242 0.034841145144138767 0.41184321352675229 0.020831475826895877 25616.500000000004 0.0027439038172713706 0.022089314899547918 13966.500000000002 12664.000000000002 27721.000000000004 765.00000000000011 0.0016837957943248068
decision_type=2 2 2 2 2 2 2 2 2 2 2 2 2 2 2 2 2 2 2 2 2 2 2 2 2 2 2 2 2 2
left_child=5 2 12 9 17 6 7 28 -5 -4 13 -9 -2 -6 27 24 25 -3 -17 -19 -21 22 -12 -14 -11 26 -8 -10 -1 -7
right_child=1 4 3 8 10 29 16 11 14 15 21 -13 23 -15 -16 18 -18 19 -20 20 -22 -23 -24 -25 -26 -27 -28 -29 -30 -31
leaf_value=0.045333450858484975 -0.037442200048423982 -0.02238900359138608 -0.078064402631562724 -0.04098598475236017 0.023786117735059599 0.027885480882338633 0.1054793325140502 -0.04587943983594403 -0.031616703956003925 -0.020663692930401812 0.027756397984017751 0.012709732081730369 -8.5334731419498068e-05 0.044312679599882561 -0.0054187664970132251 -0.085662141231591535 -0.037047124873429003 -0.0024732007052739209 -0.059153065014809693 -0.21999227772292207 0.020837362017159876 0.05190665182942894 -0.16073674684052619 0.033554257006937899 -0.06649353585548104 0.11142916325523691 0.040402027766524275 0.080677143504523666 0.1102053483228037 0.062541418949740718
leaf_weight=69.062894186004996 187.83766373246908 356.85229460356641 3745.1701230348845 2860.4049670083186 1821.5688273882843 613.59262878552545 278.09211641456932 190.72586268064333 1150.1712432520872 374.70296376390615 300.93122188770212 312.98657272520359 697.11345896084094 1844.5239505458158 1487.2411537521693 564.18135061379871 17.177484124200419 1082.9456434879976 2341.3325368158694 5.7984195249155155 1350.4741291375831 4301.3544524364406 12.550347464159129 403.59567957127001 200.11890876741381 1338.7395955477841 149.92182977066841 21.411978309624828 577.88144514639862 316.18892958282959
leaf_count=596 31062 22863 2198950 627532 22825 17415 236 68386 123911 84732 938 54231 72132 15130 106212 317964 166 34915 1039931 517 42016 14422 87 15823 79228 690 2365 1355 362 3008
internal_value=0 -0.0112646 -0.0465837 -0.0517996 0.0334806 0.0731963 0.0838184 0.0539206 -0.0289774 -0.0692325 0.0428295 -0.00947449 0.00500549 0.0341137 -0.0160583 -0.0597285 0.103103 0.0057927 -0.0643005 0.00991562 0.0198078 0.0497535 0.02021 0.0122493 -0.0366189 0.104465 0.0826845 -0.0295644 0.10328 0.0396709
internal_weight=0 25110.3 14033.3 12744.7 11077 3864.37 2934.59 1150.66 5519.23 7225.51 8280.93 503.712 1288.55 3666.09 2658.82 3480.34 1783.93 2796.07 2905.51 2439.22 1356.27 4614.84 313.482 1100.71 574.822 1766.75 428.014 1171.58 646.944 929.782
internal_count=5000000 4852545 4698832 4579815 153713 147455 127032 123575 859010 3720805 53402 122617 119017 37955 231478 1521855 3457 100311 1357895 77448 42533 15447 1025 87955 163960 3291 2601 125266 958 20423
is_linear=0
shrinkage=0.1


Tree=14
num_leaves=31
num_cat=0
split_feature=7 8 7 8 7 7 0 0 0 7 8 1 8 0 6 4 6 1 9 9 8 1 3 4 0 0 0 3 0 0
split_gain=2182.75 3492.18 358.829 391.081 304.737 140.128 165.535 192.054 159.946 69.9275 73.7588 62.5746 53.4174 52.2953 42.0895 33.9583 32.043 31.2298 30.4533 29.9511 26.7042 27.5678 26.0204 41.6696 51.0645 40.8671 27.4215 26.5099 25.8907 25.1323
threshold=0.0010138270226908025 0.021731590617254434 0.0016495600207990042 0.0070003285416231397 0.048115411193819652 1.0000000180025095e-35 13616.500000000002 6794.0000000000009 10154.500000000002 0.0021931643523143743 0.0022161098160552082 0.022805560294792308 0.058326512262942352 12664.000000000002 0.038438111366304518 0.649850562207405 0.13143192293980546 0.01411980941125948 0.0027439038172713706 0.021674991075510613 0.0011574217427841331 0.017303337377583581 0.020804505472189077 0.27560573124687665 11922.000000000002 19912.500000000004 9988.5000000000018 0.022543772061099237 765.00000000000011 8800.5000000000018
decision_type=2 2 2 2 2 2 2 2 2 2 2 2 2 2 2 2 2 2 2 2 2 2 2 2 2 2 2 2 2 2
left_child=5 2 18 9 15 6 7 28 14 16 -11 -5 -6 -10 -9 -3 -4 -12 -2 -13 -18 -22 23 -14 26 -26 -25 -24 -1 -16
right_child=1 4 3 11 12 -7 -8 8 13 10 17 19 22 -15 29 -17 20 -19 -20 -21 21 -23 27 24 25 -27 -28 -29 -30 -31
leaf_value=0.044628140752943413 -0.0044778942553143266 -0.0050297060584015563 -0.065378927247770169 -0.041123629391845232 0.024432866021404032 0.0373197024166581 0.10799697743410733 -0.066646452564155009 0.098513406120188385 -0.088787347792928031 -0.069933818219524421 -0.02881909056044063 0.076282936872664769 0.01688788569189437 0.027954130045231236 0.016679109078149797 -0.068052229569733877 -0.053660587280351738 0.029636884925841357 -0.0072032826217792697 0.0085600703784390521 -0.046547298325572528 0.091975638330571263 0.010152178162373049 -0.15047287218793581 -0.016856949061577215 0.13013715629960315 0.044531366126799116 0.11065397360161813 -0.023592692905272217
leaf_weight=66.880813305033371 751.08400372363394 1938.7973513047327 266.12430313194636 2286.1154763833911 1760.6239093504264 917.24778622749727 1327.1343788662925 99.2916921810247 293.89346041239332 1488.4289547961962 2923.4693049898779 1326.7404911775084 80.325683024013415 107.08933808188885 225.27849655435421 1146.7713560185221 102.17857770289993 1976.6505029014952 401.567307681893 1240.2415364570043 259.01657251387951 139.76129604608286 120.10145839827601 53.453439268516377 29.728815103997476 99.516396532417275 29.592324379365891 6070.5931719534565 530.28824253915809 163.04198002553312
leaf_count=596 83340 79919 129831 533719 24110 20423 946 39074 921 948676 1697743 254105 353 2275 23163 39076 32979 840458 15946 74882 35396 32014 300 271 250 413 57 28707 314 59743
internal_value=0 -0.0108537 -0.0458886 -0.0510041 0.0298461 0.0712614 0.0823294 0.0594022 0.0299286 -0.0658659 -0.0692914 -0.0290912 0.0398797 0.0767139 -0.00854485 0.00303851 -0.0373373 -0.0633694 0.00740721 -0.0183754 -0.0224407 -0.0107536 0.0440745 0.0149352 -0.00827729 -0.0475911 0.0529073 0.0454518 0.103259 0.00631145
internal_weight=0 24490.9 13161.4 12008.7 11329.5 3730.15 2812.9 1485.76 888.595 7155.63 6388.55 4853.1 8243.94 400.983 487.612 3085.57 767.081 4900.12 1152.65 2566.98 500.956 398.778 6483.31 292.617 212.291 129.245 83.0458 6190.69 597.169 388.32
internal_count=5000000 4852545 4679089 4579803 173456 147455 127032 126086 125176 3717097 3486877 862706 54461 3196 121980 118995 230220 2538201 99286 328987 100389 67410 30351 1344 991 663 328 29007 910 82906
is_linear=0
shrinkage=0.1


Tree=15
num_leaves=31
num_cat=0
split_feature=7 9 7 8 7 7 0 0 0 6 7 7 8 7 8 7 0 9 8 8 4 3 4 2 1 0 3 4 6 0
split_gain=1998.87 3145.81 292.344 419.288 201.84 145.181 155.638 177.849 156.923 69.5554 53.5273 50.2542 45.3284 42.1632 50.3637 41.5515 38.7332 35.6236 32.5061 30.8658 30.0101 28.1066 28.0948 25.8068 25.7087 24.6878 24.3698 28.2681 55.2056 56.5908
threshold=0.0010138270226908025 0.036812925905613227 0.0017150448674600239 0.0089129779631957184 0.064806458381989202 1.0000000180025095e-35 13669.500000000002 6923.0000000000009 9907.5000000000018 0.34236962837635737 0.015972136290580783 0.011328664784814898 0.035997165541660131 0.0023181490526405827 0.0025230703058142473 0.0031570573238346874 12664.000000000002 0.052020000025035935 1.0000000180025095e-35 0.0012057758744522947 0.043166461954172751 0.031177479303672363 0.15358646571302484 0.0052069323708318687 0.016138481137966922 765.00000000000011 0.022543772061099237 0.91335392915798297 0.95614842803457256 21053.500000000004
decision_type=2 2 2 2 2 2 2 2 2 2 2 2 2 2 2 2 2 2 2 2 2 2 2 2 2 2 2 2 2 2
left_child=5 2 20 9 11 6 7 25 18 13 -5 15 -6 19 -15 -3 -10 22 -9 -4 -2 -12 -13 -7 -25 -1 -14 28 -28 -30
right_child=1 4 3 10 12 23 -8 8 16 -11 21 17 26 14 -16 -17 -18 -19 -20 -21 -22 -23 -24 24 -26 -27 27 -29 29 -31
leaf_value=0.043295676133837432 -0.029251652203309931 0.030103347614906985 -0.080000786349044006 -0.036799547891627697 0.00095705399109380449 0.0099853840842149856 0.10708034643229154 -0.032435105787166872 0.093170348530917671 -0.047835816192095697 -0.025070678246064709 -0.1424267277582591 0.067602309629655979 -0.087699621751968063 -0.064767397271943625 -0.034595709818687058 0.02443895588160433 0.026129253610481087 0.023689639477910203 -0.029470504802871958 0.01069569012456285 -0.0045747683692560579 0.0056362374286913564 0.057114988036742143 0.0076002544807786 0.10854923340649497 0.038570123666759326 0.053588191007928165 -0.0053845619655593707 -0.22027170238653607
leaf_weight=65.256099125370383 230.83104784204625 133.56842161691748 167.11330581383663 1718.0460828560172 284.58290609682444 284.96528436464723 1248.1040763955098 278.40584029944148 297.3077777401777 2444.792732423055 1261.2796408331487 12.932254835497586 344.66274523048196 1359.8036140769109 3238.5634820346604 386.49469952078653 113.21500437136274 1564.181774006167 163.97287676582346 436.99960893337266 1014.8753125564253 1424.98773280764 1418.7586065810756 483.18742322968319 133.92430640477687 519.94882842665538 5015.0969677897228 1282.1456827425864 102.74820580915548 13.915038683335295
leaf_count=596 38014 3527 85397 366569 4076 8919 903 98682 4511 995153 111236 1519 1799 940216 1847336 18267 2318 27443 19660 151798 80855 104038 43835 5972 5532 362 24838 4448 1593 588
internal_value=0 -0.0104666 -0.0428256 -0.0475927 0.0302839 0.0695861 0.0812424 0.0588182 0.0296886 -0.061748 -0.0230146 0.0107156 0.0400524 -0.0682858 -0.0715488 -0.017979 0.0742154 0.0156968 -0.0116318 -0.0434485 0.00329339 -0.0141982 0.00429881 0.0348757 0.0463694 0.101273 0.0416985 0.0403066 0.0369882 -0.0310153
internal_weight=0 23856.4 13297.3 12051.6 10559.1 3588.29 2686.21 1438.11 852.901 7647.27 4404.31 3515.94 7043.15 5202.48 4598.37 520.063 410.523 2995.87 442.379 604.113 1245.71 2686.27 1431.69 902.077 617.112 585.205 6758.57 6413.91 5131.76 116.663
internal_count=5000000 4852545 4720612 4601743 131933 147455 127032 126129 125171 4019900 581843 94591 37342 3024747 2787552 21794 6829 72797 118342 237195 118869 215274 45354 20423 11504 958 33266 31467 27019 2181
is_linear=0
shrinkage=0.1


Tree=16
num_leaves=31
num_cat=0
split_feature=7 8 7 8 7 7 0 0 0 8 7 8 8 0 6 6 0 8 6 1 4 7 0 9 2 1 8 5 1 8
split_gain=1831.73 2845.03 273.13 386.612 197.088 140.533 150.614 169.468 136.003 76.9754 68.3368 57.9153 52.2075 50.1662 36.7899 34.9128 30.5168 27.3703 26.9441 27.5685 25.564 27.1627 24.4161 23.3032 23.2552 22.4493 22.1797 22.1093 21.6063 21.2861
threshold=0.0010138270226908025 0.02546586610325614 0.0016495600207990042 0.0063188523371835595 0.048115411193819652 1.0000000180025095e-35 13616.500000000002 6923.0000000000009 10301.000000000002 0.013203441202915079 0.0024350051988888187 0.0024105802397402644 0.09693867576469288 12664.000000000002 0.12951467700680483 0.52194259654619135 27721.000000000004 0.0025006366356206742 0.26809015672428654 0.037356769563649035 0.20344834688501426 0.015464122608590924 765.00000000000011 0.0042470138165902329 0.09210825415960093 0.01411980941125948 0.0011574217427841331 0.067406689599608882 0.04297087946957364 0.002343468595886323
decision_type=2 2 2 2 2 2 2 2 2 2 2 2 2 2 2 2 2 2 2 2 2 2 2 2 2 2 2 2 2 2
left_child=5 2 17 10 27 6 7 22 18 -5 14 -12 -6 -10 -4 16 -11 -2 -9 -20 21 24 -1 -7 -17 -13 -16 -3 -28 -15
right_child=1 4 3 9 12 23 -8 8 13 15 11 25 -14 29 26 20 -18 -19 19 -21 -22 -23 -24 -25 -26 -27 28 -29 -30 -31
leaf_value=0.041751287939156667 -0.0026190377397839913 -0.19675095467397852 -0.064513928110947097 -0.0384571546756989 0.027932677134726872 0.024006874416428493 0.10592914335399913 -0.023016499235791469 0.099595670204723097 -0.030656849673775178 -0.085363718982487499 -0.067500984117554716 0.044399681771317555 -0.0053515268454878522 -0.061765472173464564 -0.14616211373473456 0.0755721864451942 0.033823931643421512 0.056743213357753501 -0.039445848736346087 -0.0042363543965015836 0.076466863845079863 0.10753729137389277 0.060880923265828751 0.12997039970133187 -0.051816682531119318 -0.0079809801361222336 0.0046656769998363939 -0.073170964970111746 0.1106822353186501
leaf_weight=63.732516242540441 859.86919438431505 5.4625353129813439 359.92058634343266 2903.2543836282566 3414.0154784859042 653.91425754956435 1189.0192015261855 322.56973454172839 249.3813579166308 1211.9024652444059 1340.2593970041198 2264.7873604440101 4415.3457400453335 83.463424381916411 128.18565119750565 32.211915469379164 27.660042527597398 271.05168985342607 102.93213784403633 41.935588801978156 1662.1811170662113 8.7701024399138969 491.50208819389809 232.25820381834637 3.3688710923306635 1528.4684402450366 455.43566068963264 2344.4497269087296 57.230385897390079 19.504439738346264
leaf_count=596 90086 838 209338 822866 36598 18296 946 104312 352 131620 985259 1464719 15447 2216 52279 3931 1411 9245 9735 8454 113598 317 362 2127 28 713867 93473 81439 26186 59
internal_value=0 -0.0100721 -0.0408618 -0.0452951 0.029596 0.0680009 0.0798658 0.057328 0.0284361 -0.0269013 -0.0628345 -0.0674947 0.0372192 0.0753498 -0.0389297 -0.0155134 -0.0282864 0.00611537 -0.00692694 0.0288989 -0.00623561 -0.0811638 0.0999861 0.0336712 -0.120017 -0.0611811 -0.0245609 0.00419747 -0.0152583 0.0166279
internal_weight=0 23293.8 13114.6 11983.6 10179.3 3450.21 2564.04 1375.02 819.787 5849.35 6134.29 5133.52 7829.36 352.349 1000.77 2946.09 1239.56 1130.92 467.437 144.868 1706.53 44.3509 555.235 886.172 35.5808 3793.26 640.852 2349.91 512.666 102.968
internal_count=5000000 4852545 4718223 4618892 134322 147455 127032 126086 125128 1073771 3545121 3163845 52045 2627 381276 250905 133031 99331 122501 18189 117874 4276 958 20423 3959 2178586 171938 82277 119659 2275
is_linear=0
shrinkage=0.1


Tree=17
num_leaves=31
num_cat=0
split_feature=7 9 7 8 7 0 0 0 7 4 8 2 6 8 9 0 6 4 7 5 4 0 3 2 1 0 0 9 4 8
split_gain=1681.9 2269.47 594.989 313.392 187.213 140.148 151.047 131.96 78.5151 65.3705 63.967 61.4436 36.1014 33.1769 32.2147 31.8896 26.8108 26.6636 25.602 25.373 25.0056 23.99 22.9621 23.3087 22.0828 21.8461 33.2009 21.6198 27.5719 21.4507
threshold=1.0000000180025095e-35 0.036812925905613227 0.0015741096265335247 0.0070003285416231397 0.10918615928805299 13669.500000000002 6923.0000000000009 10154.500000000002 0.0024350051988888187 0.74758572800955447 0.0028389286392626572 0.027976710133239952 0.11383132762478403 0.042979658473761076 0.0027439038172713706 12664.000000000002 0.40739513550604306 0.16254626247122186 0.02709121065962565 0.64887898856130566 0.60060277330794698 765.00000000000011 0.022543772061099237 0.10971748659511947 0.037356769563649035 8710.5000000000018 7899.0000000000009 0.16260650549916836 0.71016090555864475 0.0024553762722719242
decision_type=2 2 2 2 2 2 2 2 2 2 2 2 2 2 2 2 2 2 2 2 2 2 2 2 2 2 2 2 2 2
left_child=5 2 14 8 9 6 21 17 12 13 -10 18 -4 -3 -2 -9 -13 25 -5 -20 -16 -1 -6 -24 -19 26 -8 -15 -29 -14
right_child=1 4 3 11 22 -7 7 15 10 -11 -12 16 29 27 20 -17 -18 24 19 -21 -22 -23 23 -25 -26 -27 -28 28 -30 -31
leaf_value=0.040431741576776474 0.0083113880993858011 -0.0038313510125056391 -0.061476516297179075 -0.038827760213711593 0.068994199835594183 0.10521251371313381 -0.035714721393305462 0.093813067021859292 -0.0793158599722813 0.029331430589562779 -0.055918162578270536 -0.062236731910965695 -0.032013607311486163 0.020706998139552468 0.038514230982527931 0.028745343588094732 -0.0099935132055036426 0.051735821019768917 -0.019050638577744215 0.090327807251351977 -0.16172715642277485 0.10659373832537114 0.036637693831960035 0.057805421717933174 -0.035067035275406715 -0.050860293110879876 0.062650784519290612 -0.0058203463554162968 -0.24428230581300447 0.0067312086678652048
leaf_weight=62.154670367657673 1195.0526160791633 1748.3359539089433 342.39331181930902 2506.2536793770705 275.12372801732272 1112.5532447397709 85.642926139058545 254.70332295144908 1756.456366651415 1804.3327581999474 3490.315556537942 103.20633344852831 577.56520057060698 1426.1971164061397 609.55267096019816 106.9483276233077 2037.8599887329037 106.49830437789205 492.45539961126633 22.162871710548643 6.300803269725292 463.41301486582961 4165.2036938893143 594.43900723033585 40.435772280907258 150.91392271575751 57.251847375591751 264.12096058059251 4.939406181452795 189.8693828889227
leaf_count=596 83691 58088 203832 588502 1068 903 18753 921 1329280 26979 2005048 19524 166783 22697 14137 2318 269389 14185 26790 363 1859 362 16279 1457 8616 75133 5245 5261 220 31721
internal_value=0 -0.00816858 -0.0353982 -0.0437754 0.0271292 0.0790315 0.0570974 0.0298023 -0.0586395 0.0139128 -0.063751 -0.0254711 -0.0344748 0.00583399 0.0178861 0.0745711 -0.0125118 -0.00693273 -0.0346562 -0.0143401 0.0364656 0.0987693 0.040905 0.0392814 0.027848 -0.0243266 0.00369615 0.015802 -0.010198 -0.0224278
internal_weight=0 23612.1 13329.4 11518.5 10282.7 2440.52 1327.96 802.394 6356.6 5247.93 5246.77 5161.94 1109.83 3443.59 1810.91 361.652 2141.07 440.743 3020.87 514.618 615.853 525.568 5034.77 4759.64 146.934 293.809 142.895 1695.26 269.06 767.435
internal_count=5000000 4872968 4740919 4641232 132049 127032 126129 125171 3736664 113245 3334328 904568 402336 86266 99687 3239 288913 121932 615655 27153 15996 958 18804 17736 22801 99131 23998 28178 5481 198504
is_linear=0
shrinkage=0.1


Tree=18
num_leaves=31
num_cat=0
split_feature=7 8 7 8 7 0 0 0 8 7 8 8 0 7 1 7 2 4 5 6 3 5 3 6 1 4 3 7 1 6
split_gain=1549.59 2000.19 542.002 298.099 161.272 133.943 141.74 112.555 66.8967 60.179 48.4885 42.667 40.214 39.8147 32.9788 30.5828 27.7298 27.2364 26.5169 26.1055 25.4915 25.3472 23.3943 34.1573 37.5834 30.2272 26.6826 22.2126 28.3103 25.4994
threshold=1.0000000180025095e-35 0.02546586610325614 0.0016495600207990042 0.0058742468746459482 0.048115411193819652 13669.500000000002 6923.0000000000009 10435.500000000002 0.015844732101309354 0.0024350051988888187 0.0024105802397402644 0.058326512262942352 12582.500000000002 0.0012378407578255532 0.02511010619922819 0.0019207362071499295 0.0052069323708318687 0.024966670581118473 0.091171220214340556 0.7652407939564686 0.0069799012869060893 0.3240102680432288 0.038152457898503127 0.35019200363742103 0.018359234013391925 0.15585595096655472 0.080325530248553448 0.0022897545476346917 0.033550904440813344 0.95614842803457256
decision_type=2 2 2 2 2 2 2 2 2 2 2 2 2 2 2 2 2 2 2 2 2 2 2 2 2 2 2 2 2 2
left_child=5 2 13 9 27 6 -1 17 14 18 -11 -6 -9 16 15 -5 20 -8 -4 -10 -2 -21 23 24 25 -15 -24 -3 29 -29
right_child=1 4 3 8 11 -7 7 12 19 10 -12 -13 -14 22 -16 -17 -18 -19 -20 21 -22 -23 26 -25 -26 -27 -28 28 -30 -31
leaf_value=0.0978211381224528 0.0073236050496585763 0.063185661120317607 -0.061247007311307528 0.070211689932375573 0.017979800132460946 0.10437283065467873 -0.054344685274965623 0.10289759889736397 -0.017846385749884577 -0.081498593744279604 -0.05771638126845783 0.03664996254574833 0.0301790727711314 -0.015272881723377511 -0.023216389086844223 -0.043349210644896517 0.037497765133777193 0.0090757701075834911 -0.024866183492875199 -0.18142981716759282 -0.21547417616731745 0.01264387587104334 -0.093807483516406998 0.051876163006043578 -0.11028581683707234 0.035617101912219958 0.052990803546546152 -0.0097571045300412825 0.010881515939187287 -0.14236112496116313
leaf_weight=497.12806644500233 357.18059602397261 59.311687720241025 290.63294968294213 23.971121954906266 1529.4534482177696 1046.8178345706547 82.646342044812627 197.25254948344082 1643.2675110038108 1173.3268466205482 3182.9825853775401 6129.8008533919055 123.76289212983102 402.70184594157035 1564.5831317064876 2217.6001785497065 794.86071347331745 374.83481261512497 644.89737674925709 6.8363219872117034 5.2103021937655276 431.60292592900805 51.265285428497009 120.0297706410056 33.011162362177856 164.35156305658165 16.324731694825459 947.9907214504201 1288.4153930473258 14.726873989799058
leaf_count=958 17514 692 190672 1155 21694 903 33280 176 129995 985259 2044051 30351 2378 53772 308663 745668 22434 89337 189358 396 622 23675 10094 3827 3530 7255 638 34628 46082 943
internal_value=0 -0.00783012 -0.0334797 -0.0419558 0.0259364 0.0778626 0.0561074 0.0294701 -0.0264751 -0.05918 -0.0641219 0.0329218 0.074862 0.0152416 -0.0343581 -0.0421348 0.0270457 -0.00238146 -0.0361683 -0.012062 0.00412031 0.0096178 -0.00210069 0.00317921 -0.00656155 -0.000523216 -0.0583519 0.00277928 0.00118773 -0.0117856
internal_weight=0 23094.3 13124.6 11179.7 9969.7 2322.44 1275.62 778.497 5887.86 5291.84 4356.31 7659.25 321.015 1944.94 3806.15 2241.57 1157.25 457.481 935.53 2081.71 362.391 438.439 787.684 720.094 600.065 567.053 67.59 2310.44 2251.13 962.718
internal_count=5000000 4872968 4738578 4618892 134390 127032 126129 125171 1209552 3409340 3029310 52045 2554 119686 1055486 746823 40570 122617 380030 154066 18136 24071 79116 68384 64557 61027 10732 82345 81653 35571
is_linear=0
shrinkage=0.1


Tree=19
num_leaves=31
num_cat=0
split_feature=7 8 7 8 7 0 0 0 7 8 8 8 4 8 7 0 3 3 1 8 0 1 6 4 6 7 8 8 0 7
split_gain=1426.3 1759.32 493.05 253.45 150.254 127.451 126.455 102.518 67.382 64.4387 55.2433 35.2335 34.315 33.6747 32.865 31.6931 27.5819 36.8406 33.9317 25.8436 25.3607 24.4456 23.1255 22.6207 22.566 21.6832 21.5465 21.3098 20.1146 19.7731
threshold=1.0000000180025095e-35 0.02546586610325614 0.0015741096265335247 0.0083708458108699025 0.040638748096515645 13966.500000000002 6794.0000000000009 10301.000000000002 0.0020082105325389971 0.0021503955656286444 0.058326512262942352 0.015844732101309354 0.37027003333699754 0.0031285446709338567 0.0029866620323963527 12497.500000000002 0.0248837520641229 0.073669899876775094 0.0034370780063719395 1.0000000180025095e-35 765.00000000000011 0.0066534757566153249 0.71323451066070354 0.042229248372415464 0.7652407939564686 0.0022897545476346917 1.0000000180025095e-35 0.0028389286392626572 109.50000000000001 0.0012378407578255532
decision_type=2 2 2 2 2 2 2 2 2 2 2 2 2 2 2 2 2 2 2 2 2 2 2 2 2 2 2 2 2 2
left_child=5 2 13 8 25 6 20 19 23 -10 22 21 14 16 -11 -9 18 -18 -2 -8 -1 -5 -6 -4 -13 -3 -17 -16 -27 -20
right_child=1 4 3 11 10 -7 7 15 9 12 -12 24 -14 -15 27 26 17 -19 29 -21 -22 -23 -24 -25 -26 28 -28 -29 -30 -31
leaf_value=0.036402503750363038 -0.013610456611707121 0.058112392387545876 -0.067449791571423987 -0.063025762598895266 0.0027100377414126225 0.10414815346831144 -0.018283461235521183 0.10157149518078608 -0.077360864050943723 -0.031548570683083858 0.034766163713528413 -0.017628705145809866 -0.036829467028195943 0.047168775316553856 -0.082759178652067 0.0083832814056711957 -0.056887746376542925 0.084955876848178902 0.033700858760528182 0.030796982480308006 0.10687478759353371 -0.026908639186442984 0.025001552053055168 -0.013808720987202448 0.0079453614439447297 -0.23339384011603564 0.08335949146112083 -0.056855221080761499 -0.0029396026078839042 0.0044269841369002317
leaf_weight=58.645097269065445 320.00292973828618 59.143984756316058 92.092106823212816 204.35073233961884 830.3633119489532 959.33962612762116 280.21762033581035 182.07479473226704 1145.129426096908 468.88190659925021 6119.4542001173832 1617.813956927057 1265.394963064653 302.48029053059872 362.53912581929762 90.201983517152257 109.50180550018558 21.987497337453533 674.68540981702972 173.84156996733509 395.08864807500504 2259.5166320833378 1058.791908418003 537.23978227238695 438.56034418346826 3.7954490329138926 66.650892435340211 2560.6000423123114 1788.0304158237414 350.65591485524783
leaf_count=596 30095 692 46872 82547 17659 856 102185 277 975274 262744 30843 130019 593146 6428 322700 1992 15294 641 18686 20364 314 416356 15287 107316 24087 252 448 1677666 69657 28707
internal_value=0 -0.00749455 -0.0320527 -0.0399847 0.0242167 0.0767475 0.0556629 0.0315721 -0.0527376 -0.0561084 0.0301515 -0.0218385 -0.050883 0.0167709 -0.0561257 0.073189 0.0105449 -0.0331688 0.0148174 0.000507528 0.0977662 -0.0299042 0.0152035 -0.0216582 -0.0121746 -0.00146136 0.0402426 -0.0600679 -0.00342775 0.0236895
internal_weight=0 22591 12731.4 10952.1 9859.58 2206.06 1246.72 792.987 6431.88 5802.55 8008.61 4520.24 4657.42 1779.31 3392.02 338.928 1476.83 131.489 1345.34 454.059 453.734 2463.87 1889.16 629.332 2056.37 1850.97 156.853 2923.14 1791.83 1025.34
internal_count=5000000 4872968 4738578 4638727 134390 127032 126176 125266 3985718 3831530 63789 653009 2856256 99851 2263110 2717 93423 15935 77488 122549 910 498903 32946 154188 154106 70601 2440 2000366 69909 47393
is_linear=0
shrinkage=0.1


Tree=20
num_leaves=31
num_cat=0
split_feature=7 8 7 8 0 0 0 4 7 6 7 8 4 0 7 9 8 0 3 0 9 1 4 4 0 0 9 7 2 1
split_gain=1307.34 1546.98 387.582 366.709 123.119 124.476 91.8889 69.5704 59.4999 40.5171 37.0391 38.7733 35.0263 33.1405 30.0839 29.8773 29.0326 28.6493 27.2964 24.2494 23.4741 22.3012 25.8296 23.1738 22.0934 23.0974 21.7214 19.4477 19.3243 19.113
threshold=1.0000000180025095e-35 0.035997165541660131 0.0015741096265335247 0.011778362055018631 13616.500000000002 6923.0000000000009 9907.5000000000018 0.16722298203616567 0.10918615928805299 0.64538749521126937 0.0022258162584499223 0.0021945166448457689 0.84089918538099029 12814.500000000002 0.0019656656627491977 0.0020220494806535527 0.0035854193365092864 27952.500000000004 0.0075972195194901754 765.00000000000011 0.011370282343540162 0.023192840920277329 0.35565388165973782 0.026319830118892718 8800.5000000000018 7584.5000000000009 0.052020000025035935 0.0031362810920119578 0.10971748659511947 0.04297087946957364
decision_type=2 2 2 2 2 2 2 2 2 2 2 2 2 2 2 2 2 2 2 2 2 2 2 2 2 2 2 2 2 2
left_child=4 2 15 7 5 19 24 10 12 -5 20 -12 26 -8 29 -2 27 -6 -15 -1 -4 23 -23 -17 25 -7 -3 -16 -10 -9
right_child=1 8 3 9 17 6 13 14 28 -11 11 -13 -14 18 16 21 -18 -19 -20 -21 -22 22 -24 -25 -26 -27 -28 -29 -30 -31
leaf_value=0.035010354964825678 0.0057268396422164216 -0.0083502788880048581 -0.037487896962880289 -0.019798403421697686 0.10522121203930274 -0.03211553323074854 0.085031764929202683 0.0014177175069055819 0.031910384129518424 -0.00090697257051797382 -0.085709852003770626 -0.056966751106118575 0.036530564711308895 -0.091668417047007067 -0.038671921979467533 -0.041345821835739698 -0.036522618843635744 -0.017817744108015302 0.045326412519571598 0.10474174261712202 0.062332666253884478 -0.24102679656126702 -0.0068195553885579147 0.0420139942593395 -0.031091285673470886 0.037513160507613684 0.015686942323895038 -0.065523402478165529 0.051477136772263801 -0.072161117430231667
leaf_weight=57.30479527299758 1051.0723839385028 455.51927494909614 391.82843616330501 2729.4660173466546 909.67236362933181 68.187203570443671 251.54306818472105 254.83748315394041 4338.4595961462473 1943.8001123988361 608.58740563818719 2050.821231165166 710.73836947721429 19.729988261824474 435.344740204142 35.264896297012456 2926.2350112425192 19.326760587282479 55.338893478852697 384.41643985244446 25.065634366066661 5.2148824218893415 48.528564914304297 613.8675071085454 171.02643978307606 158.11445845873095 2151.9199830508442 709.03466025083617 571.19091114564799 40.981224953429773
leaf_count=596 78385 16222 190696 267447 776 16110 4660 25578 17347 116434 615661 1580310 7806 1263 241033 2460 1108544 170 863 362 1876 480 4537 14068 85080 17152 34526 535476 1457 12625
internal_value=0 -0.0071571 -0.0275357 -0.0338959 0.0755044 0.053861 0.0283351 -0.0476815 0.0271958 -0.0119407 -0.0592 -0.0635444 0.0168517 0.0676302 -0.0395663 0.0163998 -0.0418039 0.102662 0.00932073 0.0956954 -0.0314862 0.0323601 -0.0295454 0.0374854 -0.00396631 0.0165333 0.0114876 -0.0553086 0.0341868 -0.00877552
internal_weight=0 22097.8 13870 12116 2094.66 1165.66 723.94 7442.74 8227.83 4673.27 3076.3 2659.41 3318.18 326.612 4366.43 1753.95 4070.61 928.999 75.0689 441.721 416.894 702.876 53.7434 649.132 397.328 226.302 2607.44 1144.38 4909.65 295.819
internal_count=5000000 4872968 4795610 4695680 127032 126086 125128 4311799 77358 383881 2388543 2195971 58554 6786 1923256 99930 1885053 946 2126 958 192572 21545 5017 16528 118342 33262 50748 776509 18804 38203
is_linear=0
shrinkage=0.1


Tree=21
num_leaves=31
num_cat=0
split_feature=7 8 7 8 7 0 0 0 7 3 9 8 4 0 9 6 8 0 0 0 0 5 7 6 1 0 0 2 3 6
split_gain=1194.62 1371.26 413.276 210.312 129.814 119.565 116.613 88.5218 51.1356 45.8086 44.5788 44.3642 36.0546 34.7937 30.4719 29.029 24.8159 24.572 22.6869 21.2696 60.9661 21.4316 21.2336 20.4987 19.6758 20.3765 33.43 34.8735 25.9557 17.8341
threshold=1.0000000180025095e-35 0.02546586610325614 0.0016495600207990042 0.0058742468746459482 0.040638748096515645 13669.500000000002 6923.0000000000009 10435.500000000002 0.002541554247047011 0.025299670239951246 0.086586339066658496 0.0024105802397402644 0.17447495487110332 12664.000000000002 0.0027711324862314019 0.13522569882124871 0.0011326219741127365 27952.500000000004 765.00000000000011 26787.000000000004 26380.000000000004 0.50558588799558157 0.0012378407578255532 0.29282668816945495 0.025715164483615514 22729.000000000004 26849.500000000004 0.049141647407792748 0.06287825832606099 0.072055374191619989
decision_type=2 2 2 2 2 2 2 2 2 2 2 2 2 2 2 2 2 2 2 2 2 2 2 2 2 2 2 2 2 2
left_child=5 2 14 8 -3 6 18 23 16 -5 24 -10 -11 -9 22 -12 -4 -7 -1 20 -17 -22 -2 -8 -6 -26 27 -27 -29 -18
right_child=1 4 3 9 10 17 7 13 11 12 15 -13 -14 -15 -16 19 29 -19 -20 -21 21 -23 -24 -25 25 26 -28 28 -30 -31
leaf_value=0.035577102815501777 0.015766095528872023 -0.0029135629206073618 -0.063212637474225383 -0.034224934272010031 -0.011074687217800631 0.10483874326130101 -0.014623961102660111 0.098077096301175906 -0.077287220572951953 -0.074887500232394863 -0.26578411322407219 -0.051965790453900151 -0.013933936298657558 0.024066434525198369 0.031956343046483413 0.031010327283060447 -0.056593613848644947 -0.011449690905495587 0.1040871281071649 0.055449279350884853 0.0062567969246982089 -0.12597684355047012 -0.011135919327258801 0.033013870470154992 0.022444968682335933 0.0077909179624559514 0.038477146419862357 -0.19457629540484922 -0.053776573574403401 -0.016439016043359751
leaf_weight=55.847285611613188 725.71422056670417 1801.6448400841909 203.0812386276084 2474.8135780925513 268.67498149443418 841.65391113131773 300.8604506906122 180.57920462556649 923.51809615447564 100.32947829939076 3.286558609455823 2759.089116407893 2962.2230191619456 97.988539550744463 631.60081552888732 5392.6361438038002 135.2712627263827 18.571454855729826 359.35785454051802 348.4626967277145 19.432252731756307 33.192182732978836 492.51276707655052 129.08247901225695 1508.5255343877361 87.932035089994315 98.18773674138356 16.731792506529018 60.197382296668366 606.61391980262124
leaf_count=596 34028 70601 131819 773822 6862 733 106594 236 943053 17997 76 2011828 417733 2318 19099 25098 111893 170 362 1443 145 292 66559 16023 23760 1620 1617 1029 1847 210747
internal_value=0 -0.00680473 -0.0293445 -0.0372563 0.0212908 0.07427 0.052791 0.0281304 -0.0529909 -0.024107 0.026855 -0.0583159 -0.0159308 0.0720432 0.0141315 0.0313293 -0.0322392 0.102328 0.0948722 0.0314978 0.0299651 -0.0771479 0.00488997 -0.000321576 0.0141422 0.0179665 -0.0077163 -0.0352281 -0.0844 -0.0237606
internal_weight=0 21653.7 12014.8 10164.9 9638.9 1983.94 1123.72 708.511 4627.57 5537.37 7837.26 3682.61 3062.55 278.568 1849.83 5797.01 944.966 860.225 415.205 5793.72 5445.26 52.6244 1218.23 429.943 2040.25 1771.57 263.049 164.861 76.9292 741.885
internal_count=5000000 4872968 4738578 4618892 134390 127032 126129 125171 3409340 1209552 63789 2954881 435730 2554 119686 27054 454459 903 958 26978 25535 437 100587 122617 36735 29873 6113 4496 2876 322640
is_linear=0
shrinkage=0.1


Tree=22
num_leaves=31
num_cat=0
split_feature=7 8 7 8 0 0 0 7 8 7 7 4 0 7 8 0 7 7 3 4 7 1 4 0 4 1 0 5 2 3
split_gain=1093.26 1247.47 311.99 294.171 114.652 103.257 77.9219 55.4841 54.7951 55.3403 38.2802 33.5786 37.5002 31.7743 28.9992 27.9841 27.9119 40.8592 27.6111 27.884 26.5852 28.5672 25.7218 24.1934 23.2019 25.7865 23.0778 21.8408 22.0965 21.473
threshold=1.0000000180025095e-35 0.035997165541660131 0.0017150448674600239 0.011778362055018631 13966.500000000002 6794.0000000000009 10301.000000000002 0.064806458381989202 0.0035303121092787556 0.0031147431176912171 0.02709121065962565 0.53422873257502645 12497.500000000002 0.0012378407578255532 0.0011326219741127365 12582.500000000002 0.0031362810920119578 0.0053293120798745168 0.027417562126420898 0.25950021491724468 0.0028530621791581817 0.017918156338210516 0.31189694353253433 765.00000000000011 0.15585595096655472 0.033550904440813344 27952.500000000004 0.038919698506819249 0.0032953761646351311 0.029366870263714834
decision_type=2 2 2 2 2 2 2 2 2 2 2 2 2 2 2 2 2 2 2 2 2 2 2 2 2 2 2 2 2 2
left_child=4 2 13 8 5 23 -7 11 9 14 18 12 -3 27 -4 -8 -14 -18 -5 29 -10 -22 -21 -1 -15 -26 -6 28 -2 -20
right_child=1 7 3 10 26 6 15 -9 20 -11 -12 -13 16 24 -16 -17 17 -19 19 22 21 -23 -24 -25 25 -27 -28 -29 -30 -31
leaf_value=0.033193931685874735 0.0017017985772586706 0.016975965770307504 -0.070938770973609538 -0.033461081021666741 0.10501866773825447 0.0027807718047727402 0.097551818386635694 0.029015335505757908 0.00020146159966778402 -0.070583204846481326 -0.001995650651742514 0.018946309909188642 0.050131969229170008 -0.018446707752658869 -0.033621099820071713 0.035405401831934039 -0.19183988334503177 -0.033296131101330083 0.029800440613771274 0.048770061064849497 -0.047293353696986104 -0.030170442345454664 -0.011376849878337134 0.10516625974240357 0.026703074079692742 -0.039377011711302645 -0.0091229635675785983 0.028966032268174076 -0.1192860186144523 -0.082289305494514908
leaf_weight=54.642556049715495 142.4556261159596 284.75307528366102 263.08635711565876 985.62973494366452 764.21219105203636 426.49553687608568 162.00034669705201 6239.6557953959564 175.44688178649812 1339.855130224747 2048.4580628065596 1197.2605296832626 36.552331797545776 446.39550223803235 998.80360281072353 131.08726745203603 17.249752893752884 281.92279917112319 21.19795587786939 75.126248466491234 2163.8702517141719 1772.4348382808312 1327.0020245545602 321.53348012221977 326.43663381470833 72.097097615682287 18.133931995253079 925.17127906254609 16.884351688553579 88.207543972763233
leaf_count=596 8058 6399 215257 155725 686 122549 292 33266 47196 1345795 79856 27033 493 68863 640577 2425 878 9289 1262 3186 1387734 635870 134768 314 16825 13191 170 31085 1471 8891
internal_value=0 -0.00646476 -0.0254046 -0.0317716 0.0731322 0.052255 0.0300599 0.0245364 -0.0450721 -0.0564295 -0.0121278 0.0091619 -0.00971788 0.0117497 -0.0414013 0.069756 -0.0323589 -0.0424375 -0.0204393 -0.0119481 -0.0378857 -0.0395833 -0.00815417 0.0947117 -0.00278915 0.0147488 0.102373 0.0230767 -0.0111186 -0.0605713
internal_weight=0 21246 13188.6 11259.1 1878.11 1095.76 719.583 8057.39 6713.5 2601.75 4545.62 1817.74 620.478 1929.44 1261.89 293.088 335.725 299.173 2497.16 1511.53 4111.75 3936.31 1402.13 376.176 844.929 398.534 782.346 1084.51 159.34 109.405
internal_count=5000000 4872968 4795610 4656117 127032 126176 125266 77358 4272429 2201629 383688 44092 17059 139493 855834 2717 10660 10167 303832 148107 2070800 2023604 137954 910 98879 30016 856 40614 9529 10153
is_linear=0
shrinkage=0.1


Tree=23
num_leaves=31
num_cat=0
split_feature=7 9 7 8 0 0 7 0 8 4 7 0 0 4 7 8 6 9 6 3 0 0 7 0 0 0 0 0 0 9
split_gain=993.521 1112.39 305.65 217.762 112.508 102.398 76.4767 67.0768 52.2988 36.0067 31.9002 31.7925 30.3014 30.0659 29.9998 35.2933 24.1182 22.2135 22.1909 35.5825 22.0059 21.8403 21.4871 21.2663 42.777 30.6668 21.0707 20.7474 20.3596 20.8486
threshold=1.0000000180025095e-35 0.045225663634006395 0.0018260687329445635 0.010007730189467942 13669.500000000002 6923.0000000000009 0.10918615928805299 10435.500000000002 0.0018534313312404051 0.66010293259370623 0.0010138270226908025 12664.000000000002 20896.000000000004 0.77813129236487233 0.0029866620323963527 0.0035303121092787556 0.95614842803457256 0.012559386713059258 0.95614842803457256 0.059484637819665877 27952.500000000004 765.00000000000011 0.013796169718343661 13123.000000000002 14101.000000000002 10992.500000000002 643.00000000000011 109.50000000000001 27803.000000000004 0.018873567693788718
decision_type=2 2 2 2 2 2 2 2 2 2 2 2 2 2 2 2 2 2 2 2 2 2 2 2 2 2 2 2 2 2
left_child=4 2 10 8 5 21 13 -7 -4 16 -2 -9 -11 18 -10 -16 22 -12 27 -20 -6 -1 26 25 -25 -24 -5 -3 29 -26
right_child=1 6 3 9 20 7 -8 11 14 12 17 -13 -14 -15 15 -17 -18 -19 19 -21 -22 -23 23 24 28 -27 -28 -29 -30 -31
leaf_value=0.033729242335670435 0.026200773717462392 -0.22405045873272847 -0.069517540041727208 0.049294729989433322 0.10397127860229116 0.0022406289956794496 0.029579890203469811 0.094681851052464905 -0.02313616335824659 0.0077260727642847974 -0.0034016513743792623 0.021494196232196783 -0.032859367653170851 0.023619708771707548 -0.061283054503080525 -0.039902012748744525 -0.17549425276944955 0.049667760424969419 -0.23730278820138545 -0.022944118804234213 -0.0084360039400672923 0.10300208812672584 -0.013844512416772562 -0.12542534028276073 -0.053864129206788305 0.028650125813868138 -0.037336702292698719 0.0066059344949785208 0.05546043104297569 -0.017634919810352558
leaf_weight=53.281290397397242 748.00029039895162 3.9054629791062316 786.15190093617275 29.066175639163703 728.74578833545092 414.04439750302117 4777.0584944270668 159.79904046619777 736.63375048366288 902.45058136706939 1179.6351156636665 94.426451809646096 231.06000489984581 1250.5793812335469 1013.3570019925137 3241.8435805778718 10.112370154238304 84.52447789843427 9.0594154487480392 53.324141333345324 17.842462682398036 312.15232803075924 894.6299236642808 40.950181063177297 190.82635589232086 209.61502740660217 823.73349826376216 2647.2364994053205 33.437963514588773 947.60832390503492
leaf_count=596 20330 164 782876 3963 733 122617 18804 236 413722 70463 153886 2318 23195 16684 1022798 1880548 1436 2918 829 1948 170 362 81705 5886 41188 14194 185212 56453 2243 71523
internal_value=0 -0.00612407 -0.0257557 -0.0328516 0.0717045 0.0503402 0.0210592 0.027066 -0.0455439 -0.0158501 0.00983203 0.0674979 -0.00054705 0.0107912 -0.0417683 -0.0449938 -0.0213048 0.000146686 0.00487895 -0.0540735 0.101285 0.0929019 -0.020813 -0.0158181 -0.0249595 -0.0057779 -0.034384 0.00626615 -0.0214488 -0.0237077
internal_weight=0 20844.8 12103.6 10091.5 1780.29 1033.7 8741.16 668.27 5777.99 4313.49 2012.16 254.225 1133.51 3964.1 4991.83 4255.2 3179.98 1264.16 2713.53 62.3836 746.588 365.434 3169.87 2317.07 1212.82 1104.24 852.8 2651.14 1171.87 1138.43
internal_count=5000000 4872968 4778086 4600952 127032 126129 94882 125171 4099944 501008 177134 2554 93658 76078 3317068 2903346 407350 156804 59394 2777 903 958 405914 216739 120840 95899 189175 56617 114954 112711
is_linear=0
shrinkage=0.1


Tree=24
num_leaves=31
num_cat=0
split_feature=7 8 7 8 0 0 7 8 0 7 6 4 0 5 6 4 0 9 0 0 5 5 1 0 6 5 0 6 6 0
split_gain=902.529 992.829 261.428 200.374 108.45 96.7192 60.0042 61.1593 57.757 42.9997 34.2669 33.9709 33.8411 27.6241 25.2056 23.5646 22.8419 22.2358 20.8507 20.7486 20.4946 20.354 20.2924 20.6015 28.9462 30.6284 20.9661 20.1211 19.9982 58.9017
threshold=1.0000000180025095e-35 0.035997165541660131 0.0014898586936821611 0.011778362055018631 13616.500000000002 6923.0000000000009 0.0020082105325389971 0.0021503955656286444 10435.500000000002 0.064806458381989202 0.52194259654619135 0.28589952447512484 12664.000000000002 0.55611992167694957 0.29927741888867937 0.53422873257502645 12497.500000000002 0.027836892578455733 765.00000000000011 27952.500000000004 0.18717299938237689 0.049747868904050384 0.10898645606786847 12961.000000000002 0.7652407939564686 0.61840052791744637 27803.000000000004 0.85861197734626471 0.95614842803457256 24636.000000000004
decision_type=2 2 2 2 2 2 2 2 2 2 2 2 2 2 2 2 2 2 2 2 2 2 2 2 2 2 2 2 2 2
left_child=4 2 13 6 5 18 21 -8 -7 15 -5 17 -10 14 -2 16 20 -9 -1 -6 -3 -4 28 -24 25 -25 -26 -18 -11 -30
right_child=1 9 3 10 19 8 7 11 12 22 -12 -13 -14 -15 -16 -17 27 -19 -20 -21 -22 -23 23 24 26 -27 -28 -29 29 -31
leaf_value=0.033539360300801527 0.010948656472522396 -0.28414502765155553 -0.059385382121923937 -0.02304723174052925 0.10316055117075087 0.0032354557418923569 -0.067614628542999017 -0.045649436648605927 0.094236330222180087 0.025292269419639649 -0.0050207805319223558 -0.029673658731404259 0.015419824664084467 -0.07805551438900607 0.042422210812370909 0.016465491787913743 -0.018941811639990036 -0.20620731171653253 0.10232788858280298 -0.0071584556984788444 0.015144570878858239 -0.0065781808489326719 0.058538970283902807 0.03383552386480318 0.028580174263307459 -0.12960198460819988 0.11266479444170507 -0.11124755668162474 0.0061271475999258966 -0.30647405915314413
leaf_weight=51.955025082366774 1129.8884685999656 2.3068631567293769 82.247670908593136 1734.0413330703741 683.45718643174041 406.67746362858452 856.09393716331761 2762.342742063156 149.39974788168911 4946.9438197855488 2690.9757208840456 2281.4432551435311 85.741035559272859 30.543314002876286 328.41021273842489 1171.4062115590787 288.54888113957713 8.6526063393976056 290.13999558781506 17.484769281640183 279.90856422687648 648.46747534157475 358.24329543410568 22.699199171038345 397.9956520665437 23.17054317612201 32.041418514563702 25.720389839552809 349.18073524802458 6.1335115895490153
leaf_count=596 62597 260 52837 202060 776 122617 975274 2179639 236 26621 181912 1000225 2275 7101 11745 27033 9362 1659 362 170 6139 120561 1320 91 1562 206 70 1298 3074 322
internal_value=0 -0.00579396 -0.023275 -0.0285688 0.0703499 0.048936 -0.0395552 -0.0428984 0.026046 0.0219684 -0.0120848 -0.0387105 0.0654969 0.0160652 0.0180365 0.00822699 -0.00795219 -0.0461508 0.0918808 0.100409 0.0126981 -0.012522 0.0259272 0.0404256 0.0267906 -0.0487229 0.0348452 -0.0264963 0.0236464 0.000730958
internal_weight=0 20457.4 12553.1 11064.3 1684.86 983.913 6639.25 5908.53 641.818 7904.3 4425.02 5052.44 235.141 1488.84 1458.3 1767.89 596.485 2771 342.095 700.942 282.215 730.715 6136.41 834.15 475.907 45.8697 430.037 314.269 5302.26 355.314
internal_count=5000000 4872968 4795610 4714167 127032 126086 4330195 4156797 125128 77358 383972 3181523 2511 81443 74342 44092 17059 2181298 958 946 6399 173398 33266 3249 1929 297 1632 10660 30017 3396
is_linear=0
shrinkage=0.1


Tree=25
num_leaves=31
num_cat=0
split_feature=7 8 7 8 0 0 0 7 8 7 6 2 6 6 0 0 8 6 9 7 7 0 7 3 8 8 3 6 4 8
split_gain=815.898 903.073 238.287 182.15 105.208 86.2336 51.4133 47.0017 49.4872 46.8737 42.5187 29.8283 27.3757 25.4848 24.023 23.0412 22.353 22.1756 21.5867 21.182 31.6503 20.6116 19.0418 18.5861 18.2844 17.8094 17.5075 19.7141 17.3857 16.8407
threshold=1.0000000180025095e-35 0.035997165541660131 0.0015741096265335247 0.0083708458108699025 13814.500000000002 6794.0000000000009 10154.500000000002 0.0023181490526405827 0.0022381641329762307 0.10918615928805299 0.64538749521126937 0.10971748659511947 0.88507696478893982 0.37170439214665779 12664.000000000002 765.00000000000011 0.0016837957943248068 0.038438111366304518 0.052020000025035935 0.013796169718343661 0.0021244090094867762 27952.500000000004 0.0036790304833005222 0.13611026443962865 0.0037225489618287646 0.0041460832578557498 0.018936534769296857 0.32309133065563039 0.042229248372415464 0.023437291454934634
decision_type=2 2 2 2 2 2 2 2 2 2 2 2 2 2 2 2 2 2 2 2 2 2 2 2 2 2 2 2 2 2
left_child=4 2 16 7 5 15 17 28 -9 12 -5 -11 18 22 -8 -1 -2 -7 -3 20 -20 -6 24 -13 -10 -24 -21 -28 -4 -12
right_child=1 9 3 10 21 6 14 8 13 11 29 23 -14 -15 -16 -17 -18 -19 19 26 -22 -23 25 -25 -26 -27 27 -29 -30 -31
leaf_value=0.030229898989436 0.0049474796030090562 -0.013137949524285916 -0.054904812353752157 -0.021953348506262748 0.10343001912312043 -0.046881781919955061 0.085340618596358331 -0.069205681390947391 -0.039173248054885534 0.024660820611366145 -0.011935031530987961 0.076978876030397617 0.029436288190998319 -0.028941641577444555 0.023062155076379848 0.10373962224890698 0.029763955430845059 0.015422405425255664 0.071976568781545444 -0.057603835402525908 -0.038182343290066791 -0.0072692536657785085 -0.064585098914811609 0.036729880466072604 0.0070456223580660704 -0.044084990012504932 0.074691368236009567 0.013974583095307897 -0.012838969123148121 0.006244197293246022
leaf_weight=51.120668202118395 1081.2874416191898 446.39425401683548 114.88743161689126 3448.4946992106488 617.75563236168819 69.540979037177749 162.2266445014393 727.17500938990997 475.09015554785401 4157.2016422516608 1138.5188863998192 172.09402635181323 679.26162514055613 1232.9597933668301 100.1883701714105 257.02348439549678 546.35124917433131 320.01285860699136 31.111617220682092 33.046438900288194 161.33097244577948 17.29062408558093 672.23480952731552 344.19765805162024 104.40363172459911 1146.5857362617717 55.184254422201775 1727.6571705137612 678.44482225757383 922.44087856232363
leaf_count=596 83493 16716 93719 542238 707 39074 921 917444 438064 17347 133573 386 9894 673278 2344 314 16437 82906 272 979 5473 170 677967 1071 56530 895736 303 24917 232980 34151
internal_value=0 -0.00546407 -0.0223608 -0.0278017 0.0688382 0.0479518 0.0273483 -0.0413189 -0.045394 0.0211311 -0.015162 0.0274762 0.0116692 -0.0406256 0.0615631 0.0915445 0.0132777 0.00430021 0.00675273 0.0111739 -0.0203733 0.100416 -0.0466323 0.050146 -0.0308463 -0.0516618 0.0145171 0.0158539 -0.0189308 -0.0037984
internal_weight=0 20096.4 12288.9 10661.2 1595.16 960.113 651.969 5151.78 4358.45 7807.48 5509.45 4673.49 3133.99 3631.27 262.415 308.144 1627.64 389.554 2454.72 2008.33 192.443 635.046 2398.31 516.292 579.494 1818.82 1815.89 1782.84 793.332 2060.96
internal_count=5000000 4872968 4795610 4695680 127032 126155 125245 3985718 3659019 77358 709962 18804 58554 2741575 3265 910 99930 121980 48660 31944 5745 877 2068297 1457 494594 1573703 26199 25220 326699 167724
is_linear=0
shrinkage=0.1


Tree=26
num_leaves=31
num_cat=0
split_feature=7 8 7 6 0 0 7 8 8 0 8 0 9 2 8 0 0 0 1 0 6 4 7 8 7 0 9 6 0 4
split_gain=738.324 815.941 218.742 141.211 101.417 83.4471 50.9515 76.9221 44.4887 44.0973 41.594 33.1682 27.198 26.4359 22.409 22.253 29.6817 32.0152 25.1768 39.1196 22.1201 26.1198 21.8743 21.6127 24.8044 21.2004 19.9912 19.8294 19.5079 19.4594
threshold=1.0000000180025095e-35 0.035997165541660131 0.0013802543796536954 0.47018668404922892 13616.500000000002 6923.0000000000009 0.0023181490526405827 0.0045533995292517723 0.09693867576469288 10435.500000000002 0.0192362566515142 12582.500000000002 0.086586339066658496 0.10971748659511947 0.0031285446709338567 25054.000000000004 23639.000000000004 23390.000000000004 0.05939356490275273 27500.500000000004 0.84039233150653048 0.81793746667303746 0.012541457923860669 0.0016837957943248068 0.0034425584265666506 765.00000000000011 0.0060485468577747914 0.52194259654619135 27952.500000000004 0.17447495487110332
decision_type=2 2 2 2 2 2 2 2 2 2 2 2 2 2 2 2 2 2 2 2 2 2 2 2 2 2 2 2 2 2
left_child=4 2 14 6 5 25 -4 23 -3 -7 29 -11 26 15 27 16 17 -10 19 -17 21 -18 -12 -8 -25 -1 -9 -2 -6 -5
right_child=1 8 3 10 28 9 7 12 13 11 22 -13 -14 -15 -16 18 20 -19 -20 -21 -22 -23 -24 24 -26 -27 -28 -29 -30 -31
leaf_value=0.030091196389102029 0.013854990305275856 0.011943037753177232 -0.014612048191009861 -0.066392109518504189 0.10223880637476968 0.0050897736282410344 -0.076412255835771326 -0.055938137500315413 0.021952063293277677 0.096736656562483259 -0.03418711772737823 0.017602790878380049 -0.38067747227911047 0.04894344028526857 0.045954895802480071 0.041587519168936493 -0.0237033707460499 0.079713109632146936 0.068906478494113979 -0.073585665617178317 -0.10442684292544929 0.082506678187117224 0.0022191123794839331 -0.031915812886263488 -0.057746245100468843 0.10137616144595228 -0.027224786016641186 -0.064233689840349356 -0.006407819545486481 -0.019146092554618868
leaf_weight=50.09679229793619 1027.4448701734909 3542.2960799395805 961.95715929730977 90.34322964061721 586.01041265600361 393.4167577954795 369.22869986992737 264.3455941850807 3010.6363684129319 118.82079792080913 182.63191628595814 95.565729596884921 2.2081619082018724 491.9803448432358 227.73845946515212 152.50396171124885 123.49405173159903 99.118470246554352 223.27114363963483 36.561320552893449 25.505870297551155 28.497988935327157 1713.1166219112638 537.59109987646298 1205.2012364158381 249.51414078159723 2931.0891649006262 33.58156881427567 17.006022461690009 2486.815345895564
leaf_count=596 49636 58519 324639 34739 776 122617 488176 268230 13861 176 12220 2335 123 1617 3982 996 622 360 677 315 304 87 78107 500061 1267563 362 989976 7179 170 770979
internal_value=0 -0.00514921 -0.021437 -0.0261065 0.0673882 0.0462647 -0.0357881 -0.0396245 0.0201934 0.0249735 -0.0125317 0.0614617 -0.0298426 0.0271658 0.0174926 0.0242697 0.0215229 0.0237931 0.0461679 0.0193154 -0.0182506 -0.00378935 -0.00128818 -0.0544346 -0.0497785 0.0894569 -0.0296001 0.0113835 0.0991748 -0.0208023
internal_weight=0 19767.2 12033.3 10744.5 1510.43 907.414 6271.62 5309.66 7733.87 607.803 4472.91 214.387 3197.64 4191.57 1288.76 3699.59 3287.25 3109.75 412.336 189.065 177.498 151.992 1895.75 2112.02 1742.79 299.611 3195.43 1061.03 603.016 2577.16
internal_count=5000000 4872968 4795610 4734813 127032 126086 3838768 3514129 77358 125128 896045 2511 1258329 18839 60797 17222 15234 14221 1988 1311 1013 709 90327 2255800 1767624 958 1258206 56815 946 805718
is_linear=0
shrinkage=0.1


Tree=27
num_leaves=31
num_cat=0
split_feature=7 8 7 8 0 0 8 8 0 7 8 4 0 1 7 4 9 7 0 0 9 0 0 0 6 5 2 7 4 1
split_gain=666.887 779.956 199.797 147.024 97.4998 73.8111 62.5084 42.5237 42.4284 32.0456 35.758 27.3453 26.5679 25.0085 24.1015 22.0482 20.9253 20.7976 20.6809 20.2442 19.8513 19.7866 19.2794 24.4536 33.2472 31.4184 20.1535 19.1242 19.0323 20.6036
threshold=1.0000000180025095e-35 0.035997165541660131 0.0017150448674600239 0.0063188523371835595 13966.500000000002 6923.0000000000009 0.09693867576469288 0.015844732101309354 10435.500000000002 0.0026414912644200481 0.0026122828900042132 0.72133530582669414 12582.500000000002 0.13000315803777987 0.0010138270226908025 0.74758572800955447 0.0027711324862314019 0.029437523188840544 765.00000000000011 23998.500000000004 0.052020000025035935 27952.500000000004 25957.000000000004 25468.000000000004 0.77790844049226571 0.82930383504450134 0.10971748659511947 0.012541457923860669 0.15585595096655472 0.031023493136145965
decision_type=2 2 2 2 2 2 2 2 2 2 2 2 2 2 2 2 2 2 2 2 2 2 2 2 2 2 2 2 2 2
left_child=4 2 14 9 5 18 15 -5 -7 16 -11 27 -10 -12 -2 20 -4 -8 -1 -15 -3 -6 23 26 -25 -26 -19 -9 -16 -30
right_child=1 6 3 7 21 8 17 11 12 10 13 -13 -14 19 28 -17 -18 22 -20 -21 -22 -23 -24 24 25 -27 -28 -29 29 -31
leaf_value=0.029250879704260786 0.024220519430409513 -0.018393510292230453 -0.034193985277726456 -0.02550158996160895 0.10303684995305647 0.0061805112734012631 -0.014098259347883592 -0.037444710326014666 0.095713688205031525 -0.065660102103903661 -0.040887689870196843 0.0069642369370171587 0.027113653039917258 0.046827004752732056 -0.011629441788015622 0.019217380234688695 0.0013824457790036554 0.025776569620201063 0.10072914598179089 0.43128947689488256 0.0080025906719751079 -0.0069511781319829373 0.053203753846649819 -0.2890361154309094 0.036894633515803292 -0.24702471929657877 0.049037329790248725 -0.010836823381790494 0.02478045639519982 -0.02859488414608824
leaf_weight=49.079807254427578 710.40948570077308 346.62497590502608 579.06326101689228 2957.8461747162219 519.94540475966642 387.82480088884768 110.8715556274401 309.66010968177579 110.59999480453553 732.83300630630401 2304.4161706409086 812.35208477434935 115.32200566353276 5.2611591590539311 587.84713444197041 1574.6526845638291 231.39354711673514 3178.7331680558273 230.9665648235532 1.8516164231259606 1600.2465088729514 16.887332890590187 323.61295637645526 5.2693403313169282 21.743336418760013 4.7488155714818268 421.91943183093099 2115.6713881338364 398.76752990888781 88.342095258529298
leaf_count=596 20380 13573 430035 919389 686 122617 2804 26051 176 1020040 1990008 37037 2425 2931 82830 18461 82313 13176 362 432 26485 170 1325 94 86 53 1301 147881 19736 16547
internal_value=0 -0.00485306 -0.0208982 -0.0263743 0.0658918 0.0456598 0.0201726 -0.0168339 0.0262481 -0.0417077 -0.0464121 -0.00891529 0.0606968 -0.0403098 0.00992831 0.0104191 -0.0240366 0.0286181 0.0882022 0.146911 0.00330297 0.0995769 0.0298153 0.0277316 -0.0596286 -0.013999 0.0285022 -0.0142341 0.000482973 0.0151003
internal_weight=0 19424.1 11835.7 10050.3 1430.63 893.793 7588.42 6195.53 613.747 3854.82 3044.36 3237.68 225.922 2311.53 1785.37 3521.52 810.457 4066.9 280.046 7.11278 1946.87 536.833 3956.03 3632.41 31.7615 26.4922 3600.65 2425.33 1074.96 487.11
