tree
version=v3
num_class=1
num_tree_per_iteration=1
label_index=0
max_feature_idx=3
objective=lambdarank
feature_names=Column_0 Column_1 Column_2 Column_3
feature_infos=[1.7130953803370181e-11:0.22591753766501671] [0:0.56274993502284809] [0:0.56580575777256892] [0:0.56979898792573236]
tree_sizes=3572 3576 3562 3586 3569 3578 3589 3570 3559 3565 3591 3587 3578 3582 3600 3580 3575 3583 3581 3594 3567 3565 3569 3588 3570 3583 3565 3584 3573 3546 3565 3575 3561 3560 3551 3564 3535 3559 3557 3571 3562 3562 3579 3540 3578 3553 3515 3566 3586 3521 3528 3529 3520 3541 3514 3560 3508 3533 3516 3532 3559 3537 3517 3555 3532 3571 3559 3527 3504 3561 3537 3542 3498 3538 3538 3505 3544 3485 3481 3455 3536 3527 3490 3537 3496 3556 3481 3583 3521 3538 3485 3545 3526 3503 3569 3493 3539 3519 3488 3512 3577 3558 3558 3501 3544 3545 3528 3531 3548 3484 3506 3583 3516 3523 3504 3517 3551 3489 3493 3463 3519 3549 3548 3493 3490 3546 3502 3487 3548 3502 3541 3536 3514 3504 3527 3490 3465 3523 3471 3469 3537 3538 3463 3572 3516 3526 3477 3499 3527 3500 3468 3452 3522 3483 3576 3512 3512 3522 3529 3548 3511 3561 3510 3492 3451 3477 3475 3527 3516 3512 3526 3504 3489 3478 3442 3503 3493 3501 3500 3481 3485 3482 3491 3502 3484 3478 3473 3488 3493 3477 3455 3461 3540 3531 3517 3513 3485 3479 3471 3478 3568 3554 3563 3534 3499 3534 3558 3522 3497 3543 3496 3535 3570 3507 3513 3556 3521 3501 3540 3501 3512 3528 3553 3515 3485 3455 3522 3481 3514 3518 3514 3543 3477 3526 3487 3517 3563 3550 3516 3493 3521 3474 3508 3551 3529 3485 3470 3458 3505 3480 3523 3470 3511 3568 3562 3462 3479 3518 3537 3456 3500 3481 3527 3572 3489 3492 3479 3467 3468 3489 3486 3451 3514 3500 3499 3495 3500 3448 3507 3596 3501 3492 3530 3514 3469 3477 3523 3508 3445 3527 3458 3460 3515 3452 3533 3509 3551 3508 3518 3446 3492 3539 3567 3525 3534 3574 3554 3518 3551 3525 3550 3502 3565 3570 3542 3490 3526 3520 3462 3523 3523 3503 3528 3501 3464 3506 3540 3487 3495 3494 3535 3509 3501 3525 3541 3509 3491 3481 3526 3504 3526 3493 3486 3515 3483 3523 3510 3499 3483 3468 3475 3462 3491 3463 3466 3504 3518 3559 3517 3496 3470 3528 3486 3453 3458 3438 3437 3438 3496 3468 3499 3458 3433 3464 3531 3533 3544 3460 3469 3454 3470 3457 3420 3410 3485 3458 3461 3505 3485 3480 3477 3495 3466 3471 3543 3504 3486 3492 3508 3518

Tree=0
num_leaves=31
num_cat=0
split_feature=3 1 3 1 3 1 2 2 0 3 2 2 2 0 1 2 0 1 2 0 1 0 0 0 0 1 3 2 2 2
split_gain=13736.7 17500.5 1644.33 649.155 643.701 487.892 394.932 370.912 220.908 180.105 152.501 137.861 126.71 125.981 119.334 164.736 114.855 112.675 119.795 88.7403 81.7889 75.5855 86.6872 93.8572 69.0824 68.1095 65.9535 60.1614 59.6537 57.3832
threshold=0.017189839522459616 0.0015741096265335247 0.0097652609729137248 0.0010138270226908025 0.036812925905613227 0.0019656656627491977 0.0020423346382626383 1.0000000180025095e-35 0.012936240598889854 0.0027439038172713706 0.00099981893084010397 0.0083708458108699025 0.0059368592719787521 0.0041995208002727057 0.0013802543796536954 0.013203441202915079 0.0073782861635397767 0.0030932766159607696 0.0033251839687410537 0.044920925473564612 0.0024624397696156801 0.0047060033913901332 0.033550904440813344 0.072117025261443576 0.027126031968170327 0.0026169201859344237 0.0061375375700415185 0.003504136368707343 0.0042767649670788247 0.0011326219741127365
decision_type=2 2 2 2 2 2 2 2 2 2 2 2 2 2 2 2 2 2 2 2 2 2 2 2 2 2 2 2 2 2
left_child=1 3 5 7 14 10 25 13 17 21 -3 28 20 -1 -2 -16 29 27 -19 -18 24 -5 -23 -24 -10 -7 -20 -8 -4 -12
right_child=4 2 11 9 -6 6 8 -9 12 -11 16 -13 -14 -15 15 -17 19 18 26 -21 -22 22 23 -25 -26 -27 -28 -29 -30 -31
leaf_value=0.071679541173688036 0.18782549739646279 -0.12304844774130619 -0.12298848947665789 -0.015911916643412436 0.18310537850670169 -0.13957734705264904 -0.11174667864480976 0.1659782197891731 -0.0020569447742953598 0.11489839445464685 0.041421186157463513 0.02645717641094545 -0.033317447526849342 0.12485452512456632 0.039618316387586672 0.11657614890659621 0.022592610861429063 -0.16566540731048085 -0.13758237360595527 -0.12824638285419404 -0.10699120091753256 0.063531917682915967 -0.16119340724085693 0.13318394835390726 -0.12366153181690476 -0.17175347692695517 -0.098563754898146838 -0.045552974343627484 -0.026777159555075189 -0.08532551715419294
leaf_weight=733.93545134543092 142.4049188036297 252.36149950846448 71.57278018782381 309.77553690427885 3006.2557765995298 1047.3267222161376 1170.012363355323 1993.6748911345712 144.71387200385652 288.63852645206498 39.866606071300339 679.9418465794879 340.34178208425874 1133.8726910785772 414.60399641240656 845.15318005750305 339.45488863934588 1077.5999535739102 1239.7795943512028 44.065665074813296 1681.7017823623537 407.055569027616 36.457261980671319 15.408250798936932 68.986100519628963 1769.1412123700138 665.87695662466285 155.55971060770389 647.0502772350228 343.42096638325165
leaf_count=55713 1038 41539 38837 31736 132181 220411 247061 41111 16097 11936 3511 300478 193361 49765 118080 190634 28796 490408 565712 8192 732280 26898 7564 440 18246 678453 421777 24857 252757 50131
internal_value=0 -0.0414527 -0.10761 0.11697 0.157009 -0.121325 -0.128478 0.13598 -0.115004 0.0475454 -0.0556198 -0.00581986 -0.0894983 0.10396 0.101057 0.0912482 -0.0334286 -0.128238 -0.139017 0.00526154 -0.0995862 0.022255 0.048018 -0.0737395 -0.041313 -0.159789 -0.123948 -0.103979 -0.0363595 -0.0721423
internal_weight=0 16697.6 11778.8 4918.82 4408.42 10380.2 9361.04 3861.48 6544.57 1057.34 1019.17 1398.56 2235.74 1867.81 1402.16 1259.76 766.808 4308.83 2983.26 383.521 1895.4 768.697 458.921 51.8655 213.7 2816.47 1905.66 1325.57 718.623 383.288
internal_count=5000000 4558067 4332904 225163 441933 3740832 3608663 146589 2709799 78574 132169 592072 959984 105478 309752 308714 90630 1749815 1477897 36988 766623 66638 34902 8004 34343 898864 987489 271918 291594 53642
is_linear=0
shrinkage=0.1


Tree=1
num_leaves=31
num_cat=0
split_feature=1 1 1 1 3 3 3 3 1 2 1 1 3 0 1 3 1 0 0 2 0 2 2 0 3 1 2 0 0 2
split_gain=17786.9 11566 2833.28 1090.87 1162.42 852.138 811.762 715.583 622.88 542.09 393.783 285.955 274.319 250.252 171.073 161.416 145.398 321.216 136.673 132.102 111.164 103.984 102.733 101.893 98.5477 92.3635 90.3329 78.873 75.0895 74.3056
threshold=0.064806458381989202 0.0013802543796536954 0.010922159890568947 0.048115411193819652 0.036812925905613227 0.021674991075510613 0.036812925905613227 0.052020000025035935 0.0019207362071499295 0.0035303121092787556 0.040638748096515645 0.10918615928805299 0.017189839522459616 0.011231611303757268 0.032198972358296225 0.027836892578455733 1.0000000180025095e-35 0.03618533867362763 0.019990253367687793 0.042979658473761076 0.0055789480906442727 0.035997165541660131 0.0025679499767170344 0.012936240598889854 0.064454282353013204 0.0034638365484992079 0.0011813500880317291 0.0048411843116426701 0.038671626941054756 0.0018534313312404051
decision_type=2 2 2 2 2 2 2 2 2 2 2 2 2 2 2 2 2 2 2 2 2 2 2 2 2 2 2 2 2 2
left_child=1 16 6 4 5 12 8 10 22 23 21 -2 18 -11 -9 -7 29 20 -4 -8 -18 -6 27 25 -5 26 -10 -3 -14 -1
right_child=11 2 3 24 7 15 19 14 9 13 -12 -13 28 -15 -16 -17 17 -19 -20 -21 -22 -23 -24 -25 -26 -27 -28 -29 -30 -31
leaf_value=0.10731770897296085 0.11735427766340328 -0.062065208672045347 -0.03870682497641411 0.042736773458643358 -0.098152343440450041 0.015022043458354926 -0.15217040587291242 -0.026931492386044056 -0.14560028819374321 -0.087596378789183582 -0.046235028096595937 0.16277575876083278 -0.083449404216810658 -0.04562900579308192 0.056416857873846572 0.066315819235946025 0.058630917323842957 -0.077182250794087748 0.022091212230821628 -0.098339819247528507 0.11396144973848576 -0.13981652699019415 0.073233728534982889 -0.087397916927964503 0.11779351400490945 -0.13911041022062323 -0.093782531529830571 0.0097433082844945659 -0.037339386856775403 0.14115990207642459
leaf_weight=2775.7903140715425 1978.6322824305244 225.4669943433546 727.68009028566303 1483.3811734038754 1508.6809563489514 1239.9469571525988 1985.2678285302245 890.52973959461087 430.93872144236229 2504.6042547012257 1264.9587286998867 4627.8823808302986 1039.6373545299793 3283.7515457637928 340.38120166002773 1214.3294908620592 604.67959501677251 121.43365412912681 751.69531833007932 591.76820033497643 908.8992531363765 993.48531662405003 170.33251794172975 1475.2610764495912 198.31817377591506 1351.4714103014849 1533.9482455684629 475.63875382050173 534.87618716919678 846.68904984246183
leaf_count=122662 18538 65664 175821 18393 16769 78215 16081 9403 199347 944588 16505 18804 65414 892594 3523 62258 30895 9143 140867 5038 20862 6821 14669 602029 1905 731087 596560 75045 36130 4370
internal_value=0 -0.031312 -0.0584589 -0.0231894 -0.0351588 -0.00347368 -0.0891009 -0.0700779 -0.0776895 -0.0843829 -0.091707 0.149172 -0.038734 -0.0637882 -0.00388335 0.0404012 0.104055 0.0793021 -0.00781433 -0.139809 0.0918567 -0.114695 0.00357423 -0.109262 0.051588 -0.118988 -0.105147 -0.0133494 -0.0677854 0.115228
internal_weight=0 31473.8 26216.4 12187.9 10506.2 5508.17 14028.4 4998.04 11451.4 10580 3767.13 6606.51 3053.89 5788.36 1230.91 2454.28 5257.49 1635.01 1479.38 2577.04 1513.58 2502.17 871.438 4791.62 1681.7 3316.36 1964.89 701.106 1574.51 3622.48
internal_count=5000000 4962658 4774726 632024 611726 558705 4142702 53021 4121583 3966205 40095 37342 418232 1837182 12926 140473 187932 60900 316688 21119 51757 23590 155378 2129023 20298 1526994 795907 140709 101544 127032
is_linear=0
shrinkage=0.1


Tree=2
num_leaves=31
num_cat=0
split_feature=3 1 3 3 1 0 0 1 1 3 2 1 0 2 2 1 0 2 3 0 0 1 2 0 1 2 1 1 2 0
split_gain=10987.4 11229.6 1986.39 435.267 266.06 264.812 184.7 159.704 152.479 170.828 138.478 105.976 95.3833 81.4168 78.2798 65.8648 119.632 83.4202 57.4847 52.4871 47.5703 45.1128 52.8803 47.9732 44.8184 44.1648 62.9857 43.0093 94.7324 52.7609
threshold=0.036812925905613227 0.0015741096265335247 0.013282930974576702 0.16260650549916836 0.0012378407578255532 0.0094962228818271689 0.02511010619922819 0.0015741096265335247 0.0020082105325389971 0.0070024314577592957 0.02546586610325614 0.0018260687329445635 0.034841145144138767 0.0021719171171456254 0.010007730189467942 0.10918615928805299 0.10133261853608656 0.09693867576469288 0.086586339066658496 0.05939356490275273 0.011572448500141214 0.0029191543239386335 0.0023007349870531207 0.022089314899547918 0.040638748096515645 0.0092405091409448262 0.0019207362071499295 1.0000000180025095e-35 0.0016837957943248068 0.0023303599608018527
decision_type=2 2 2 2 2 2 2 2 2 2 2 2 2 2 2 2 2 2 2 2 2 2 2 2 2 2 2 2 2 2
left_child=1 4 5 7 27 11 25 -2 -7 21 20 -3 -12 -13 -8 18 17 -17 -14 -5 -9 23 -23 -10 -22 26 -4 29 -29 -1
right_child=3 2 6 19 -6 8 14 10 9 -11 12 13 15 -15 -16 16 -18 -19 -20 -21 24 22 -24 -25 -26 -27 -28 28 -30 -31
leaf_value=0.061151324154394095 0.15558561917983024 -0.046710366719622351 0.095106594598781832 0.091989763691117499 0.02499448852000628 -0.018192297354347318 -0.049632901015357042 -0.062453147293271796 -0.059308190673547229 -0.068387064822156229 0.042556847856963405 -0.13249332229895713 0.070549567605312752 -0.10687315450591524 -0.0070216923324485552 0.00833208935559091 0.11094123653424798 0.061711729037885535 0.098383962257760874 0.11356345190640083 0.05891130698163214 -0.12982817702825863 -0.098803470107086136 -0.11311967355449976 0.014198895072439556 -0.041544478437633897 -0.080359147172421541 0.057574154637716639 0.1147718509146794 0.099297019765903161
leaf_weight=404.67454470839584 177.04849755659234 239.51231724055833 21.314905969426036 3079.3944650733029 716.17689166415948 340.93414302126621 505.22995593200903 58.256269822246395 465.77881748432992 2859.1000450507272 1482.7905454982829 1772.4411068969348 2489.3040579220688 4131.8972494584887 2939.2582025914744 493.44642500765622 295.65667687996756 719.8693097399082 1057.0397846865526 1779.3580296612345 354.02855622686911 723.5522828810499 2282.3794894098828 257.12970955009223 611.23364645830588 2518.979521361558 508.70791640941752 963.24273052888748 414.02188156783814 3487.0122162614716
leaf_count=30593 437 52146 641 13728 59197 48705 58331 4049 124168 639645 26674 680829 40584 1455817 170963 2211 612 2281 9548 5401 15320 278261 756040 85260 11336 205635 84791 34399 6091 96307
internal_value=0 -0.0376826 -0.0743482 0.0764315 0.0821825 -0.0968043 -0.0291394 0.0617027 -0.0834022 -0.0867769 0.0595046 -0.111919 0.0648589 -0.114564 -0.0132718 0.0714004 0.0539018 0.0400026 0.078846 0.0998904 0.0253018 -0.100877 -0.106271 -0.0784483 0.030598 -0.0470652 -0.0733028 0.0899557 0.0747685 0.0953305
internal_weight=0 25551.3 19566.2 12597.4 5985.13 13072.7 6493.49 7738.67 6928.87 6587.94 7561.63 6143.85 6538.11 5904.34 3444.49 5055.32 1508.97 1213.32 3546.34 4858.75 1023.52 3728.84 3005.93 722.909 965.262 3049 530.023 5268.95 1377.26 3891.69
internal_count=5000000 4867819 4641232 132181 226587 4120871 520361 113052 1932079 1883374 112615 2188792 81910 2136646 229294 55236 5104 4492 50132 19129 30705 1243729 1034301 209428 26656 291067 85432 167390 40490 126900
is_linear=0
shrinkage=0.1


Tree=3
num_leaves=31
num_cat=0
split_feature=3 1 2 1 2 3 1 1 0 0 0 1 2 1 1 1 1 2 2 0 3 1 0 0 0 2 2 2 2 0
split_gain=9031.76 9884.67 1793.47 536.725 374.619 225.685 194.617 150.854 154.267 92.272 78.8805 71.4173 67.0915 55.7459 54.8651 54.2235 53.5535 53.5419 52.7731 48.96 46.2404 43.4677 42.7159 41.8919 39.4172 37.7695 36.3558 33.8742 33.7549 33.6479
threshold=0.036812925905613227 0.0013802543796536954 0.0083708458108699025 0.0020082105325389971 0.058326512262942352 0.0065166351609458094 0.015972136290580783 0.0015741096265335247 0.027126031968170327 0.0043659565647614406 0.01411980941125948 0.020116532618834133 0.0020423346382626383 0.0021244090094867762 0.0030932766159607696 0.0010138270226908025 0.0017150448674600239 0.035997165541660131 0.0037793729906803208 0.031023493136145965 0.0029037662786965709 0.0040837005095260273 0.0066534757566153249 0.034841145144138767 0.01178637970083924 0.0040498353360839835 0.09693867576469288 0.0040829012513687989 0.00091190622404711623 0.0046454791355512648
decision_type=2 2 2 2 2 2 2 2 2 2 2 2 2 2 2 2 2 2 2 2 2 2 2 2 2 2 2 2 2 2
left_child=1 15 3 9 7 12 22 -2 24 27 18 13 -5 -6 29 25 -11 -10 -7 -8 -18 -20 -4 -13 -9 -1 -25 -3 -17 -14
right_child=4 2 6 5 11 10 19 8 17 16 -12 23 14 -15 -16 28 20 -19 21 -21 -22 -23 -24 26 -26 -27 -28 -29 -30 -31
leaf_value=0.081609843408323196 0.13228746033644231 -0.083244956853587418 -0.081423656819539753 -0.12257009267384755 0.13652552916394156 -0.12997998039351047 -0.023273145184782084 -0.039887381462699517 0.039043574392711278 0.013438244408064013 -0.064637106420492585 0.071093169280856502 -0.10786296199658847 0.013817434788552836 -0.10747155316148543 0.0099904538856109004 -0.058391445352625498 0.064499776762290559 -0.043779540809358891 -0.00014721841448110865 0.016497919937761712 -0.092463459138675083 -0.042316985957245978 0.07663475312985997 0.017816868211108821 0.11105947999902682 0.093608293225414863 0.046684533320023681 0.065538238290069245 -0.072032184126605225
leaf_weight=4482.4650916407336 195.397823476349 283.65491226864106 316.39640655014955 2257.4612868756376 43.735657525015995 324.3274870661553 1800.2349406303838 133.71908187912777 1463.3484375560947 455.49495695566293 2001.7205101947475 1976.6357954942505 382.71829545352375 241.20263513026293 4183.0487266564742 136.61689809241216 284.48979982268065 1897.7574287234456 214.16214077858604 1862.7006776144553 116.09326099479222 1276.7270983752242 2382.9551041819213 1886.5010138729122 1031.8247155410645 482.3566963695921 3811.4436215635506 21.593140885117464 549.04751431738259 831.50717085576616
leaf_count=145152 429 77783 78030 882261 207 128064 118403 7722 33468 45063 459187 8235 123806 4948 1548597 14898 56637 28103 51186 104053 12040 407006 355379 13030 24441 2055 11598 1370 25426 231423
internal_value=0 -0.0352848 -0.0698254 -0.0916315 0.0685737 -0.0981897 -0.0265271 0.0462592 0.0425457 -0.0268488 -0.0783267 0.0818119 -0.108094 0.0326521 -0.102039 0.0808306 -0.0100171 0.0534167 -0.0934228 -0.011513 -0.0366877 -0.0854701 -0.0469008 0.0836371 0.0111966 0.084471 0.0879886 -0.0740538 0.0544705 -0.0833259
internal_weight=0 24645.8 18995.3 12633 12681.6 11471.7 6362.29 4722.05 4526.65 1161.33 3816.94 7959.52 7654.74 284.938 5397.27 5650.49 856.078 3361.11 1815.22 3662.94 400.583 1490.89 2699.35 7674.58 1165.54 4964.82 5697.94 305.248 685.664 1214.23
internal_count=5000000 4867819 4680288 4024423 132181 3831530 655865 94163 93734 192893 1045443 38018 2786087 5155 1903826 187531 113740 61571 586256 222456 68677 458192 433409 32863 32163 147207 24628 79153 40324 355229
is_linear=0
shrinkage=0.1


Tree=4
num_leaves=31
num_cat=0
split_feature=3 1 3 2 1 2 0 1 2 1 3 1 1 3 0 2 1 0 0 3 0 1 2 0 2 0 0 0 1 0
split_gain=7508.92 8600.96 2049.87 253.202 228.705 200.848 166.811 118.199 82.7446 81.3638 75.1874 75.1091 66.3965 63.4477 61.3513 56.4037 68.6065 53.7333 52.1247 40.5141 38.3798 37.5122 37.2308 36.3686 34.5178 33.2187 75.0912 39.5077 33.1756 39.8252
threshold=0.040382073847810007 0.0016495600207990042 0.012559386713059258 0.042979658473761076 0.0012378407578255532 0.0192362566515142 0.011231611303757268 0.0010138270226908025 0.0055408145408665484 0.0024350051988888187 0.0021146717440980165 0.064806458381989202 0.0020082105325389971 0.0084998297120606799 0.023192840920277329 0.010007730189467942 0.0025680972183726772 0.026379895002632357 0.039885239112876773 0.029489636780783899 0.11794038760239801 1.0000000180025095e-35 0.0021719171171456254 0.0024907007019982904 0.0035303121092787556 0.039885239112876773 0.010042592022638892 0.069544072066024518 0.0010138270226908025 0.046664149041491597
decision_type=2 2 2 2 2 2 2 2 2 2 2 2 2 2 2 2 2 2 2 2 2 2 2 2 2 2 2 2 2 2
left_child=1 4 6 7 21 15 12 -2 9 -8 -6 28 -3 22 -9 16 -4 -17 -12 -7 23 25 -14 -13 -11 26 -1 -27 -5 -30
right_child=3 2 5 11 10 19 8 14 -10 24 18 20 13 -15 -16 17 -18 -19 -20 -21 -22 -23 -24 -25 -26 27 -28 -29 29 -31
leaf_value=0.076604544284429504 0.13308604359508192 -0.061792291745571153 0.045535407805092229 0.13514820360086829 -0.0030747657010606008 -0.011542448457118165 -0.04836688713249452 0.0018945864537696861 -0.059863160080906287 -0.10164773251259746 0.066845345372173168 -0.21300327268754518 -0.12044752708814584 -0.076283465913605589 0.0406142304073355 -0.039587477398647888 -0.057541741211968582 -0.012421225557595714 -0.11677468269371337 0.015486571931327551 0.096108962979546797 0.064015701811657597 -0.10249304270407755 0.0742520618594045 -0.080748498832543189 0.019676555824985315 0.10856549872986686 0.083656756119758147 0.03366071533344784 0.064763004671480301
leaf_weight=2467.6770782937601 123.18461095297243 388.81848961285141 68.393940759124234 48.39340999443084 496.43345765929553 1003.4097727483604 486.31080766770174 513.03669556241948 1712.0786662923783 1761.7884055108225 322.37732938642148 4.4103566315025082 1684.4140406793231 707.93536300146661 2022.362357507227 1477.0865702489391 1155.3334505094244 1435.8527099054481 16.238515679258853 1239.7105757475947 894.39518388576107 1409.2096791991207 3674.1372117909195 6746.8641596382367 1433.1462788945792 172.78523286787095 1047.000561259425 218.64347441925202 731.63714899600018 941.44452649162849
leaf_count=101459 158 96642 5629 56 62906 60162 107447 15701 425348 634519 13290 46 696675 221818 38915 171619 191174 120427 2837 46737 2445 40511 1413720 28781 448311 5547 16987 2928 12877 14328
internal_value=0 -0.0318978 -0.0663998 0.0646638 0.0703588 -0.0206994 -0.0910067 0.037427 -0.0780257 -0.0864728 0.0217074 0.0723942 -0.101852 -0.10442 0.0327793 -0.033765 -0.0517808 -0.0261966 0.0580397 0.00339574 0.0766432 0.0780021 -0.108137 0.0740644 -0.092273 0.083048 0.0861255 0.0554145 0.053523 0.051162
internal_weight=0 24378.8 18228.4 12025.7 6150.37 6379.79 11848.6 2658.58 5393.32 3681.25 835.049 9367.14 6455.31 6066.49 2535.4 4136.67 1223.73 2912.94 338.616 2243.12 7645.67 5315.32 5358.55 6751.27 3194.93 3906.11 3514.68 391.429 1721.48 1673.08
internal_count=5000000 4886693 4640228 113307 246465 595748 4044480 54774 1615625 1190277 79033 58533 2428855 2332213 54616 488849 196803 292046 16127 106899 31272 167432 2110395 28827 1082830 126921 118446 8475 27261 27205
is_linear=0
shrinkage=0.1


Tree=5
num_leaves=31
num_cat=0
split_feature=3 1 2 2 1 2 1 3 1 2 0 0 1 0 2 0 3 1 0 3 0 0 2 3 1 0 3 3 0 1
split_gain=6309.15 7939.02 1496.59 254.753 202.408 173.983 165.06 134.227 126.606 73.1098 72.4715 68.6944 61.9575 51.7124 49.3199 42.8906 42.4791 38.6275 37.9395 36.1961 51.0491 35.4666 34.1924 32.7714 32.7586 28.1213 23.208 23.09 22.9937 22.6658
threshold=0.036812925905613227 0.0015741096265335247 0.0089129779631957184 0.042979658473761076 0.0020082105325389971 0.0035303121092787556 0.0012378407578255532 0.020854562968428459 0.0015741096265335247 0.0021075450574528287 0.01178637970083924 0.01972738077499011 0.10918615928805299 0.029838741942425088 0.023437291454934634 0.083837444117730656 0.0021146717440980165 0.0031147431176912171 0.0055789480906442727 0.0017309979764419876 0.010042592022638892 0.011129039998312475 0.0020423346382626383 0.0070024314577592957 0.0029866620323963527 0.044034457181543168 0.011196729431527963 0.16260650549916836 0.01949334776729195 0.0018765831576802697
decision_type=2 2 2 2 2 2 2 2 2 2 2 2 2 2 2 2 2 2 2 2 2 2 2 2 2 2 2 2 2 2
left_child=1 6 4 8 9 17 19 21 -2 18 24 28 25 -9 -13 27 -8 22 -3 20 -1 -4 -6 -12 -7 29 -23 -14 -10 -5
right_child=3 2 7 12 5 10 16 13 11 -11 23 14 15 -15 -16 -17 -18 -19 -20 -21 -22 26 -24 -25 -26 -27 -28 -29 -30 -31
leaf_value=0.077721030136839134 0.11743093982243316 -0.086881543841296996 -0.065465884528955742 0.10731888396036307 -0.10510009386452906 -0.036789578967395035 0.0017265731828948101 -0.021342701164006203 -0.00627140191887783 0.015989394490592085 -0.080538072244108361 0.010311499460977853 0.081654851899310418 0.0047086552656131963 0.04242511676048271 0.087995873426852597 0.051513682627005987 -0.10928015319634071 -0.033928853739940604 0.086031653556963794 0.051491394216691071 -0.061518103118863278 -0.079471504034330509 -0.059012750333678046 -0.091806859396874232 0.061027376993860738 -0.029691249814551554 0.063875017523201599 -0.22242627901328269 0.038171236748193567
leaf_weight=2165.1314760519308 166.59002012922429 220.25601548873237 443.03249715524726 49.728031505132094 999.16224023891846 113.18630687275436 395.58075735447346 1512.6785597752023 432.79101293697022 199.33374447192182 1099.0766922992916 642.91563778079581 907.62069543177495 1535.342655482993 1867.0729845187743 1283.6290504520293 302.36020115157589 3160.5141129751137 350.81435861710634 1911.171959723637 1128.8652692831092 265.80993664485868 1086.8038600749569 1984.1262053648825 2468.9905112686974 2326.7364155412652 1659.5498306411318 3741.0327526916517 4.9778809963609083 1014.3887927325559
leaf_count=113977 380 69922 107955 164 394905 25720 47067 96246 17025 20658 380889 17552 4679 87720 38343 2833 12130 1345795 63806 22025 31388 63204 351392 461858 944165 25074 226997 10952 348 14831
internal_value=0 -0.0310262 -0.0655455 0.0573796 -0.0856902 -0.0891877 0.0689608 -0.0220967 0.0326173 -0.036152 -0.0770364 0.0278241 0.0656513 -0.00822017 0.0341994 0.0718146 0.0232952 -0.102309 -0.0543522 0.0750839 0.068732 -0.0399553 -0.0917474 -0.0666859 -0.0893952 0.0548687 -0.0340852 0.0673464 -0.0087293 0.0414026
internal_weight=0 23001.8 17098.7 12437.5 11682.3 10911.9 5903.11 5416.41 3114.35 770.404 5665.38 2947.76 9323.14 3048.02 2509.99 5932.28 697.941 5246.48 571.07 5205.17 3294 2368.39 2085.97 3083.2 2582.18 3390.85 1925.36 4648.65 437.769 1064.12
internal_count=5000000 4867819 4641232 132181 4059110 3904724 226587 582122 73648 154386 1812632 73268 58533 183966 55895 18464 59197 2092092 133728 167390 145365 398156 746297 842747 969885 40069 290201 15631 17373 14995
is_linear=0
shrinkage=0.1


Tree=6
num_leaves=31
num_cat=0
split_feature=3 1 2 1 3 3 2 1 1 1 1 1 0 2 2 2 0 1 0 1 0 0 1 0 1 2 0 2 0 0
split_gain=5270.31 7126.81 1183.47 406.64 202.196 141.572 123.212 72.6942 72.1608 58.285 103.426 54.2352 51.1863 49.9708 48.7389 48.6714 48.6591 46.4789 44.1749 42.2366 34.9239 32.8401 34.7068 30.5484 29.7667 28.5527 34.8505 27.7152 26.6904 26.564
threshold=0.036812925905613227 0.0013802543796536954 0.0089129779631957184 0.0018260687329445635 0.052020000025035935 0.0065166351609458094 0.015844732101309354 0.0013802543796536954 0.10918615928805299 0.0012378407578255532 0.011778666405881816 0.0024350051988888187 0.01178637970083924 0.0035854193365092864 0.0024553762722719242 0.0026122828900042132 0.05835439178091207 0.0010138270226908025 0.0034370780063719395 0.029437523188840544 0.0066534757566153249 0.017513860341259135 0.0039472205250610168 0.0078507924499135514 0.0018765831576802697 1.0000000180025095e-35 0.003382838335003371 0.035997165541660131 0.00048932823907497426 0.0052653566725331781
decision_type=2 2 2 2 2 2 2 2 2 2 2 2 2 2 2 2 2 2 2 2 2 2 2 2 2 2 2 2 2 2
left_child=1 17 3 18 7 11 20 -2 9 -6 29 14 -9 -7 -5 -13 -10 25 -3 -8 24 22 -15 -19 -4 -1 28 -12 -27 -11
right_child=4 2 6 5 8 13 19 12 16 10 27 15 -14 21 -16 -17 -18 23 -20 -21 -22 -23 -24 -25 -26 26 -28 -29 -30 -31
leaf_value=0.064446670538820777 0.11377335241497076 -0.062127627759228324 0.12037176458943438 -0.079016053510491222 0.11537070674226653 -0.10088528872485908 -0.014311974314485956 -0.078158880378355694 0.057273932440676745 0.051912223455212583 0.034206762050280511 -0.10714912175851805 0.02123738558000713 -0.040047806860712437 -0.0090537288109569739 -0.088895418758138237 0.075478454213957921 0.024131028429271926 0.00040306867005376955 0.014334216404493574 -0.033050379038851448 -0.053212245989097476 -0.07893332157779856 0.066411583544438685 -0.079078413926900779 -0.20881942102716053 0.085269095086387803 0.055316768647082952 0.057877192626018314 -0.016486131438771149
leaf_weight=2045.1395983337716 83.442482330370694 136.4073583977588 7.7285752488533026 838.70337202138762 125.91098690917715 428.55181092509883 1736.5934318083018 53.379334024677519 3391.6370338696288 69.725710579950828 775.12452628707979 2479.530551146403 1762.2403951680462 268.08844081134885 112.98878811707254 3555.1273778821705 2589.1211921320064 337.69067184676533 657.72529903124087 731.51079474418657 2538.159787771714 1434.3233453522407 1595.8553964030361 345.95355046354234 235.26267363512306 3.7817901403177521 2264.8678217301931 3146.8221472908626 484.39056344129494 305.84212930311332
leaf_count=105478 169 35523 226 288139 191 173393 134039 4713 11267 1677 12220 1097450 50448 59788 24139 1450395 7537 25286 79974 27980 354696 340263 548803 15038 65480 292 29464 33451 11973 10508
internal_value=0 -0.0290539 -0.0614331 -0.0793825 0.0525156 -0.0845006 -0.0220849 0.0225094 0.0579926 0.0483088 0.046344 -0.0928966 0.0183151 -0.0687612 -0.0707098 -0.0963955 0.0651548 0.0699211 -0.0103378 -0.00582165 -0.0365176 -0.0645873 -0.0733405 0.0455268 -0.0727347 0.0733968 0.0800456 0.0511446 0.0558111 -0.0037877
internal_weight=0 22238.4 16756.6 11507.3 12303.2 10713.2 5249.26 1899.06 10404.2 4423.43 4297.51 6986.35 1815.62 3726.82 951.692 6034.66 5980.76 5481.82 794.133 2468.1 2781.15 3298.27 1863.94 683.644 242.991 4798.18 2753.04 3921.95 488.172 375.568
internal_count=5000000 4867819 4680288 4097867 132181 3982370 582421 55330 76851 58047 57856 2860123 55161 1122247 312278 2547845 18804 187531 115497 162019 420402 948854 608591 40324 65706 147207 41729 45671 12265 12185
is_linear=0
shrinkage=0.1


Tree=7
num_leaves=31
num_cat=0
split_feature=3 1 3 1 2 2 2 1 1 0 0 0 1 2 2 3 2 3 3 0 0 1 0 1 0 1 0 3 1 1
split_gain=4444.99 6479.5 1072.38 234.796 167.679 134.325 106.797 93.0655 91.5965 70.2307 58.6576 57.8529 49.9263 47.0581 45.0861 35.6872 32.506 30.2319 30.097 30.0571 29.9494 28.6662 28.2471 28.1703 27.0313 26.8594 28.6179 26.5578 26.0592 43.5272
threshold=0.036812925905613227 0.0014898586936821611 0.013282930974576702 0.0018260687329445635 0.031399662983777617 0.0055408145408665484 0.011778362055018631 1.0000000180025095e-35 0.0010138270226908025 0.034841145144138767 0.008724840853413178 0.037356769563649035 0.0023483646527284467 0.09693867576469288 0.0021291768755586416 0.009070405480439277 0.0023891737785035716 0.052020000025035935 0.020854562968428459 0.01772017256066084 0.13000315803777987 0.0027376708813338256 0.0035417885430789144 0.0081138007984770336 0.028821272109643813 0.0019207362071499295 0.015937844173704561 0.027836892578455733 0.0021244090094867762 0.016485507598293359
decision_type=2 2 2 2 2 2 2 2 2 2 2 2 2 2 2 2 2 2 2 2 2 2 2 2 2 2 2 2 2 2
left_child=1 8 3 14 7 10 25 -2 -1 17 -5 18 24 20 22 -7 -14 -6 -8 21 -11 -9 -3 -20 -12 -4 27 -27 -19 -30
right_child=4 2 6 5 9 15 11 19 -10 13 12 -13 16 -15 -16 -17 -18 28 23 -21 -22 -23 -24 -25 -26 26 -28 -29 29 -31
leaf_value=0.071065140338373231 0.12425658632890509 -0.084330284700528363 0.039956027037970542 -0.096155385686501352 0.0093724376199131113 -0.073507812657544025 -0.041275373382474695 0.057028941059254927 0.035442262659454833 0.047465625067148291 -0.027645976206385803 0.0030624492667477828 -0.09829852065599759 0.066072412750067228 0.031715631281871097 -0.050083427650085527 -0.076627153518566457 0.098614043261459672 -0.059190936549354894 0.019609358063136999 0.079625040376876108 -0.036135061955526085 -0.020013428827694586 -0.010506602262751087 -0.090404051979454725 -0.063400647563820453 -0.036946297588528069 -0.20702386531073189 0.00027319794473485104 0.045698353975167874
leaf_weight=4713.2437910052686 80.560764350462705 83.917798169422895 36.993657862534747 3825.4762975366975 289.98026998352725 1229.4485341158434 618.61051546258386 40.133948518370744 852.33747676733765 3377.9015884808905 272.1500420560551 1485.6913886660768 941.07676400686614 3799.6652866899967 147.42816354292154 1380.9139186506582 2616.4997190018694 82.752146336017177 130.6816277334874 1402.9767483620672 316.7355354137253 186.5180144951737 366.55267899240425 1313.1667796384863 91.776841486469493 418.7163586843817 984.99162834341405 13.283329720434265 231.85527397037367 2338.9192638727836
leaf_count=147207 90 28222 1582 1725405 8648 464359 91406 797 60930 42788 62473 116545 415306 12196 10869 361296 983117 293 13935 35699 2439 9557 55227 73718 32750 89948 131936 1588 5828 13846
internal_value=0 -0.0272966 -0.0597003 -0.0772173 0.0483622 -0.0807347 -0.0213361 0.0193374 0.0656097 0.0531178 -0.0873453 -0.0119825 -0.078751 0.0582586 -0.0162854 -0.061116 -0.0823598 0.0400293 -0.0228201 0.0141507 0.0502226 -0.0196382 -0.031995 -0.014913 -0.0434726 -0.0441618 -0.0463578 -0.0678168 0.0433795 0.0416015
internal_weight=0 21523 15957.4 10955.2 12148 10357.3 5002.14 1710.19 5565.58 10437.8 7746.98 3548.15 3921.5 7494.3 597.899 2610.36 3557.58 2943.51 2062.46 1629.63 3694.64 226.652 450.47 1443.85 363.927 1453.98 1416.99 432 2653.53 2570.77
internal_count=5000000 4867819 4659682 4139024 132181 4044706 520658 46143 208137 86038 3219051 295604 1493646 57423 94318 825655 1398423 28615 179059 46053 45227 10354 83449 87653 95223 225054 223472 91536 19967 19674
is_linear=0
shrinkage=0.1


Tree=8
num_leaves=31
num_cat=0
split_feature=3 1 2 1 2 2 2 1 0 3 1 0 0 0 3 2 1 1 1 2 3 2 1 1 0 0 0 0 0 0
split_gain=3787.16 5805.06 1036.68 337.195 140.295 111.656 100.843 77.874 63.4961 53.1203 51.2005 46.0272 43.1048 40.2593 38.452 34.9722 30.185 29.2484 28.1687 31.0671 27.7173 26.7603 25.1226 28.9314 26.9127 31.226 42.5025 29.2831 28.9679 24.3926
threshold=0.040382073847810007 0.0013802543796536954 0.0083708458108699025 0.0020082105325389971 0.017276709602628209 0.0035303121092787556 0.031399662983777617 0.0010138270226908025 0.034841145144138767 0.027836892578455733 1.0000000180025095e-35 0.013378521803227709 0.0043659565647614406 0.02452806569945239 0.0027439038172713706 0.09693867576469288 0.0031147431176912171 0.011124451096245791 0.0016495600207990042 0.0011574217427841331 0.016298219887545224 0.0020423346382626383 0.0010138270226908025 0.048115411193819652 0.031023493136145965 0.022089314899547918 0.016884045985827014 0.01772017256066084 0.022434220995148375 0.01772017256066084
decision_type=2 2 2 2 2 2 2 2 2 2 2 2 2 2 2 2 2 2 2 2 2 2 2 2 2 2 2 2 2 2
left_child=1 10 3 12 13 16 7 -2 22 -6 -1 -7 -3 -4 -12 -10 21 -11 -14 -20 -15 -5 -8 -24 25 26 -25 -28 -27 -9
right_child=6 2 4 5 9 11 8 29 15 17 14 -13 18 20 -16 -17 -18 -19 19 -21 -22 -23 23 24 -26 28 27 -29 -30 -31
leaf_value=0.07185484082569335 0.11785240342616295 -0.056274752237024855 -0.044364831450256284 -0.09399993815488944 -0.020864427272031878 -0.078882656029910223 0.10482869681413275 -0.024029902336589082 0.04750833446686395 -0.049087137833986522 0.039273753498726027 -0.059084276536405744 0.010743851457152592 -0.039196838324444601 0.070915151146650507 0.061338047459942438 -0.097940350565215231 0.012894407875410314 -0.076122376605506581 -0.01259027966425242 -0.011670724964594207 -0.069709107829647551 0.016038634018935738 0.074209661222591289 0.026875581696110387 0.11265847183321792 -0.2662489632376539 0.017380730906735375 0.055319225868624616 0.019457033337098126
leaf_weight=3694.5011441898678 77.221791171235964 262.73574912735057 1792.4721166103991 866.76319311093539 954.60242522796034 2416.9471853951545 53.602739662164822 146.05325623170938 3549.8192733061733 80.581981602765154 1061.1831717148598 2283.7696183506487 369.19031316268956 596.85757504244248 601.91552845871774 3770.8906814599177 2714.2636395359805 1379.2029869118705 98.624914664265816 350.52289692923659 945.01800348202232 951.28436336125742 589.35413013718789 170.4211546240258 836.64798555645393 101.31508973491145 3.6727412024047217 409.62070860207314 675.87959199969191 1103.7538763837074
leaf_count=126921 118 79153 335273 394905 78201 1034575 61 7235 41748 7263 50828 704863 33635 113801 9833 12196 1345795 56806 26241 53864 83344 351392 13944 1071 3405 182 174 2640 4457 26076
internal_value=0 -0.0248436 -0.0549087 -0.073875 -0.0208803 -0.080062 0.0463222 0.0203966 0.049708 -0.00252187 0.0652959 -0.0692639 -0.0210343 -0.0341736 0.0507255 0.054632 -0.0912613 0.00947295 -0.00971997 -0.0265408 -0.022326 -0.0812899 0.0370175 0.0357132 0.0409896 0.0496666 0.0321879 0.0148602 0.062794 0.0143751
internal_weight=0 21420.4 16062.8 10314.1 5748.74 9233.03 11488.3 1327.03 10161.2 2414.39 5357.6 4700.72 1081.07 3334.35 1663.1 7320.71 4532.31 1459.78 818.338 449.148 1541.88 1818.05 2840.51 2786.91 2197.56 1360.91 583.715 413.293 777.195 1249.81
internal_count=5000000 4886693 4699111 4024423 674688 3831530 113307 33429 79878 142270 187582 1739438 192893 532418 60661 53944 2092092 64069 113740 80105 197145 746297 25934 25873 11929 8524 3885 2814 4639 33311
is_linear=0
shrinkage=0.1


Tree=9
num_leaves=31
num_cat=0
split_feature=3 1 3 1 1 2 2 2 1 1 3 3 2 1 3 0 3 2 1 0 1 1 0 0 0 0 0 0 1 2
split_gain=3351.33 5343.01 989.145 143.013 123.717 120.673 112.002 106.416 96.3552 57.3894 47.731 47.1665 40.58 39.9153 37.5305 35.887 33.2296 28.9947 28.5205 28.3999 27.8913 27.7298 26.7431 26.3069 53.4882 36.1213 26.0331 25.5599 27.8401 24.6698
threshold=0.040382073847810007 0.0015741096265335247 0.013282930974576702 0.0010138270226908025 0.0020082105325389971 0.0035303121092787556 0.058326512262942352 0.017276709602628209 0.0015741096265335247 0.012541457923860669 0.027836892578455733 0.0060485468577747914 0.023437291454934634 0.040638748096515645 0.006612994746239719 0.02511010619922819 0.0025727294945991088 1.0000000180025095e-35 0.0031147431176912171 0.028821272109643813 0.0019207362071499295 0.0021244090094867762 0.05939356490275273 0.039885239112876773 0.010158213067917173 0.037356769563649035 0.021433700078923233 0.027965098704991288 0.013796169718343661 0.001441065852382758
decision_type=2 2 2 2 2 2 2 2 2 2 2 2 2 2 2 2 2 2 2 2 2 2 2 2 2 2 2 2 2 2
left_child=1 3 4 17 16 18 8 15 -2 22 -9 -7 -11 21 -5 20 -3 23 29 -16 -4 -8 -10 24 -1 -26 -13 28 -14 -6
right_child=6 2 7 14 5 11 13 10 9 12 -12 26 27 -15 19 -17 -18 -19 -20 -21 -22 -23 -24 -25 25 -27 -28 -29 -30 -31
leaf_value=0.065006323911156808 0.10740651439323382 -0.04648993410242197 0.048931210608548568 0.016966429455093981 -0.09613368555422562 -0.079919248574917279 0.096385161410874637 -0.021449524713188318 -0.024203634857412653 0.0018482151857147735 0.0076007145221063197 -0.0648323873409236 -0.23715266516752684 0.052628499124546174 0.077518772205178291 -0.020871387561840992 0.0015512114443684707 0.073540375558117932 -0.095046978755169487 -0.122545847537422 -0.045134559781722802 0.010577207662675491 0.044971613592876915 0.098265031191627439 0.029724991986347284 -0.25103860297965969 -0.045964382343283483 0.039709626129099618 0.017401153263478859 -0.070436739547115254
leaf_weight=1327.5513936700881 153.22320123692043 494.86286506878969 32.211998197250068 858.81406534835696 543.69570658659723 1553.2048929408083 42.213992601959035 932.27466997755982 296.1302976142033 423.43997246897197 1437.9780122039665 2313.8814253550772 4.3318245266564182 7157.5406606334727 160.40900485485326 1401.6092821182974 203.05740017959033 2641.4610374544718 2581.6620137220743 7.4237670101574613 1470.213126650342 349.17627361393534 68.887569468643051 147.17474759128527 518.10616105765803 4.6231685052625826 1069.1503759683546 2259.6846659765579 526.43757746519987 1194.1362977888675
leaf_count=85833 362 128329 1067 75182 259645 731029 207 78197 13550 10879 64045 839973 307 30843 2985 157849 24871 41763 1345795 1246 238010 6968 2222 6618 12704 323 304577 35753 12216 486652
internal_value=0 -0.0237149 -0.0545602 0.0591912 -0.0731126 -0.076174 0.0439221 -0.019548 0.029751 0.0264264 -0.00382541 -0.0654929 0.030694 0.0509281 0.0254186 -0.0323807 -0.0325125 0.0666655 -0.0883802 0.0686693 -0.0431178 0.0198322 -0.0111486 0.057574 0.0543373 0.0272418 -0.0588695 0.0350712 0.0153236 -0.0784763
internal_weight=0 20893.5 15227.9 5665.56 9953.65 9255.73 11281.1 5274.29 3732.14 3578.91 2370.25 4936.24 3213.89 7548.93 1026.65 2904.03 697.92 4638.92 4319.49 167.833 1502.43 391.39 365.018 1997.46 1850.28 522.729 3383.03 2790.45 530.769 1737.83
internal_count=5000000 4886693 4660039 226654 4120871 3967671 113307 539168 75289 74927 142242 1875579 59155 38018 79413 396926 153200 147241 2092092 4231 239077 7175 15772 105478 98860 13027 1144550 48276 12523 746297
is_linear=0
shrinkage=0.1


Tree=10
num_leaves=31
num_cat=0
split_feature=3 1 2 1 2 1 1 2 0 1 0 2 0 0 2 1 1 2 0 1 3 0 1 1 2 0 1 2 0 1
split_gain=2832.1 4927.32 795.992 278.167 99.7427 96.6408 97.7214 84.9739 66.5714 60.4864 48.7544 46.8641 41.0124 38.8772 37.0492 35.1827 34.8604 31.3842 56.099 30.1989 27.5338 25.9258 25.5728 24.0304 23.841 23.8103 29.3074 23.0381 23.0123 22.7015
threshold=0.040382073847810007 0.0013802543796536954 0.0092405091409448262 0.0018260687329445635 0.0058742468746459482 0.10918615928805299 0.0010138270226908025 0.021731590617254434 0.010158213067917173 0.011778666405881816 0.0094962228818271689 0.023437291454934634 0.01813436204479171 0.047498973328862208 1.0000000180025095e-35 0.0023483646527284467 0.0010138270226908025 1.0000000180025095e-35 0.0041995208002727057 0.0086749931437373525 0.0097652609729137248 0.0088169395475661671 0.0031570573238346874 0.0017150448674600239 0.0018743282483702651 0.027965098704991288 0.013796169718343661 0.0022381641329762307 0.018779740619004517 0.0025137201718256736
decision_type=2 2 2 2 2 2 2 2 2 2 2 2 2 2 2 2 2 2 2 2 2 2 2 2 2 2 2 2 2 2
left_child=1 8 3 21 10 6 -2 12 16 22 24 28 29 14 -10 -12 17 18 -1 -9 -6 -3 -8 -23 -5 26 -13 -17 -11 -4
right_child=5 2 7 4 20 -7 9 19 13 11 15 25 -14 -15 -16 27 -18 -19 -20 -21 -22 23 -24 -25 -26 -27 -28 -29 -30 -31
leaf_value=0.067596869221016501 0.10980903350851921 -0.02808145440364216 0.045139224201279075 -0.099938366026332354 -0.064946722327827333 0.049481175015366433 0.03547065383064936 -0.15020961525531551 0.11055888173920586 -0.086682770457907315 -0.038160313436190231 -0.12357538236244803 -0.01982506891698748 0.045185711725403144 0.074482417577745319 -0.089675768924531871 0.025031932081627059 0.066405267620381805 0.027281091687277905 0.0024549424198087822 -0.041898031702944344 0.021858270606491884 -0.017085686969343521 -0.039293662136262203 -0.081493117707162194 0.038523941292476202 0.021590010816178049 -0.068676270756813693 0.0064700353499195021 -0.044769839710967943
leaf_weight=639.98087556660175 152.33969085826539 389.9352738285088 28.782439867354697 952.56320942292223 1023.0818237727908 5751.1431129287812 122.16866528568789 13.072638415847903 380.2578622593428 28.448748222348513 319.0685289459725 14.179993467056191 2385.6540088249749 319.99308637558715 1132.3277240937168 657.09262598391797 389.28087589764618 1597.7573795739154 749.1957895931555 1468.6665597516985 1050.4393040980358 297.28376969409874 382.29335080366582 81.980801514087943 2650.6307755689777 3587.2976238757255 723.83149731131562 2549.2440063384238 391.10114317660918 1156.0774389344442
leaf_count=55713 214 76609 1860 522393 421274 18804 2966 1493 14274 1660 88758 758 271137 12459 18182 337571 27720 29114 30120 71879 247210 26452 15942 12516 1358394 48884 14699 1045866 9380 215699
internal_value=0 -0.0223029 -0.0513607 -0.0677453 -0.0725742 0.0404598 0.0308547 -0.0190236 0.0615079 0.0285633 -0.0781892 0.0320634 -0.0273781 0.0768526 0.0835519 -0.0698285 0.0531789 0.0568473 0.0458542 0.00110806 -0.0532703 -0.00997552 -0.0043578 0.00863983 -0.0863694 0.0351587 0.0188008 -0.0729798 0.00015355 -0.0425858
internal_weight=0 20232.4 15023.6 9971.32 9202.12 11152.8 5401.66 5052.25 5208.79 5249.32 7128.6 4744.86 3570.51 1832.58 1512.59 3525.41 3376.21 2986.93 1389.18 1481.74 2073.52 769.2 504.462 379.265 3603.19 4325.31 738.011 3206.34 419.55 1184.86
internal_count=5000000 4886693 4699111 4137043 4021466 113307 94503 562068 187582 94289 3352982 75381 488696 44915 32456 1472195 142667 114947 85833 73372 668484 115577 18908 38968 1880787 64341 15457 1383437 11040 217559
is_linear=0
shrinkage=0.1


Tree=11
num_leaves=31
num_cat=0
split_feature=3 1 2 1 1 1 2 1 1 2 0 1 1 0 2 0 0 2 0 0 1 1 3 2 0 3 2 0 3 0
split_gain=2409.51 4597.08 596.162 262.46 119.06 141.415 96.2963 69.337 48.1836 40.0487 38.6337 36.1893 34.1509 30.8422 29.3818 27.798 27.5816 58.1597 30.324 28.0263 26.8401 23.5364 23.296 22.583 22.1402 21.9527 24.9436 21.7117 19.036 18.8194
threshold=0.036812925905613227 0.0013802543796536954 0.0089129779631957184 0.0020082105325389971 0.048115411193819652 0.0016495600207990042 0.0035303121092787556 0.015972136290580783 0.0010138270226908025 0.09693867576469288 0.017918156338210516 0.011328664784814898 0.0017150448674600239 0.031023493136145965 0.0021075450574528287 0.13000315803777987 0.010267906162984439 1.0000000180025095e-35 0.027965098704991288 0.022089314899547918 0.0031147431176912171 0.0029866620323963527 0.052020000025035935 0.0020423346382626383 0.0088169395475661671 0.0036942433453599085 0.0021503955656286444 0.00085370936517907743 0.0074990287399958116 0.003382838335003371
decision_type=2 2 2 2 2 2 2 2 2 2 2 2 2 2 2 2 2 2 2 2 2 2 2 2 2 2 2 2 2 2
left_child=1 8 3 12 5 -2 20 -4 16 15 21 -7 24 -9 -14 -6 27 18 19 -18 23 -8 -13 -5 -3 26 -10 -1 -23 -27
right_child=4 2 7 6 9 11 10 13 25 -11 -12 22 14 -15 -16 -17 17 -19 -20 -21 -22 28 -24 -25 -26 29 -28 -29 -30 -31
leaf_value=0.026485304569390383 0.098638745820180396 -0.022924997621298807 -0.036999512773633766 -0.085778313308378609 0.031909550843384239 -0.013643532219123296 -0.02678797076919694 -0.022572705719282174 0.023973018303473724 0.047711967528920679 -0.049367991321472196 0.0085214869652788534 -0.054779104701973072 -0.0016396832660917839 2.4308525992408641e-05 0.064377782877191869 0.023102668811666654 0.068613077398374717 0.059795110900303643 -0.064139319230196307 -0.089971520306846076 -0.077850809966990411 0.031675836115743969 -0.061763043163850631 0.016382959727001302 -0.057594238521945812 -0.2193008731389218 0.071127053658627246 -0.060878484554860092 0.069864006725821659
leaf_weight=113.53359560796525 197.31230502499966 270.30606595355493 1854.6113868181928 738.07870447976893 3695.1199164232239 491.07788944506319 128.15123351047805 1406.4548034462787 439.57751367118908 4931.6197339335631 1637.3656902097573 1211.1943309734343 328.66916753329861 1408.9537238553748 139.28649117940222 283.95502055739053 402.43646816012915 978.61260785674676 231.25337388442131 40.531151306931861 2313.1843194285611 1556.9537163853165 677.63249889493454 834.0508001658236 304.94485125372012 12.36426196398679 4.2555094527779138 2696.0688334994193 1148.1587489600788 183.63229271257296
leaf_count=9732 585 51552 367147 394905 40156 21457 33007 113919 35095 15447 528591 39856 99343 101355 15833 2037 10023 12480 7835 1582 1345795 820938 12643 351392 26415 862 518 105555 430096 3849
internal_value=0 -0.0217008 -0.0511899 -0.0656997 0.0362151 0.0172854 -0.0716041 -0.0219865 0.0596134 0.04169 -0.0615964 0.0105406 -0.0184064 -0.0120969 -0.0384669 0.0342266 0.0632931 0.0530429 0.0304433 0.0151201 -0.0831195 -0.0686633 0.0168283 -0.0730377 -0.00208755 0.0339496 0.0216405 0.0693231 -0.0706471 0.0618234
internal_weight=0 19171.4 14069.2 9399.15 11487.9 2577.22 8355.94 4670.02 5102.27 8910.69 4470.63 2379.9 1043.21 2815.41 467.956 3979.07 4462.44 1652.83 674.221 442.968 3885.31 2833.26 1888.83 1572.13 575.251 639.83 443.833 2809.6 2705.11 195.997
internal_count=5000000 4867819 4680288 4097867 132181 74541 3904724 582421 187531 57640 1812632 73956 193143 215274 115176 42193 147207 31920 19440 11605 2092092 1284041 52499 746297 77967 40324 35613 115287 1251034 4711
is_linear=0
shrinkage=0.1


Tree=12
num_leaves=31
num_cat=0
split_feature=1 2 2 1 1 2 1 2 1 1 0 3 1 0 3 0 0 0 2 3 3 0 2 0 0 0 0 3 2 0
split_gain=2207.89 4097.21 356.101 409.098 242.682 73.0121 53.6368 46.678 46.0885 43.6653 38.7395 35.1801 31.2691 32.7688 30.9825 27.7457 25.9202 24.8889 22.6325 22.1186 22.0608 21.5107 21.3948 21.0163 19.5782 19.5734 17.9007 17.6327 17.4527 19.0701
threshold=0.0012378407578255532 0.021731590617254434 0.0083708458108699025 0.0018260687329445635 0.048115411193819652 0.003504136368707343 0.0017150448674600239 0.013203441202915079 1.0000000180025095e-35 0.0024350051988888187 0.04896620429987697 0.033908914653496998 0.0028089548055670386 0.01411980941125948 0.0021146717440980165 0.023192840920277329 0.10898645606786847 0.039885239112876773 0.0012306841302686508 0.0012999805779041905 0.026180292885715477 0.044920925473564612 0.058326512262942352 0.012534192290142099 0.03618533867362763 0.047498973328862208 0.0043180635905967534 0.16260650549916836 0.0012057758744522947 0.0021311930353693207
decision_type=2 2 2 2 2 2 2 2 2 2 2 2 2 2 2 2 2 2 2 2 2 2 2 2 2 2 2 2 2 2
left_child=8 2 3 14 10 9 -4 -8 11 18 21 -1 -7 -14 -2 -9 22 -16 -5 28 -12 24 -6 -11 -3 -23 -20 -26 -10 -30
right_child=1 4 6 5 16 12 7 15 19 23 20 -13 13 -15 17 -17 -18 -19 26 -21 -22 25 -24 -25 27 -27 -28 -29 29 -31
leaf_value=0.065488216871752269 -0.015341419303557598 -0.003986443217302872 0.083023841802222442 -0.083824007758841301 0.027062684916367447 -0.0178012149466335 -0.038643837945345649 -0.031683304073773351 0.035107904180617919 -0.089551314532990034 -0.023229825907989513 0.11712580003116789 -0.070119844720241853 -0.051865203898457668 0.026875006432507377 -0.0089566141385090999 0.053408315016810773 -0.081667463751266559 -0.077146849805859508 0.05943747936425503 0.024497166120535874 -0.093580423883244612 0.040218291057166178 -0.072137909487907437 0.031005982873078087 -0.0055272523591202924 -0.034260493377030687 -0.15791459151354084 0.07942179567900963 -0.22812290133097629
leaf_weight=3429.895403596689 658.66390152415806 1483.4848369552419 44.475920489407144 215.84590425116039 1562.1776118051494 171.39075561719801 1968.648862437738 868.0115786882161 688.31024264695588 2116.4077159407516 105.76429470254516 137.21472816495225 2066.4813795476075 1876.1587681671954 358.67369372516987 1409.4379231163039 1181.9065508970525 22.447625531349331 130.70927546301755 609.05495975597296 1148.8880272213428 47.872554306784878 5924.0900713862793 1030.5878099900256 231.73385450412752 53.410364442330319 381.08115781844754 5.0479848315007976 3.2895019203424436 5.2088575218804181
leaf_count=126871 108516 56671 960 110457 21997 38888 401792 101821 27626 1287636 7988 161 1066071 657165 22396 109942 5205 4390 69130 11937 40718 3283 27259 549917 7434 2567 129801 274 149 978
internal_value=0 -0.0119748 -0.0499415 -0.0612135 0.0310824 -0.0688931 -0.0262223 -0.0273666 0.0615903 -0.0787441 0.00695228 0.0674745 -0.0596154 -0.0614331 -0.00221077 -0.0176185 0.0396459 0.020482 -0.0566669 0.0455169 0.0204739 -0.00236117 0.0374731 -0.0838487 0.00027563 -0.0471466 -0.0452135 0.0269784 0.0333494 -0.10908
internal_weight=0 25063.4 13319 9028.45 11744.4 7988.66 4290.57 4246.1 4872.97 3874.63 3076.2 3567.11 4114.03 3942.64 1039.79 2277.45 8668.17 381.121 727.636 1305.86 1254.65 1821.55 7486.27 3147 1720.27 101.283 511.79 236.782 696.809 8.49836
internal_count=5000000 4832278 4658882 4044367 173396 3909065 614515 613555 167722 2146941 118935 127032 1762124 1723236 135302 211763 54461 26786 309388 40690 48706 70229 49256 1837553 64379 5850 198931 7708 28753 1127
is_linear=0
shrinkage=0.1


Tree=13
num_leaves=31
num_cat=0
split_feature=1 2 2 1 1 2 0 2 1 3 0 0 1 2 0 2 3 2 0 1 1 0 0 0 3 2 0 2 3 0
split_gain=2066.05 3765.85 282.508 275.9 229.17 60.1007 52.5842 49.6309 45.6552 37.375 33.8524 31.424 28.979 24.2205 23.525 22.1307 22.0314 21.132 19.2812 18.9123 16.7022 16.6892 15.1534 14.9177 15.7541 14.8009 16.2935 14.0109 13.5417 13.4651
threshold=0.0013802543796536954 0.0192362566515142 0.0070003285416231397 0.048115411193819652 0.0020082105325389971 0.0021503955656286444 0.01813436204479171 0.0040498353360839835 0.0010138270226908025 0.027836892578455733 0.04896620429987697 0.01411980941125948 0.0016495600207990042 0.00099981893084010397 0.015937844173704561 0.035997165541660131 0.017189839522459616 0.0039575104238120861 0.094673372055278385 0.0021244090094867762 0.0024052626118632289 0.016884045985827014 0.13000315803777987 0.016703448790604581 0.0063631760989331229 0.00091190622404711623 0.022434220995148375 0.0074567851468215806 0.012339180544404827 0.017303337377583581
decision_type=2 2 2 2 2 2 2 2 2 2 2 2 2 2 2 2 2 2 2 2 2 2 2 2 2 2 2 2 2 2
left_child=7 2 4 9 12 -6 19 8 17 14 -11 20 -2 -14 -3 -5 27 23 -17 -4 -7 -16 -13 -1 -25 26 -10 -8 -15 -23
right_child=1 3 6 15 5 11 16 -9 25 10 -12 22 13 28 21 18 -18 -19 -20 -21 -22 29 -24 24 -26 -27 -28 -29 -30 -31
leaf_value=0.060680006751550053 -0.00016774512121087471 -0.064609519563944146 0.026854229189738635 0.018951094799274669 -0.087385094560541277 -0.038605347450584498 0.00051731784259849629 0.082960001509039344 0.0039841540677808202 -0.00080251126341117211 0.021260588723776008 -0.055990300834065143 -0.076708468158389137 -0.027724497521653697 0.063625302407317202 0.035760817799750509 -0.015559596187880213 -0.26158945021934549 0.048638963331803411 -0.047421624735877084 -0.072935246941576756 -0.20745016017385984 0.056308985468831098 0.040186574869708204 0.092694796912350108 0.035626789565824157 -0.17347641481404458 -0.037594504413231797 0.056097188857992808 -0.013401331935756433
leaf_weight=3195.7240487365161 455.94852152251406 94.86961921359034 35.043574796494795 657.72699065867346 1545.5463594402863 148.89947373908399 106.81571010544576 674.36300683673471 120.0463427719078 1709.1773454085196 1172.5105218689569 2047.2581436263645 108.14943364859209 415.35340939456182 28.685433695762185 6587.9481244297058 1615.4769977708638 2.0733204064890733 1411.725353584392 1574.4493785337363 2938.945740164796 3.6015408148959969 12.086796741612487 657.64916702432674 62.576939180493355 406.64128543139668 5.4068452058709218 994.90748927070308 20.211392093304312 502.67536233374267
leaf_count=124674 58068 10534 1936 10827 975274 58623 30765 4166 12733 62289 42468 855108 40990 92187 1204 39270 137106 94 5996 431272 1689863 520 4336 19962 422 23716 2165 223914 716 38802
internal_value=0 -0.0122199 -0.0519228 0.0269941 -0.0634209 -0.0700916 -0.0314804 0.0576793 0.0538483 0.00335143 0.00817459 -0.0648989 -0.0187604 -0.0343519 -0.0187161 0.0365837 -0.0229957 0.0575809 0.0380335 -0.0458044 -0.0712798 -0.0105775 -0.0553312 0.0577499 0.0447488 0.0263631 -0.00366413 -0.0338994 -0.0238349 -0.0147818
internal_weight=0 24188 12019.1 12168.9 7692.4 6692.74 4326.69 5124.48 4450.12 3511.52 2881.69 5147.19 999.663 543.714 629.832 8657.4 2717.2 3918.02 7999.67 1609.49 3087.85 534.962 2059.34 3915.95 720.226 532.094 125.453 1101.72 435.565 506.277
internal_count=5000000 4812068 4600158 211910 3775165 3583204 824993 187932 183766 155817 104757 2607930 191961 133893 51060 56093 391785 145152 45266 433208 1748486 40526 859444 145058 20384 38614 14898 254679 92903 39322
is_linear=0
shrinkage=0.1


Tree=14
num_leaves=31
num_cat=0
split_feature=1 2 2 1 1 2 1 0 2 1 1 0 2 0 0 3 1 3 3 0 2 2 0 0 2 0 0 0 0 0
split_gain=1932.71 3181.39 274.994 336.695 191.682 68.9337 40.8952 39.6933 34.1383 33.4182 31.6722 31.5584 24.0595 22.4535 22.0548 21.77 20.4389 19.9528 19.5766 19.1093 17.393 16.9422 17.1252 18.9274 16.5064 17.4398 15.2254 15.094 18.3325 14.9393
threshold=0.0012378407578255532 0.021731590617254434 0.0083708458108699025 0.0019207362071499295 0.048115411193819652 0.0035303121092787556 0.0021591836889650828 0.02511010619922819 0.0075557614924986064 0.0016495600207990042 0.0031147431176912171 0.03618533867362763 0.0012780557319823341 0.075032770827307402 0.021433700078923233 0.0028774465087738977 0.0036790304833005222 0.021674991075510613 0.02261734804038441 0.0039448775942948931 0.0021291768755586416 0.058326512262942352 0.022434220995148375 0.021131210995586111 0.015844732101309354 0.024089680360949137 0.0070746820569761145 0.033550904440813344 0.032207790081077249 0.024089680360949137
decision_type=2 2 2 2 2 2 2 2 2 2 2 2 2 2 2 2 2 2 2 2 2 2 2 2 2 2 2 2 2 2
left_child=8 2 3 9 11 10 -4 24 -1 15 12 -3 -5 21 16 -2 -7 27 -19 -14 26 -6 23 -23 25 -8 -11 28 -9 -24
right_child=1 4 6 5 13 14 7 17 -10 20 -12 -13 19 -15 -16 -17 -18 18 -20 -21 -22 22 29 -25 -26 -27 -28 -29 -30 -31
leaf_value=0.056242234648439041 -0.0058214971240877923 -0.0060318218144005224 0.052238456473042608 -0.086556454401187422 0.020947847004941456 -0.037207926089985043 -0.040426508522159108 -0.042689119615007383 0.090353367327226763 -0.068855313204256752 -0.083649098886643347 0.01455539221360936 -0.081025097430830043 0.043114322547110263 -0.043723025024736011 0.031238040439957961 -0.063896972466456384 0.038432542777501244 -0.011369748878359261 -0.049546522620441076 0.0013945954304250858 0.040798301636353812 -0.030546498058191946 0.087294547355406787 -0.022253576384855613 -0.10733739294341144 -0.023165788017830667 -0.020570359297201773 -0.15743598464639694 0.032357831238639223
leaf_weight=4401.1329720569338 511.24393131496981 1439.9156696611535 66.761194321763469 360.76337044503452 1297.2888575229154 327.01858172661923 1406.9254203631881 196.58454867204637 314.34879202907905 127.5329532879332 1963.5550619639798 1541.9579184249305 250.24601586219615 2078.4521985531901 1086.1481212549224 229.74213843639882 2341.2545874481657 85.844330252264626 979.87151494978025 840.77623401443816 127.63027055613929 386.84598716819892 38.067743986146525 113.15990481630433 575.24266595177323 40.062774974154308 170.3655604977539 749.53991236694492 14.984545516337674 4590.6283868163009
leaf_count=166527 67078 56671 2865 226728 19273 118847 313806 25062 1195 50963 1345795 62264 158754 11155 396388 11222 1226111 6086 59493 397746 12376 1904 297 273 54948 6270 32359 142997 2988 21559
internal_value=0 -0.0115267 -0.0465398 -0.0569818 0.0264302 -0.0650881 -0.0253904 -0.0266703 0.0585162 -0.00715764 -0.0753687 0.00461404 -0.0641694 0.0340795 -0.055736 0.00566878 -0.060626 -0.0167805 -0.00735813 -0.0567667 -0.0294927 0.0311573 0.0337397 0.0513212 -0.0365826 -0.0422791 -0.0427259 -0.0272284 -0.0508162 0.0318405
internal_weight=0 23938.4 12452.1 8336.28 11486.3 7169.76 4115.82 4049.06 4715.48 1166.51 3415.34 2981.87 1451.79 8504.44 3754.42 740.986 2668.27 2026.82 1065.72 1091.02 425.529 6425.99 5128.7 500.006 2022.23 1446.99 297.899 961.109 211.569 4628.7
internal_count=5000000 4832278 4658882 4044367 173396 3870369 614515 611650 167722 173998 2129023 118935 783228 54461 1741346 78300 1344958 236626 65579 556500 95698 43306 24033 2177 375024 320076 83322 171047 28050 21856
is_linear=0
shrinkage=0.1


Tree=15
num_leaves=31
num_cat=0
split_feature=1 2 1 2 1 2 1 0 0 3 0 1 3 2 0 0 0 3 2 0 2 2 1 2 3 1 3 2 0 1
split_gain=1855.57 2926.46 234.358 220.342 192.642 56.0249 45.1417 43.4533 32.4164 30.1858 27.6915 21.0843 20.9514 19.9622 19.3578 21.2098 19.1503 17.4941 16.5524 16.1245 14.8637 14.2993 14.0015 17.3872 13.968 13.6244 12.9176 12.0574 14.3418 11.8211
threshold=0.0013802543796536954 0.0192362566515142 0.048115411193819652 0.0070003285416231397 0.0020082105325389971 0.0021503955656286444 0.0010138270226908025 0.022805560294792308 0.032207790081077249 0.033908914653496998 0.014767097349108914 0.0016495600207990042 0.086586339066658496 0.00099981893084010397 0.03618533867362763 0.0077407373329052591 0.083837444117730656 0.0089730750983416183 0.013203441202915079 0.017101901371212945 0.042979658473761076 0.0073569872102059774 0.003614700015147171 0.003504136368707343 0.024879500710061186 0.0026169201859344237 0.0010641140002740702 0.00048615572605975539 0.01353031490659465 0.0022897545476346917
decision_type=2 2 2 2 2 2 2 2 2 2 2 2 2 2 2 2 2 2 2 2 2 2 2 2 2 2 2 2 2 2
left_child=6 3 8 4 11 25 9 17 24 -1 22 -2 -4 -13 15 26 19 -5 21 -14 -10 -9 -7 -24 -3 -6 -8 28 -17 -26
right_child=1 2 12 7 5 10 14 18 20 -11 -12 13 16 -15 -16 27 -18 -19 -20 -21 -22 -23 23 -25 29 -27 -28 -29 -30 -31
leaf_value=0.057624242026442313 -0.002073322165321002 -0.034698188817501578 0.022608527673775778 -0.066574406896977134 -0.066720166557955221 -0.056173958306930005 0.089241579035627308 0.01153634742559847 0.0046631329312192332 0.10248367776708654 -0.050950119236665085 -0.072648045351776477 0.069454219182466428 -0.02218177885139266 -0.0611056408850904 0.020471024616299072 0.044619786430903363 -0.037261150427717465 -0.010767423964693396 0.030641570456292701 0.025917654046190876 -0.03181495551296281 -0.086476960903316941 -0.065609955080121393 0.060392902001233144 -0.089384365541912619 0.0086403791596573343 0.056877645381922831 -0.20244363937499765 -0.0075929585015376364
leaf_weight=4166.1231714440801 453.9631670109793 198.13341056934587 1983.2214941407583 229.12485834238214 358.14995278125571 884.57023223202486 21.458034991635941 82.264845565234282 1396.9387025349133 155.60378553532064 1823.9606873727189 96.451328525479767 109.39873952511698 418.34075593195666 22.289669127756497 12.157724501914343 1419.3789378823712 1827.0771710590343 1000.4573012239707 4961.7109899698989 430.39119174095686 1013.1672483942493 547.46345639546416 1475.5381242953717 26.063220965734217 1022.4276625829334 271.02244677988347 289.84185274803895 3.7846651100553563 1366.2574130196444
leaf_count=147161 58068 17987 29492 119984 226631 475000 1558 20453 73083 294 816351 40990 364 92903 5479 756 4343 398946 88449 21894 9528 197161 415977 900602 542 748643 23568 8343 773 54677
internal_value=0 -0.011887 0.0226882 -0.0484891 -0.059214 -0.0657807 0.0556179 -0.0301992 0.000583439 0.0592394 -0.0606091 -0.0177834 0.031604 -0.0316371 0.0303968 0.033806 0.0343526 -0.0405276 -0.0200665 0.0314789 0.00966921 -0.0285594 -0.0666683 -0.071257 -0.00985553 -0.0835048 0.0145537 0.0522206 -0.0324481 -0.00632031
internal_weight=0 23124.5 11891.5 11233 7080.87 6112.11 4942.28 4152.09 3417.78 4321.73 4731.53 968.755 8473.71 514.792 620.554 598.265 6490.49 2056.2 2095.89 5071.11 1827.33 1095.43 2907.57 2023 1590.45 1380.58 292.48 305.784 15.9424 1392.32
internal_count=5000000 4812068 211910 4600158 3775165 3583204 187932 824993 155817 147455 2607930 191961 56093 133893 40477 34998 26601 518930 306063 22258 82611 217614 1791579 1316579 73206 975274 25126 9872 1529 55219
is_linear=0
shrinkage=0.1


Tree=16
num_leaves=31
num_cat=0
split_feature=1 2 1 2 1 2 1 2 3 0 2 3 2 0 0 0 0 0 0 3 1 1 0 0 0 0 3 1 0 1
split_gain=1760.53 2495.48 222.383 304.501 177.557 61.4991 48.4609 50.3915 27.4186 26.0559 25.5705 24.2056 19.6099 18.6063 16.1226 15.4644 21.4589 20.8476 15.4508 19.3963 27.7748 17.6632 14.2778 14.1424 42.9699 14.0895 13.8033 16.3265 16.265 18.4353
threshold=0.0012378407578255532 0.021731590617254434 0.0017150448674600239 0.0058742468746459482 0.048115411193819652 0.011778362055018631 0.0024350051988888187 0.0027027533163099279 0.033908914653496998 0.03618533867362763 0.0032511962629810753 0.0025083746363448612 0.058326512262942352 0.023192840920277329 0.13000315803777987 0.033550904440813344 0.088982759623689803 0.0088169395475661671 0.021433700078923233 0.027836892578455733 0.02709121065962565 0.0018765831576802697 0.0081758391402462303 0.048259953452829518 0.047498973328862208 0.012534192290142099 0.029489636780783899 0.011778666405881816 0.05835439178091207 0.0085693884387463403
decision_type=2 2 2 2 2 2 2 2 2 2 2 2 2 2 2 2 2 2 2 2 2 2 2 2 2 2 2 2 2 2
left_child=8 2 10 6 9 18 11 25 -1 -3 15 -4 22 -7 -9 17 -17 -2 19 20 21 -5 -6 24 -14 -8 -11 28 29 -28
right_child=1 4 3 5 12 13 7 14 -10 26 -12 -13 23 -15 -16 16 -18 -19 -20 -21 -22 -23 -24 -25 -26 -27 27 -29 -30 -31
leaf_value=0.055343492734052493 -0.014049739828319497 -0.0085129074153835489 -0.052633664631353785 0.053076901983457395 -0.24395914586671066 -0.029615970588713039 -0.088100118746193584 -0.060512592583376192 0.096988692699226067 -0.012154256685186609 0.042260470062089939 -0.015566584470109958 0.029648062570076652 -0.012184136890589229 0.086149029758400678 -0.082889301354882483 0.095646920402319702 0.021739754991966131 -0.031848241697121749 -0.15404067816752301 0.096856043002261014 -0.048324747196418799 0.020539942747843747 0.036125527364745995 -0.028330989056640634 -0.068172682783603986 -0.030431498445605283 0.01798696717952486 0.016095304592411482 -0.17088450475927303
leaf_weight=4382.5699964734122 379.15576974873693 1410.398390453498 605.11907340502603 17.3726807643543 2.0433736201957791 1015.7062584491287 1129.90155636297 3055.6319696436594 164.01025419181678 230.2886678341747 152.90942958454252 248.52964441240874 2504.8723654109344 1541.7439338212935 7.5139477155353225 43.791591838031309 7.9551030165312104 285.17497939570603 1146.1489408767957 16.778527218368254 13.502333772048585 1535.0518821619862 1658.3665506586258 3987.8807253286941 134.70079265441746 517.22680228600166 45.851996945682913 1165.7333795244194 57.602980985713657 11.737417953088878
leaf_count=167335 62423 56671 298707 554 170 145753 875774 1807265 387 17101 6011 62031 10651 141918 2900 11075 367 18906 278142 2429 388 600868 23940 19106 594 343371 2823 38617 2490 1233
internal_value=0 -0.0112721 -0.043537 -0.0474354 0.0224601 -0.0302488 -0.0637644 -0.0677375 0.0568458 0.00126248 0.00513891 -0.041842 0.0299326 -0.0191073 -0.0601528 -0.00278794 -0.0554426 0.00131349 -0.0406905 -0.0470939 -0.0459479 -0.04719 0.0202144 0.0323673 0.0266893 -0.0818426 0.0103857 0.014438 -0.0214767 -0.0590575
internal_weight=0 22928.7 11719.2 10850.2 11209.5 5286.3 5563.92 4710.27 4546.58 2921.61 868.987 853.649 8287.86 2557.45 3063.15 716.077 51.7467 664.331 2728.85 1582.71 1565.93 1552.42 1660.41 6627.45 2639.57 1647.13 1511.21 1280.93 115.192 57.5894
internal_count=5000000 4832278 4658882 4560100 173396 1170052 3390048 3029310 167722 118935 98782 360738 54461 287671 1810165 92771 11442 81329 882381 604239 601810 601422 24110 30351 11245 1219145 62264 45163 6546 4056
is_linear=0
shrinkage=0.1


Tree=17
num_leaves=31
num_cat=0
split_feature=1 2 1 2 1 2 1 0 3 0 0 2 0 0 0 3 3 2 1 1 0 2 1 1 2 1 3 1 2 2
split_gain=1665.4 2327.17 216.382 165.77 161.367 51.1218 41.7523 31.3977 27.0635 26.9581 24.1618 23.7482 17.408 21.8388 23.6581 15.4874 20.5375 15.5875 14.5962 14.2392 13.9093 13.6425 14.5348 13.2904 16.1109 13.2178 14.0627 12.7147 11.9558 11.9308
threshold=0.0013802543796536954 0.0192362566515142 0.048115411193819652 0.0070003285416231397 0.0020082105325389971 0.0021503955656286444 0.0010138270226908025 0.025715164483615514 0.033908914653496998 0.032207790081077249 0.014767097349108914 0.035997165541660131 0.0088169395475661671 0.031023493136145965 0.083837444117730656 0.0027439038172713706 0.0012999805779041905 0.0012780557319823341 0.0031766434247739307 0.02709121065962565 0.13000315803777987 0.028006713298846932 0.0069402645797017179 0.0029866620323963527 0.0028389286392626572 0.0031362810920119578 0.086586339066658496 0.0026169201859344237 0.09693867576469288 0.00084178927397752341
decision_type=2 2 2 2 2 2 2 2 2 2 2 2 2 2 2 2 2 2 2 2 2 2 2 2 2 2 2 2 2 2
left_child=6 3 9 4 12 27 8 18 -1 -3 23 -4 -2 -14 -15 16 17 29 -5 -20 28 -11 25 -7 -25 26 -23 -6 -13 -8
right_child=1 2 11 7 5 10 15 -9 -10 21 -12 20 13 14 -16 -17 -18 -19 19 -21 -22 22 -24 24 -26 -27 -28 -29 -30 -31
leaf_value=0.055736178826895889 -0.030991996863072024 -0.011678577028208395 0.0093663182760600396 -0.0016683938696425904 -0.062849888325831507 -0.04710050944727593 0.0060515083033952314 -0.019647241683975181 0.099832845153534869 -0.0051734597859871166 -0.047388705569631262 0.023115925666549353 0.0069011905735554581 -0.066893939289991974 0.06759307264067084 0.048294721166403848 -0.014709913095802527 -0.19050131339684134 -0.042013847308522256 -0.014366151769661007 0.043070220185796093 -0.19371069461273882 0.015142599293483465 -0.085991232641528623 -0.062210959596835494 -0.09359154334108355 0.059481174419899918 -0.085847648218763464 0.031637773253412438 0.055690206849168103
leaf_weight=4011.633562031675 459.96772334954676 1552.2752938645572 623.39651745994342 108.42329072145367 327.54015517228891 457.29323221646337 75.06738522881642 1797.1546702365031 144.1809388527181 654.40885337276268 1710.8770640416706 2703.8461114132951 386.08551872348107 83.316770851728506 15.51636838235572 244.49557549221208 137.08022716453706 3.0262588517944087 1893.8593646733807 206.60251258109201 702.84276971308282 2.5816250686766606 1095.0589147151841 336.05582640363991 1871.3922673125799 23.876613924629055 14.596962197567334 903.61124221282989 4209.1407701449352 136.40439772859099
leaf_count=147161 127146 73206 10827 11916 226631 227887 9644 274730 294 44639 816351 28318 40591 22680 1544 6702 14032 782 526446 11901 2567 238 35767 280585 1283107 1684 283 748643 14381 9317
internal_value=0 -0.0115292 0.0194251 -0.0454867 -0.055285 -0.0617276 0.0537161 -0.0294621 0.0572661 -0.00203374 -0.0566626 0.0281313 -0.0170554 -0.00383598 -0.0457801 0.0289655 0.0155235 0.0348449 -0.0374475 -0.0392944 0.0296673 0.00632775 0.0129525 -0.0626168 -0.0658312 -0.045463 0.0214311 -0.0797292 0.0283047 0.0380697
internal_weight=0 22139.7 11582 10557.7 6551.66 5606.77 4751.89 4006.04 4155.81 3342.8 4375.62 8239.23 944.886 484.919 98.8331 596.074 351.578 214.498 2208.89 2100.46 7615.83 1790.52 1136.11 2664.74 2207.45 41.0552 17.1786 1231.15 6912.99 211.472
internal_count=5000000 4812068 211910 4600158 3775165 3583204 187932 824993 147455 155817 2607930 56093 191961 64815 24224 40477 33775 19743 550263 538347 45266 82611 37972 1791579 1563692 2205 521 975274 42699 18961
is_linear=0
shrinkage=0.1


Tree=18
num_leaves=31
num_cat=0
split_feature=1 2 2 1 1 2 2 1 3 0 2 0 1 2 1 3 0 0 3 0 0 0 0 1 2 0 0 3 1 1
split_gain=1561.21 2093.75 182.574 166.569 161.443 41.7766 40.146 39.5856 25.8281 25.4949 22.2447 20.7453 16.4583 16.3405 15.448 15.1333 14.8794 14.1316 14.4044 13.3055 13.1958 14.3103 12.6159 12.2988 12.0617 11.9433 11.0215 10.6867 10.5485 10.3042
threshold=0.0013802543796536954 0.021731590617254434 0.0063188523371835595 0.048115411193819652 0.0020082105325389971 0.0021503955656286444 0.011778362055018631 0.0010138270226908025 0.023647422322459626 0.034841145144138767 0.058326512262942352 0.012936240598889854 0.0016495600207990042 0.00099981893084010397 0.003614700015147171 0.029489636780783899 0.13000315803777987 0.027965098704991288 0.020164109167230663 0.094673372055278385 0.0029175930044500488 0.03618533867362763 0.13000315803777987 0.0026169201859344237 0.003504136368707343 0.0023960869080641273 0.0006084971349729594 0.012339180544404827 0.019253541388574446 0.0028089548055670386
decision_type=2 2 2 2 2 2 2 2 2 2 2 2 2 2 2 2 2 2 2 2 2 2 2 2 2 2 2 2 2 2
left_child=7 2 4 9 12 23 -4 8 -1 -3 22 14 -2 -14 -7 28 29 18 -8 -12 25 -22 -5 -6 -16 26 -9 -15 -11 -13
right_child=1 3 6 10 5 11 17 20 -10 15 19 16 13 27 24 -17 -18 -19 -20 -21 21 -23 -24 -25 -26 -27 -28 -29 -30 -31
leaf_value=0.054298481621153749 -0.0019575361855938816 -0.011141491623406351 -0.037475284703145768 0.013997191596561522 -0.061033815314948808 -0.050874507919178247 -0.040893505849486811 -0.18989542787314687 0.092204934306499176 0.085994647993704848 0.027453423149011658 -0.024278137488633 -0.067729518877688202 -0.02329043460833018 -0.083115546858402681 0.012024099600222956 0.070878560491898515 -0.0117157213699066 -0.01863747926630446 0.039307082156543577 0.037620544514031948 -0.049343859886542996 0.048435321822242305 -0.084204727660465453 -0.062950326347527688 -0.092752767914585102 0.016869156994249828 0.062386602043057404 -0.020325618299908477 -0.05128425317280412
leaf_weight=3879.6188374249905 440.91540501754662 1348.3894165465172 2353.6411267379763 1498.5746749670361 313.69052502092472 719.42132113612934 457.92265224233961 2.687329101478098 188.48130672494881 9.7440380261978117 5302.0706143363495 155.66473188713462 87.615838044672273 385.55852989875893 418.59327030861641 1279.6356748301623 10.454874684401146 1242.8908022747783 796.83654369488795 1152.8413129837136 487.47403369571839 19.68609634276072 114.50231994548813 849.21869549804069 1017.9665381441937 14.157314549447618 63.380901946191443 15.129694239411036 220.47500709607993 1529.2415247899235
leaf_count=146945 57855 55516 747757 22956 226631 446145 98792 569 510 442 26303 66673 40990 91941 384563 45892 3785 122360 66836 4048 25692 5479 1154 748643 739092 2538 6199 476 17036 796182
internal_value=0 -0.0112633 -0.042499 0.0195966 -0.0542485 -0.0613434 -0.0281042 0.0525508 0.0560547 -0.00114754 0.0269456 -0.0563277 -0.0159631 -0.0286095 -0.062836 0.00777764 -0.0480513 -0.0192735 -0.0267598 0.0295705 0.0282836 0.0342449 0.0164417 -0.0779545 -0.0688262 -0.00940173 0.008459 -0.0200553 -0.0158256 -0.0487892
internal_weight=0 21721 10794.8 10926.2 5943.47 5014.25 4851.29 4655.49 4068.1 2858.24 8067.99 3851.34 929.219 488.304 2155.98 1509.85 1695.36 2497.65 1254.76 6454.91 587.386 507.16 1613.08 1162.91 1436.56 80.2255 66.0682 400.688 230.219 1684.91
internal_count=5000000 4812068 4638721 173347 3602976 3411714 1035745 187932 147455 118886 54461 2436440 191262 133407 1569800 63370 866640 287988 165628 30351 40477 31171 24110 975274 1123655 9306 6768 92417 17478 862855
is_linear=0
shrinkage=0.1


Tree=19
num_leaves=31
num_cat=0
split_feature=1 2 2 1 1 2 1 0 3 1 3 0 0 0 0 2 1 2 2 3 0 0 0 1 0 0 0 1 0 0
split_gain=1463.55 1862.42 206.512 127.356 115.359 62.9217 36.9177 29.7428 29.4117 27.5655 24.7809 19.4715 16.1737 15.4877 15.9552 15.1996 18.0031 19.1489 13.411 12.6236 12.3617 12.0834 12.0826 12.6827 11.9061 12.7047 11.8038 12.5637 12.2384 14.9416
threshold=0.0013802543796536954 0.02546586610325614 0.0092405091409448262 0.0020082105325389971 0.040638748096515645 0.0028389286392626572 0.0010138270226908025 0.025715164483615514 0.086586339066658496 0.0029191543239386335 0.033908914653496998 0.017918156338210516 0.0034370780063719395 0.012534192290142099 0.022089314899547918 0.013203441202915079 0.029437523188840544 0.011191040641510478 0.001027288203815367 0.0010641140002740702 0.083837444117730656 0.13000315803777987 0.001821178338840839 0.0024350051988888187 0.025715164483615514 0.024089680360949137 0.04896620429987697 0.0022897545476346917 0.044920925473564612 0.013841029922982154
decision_type=2 2 2 2 2 2 2 2 2 2 2 2 2 2 2 2 2 2 2 2 2 2 2 2 2 2 2 2 2 2
left_child=6 2 3 12 26 9 10 22 24 13 -1 -7 -2 -5 -15 16 -9 -18 19 -8 -10 -13 -4 -24 25 -6 27 -3 29 -29
right_child=1 4 7 5 8 11 18 15 20 -11 -12 21 -14 14 -16 -17 17 -19 -20 -21 -22 -23 23 -25 -26 -27 -28 28 -30 -31
leaf_value=0.053377188852028495 -0.045747482178137004 0.062563267629604249 -0.12290215827187563 -0.064660985638033575 0.0035717673242863382 -0.053101007570398456 0.082106484826722489 -0.021287209657096805 0.026246067532428113 -0.079941511065926091 0.097201090394489015 -0.040005488035172704 -0.0096421350955840871 -0.011155965519823724 -0.063783570815087384 -0.0083031732899654723 -0.012893945202313822 -0.12868092422873736 0.036026868086555426 -0.012114237798374377 0.037063009294076819 0.042395403758553496 0.029142976623211022 -0.030724128418942349 0.017797318315748753 -0.061490013669803001 0.0069477441797003454 -0.034744378846836795 -0.058557613611809792 -0.0029091773763517056
leaf_weight=3848.6270143757247 146.90403299610716 23.580899439752102 13.981908886371455 547.01387758110741 238.78258132649353 2675.2122343928941 16.237421344150789 512.78782543258058 4862.7544256160036 1113.4799007646498 133.50757731520571 1546.7583309682404 798.21494311184779 133.01091609684136 101.61782066676187 1611.7585094182396 24.712492528400617 33.844039879310003 445.55675262698787 114.42943483374256 1349.7464704873855 18.003305385045678 36.059902983317443 1894.5700924635003 1804.962829926706 34.327988962410018 725.33837558124651 180.60176936764401 51.952764814312104 802.64576634153491
leaf_count=147161 58044 404 5407 406182 5694 1725538 1553 96320 22657 1014615 294 656614 135223 61800 73617 123773 1355 2972 23820 15104 4397 5410 2133 308834 29873 1168 29282 8497 3699 28560
internal_value=0 -0.0110139 -0.0390605 -0.0494248 0.0201874 -0.0546888 0.0514231 -0.0212827 0.0251514 -0.0698367 0.0548465 -0.0479182 -0.0152541 -0.0554421 -0.033949 -0.0132711 -0.0272857 -0.0798156 0.0277652 -0.000405824 0.0285962 -0.0390574 -0.0302768 -0.0296059 0.014853 -0.00460602 -0.00287952 -0.00961187 -0.011256 -0.00875663
internal_weight=0 21282.6 11207.9 7080.22 10074.7 6135.1 4558.36 4127.71 8290.57 1895.12 3982.13 4239.97 945.119 781.643 234.629 2183.1 571.344 58.5565 576.224 130.667 6212.5 1564.76 1944.61 1930.63 2078.07 273.111 1784.12 1058.78 1035.2 983.248
internal_count=5000000 4812068 4677837 4137043 134231 3943776 187932 540794 63789 1556214 147455 2387562 193267 541599 135417 224420 100647 4327 40477 16657 27054 662024 316374 310967 36735 6862 70442 41160 40756 37057
is_linear=0
shrinkage=0.1


Tree=20
num_leaves=31
num_cat=0
split_feature=1 3 1 2 2 0 0 1 2 0 3 1 2 3 2 2 2 1 0 0 0 0 0 0 0 0 1 1 1 0
split_gain=1365.68 1617.81 145.745 222.648 108.069 45.6368 43.138 39.4879 41.5613 24.328 23.648 22.4598 21.2841 18.5371 18.1416 17.3088 16.3655 13.8512 12.9651 12.6661 12.295 12.1342 12.1206 12.0828 12.8424 11.8667 11.0578 17.755 15.5781 11.7781
threshold=0.0012378407578255532 0.036812925905613227 0.0017150448674600239 0.0058742468746459482 0.058326512262942352 0.033550904440813344 0.01178637970083924 0.0024350051988888187 0.0024553762722719242 0.0058133448133738776 0.033908914653496998 0.025136394201232311 0.031399662983777617 0.009070405480439277 0.0011326219741127365 0.011778362055018631 0.0018743282483702651 0.0027376708813338256 0.094673372055278385 0.0020473197505688919 0.0043180635905967534 0.04297087946957364 0.13000315803777987 0.0052226265926013501 0.0790259648878298 0.11794038760239801 0.012541457923860669 0.014163795865840909 0.0030301776176417856 0.02055239866376532
decision_type=2 2 2 2 2 2 2 2 2 2 2 2 2 2 2 2 2 2 2 2 2 2 2 2 2 2 2 2 2 2
left_child=10 2 16 7 6 13 9 14 -9 19 -1 23 26 -5 18 -7 -2 -11 -4 -3 -16 -22 -14 -6 -25 -10 28 -28 29 -8
right_child=1 4 3 5 11 15 12 8 25 17 -12 -13 22 -15 20 -17 -18 -19 -20 -21 21 -23 -24 24 -26 -27 27 -29 -30 -31
leaf_value=0.050818977970493243 -0.0059543003779060685 -0.21721860031896659 -0.069257059164924903 -0.051236900948879532 0.051131107943051257 -0.027739494463186649 0.072845354915522548 -0.07693934858719359 -0.054312457304450314 0.0037676671741090164 0.092576959700693212 0.027020982110966419 0.010359416290223697 -0.03030161128115072 -0.054476167511453039 -0.0077995262635235686 0.024345392463328019 -0.14124540643616576 0.14183938728665205 -0.0062297937115291489 -0.015120095513487024 -0.070251373252885246 0.042112157301842632 -0.024057534961361021 0.062703130165173745 0.029379399167100265 0.062595921531625631 -0.0028028110453396076 -0.039796521172006008 -0.047595179191482748
leaf_weight=4041.3921056465661 555.06272377095047 2.9993146444612639 157.12287824229634 492.56927222520062 32.125579312210903 644.36383730029956 24.356450867053354 1063.5167682609704 2874.1001067535763 8.0328887699288298 140.32654682337306 6449.4296050364501 1983.0049405486498 2992.2413932478685 133.02763319480528 1341.9238914277048 262.59150691184914 36.587763524919865 2.9643557098097508 55.396332517651899 438.57081293990905 43.920201419054138 127.97379505605204 168.12256513611646 18.987613141536713 17.042471174432649 43.269638333527837 1022.4017430265376 157.1494068691245 12.179815326788228
leaf_count=167335 83913 417 107674 309273 602 194915 367 1017504 2004034 283 387 32254 44028 573735 86886 133772 14773 3671 566 3406 140767 24845 1644 4753 352 7772 941 29238 9034 859
internal_value=0 -0.0103195 -0.0368463 -0.0401023 0.0185012 -0.0263655 0.00419804 -0.0559905 -0.0600368 -0.0595459 0.0522203 0.025951 0.00614642 -0.0332608 -0.0353594 -0.0142682 0.00377651 -0.115139 -0.0653482 -0.0170666 -0.0275597 -0.0201386 0.0122844 -0.00552563 -0.0152532 -0.0538191 -0.00414223 -0.000147415 -0.0261219 0.032695
internal_weight=0 21161 11019 10201.4 10142 5471.1 3473.35 4730.27 3954.66 103.016 4181.72 6668.67 3370.34 3484.81 775.606 1986.29 817.654 44.6207 160.087 58.3956 615.519 482.491 2110.98 219.236 187.11 2891.14 1259.36 1065.67 193.686 36.5363
internal_count=5000000 4832278 4700429 4601743 131849 1211695 93888 3390048 3029310 7777 167722 37961 86111 883008 360738 328687 98686 3954 108240 3823 252498 165612 45672 5707 5105 2011806 40439 30179 10260 1226
is_linear=0
shrinkage=0.1


Tree=21
num_leaves=31
num_cat=0
split_feature=1 2 1 2 1 1 2 2 2 3 0 2 3 2 2 0 1 3 1 3 1 0 0 0 2 2 0 0 2 0
split_gain=1272.15 1444.8 140.623 180.007 114.152 36.6778 39.6702 36.1633 31.9026 22.1766 17.7349 15.6656 15.0695 14.8848 15.4204 12.1376 12.1185 14.5413 14.4139 14.7927 15.2346 12.3238 11.9768 17.8926 19.315 16.4383 35.7206 17.5531 14.1402 13.131
threshold=0.0012378407578255532 0.023437291454934634 0.0017150448674600239 0.0058742468746459482 0.040638748096515645 0.0024350051988888187 0.0024105802397402644 0.015844732101309354 0.058326512262942352 0.033908914653496998 0.02511010619922819 0.0011326219741127365 0.029489636780783899 0.0047421925730309865 0.0044123747291309832 0.0080615217875920613 0.011328664784814898 0.052020000025035935 0.0031570573238346874 0.040382073847810007 0.010749868177560381 0.13000315803777987 0.0155863024906373 0.027965098704991288 0.010216806813495441 1.0000000180025095e-35 0.04896620429987697 0.034841145144138767 0.016497789881771713 0.03618533867362763
decision_type=2 2 2 2 2 2 2 2 2 2 2 2 2 2 2 2 2 2 2 2 2 2 2 2 2 2 2 2 2 2
left_child=9 2 13 5 12 11 -7 10 -6 22 -5 -4 -3 14 -2 -8 18 21 -14 -20 -21 -18 -1 -24 25 26 27 -25 -26 -29
right_child=1 4 3 7 8 6 15 -9 -10 -11 -12 -13 16 -15 -16 -17 17 -19 19 20 -22 -23 23 24 28 -27 -28 29 -30 -31
leaf_value=0.046714529990755066 0.00013245229988405953 -0.024892972397144053 -0.062606710900093718 -0.038106617665223226 0.010582578847141286 -0.075453919324674823 -0.060535470505546168 -0.014187266272771587 0.025339310320972558 0.090793593827655089 -0.023812264503501351 -0.026602792364018215 0.021302097073740915 0.043300871353427098 -0.2287739562647973 -0.04692830987369713 -0.0068855141454992486 0.017042138461284159 -0.1670773633551321 -0.021194925824783932 -0.17709557669875625 0.053830266291303421 0.075663193447167459 0.02315356061011738 -0.32917176696181427 0.068825053806038303 0.061361582287869913 -0.28714026071357968 0.046702860708711394 -0.051699147164827486
leaf_weight=3127.6468836553686 728.62707769002736 311.57811004060568 151.08180099324181 2115.7942234040011 1906.3378591735454 964.29754979548079 1039.2448659896395 1605.8783284825531 6328.4679303494049 134.85413362213876 1471.6885020519094 603.94733286826158 71.556576287839562 85.509173362472211 2.9548714815173289 1775.4914488325003 848.10136854332814 486.28131981438491 7.5842409689794286 239.24737108931004 6.4367165293660937 34.802292812019004 394.59209375025239 46.538337731501088 2.3595048210117957 207.30498469359009 141.13492698711343 2.5161934202769762 1.7381214713677762 40.44784244443872
leaf_count=140373 95229 22863 108240 746571 35047 985259 941625 134667 30843 387 308529 252498 1943 3124 452 1102426 38728 11112 1073 10404 524 1121 10163 658 134 8815 5136 96 15 1945
internal_value=0 -0.0100411 -0.0360232 -0.0393702 0.0167127 -0.053929 -0.0579492 -0.0266596 0.0219232 0.0509139 -0.0322427 -0.0338072 -0.00468123 0.00382226 -0.000792104 -0.0519523 -0.0009637 0.00315595 -0.0183286 -0.0295256 -0.0252794 -0.00449222 0.0495573 0.0601848 0.0463679 0.0483898 0.0300219 -0.0193972 -0.169734 -0.0654878
internal_weight=0 20784.9 10544.5 9727.42 10240.4 4534.06 3779.03 5193.36 8234.81 4099.13 3587.48 755.029 2005.59 817.091 731.582 2814.74 1694.01 1369.18 324.825 253.268 245.684 882.904 3964.28 836.632 442.04 437.942 230.637 89.5024 4.09763 42.964
internal_count=5000000 4832278 4678620 4579815 153658 3390048 3029310 1189767 65890 167722 1055100 360738 87768 98805 95681 2044051 64905 50961 13944 12001 10928 39849 167335 26962 16799 16650 7835 2699 149 2041
is_linear=0
shrinkage=0.1


Tree=22
num_leaves=31
num_cat=0
split_feature=1 2 2 2 1 2 1 0 2 0 0 0 2 0 1 3 2 0 0 0 2 0 1 2 3 2 1 1 0 1
split_gain=1206.27 1353.54 119.555 98.2608 118.369 41.5644 36.9785 28.1877 25.6672 22.9528 18.9017 79.4352 45.5671 21.0463 18.4382 18.763 18.2633 17.1355 16.6792 16.3533 15.6339 14.7091 14.4967 13.9552 26.1747 13.6145 13.5895 36.5152 13.3885 12.6164
threshold=0.0013802543796536954 0.021731590617254434 0.042979658473761076 0.0063188523371835595 0.0021931643523143743 0.0022161098160552082 0.0010138270226908025 0.027126031968170327 0.0075557614924986064 0.017918156338210516 0.0155863024906373 0.020831475826895877 0.00087852700842023081 0.02055239866376532 0.011556054104067534 0.086586339066658496 0.0070003285416231397 0.01411980941125948 0.13000315803777987 0.0025828313729284514 0.001078919658188155 0.0039448775942948931 0.0036790304833005222 0.0007645201904938429 0.0010641140002740702 0.015844732101309354 0.0088950321821261221 0.0059276687816938933 0.0034370780063719395 1.0000000180025095e-35
decision_type=2 2 2 2 2 2 2 2 2 2 2 2 2 2 2 2 2 2 2 2 2 2 2 2 2 2 2 2 2 2
left_child=6 3 7 4 19 -6 8 26 10 -5 23 12 13 -12 -4 -16 -13 22 -9 -2 21 -21 -7 -1 -25 -11 27 28 -3 -10
right_child=1 2 14 9 5 17 -8 18 29 25 11 16 -14 -15 15 -17 -18 -19 -20 20 -22 -23 -24 24 -26 -27 -28 -29 -30 -31
leaf_value=0.058835145610460597 -0.058582509504715989 0.064427101687598576 -0.012073419573942158 -0.036156287291838389 -0.073318299955473426 -0.04268699472959131 0.024143431701725015 0.0017426115204353344 0.09728597408293943 -0.026073877855138136 -0.037205464673565856 0.059167500679925933 0.045188742799492934 -0.27991293933199601 0.011335719666354976 0.024269511923137727 -0.34748388388005452 -0.040240999451896804 0.043438315846232638 -0.10814266833759577 -0.0056155727442556312 -0.026787160711087023 -0.061263788295661592 -0.0043998311758258954 0.049576604455224965 -0.01168304773880628 -0.013645543813171733 -0.18748187496329216 -0.046360474589803989 0.038841032687314841
leaf_weight=1792.2285237393189 83.67887613163748 13.982076083048012 163.25639445707202 1592.7773884200251 893.6798567074552 630.60482676149923 553.47431251952366 1809.4638576801553 174.19619088293985 1966.5597496725495 154.77277710844646 517.99663139411132 93.618888070835965 3.6572241270914665 1373.5400861306116 6115.8281750605674 1.1067825608770352 1328.9645772884587 101.31017452556989 25.348618949665251 733.4150882955164 180.262132005073 1258.2556839378713 100.67919281689683 834.54264255706221 987.51240435896398 823.65491007380479 16.87281943684502 49.616437014381518 46.874104363785591
leaf_count=108166 47674 368 5255 552966 948676 458496 40477 68700 485 403193 4038 16880 844 230 23381 29790 45 765081 2855 18353 163331 57857 1143508 3456 12937 79586 38599 1835 2564 374
internal_value=0 -0.0102349 0.0146911 -0.0371859 -0.0466667 -0.0542395 0.0482594 -0.00293014 0.0518478 -0.0264803 0.0497597 0.0359364 -0.0101233 -0.0428082 0.0211728 0.0218975 0.0583005 -0.0489408 0.00395334 -0.0162223 -0.0124475 -0.036817 -0.0550618 0.053668 0.0437659 -0.0212632 -0.0174776 -0.0567005 -0.0220039 0.0848937
internal_weight=0 20148.6 10467.5 9681.06 5134.21 4111.5 4273.15 2814.9 3719.67 4546.85 3498.6 771.152 252.049 158.43 7652.62 7489.37 519.103 3217.83 1910.77 1022.7 939.026 205.611 1888.86 2727.45 935.222 2954.07 904.126 80.4713 63.5985 221.07
internal_count=5000000 4812068 173347 4638721 3602976 3315761 187932 114921 147455 1035745 146596 22037 5112 4268 58426 53171 16925 2367085 71555 287215 239541 76210 1602004 124559 16393 482779 43366 4767 2932 859
is_linear=0
shrinkage=0.1


Tree=23
num_leaves=31
num_cat=0
split_feature=1 2 1 2 1 2 1 2 3 2 0 0 1 1 0 0 2 2 3 0 0 1 3 0 0 3 2 1 0 1
split_gain=1122.43 1174.85 115.037 154.228 86.3897 36.2119 30.992 38.7767 25.9641 21.4714 17.7546 16.1393 15.3522 15.2399 14.8146 33.5206 14.1019 13.9334 12.8942 13.9847 13.6944 11.6709 10.9825 10.4244 10.3216 9.89909 9.62334 9.6114 14.2875 10.016
threshold=0.0012378407578255532 0.02546586610325614 0.0017150448674600239 0.0058742468746459482 0.048115411193819652 0.013203441202915079 0.002541554247047011 0.0028389286392626572 0.011023144272185046 0.09693867576469288 0.017101901371212945 0.028821272109643813 0.0010138270226908025 0.029437523188840544 0.0047060033913901332 0.0036323391876042698 0.0011326219741127365 0.0032511962629810753 0.029489636780783899 0.033550904440813344 0.014939991541903378 1.0000000180025095e-35 0.0066698257039623588 0.094673372055278385 0.033550904440813344 0.0012999805779041905 0.0012780557319823341 0.02709121065962565 0.027965098704991288 0.0031766434247739307
decision_type=2 2 2 2 2 2 2 2 2 2 2 2 2 2 2 2 2 2 2 2 2 2 2 2 2 2 2 2 2 2
left_child=8 2 17 6 18 13 16 10 12 -6 -8 -7 -1 24 15 -14 23 22 20 -20 -3 -10 25 -4 27 26 -2 29 -29 -5
right_child=1 4 3 5 9 11 7 -9 21 -11 -12 -13 14 -15 -16 -17 -18 -19 19 -21 -22 -23 -24 -25 -26 -27 -28 28 -30 -31
leaf_value=0.048230407228780303 0.051648489309396528 -0.12689331630482176 -0.064039842983747416 -0.0059215080439095182 0.014210480333342324 -0.024466507140934367 -0.075619008210453406 -0.046691896328469561 0.085521654322646939 0.025037043871713835 -0.045677718374622284 -0.0087929314125877248 0.0087920743598245109 -0.074661983998794937 0.037665889919102691 -0.2059048290256188 -0.026537683704400346 0.032636907829162849 -0.0096617144624262276 0.0074852126961509032 -0.020353670067482486 0.045098274071048668 -0.19883996994319322 0.11543718414230764 -0.021137680891505483 -0.0050304988344950299 -0.16288017028665977 0.029177375958880748 -0.23648002165958426 -0.037871356672920409
leaf_weight=3297.6972147240631 46.219244463214636 13.029623557034936 150.01152904403034 103.72260164491991 3125.4050237959746 1263.6235623070243 920.53617754735387 2216.0528198690067 263.27948488392576 4425.7229633123789 252.33649078535791 1368.4423206159809 61.613439428867423 83.963607492267329 180.99606395048613 8.2452719720604346 667.6388859599906 136.61779317595938 841.43279860099574 1094.1306770181691 162.92883551254636 98.01228606980294 2.8348043564183163 3.3075367749315765 717.86191212472477 612.42506745592073 2.1900865770003284 36.292223044132697 2.1440717042423776 1816.6267533009
leaf_count=145774 4622 1644 123828 16591 36598 136945 1021807 1692844 1050 15447 240230 113901 6961 7145 10492 2226 310685 6054 30347 39242 10992 1219 383 654 216179 86984 782 1989 240 716145
internal_value=0 -0.00955107 -0.0328716 -0.0359074 0.0155559 -0.0247099 -0.0502509 -0.0544739 0.0490165 0.0205559 -0.0691773 -0.0163176 0.0464163 -0.0327113 0.0225682 -0.0165481 -0.0328184 0.00355465 -0.00232508 3.10594e-05 -0.0282429 0.0745555 -0.002432 -0.060168 -0.0313954 -0.00158946 0.041943 -0.0351547 0.0143583 -0.0361457
internal_weight=0 20065.5 10402.8 9602.56 9662.65 5392.68 4209.88 3388.93 3909.84 7551.13 1172.87 2632.07 3548.55 2760.61 250.855 69.8587 820.958 800.287 2111.52 1935.56 175.958 361.292 663.669 153.319 2676.65 660.834 48.4093 1958.79 38.4363 1920.35
internal_count=5000000 4832278 4698008 4599183 134270 1209135 3390048 2954881 167722 52045 1262037 250846 165453 958289 19679 9187 435167 98825 82225 69589 12636 2269 92771 124482 951144 92388 5404 734965 2229 732736
is_linear=0
shrinkage=0.1


Tree=24
num_leaves=31
num_cat=0
split_feature=1 2 1 2 1 1 2 2 3 2 0 3 1 0 0 2 2 1 1 0 3 0 3 1 0 0 1 3 0 1
split_gain=1049.74 1064.34 102.146 133.805 85.141 28.8169 36.935 28.3683 23.7504 17.0145 16.0406 14.9231 16.168 12.6013 12.5932 12.506 12.0845 11.8057 11.5466 12.6472 14.9299 11.3393 15.5244 10.8933 10.3357 15.9765 11.301 22.6101 10.835 16.0325
threshold=0.0012378407578255532 0.02546586610325614 0.0017150448674600239 0.0063188523371835595 0.048115411193819652 0.0023181490526405827 0.0024105802397402644 0.011778362055018631 0.014747577236518422 0.09693867576469288 0.037356769563649035 0.020164109167230663 0.0080215735811945566 0.012534192290142099 0.01411980941125948 0.0011574217427841331 0.0082428192385024281 0.0010138270226908025 0.0046050536370562962 0.023656888390713591 0.040382073847810007 0.033550904440813344 0.027836892578455733 1.0000000180025095e-35 0.065316162467704331 0.062125259257861214 0.10918615928805299 0.16260650549916836 0.060714314090827289 0.10918615928805299
decision_type=2 2 2 2 2 2 2 2 2 2 2 2 2 2 2 2 2 2 2 2 2 2 2 2 2 2 2 2 2 2
left_child=8 2 16 5 21 15 13 -5 17 -6 11 -9 18 -7 -8 -4 -2 -1 -13 20 -20 -3 -23 -10 25 28 -27 -28 -11 -30
right_child=1 4 3 7 9 6 14 10 23 24 -12 12 -14 -15 -16 -17 -18 -19 19 -21 -22 22 -24 -25 -26 26 27 -29 29 -31
leaf_value=0.047453723722689994 -0.00022717617779266326 -0.011461582101659099 -0.05685548673545953 -0.032684065818656523 0.013948894427582887 -0.076734265113300115 -0.051126743603689809 -0.038623405707288186 0.089531543628811688 0.020882952036117744 -0.0086776927944261402 -0.02266319210582847 -0.013361123059344679 -0.051182668773397957 -0.037554511594825896 -0.020477283111660926 0.056510514036250327 0.025041297613200942 -0.13118216295181559 -0.0061607447103135737 -0.029439354703753508 -0.058011965401958659 0.0055299709544990739 0.044128376714363732 0.030548958432763847 0.048984799631623679 -0.091237457761362051 0.0017047870239614686 -0.062279174117334163 0.069499554751533937
leaf_weight=3299.9608563783731 756.78220969865288 922.33711325391778 117.10861659391503 2084.409301867724 3077.3976921377034 613.63680055871237 1609.2154144394649 480.09159155902944 190.75764098047512 2681.3569409536431 1222.2429593655434 103.0948281867677 1103.6950214574063 281.5755103429974 1188.6157426856489 489.5073073903659 39.498533762613079 253.04737101431238 40.670593021255627 21.423071243407321 22.348022676393157 39.804479724334669 1129.7237822210373 73.089738136681262 1451.7704241763568 27.62570850213524 34.592695929226466 107.55517312698066 10.357329928199759 84.997270195395686
leaf_count=146368 97783 35921 94403 746670 36598 763038 1475060 107687 658 9769 123235 8639 76066 284103 718582 190573 1042 19887 8178 1416 1533 4007 42297 809 4502 169 254 396 112 245
internal_value=0 -0.00928181 -0.0317986 -0.0347184 0.0146622 -0.0476997 -0.0510177 -0.0237268 0.0480071 0.0196523 -0.0174899 -0.0235705 -0.0179737 -0.0686974 -0.0453608 -0.0275002 0.00258723 0.0458575 -0.0451198 -0.072537 -0.0951015 -0.00317097 0.00336734 0.0769542 0.0236429 0.0202402 -0.00953948 -0.0209134 0.0220609 0.0551859
internal_weight=0 19741.4 10173.9 9377.63 9567.52 4299.66 3693.04 5077.98 3816.86 7475.65 2993.57 1771.32 1291.23 895.212 2797.83 606.616 796.281 3553.01 187.537 84.4417 63.0186 2091.87 1169.53 263.847 4398.26 2946.49 169.774 142.148 2776.71 95.3546
internal_count=5000000 4832278 4698008 4599183 134270 3525759 3240783 1073424 167722 52045 326754 203519 95832 1047141 2193642 284976 98825 166255 19766 11127 9711 82225 46304 1467 15447 10945 819 650 10126 357
is_linear=0
shrinkage=0.1


Tree=25
num_leaves=31
num_cat=0
split_feature=1 2 2 1 2 3 1 2 2 1 0 1 1 3 0 0 0 2 1 1 1 2 0 0 0 3 1 1 0 0
split_gain=970.966 983.879 135.976 132.114 45.6561 38.3294 30.2367 23.9179 23.7194 21.4196 20.637 17.6964 16.8851 15.8869 15.7923 15.3215 14.1052 13.9436 13.1645 17.3404 15.6726 13.3189 13.6716 12.9278 12.846 19.8826 15.9495 12.6864 12.0209 16.5841
threshold=0.0012378407578255532 0.035997165541660131 0.011778362055018631 0.0019207362071499295 0.0035303121092787556 0.052020000025035935 0.0034638365484992079 0.0036396157218586468 0.0012545486955983654 0.011328664784814898 0.037356769563649035 1.0000000180025095e-35 0.0014898586936821611 0.020854562968428459 0.0032425037638057069 0.10898645606786847 0.0038620332892186 0.0021291768755586416 0.0031362810920119578 0.0053293120798745168 0.0056436745090333151 0.058326512262942352 0.01178637970083924 0.0019662823505387918 0.02511010619922819 0.027836892578455733 0.02709121065962565 0.025136394201232311 0.034841145144138767 0.032207790081077249
decision_type=2 2 2 2 2 2 2 2 2 2 2 2 2 2 2 2 2 2 2 2 2 2 2 2 2 2 2 2 2 2
left_child=7 2 3 12 6 -3 8 -1 -5 18 13 14 -2 -4 -9 -8 -10 -14 -7 21 -21 -20 -23 -15 25 26 27 -6 29 -11
right_child=1 5 10 4 24 9 15 11 16 28 -12 -13 17 23 -16 -17 -18 -19 19 20 -22 22 -24 -25 -26 -27 -28 -29 -30 -31
leaf_value=0.043706039506047831 0.012287862890306514 -0.0086237128335478665 -0.035932375212206512 -0.071862742079300004 -0.03912587377861855 0.03137520927284753 -0.069159981894202444 0.0070256715738022425 -0.061154821267448693 0.020278289344072484 -0.0065814981626998482 0.037505590871129021 -0.02356280581008207 -0.19080780925379179 0.086929031926296613 0.08880689864104073 -0.03051361113370625 0.0081203058433981685 -0.18272576606294566 0.084303797837967737 -0.023856853518668064 -0.0032177837259916896 -0.14449058871762802 -0.015702553385838935 -0.02698628872439944 -0.14803528647667916 0.061415210368620535 -0.14934110830032202 0.022890303211351833 0.00069058450894355706
leaf_weight=3263.6892716861439 399.55904749697311 513.82841232746796 514.33759836995887 239.44122713817546 2673.2176525044983 48.447116378840292 895.19088539042855 26.93093240482267 187.58752729697426 1289.1939823386638 1991.8004614624551 135.56610611762153 451.59565864354317 4.2257604722981332 303.36833499663044 6.1824152877870793 754.46416469968972 200.61171965139874 10.232621864415703 15.931895941495894 84.194817319046706 20.275683975050928 10.345345032576004 1874.0878680037731 1137.7867378379392 16.818231420249504 15.735775295863276 10.484663568367976 5395.3662722074077 650.25846359919524
leaf_count=163904 40601 18197 114827 273712 1621706 986 1057231 324 215031 11004 154469 2206 116921 943 1288 5502 577547 17429 835 235 3525 485 570 113961 439890 2944 505 1777 38585 2860
internal_value=0 -0.00897874 -0.0279057 -0.0365663 -0.0423534 0.0178011 -0.0542822 0.0467316 -0.0437584 0.0196057 -0.0141009 0.0679278 -0.00390021 -0.0203605 0.0804141 -0.0680765 -0.0366151 -0.0138174 -0.0135951 -0.0290488 -0.00664662 -0.0839536 -0.0509469 -0.0160965 -0.0359066 -0.0396432 -0.0389679 -0.0395565 0.0204631 0.0137109
internal_weight=0 19411.2 11373.1 6988.68 5936.91 8038.07 2082.87 3729.55 1181.49 7524.25 4384.45 465.865 1051.77 2392.65 330.299 901.373 942.052 652.207 189.427 140.98 100.127 40.8537 30.621 1878.31 3854.04 2716.26 2699.44 2683.7 7334.82 1939.45
internal_count=5000000 4832278 4754996 4370796 4195845 77282 2129023 167722 1066290 59085 384200 3818 174951 229731 1612 1062733 792578 134350 6636 5650 3760 1890 1055 114904 2066822 1626932 1623988 1623483 52449 13864
is_linear=0
shrinkage=0.1


Tree=26
num_leaves=31
num_cat=0
split_feature=1 2 2 1 1 2 1 2 2 0 1 1 3 3 0 3 0 0 0 0 0 0 3 0 1 0 3 1 0 0
split_gain=898.45 900.221 116.27 119.875 42.8199 40.5202 28.5324 24.3434 21.6994 20.8361 16.6222 15.258 15.1613 17.1166 15.0283 13.6618 13.3999 12.3015 14.7004 21.6082 31.5015 12.2328 11.5913 11.473 11.2756 11.2685 13.4189 13.5286 12.1651 10.8295
threshold=0.0012378407578255532 0.035997165541660131 0.011778362055018631 0.0019207362071499295 0.10918615928805299 0.0035303121092787556 0.0034638365484992079 0.0036396157218586468 0.0012545486955983654 0.037356769563649035 1.0000000180025095e-35 0.0014898586936821611 0.052020000025035935 0.16260650549916836 0.01411980941125948 0.020164109167230663 0.012936240598889854 0.05939356490275273 0.017101901371212945 0.020831475826895877 0.022434220995148375 0.0038620332892186 0.0067266250258175087 0.0082914457504198024 0.0010138270226908025 0.02511010619922819 0.027836892578455733 0.02709121065962565 0.01972738077499011 0.0055464358179278701
decision_type=2 2 2 2 2 2 2 2 2 2 2 2 2 2 2 2 2 2 2 2 2 2 2 2 2 2 2 2 2 2
left_child=7 2 3 11 12 6 8 24 -5 15 23 -2 -3 -14 -6 -4 -8 18 -16 -20 -21 -10 -12 -9 -1 26 27 -7 -29 -15
right_child=1 4 9 5 14 25 16 10 21 -11 22 -13 13 29 17 -17 -18 -19 19 20 -22 -23 -24 -25 -26 -27 -28 28 -30 -31
leaf_value=0.044054078380175013 0.011538483480390632 -0.0079806894891921547 -0.036046189016071865 -0.069786808047269056 -0.086130164749834454 -0.038270104178603721 -0.076336831883606543 0.054072442877452137 -0.058743812632595482 -0.0066046485453718261 -0.22837566833769257 -0.013404752966592173 0.013911677119228659 0.041888730201926044 0.063626572625930869 -0.016810282364975736 -0.05078201177472931 0.02921847690759893 -0.0096498810849749254 0.083214628266483126 0.018646694480714716 -0.029505773314115816 0.040652972686039492 0.093751841507536432 0.021089503740801638 -0.026274170079824133 -0.13455989419744149 0.080689283772922504 -0.23221423772693145 -0.018281004811057416
leaf_weight=2969.7601011963598 396.10202672228934 505.35257424747761 457.73950888436684 225.2082995548451 12.601870027719995 2626.7077890329297 513.1071538747301 113.15091628112714 177.32596390171898 1967.6470898128937 1.6215502096456464 643.90491054537142 2281.1825907918246 33.704058443603572 71.851531410589814 1909.2045213157999 341.92619909637165 2000.1384043900762 259.60472018679138 77.996184386429377 2420.0407877863618 741.31642158037971 129.67986270348774 204.69286747369915 230.39476252494205 1119.1195368504145 14.384538690112093 14.604800219865863 1.3580236389680056 265.8898714070674
leaf_count=144754 40601 18197 107715 273712 97 1623483 731087 760 215031 154469 166 134350 34088 636 149 122016 331646 7159 1062 173 10164 577547 2040 852 19150 439890 2944 336 169 5557
internal_value=0 -0.00869583 -0.0270134 -0.0351575 0.0170642 -0.0407857 -0.0522988 0.0454605 -0.0419692 -0.0142089 0.0672616 -0.00390475 0.00785874 0.0109603 0.0229312 -0.0205303 -0.0661175 0.0232158 0.0189725 0.0178091 0.0206627 -0.0351496 0.0373305 0.0796262 0.0424007 -0.0346914 -0.0382366 -0.0377123 0.0540693 -0.011512
internal_weight=0 19078 11149.7 6815.07 7928.36 5775.06 1998.88 3649.3 1143.85 4334.59 449.145 1040.01 3086.13 2580.78 4842.23 2366.94 855.033 4829.63 2829.49 2757.64 2498.04 918.642 131.301 317.844 3200.15 3776.17 2657.06 2642.67 15.9628 299.594
internal_count=5000000 4832278 4754996 4370796 77282 4195845 2129023 167722 1066290 384200 3818 174951 58478 40281 18804 229731 1062733 18707 11548 11399 10337 792578 2206 1612 163904 2066822 1626932 1623988 505 6193
is_linear=0
shrinkage=0.1


Tree=27
num_leaves=31
num_cat=0
split_feature=1 2 2 1 1 2 2 1 2 1 0 0 0 3 1 3 0 1 3 3 2 0 0 0 0 3 0 0 1 0
split_gain=832.121 827.477 96.5474 104.077 40.6873 37.5114 25.2012 20.2274 25.4992 18.2456 14.8033 37.2044 14.716 13.8814 13.537 13.0275 11.6653 11.3257 10.6441 10.6276 13.3855 10.486 14.9399 10.4486 13.8366 10.3291 10.3146 17.6067 14.0737 11.7406
threshold=0.0012378407578255532 0.035997165541660131 0.013203441202915079 0.0018260687329445635 0.10918615928805299 0.0046262441880374041 0.0036396157218586468 0.0026414912644200481 0.0018093651589150212 0.02709121065962565 0.056468107371993807 0.055675898457980821 0.003700424894238771 0.052020000025035935 1.0000000180025095e-35 0.031570885143178497 0.015242409527312836 0.0010138270226908025 0.16260650549916836 0.0010641140002740702 0.00084178927397752341 0.04896620429987697 0.048259953452829518 0.02452806569945239 0.022089314899547918 0.0060485468577747914 0.083837444117730656 0.063679341228042294 0.012018018997599937 0.056468107371993807
decision_type=2 2 2 2 2 2 2 2 2 2 2 2 2 2 2 2 2 2 2 2 2 2 2 2 2 2 2 2 2 2
