tree
version=v3
num_class=1
num_tree_per_iteration=1
label_index=0
max_feature_idx=3
objective=lambdarank
feature_names=Column_0 Column_1 Column_2 Column_3
feature_infos=[4:28137] [0.00028266185766148726:0.27859593851815917] [0.00028266185766148726:0.21559646015393802] [0.00028266185766148726:0.27859593851815917]
tree_sizes=3561 3569 3548 3514 3559 3561 3546 3561 3547 3534 3550 3531 3521 3507 3532 3540 3541 3540 3526 3519 3531 3548 3528 3543 3547 3539 3564 3580 3560 3550 3577 3516 3550 3525 3528 3549 3536 3542 3565 3542 3531 3529 3540 3521 3484 3520 3507 3527 3483 3525 3530 3493 3514 3534 3555 3503 3510 3493 3504 3512 3514 3515 3546 3547 3534 3530 3508 3476 3521 3528 3505 3526 3538 3512 3516 3501 3521 3495 3528 3526 3505 3524 3518 3516 3508 3496 3486 3503 3491 3529 3542 3490 3481 3496 3501 3554 3507 3535 3532 3486

Tree=0
num_leaves=31
num_cat=0
split_feature=1 3 1 1 3 3 2 1 2 1 1 1 2 1 2 3 3 2 3 2 1 3 2 1 0 0 3 3 2 1
split_gain=31541.9 4084.34 1145.57 488.26 374.853 270.387 247.775 531.012 167.736 117.274 144.204 110.972 110.432 139.186 85.2057 82.6108 71.9422 55.0817 68.715 83.4204 54.3242 52.6464 51.9536 50.3907 56.4129 218.862 47.1829 44.7781 44.48 41.5596
threshold=0.012470736255887857 0.026590206037606846 0.086747752017407712 0.01305619251850265 0.017894091098471825 0.12310704454373696 0.054513976191934099 0.040370901134981936 0.019392747338663145 0.048204682534834502 0.044706646027475441 0.014563791766971625 0.062190445545392721 0.073745371464330647 0.015545611407773248 0.031888836148065973 0.014835995407788294 0.01038800614264364 0.014287658618522584 0.012171209124133447 0.023542565832902599 0.048323224424657953 0.02829803192545375 0.013517379365671383 9141.0000000000018 7439.0000000000009 0.03484530367358072 0.14136409338933256 0.018655603439651419 0.014004862633189246
decision_type=2 2 2 2 2 2 2 2 2 2 2 2 2 2 2 2 2 2 2 2 2 2 2 2 2 2 2 2 2 2
left_child=17 3 6 16 11 -4 7 8 -3 10 -9 -5 -8 -14 -6 -10 -2 -1 19 -19 28 -11 -23 -17 25 -25 -26 -7 29 -16
right_child=1 2 5 4 14 27 12 9 15 21 -12 -13 13 -15 20 23 -18 18 -20 -21 -22 22 -24 24 26 -27 -28 -29 -30 -31
leaf_value=0.19582899119540847 -0.040161447896612947 -0.065337087863248849 0.037850453620750228 -0.1207872795173076 -0.1216720579802984 0.10172432868333539 0.025985494402072831 -0.059569378115718635 -0.02513000390546179 0.065144469024182666 -0.11880400957052457 -0.15232910637584951 -0.044537483112981759 0.036554081170532562 -0.016256142052853653 0.14057768013903532 0.053151213126870246 0.1640612026676751 0.19026379819668282 0.062650615461488215 -0.11352836387553054 -0.092732942516786016 -0.045266995074497766 -0.011087264448796208 0.035270592640521153 0.12550765050110921 -0.016222115921461458 0.17016581619276616 -0.066081008435985564 -0.10165641083620268
leaf_weight=4907.240454564424 408.82760422327556 434.81078483513556 588.40127944946289 1790.0935051704291 1080.5930489436723 154.67551422119141 822.42440189421177 837.55457267165184 699.91999585274607 38.241212729364634 806.95597076416016 2959.5274677276611 785.74095688760281 289.70232701301575 60.976711664348841 32.215960740111768 103.5506890937686 439.70007866492961 925.44051274692174 99.465237136930227 645.38779163360596 279.59943561349064 1315.7009224398062 308.33048922056332 250.12476383149624 189.32911515235901 616.67016551410779 250.26019287109375 1055.5953811865766 870.27263355255127
leaf_count=9127 33861 121787 194192 281848 389562 33922 249734 156628 231897 7080 198643 964625 163961 117292 5678 965 5085 4561 3157 4136 182421 76267 492261 82734 66618 17257 149243 17939 403576 333943
internal_value=0 -0.0687635 -0.0199418 -0.116094 -0.121833 0.0811318 -0.0329684 -0.0432165 -0.00881225 -0.0697844 -0.0886356 -0.140441 -0.00159865 -0.0226931 -0.0980285 0.0029104 -0.0213031 0.19075 0.173731 0.145353 -0.0883222 -0.0508066 -0.0535861 0.0169624 0.0140438 0.0408788 -0.00136324 0.144023 -0.0801345 -0.0960645
internal_weight=0 17675.5 8700.66 8974.82 8462.45 993.337 7707.32 5809.45 2531.4 3278.05 1644.51 4749.62 1897.87 1075.44 3712.83 2096.59 512.378 6371.85 1464.61 539.165 2632.23 1633.54 1595.3 1396.67 1364.45 497.66 866.795 404.936 1986.84 931.249
internal_count=5000000 4979019 2378420 2600599 2561653 246053 2132367 1601380 670501 930879 355271 1246473 530987 281253 1315180 548714 38946 20981 11854 8697 925618 575608 568528 316817 315852 99991 215861 51861 743197 339621
is_linear=0
shrinkage=0.1


Tree=1
num_leaves=31
num_cat=0
split_feature=1 1 1 1 2 1 1 1 2 1 3 2 2 2 1 2 3 3 3 1 2 0 3 3 3 3 2 2 0 3
split_gain=28466.7 4117.08 1021.36 867.543 1534.65 568.363 452.551 367.246 330.547 326.035 394.203 357.156 218.056 211.241 205.361 191.835 146.752 230.066 124.978 143.685 156.022 105.402 98.7773 129.037 105.548 94.9592 195.212 92.7437 88.1039 87.3215
threshold=0.012470736255887857 0.055986620624978882 0.070433794509781697 0.033229337579968515 0.054513976191934099 0.10843855730809711 0.012840362236035735 0.018759120971354664 0.048381259738487635 0.048204682534834502 0.048890298474551293 0.038226653157954864 0.056692778703979159 0.057710097375292417 0.013751417622175679 0.0072785807378375174 0.031888836148065973 0.028848904814221945 0.044105868534195285 0.020069341471786465 0.018966202926051234 12228.000000000002 0.12902002874917576 0.093360134380633578 0.073996324575863359 0.012641759700732925 0.01182332566735988 0.015942261780851143 27846.500000000004 0.04282146956332028
decision_type=2 2 2 2 2 2 2 2 2 2 2 2 2 2 2 2 2 2 2 2 2 2 2 2 2 2 2 2 2 2
left_child=15 3 13 6 8 22 -2 14 9 11 -11 29 -6 -3 -8 -1 17 27 19 -18 -21 -20 23 24 -4 26 -17 -9 -26 -5
right_child=1 2 5 4 12 -7 7 16 -10 10 -12 -13 -14 -15 -16 25 18 -19 21 20 -22 -23 -24 -25 28 -27 -28 -29 -30 -31
leaf_value=0.1734694973998073 0.045766793009750589 0.032809077732270923 0.01412359284129841 -0.0353190641487936 -0.14237385159922786 0.030037594492807358 -0.046127956912168366 -0.088090423753672986 0.042132841216134559 -0.12569393026455147 -0.010691492396688556 0.037913363867227615 -0.05983741602081525 0.087372369275729875 -0.10262663889782322 0.13971738377456228 -0.0011627047508108352 -0.01629499038979958 -0.083324973815900844 0.030193929524567745 -0.10855218131929412 0.04025310621616153 -0.10436015716940357 -0.00092210857809706852 -0.051860238850177237 0.16152261512359042 0.038903839209835617 -0.058962519744457237 0.093550167608726753 0.016583064405161361
leaf_weight=4939.7294223494828 294.24174118041992 1244.0678384043276 301.52869963645935 2415.3840015796013 1244.5163729321212 2412.1641998291016 717.89236831665039 1488.3106956332922 921.82522989623249 601.63960741925985 590.70744229387492 1148.010690940544 430.92978634079918 1651.3965704701841 6195.0076179504395 1930.1064211577177 150.07736763358116 1080.1786338984966 143.92952919378877 84.656227637082338 1901.7078464739025 132.60708911716938 179.65703749656677 1162.4893025755882 2129.196302967146 1664.1709280032665 213.3011853992939 4116.6796097718179 42.499850256368518 374.39921829849482
leaf_count=3475 20123 189232 53109 189126 54215 94109 116748 310739 313186 23836 122222 277584 24805 211260 1583150 7694 3023 144236 8740 9365 86685 11242 5689 118832 187226 4902 4910 758026 1539 60972
internal_value=0 -0.0423354 0.0148582 -0.0640466 -0.0364477 -0.00795683 -0.0771263 -0.0793847 -0.0129998 -0.0229065 -0.0687199 -0.00903437 -0.121145 0.0639287 -0.0967594 0.160468 -0.0661833 -0.0585531 -0.0873228 -0.0955107 -0.102639 -0.0240658 -0.0319778 -0.028401 -0.0413169 0.1436 0.129685 -0.0666969 -0.0490146 -0.0283536
internal_weight=0 33155.7 9123 24032.7 7727.41 6227.54 16305.3 16011 6051.97 5130.14 1192.35 3937.79 1675.45 2895.46 6912.9 8747.31 9098.15 6685.17 2412.98 2136.44 1986.36 276.537 3815.37 3635.71 2473.22 3807.58 2143.41 5604.99 2171.7 2789.78
internal_count=5000000 4979019 860996 4118023 1065946 460504 3052077 3031954 986926 673740 146058 527682 79020 400492 1699898 20981 1332056 1213001 119055 99073 96050 19982 366395 360706 241874 17506 12604 1068765 188765 250098
is_linear=0
shrinkage=0.1


Tree=2
num_leaves=31
num_cat=0
split_feature=1 3 2 2 1 1 3 1 1 1 3 2 1 2 3 2 3 0 0 0 3 2 0 0 0 0 0 0 0 0
split_gain=23839.1 2907.23 912.061 1510.42 872.983 456.026 344.78 352.065 341.803 277.381 210.53 148.478 121.36 115.064 112.902 110.355 112.246 107.742 115.44 130.141 100.707 164.081 93.2472 247.144 75.5328 71.746 130.819 127.719 78.4455 74.1363
threshold=0.012470736255887857 0.032302169620002506 0.062190445545392721 0.057710097375292417 0.059600322430727042 0.055986620624978882 0.021126095005856719 0.013517379365671383 0.039734823434151981 0.055986620624978882 0.037906336967504631 0.019392747338663145 0.057926399381171133 0.0067152577423387752 0.028848904814221945 0.025690389308773941 0.032763729834994322 10338.500000000002 8065.0000000000009 7955.0000000000009 0.057711637767220034 0.039803168835141983 14919.500000000002 15015.500000000002 7227.0000000000009 23222.000000000004 13387.000000000002 23558.000000000004 8985.0000000000018 7858.0000000000009
decision_type=2 2 2 2 2 2 2 2 2 2 2 2 2 2 2 2 2 2 2 2 2 2 2 2 2 2 2 2 2 2
left_child=13 6 3 8 5 -5 7 -2 10 11 15 -10 -7 -1 -8 25 -17 18 19 24 21 -11 -16 -24 -12 26 28 -27 29 -3
right_child=1 2 -4 4 -6 12 14 -9 9 20 17 -13 -14 -15 22 16 -18 -19 -20 -21 -22 -23 23 -25 -26 27 -28 -29 -30 -31
leaf_value=0.15934145726192347 -0.024677417584567388 -0.028437038238597823 0.022459119561028459 0.11293483155685671 -0.021819603215685653 -0.1667116094652468 -0.047404791288701995 -0.096709853596082335 -0.057386528017895122 -0.12103464258957275 -0.058680139153464664 0.029913769347147186 -0.11527255361162816 0.13612330986805535 -0.097264692341235581 0.08031963010313492 -0.0057693353848369657 -0.036860324625328164 -0.15326714153365462 0.075249602709167987 -0.0070489851976278679 -0.015428257493508526 0.14356158693432039 -0.066791462885186018 -0.16018744435553101 0.14023416137021755 -0.11128535206443464 -0.0321814794974093 0.021961150419393369 -0.14170974662515443
leaf_weight=4423.6484113668121 754.92286683153361 231.95465527800843 5025.8566284179688 74.002329111099243 1207.4226434230804 891.87964630126953 3971.6789605170488 6705.0309144854546 207.07879381021485 230.46470364928246 298.45229667425156 3290.5680526196957 944.24871826171875 4124.5874079773203 1045.8768066167831 171.64691131561995 1287.3152999356389 830.33431681990623 205.13431715965271 59.295837879180908 1711.2370462417603 406.83396020531654 58.908343553543091 1077.1241973638535 97.174333095550537 57.035064727067947 258.39072540402412 174.14252912998199 215.46369132399559 76.948337703943253
leaf_count=2761 94266 19139 490340 13373 65102 12567 783853 1880383 32972 10305 30581 815493 27726 18220 90623 11971 119756 75413 9816 476 200281 59127 416 81967 2950 631 24964 11379 10574 2575
internal_value=0 -0.0401162 -0.0136893 -0.0277433 -0.0883772 -0.130449 -0.0749666 -0.0894204 -0.00847321 0.00689618 -0.0311443 0.0247451 -0.140259 0.148139 -0.0574444 -0.0132516 0.00435903 -0.0608324 -0.0909887 -0.062906 -0.0196861 -0.0536184 -0.0757193 -0.0558837 -0.0836125 -0.0385918 -0.053048 0.0103561 -0.0243505 -0.0566535
internal_weight=0 31566.4 17952.9 12927 3117.55 1910.13 13613.5 7459.95 9809.47 5846.18 3963.29 3497.65 1836.13 8548.24 6153.59 2472.9 1458.96 1490.39 660.057 454.922 2348.54 637.299 2181.91 1136.03 395.627 1013.94 782.757 231.178 524.367 308.903
internal_count=5000000 4979019 2047511 1557171 118768 53666 2931508 1974649 1438403 1118178 320225 848465 40293 20981 956859 200989 131727 119236 43823 34007 269713 69432 173006 82383 33531 69262 57252 12010 32288 21714
is_linear=0
shrinkage=0.1


Tree=3
num_leaves=31
num_cat=0
split_feature=1 3 2 2 3 2 3 1 3 0 1 0 0 2 2 0 2 3 0 0 2 0 1 1 0 0 1 1 3 1
split_gain=20494.7 2510.44 976.803 1279.88 552.997 423.119 402.665 355.837 231.835 177.861 118.813 120.144 225.252 114.061 108.199 103.059 87.2863 85.571 89.2776 89.7951 78.6734 68.5211 66.4709 60.6368 60.3132 131.824 57.6139 66.2716 86.5712 70.1673
threshold=0.012470736255887857 0.027665477929968128 0.063120881544370983 0.057710097375292417 0.05939356490275273 0.040533635626569829 0.060481348653025901 0.01305619251850265 0.022176340603433663 26728.000000000004 0.070433794509781697 20650.500000000004 19878.000000000004 0.013934403133996012 0.0092232600460656362 19964.000000000004 0.061235169572778678 0.022335980774681501 8800.5000000000018 18994.000000000004 0.062190445545392721 26899.000000000004 0.059600322430727042 0.01305619251850265 18864.000000000004 8869.0000000000018 0.031790197878612432 0.032708752961925429 0.033256303356999688 0.033704019224340735
decision_type=2 2 2 2 2 2 2 2 2 2 2 2 2 2 2 2 2 2 2 2 2 2 2 2 2 2 2 2 2 2
left_child=14 7 3 5 -5 13 9 -2 -9 22 11 12 16 -3 -1 -14 -8 18 -10 24 -13 -11 -6 -15 25 -20 -25 -28 -29 -30
right_child=1 2 -4 4 6 -7 10 8 17 21 -12 20 15 23 -16 -17 -18 -19 19 -21 -22 -23 -24 26 -26 -27 27 28 29 -31
leaf_value=0.1454175838362449 0.00683365053319278 -0.10529577339322867 0.020931337347812176 0.099221096797219022 0.013739286096612225 0.010816752587999382 -0.094474456444015587 -0.08941937687690521 -0.16978019629541274 0.10209772997039378 0.024621347899963002 -0.1400269011044051 0.1395822728917013 0.11591374391678649 0.12089770806669242 -0.021578679203337316 -0.043666739928742461 -0.060009262182728985 0.1850737177185563 -0.10897721074448825 -0.018901890331733062 -0.099474147999624993 -0.17507944276027276 -0.038455328261745796 0.19328778230215807 -0.1061975517856083 0.012821360051074329 -0.1029553319636994 0.01608487922880962 -0.025978707024063942
leaf_weight=5907.9873957310338 493.56512483861297 186.10839298460633 5181.0383682250977 154.85375320911407 19.147668015211821 4292.9795951843262 1044.0419022049755 7424.1708483835682 21.732549319975078 33.164364274591208 117.95231577754021 398.91189137194306 67.951755383051932 29.949807319790125 2587.964235432446 95.368618488311768 500.09857749938965 2722.0676422119141 29.797989130020142 27.970542524009943 61.952121734619141 34.311756543815136 708.92189598083496 2725.8962543010712 37.825450778007507 32.469389917328954 534.56803703308105 135.97515758045483 437.99031273357105 4193.6740060709417
leaf_count=6707 39028 24054 472144 26808 3671 866950 34234 2091798 5777 144 12453 16508 582 576 14274 2765 23586 529938 230 6164 4378 694 11141 289485 125 6877 36420 15846 21835 434808
internal_value=0 -0.03692 -0.0167409 -0.0291146 -0.0851763 -0.0146413 -0.0944418 -0.0761104 -0.0800866 -0.155719 -0.0731194 -0.0784363 -0.0662071 -0.0278981 0.137949 0.0454746 -0.0780194 -0.0559599 0.0176236 0.0494263 -0.123745 -0.000402015 -0.170114 -0.0261106 0.0936916 0.03319 -0.0266404 -0.0205663 -0.0243098 -0.022001
internal_weight=0 31744.5 20954.9 15773.8 3236.68 12537.1 3081.82 10789.6 10296 795.546 2286.28 2168.32 1707.46 8244.16 8495.95 163.32 1544.14 2871.86 149.796 128.063 460.864 67.4761 728.07 8058.05 100.093 62.2674 8028.1 5302.21 4767.64 4631.66
internal_count=5000000 4979019 2299082 1826938 136964 1689974 110156 2679937 2640909 15650 94506 82053 61167 823024 20981 3347 57820 549111 19173 13396 20886 838 14812 798970 7232 7107 798394 508909 472489 456643
is_linear=0
shrinkage=0.1


Tree=4
num_leaves=31
num_cat=0
split_feature=1 3 1 1 1 3 2 2 1 3 2 3 2 2 0 0 0 2 2 0 0 3 0 2 0 0 0 0 2 2
split_gain=18095.7 2217.97 619.757 505.788 635.997 410.164 342.016 357.506 256.71 257.643 182.903 121.751 130.606 175.619 105.468 160.919 102.094 93.8617 84.5764 83.3465 80.5754 79.7744 71.7276 68.3516 67.9154 97.5174 108.634 69.2227 67.9097 140.393
threshold=0.012470736255887857 0.029158703644196548 0.066291103818916897 0.055986620624978882 0.059600322430727042 0.057711637767220034 0.063120881544370983 0.057710097375292417 0.01323838660857622 0.017894091098471825 0.036091265071991535 0.05939356490275273 0.063120881544370983 0.057710097375292417 10781.500000000002 6097.5000000000009 13387.000000000002 0.054513976191934099 0.0076866752666160587 12530.000000000002 1243.0000000000002 0.051376767264707551 27216.500000000004 0.054513976191934099 7955.0000000000009 9141.0000000000018 8800.5000000000018 10466.500000000002 0.054513976191934099 0.046787461230410547
decision_type=2 2 2 2 2 2 2 2 2 2 2 2 2 2 2 2 2 2 2 2 2 2 2 2 2 2 2 2 2 2
left_child=18 8 3 10 5 -5 7 23 -2 -10 -3 28 13 -13 15 20 19 21 -1 -16 -4 -12 24 -6 -11 26 -26 -27 29 -7
right_child=1 2 14 4 6 11 -8 -9 9 22 17 12 -14 -15 16 -17 -18 -19 -20 -21 -22 -23 -24 -25 25 27 -28 -29 -30 -31
leaf_value=0.13822415044032124 -0.0071020478521080389 -0.025511385466836602 -0.040598056621040914 -0.0015218249086353666 -0.00466439602380549 -0.11124753339617849 -0.059808142211171006 0.07942927861556609 -0.09483332408184969 -0.076746119711168265 0.0086082130033322025 -0.073489944179442199 -0.1232059901011316 0.091255059125188068 0.023866259836500522 -0.042721767352341997 0.014640624052509802 0.051262374097800871 0.11777528777092816 0.097924651592320458 0.027430942242469575 -0.021403168223411428 -0.11781579630181996 -0.073213952246651656 -0.053448111874333543 -0.10990673235188116 0.05551872205729691 -0.055226765655948286 -0.13056306397716816 0.074699446644370379
leaf_weight=5063.6437832972806 602.2994672418572 5454.5365535668097 210.18569839000702 451.65606911480427 388.7768648234196 201.37221772223711 890.81327884062193 568.55699111684225 3857.3898986601271 1849.3270009434782 2436.9607553151436 209.31938221096061 224.47459233016707 93.658926986157894 318.78895556926727 764.4098147302866 3327.162448734045 357.74722959473729 3367.8459911262617 290.38851487636566 1014.2791139036417 1391.41966048209 226.07765743136406 232.41556358337402 205.2067796587944 245.50988775491714 165.09955978393555 4063.5311442017555 1269.5556908175349 50.858773589134216
leaf_count=4023 58157 531636 26573 69451 46442 10375 48348 62715 1228639 435862 442218 8389 3786 14690 31326 93701 288285 79562 16958 11743 83993 287065 59387 14286 44315 63376 18623 869183 35975 10918
internal_value=0 -0.0349651 -0.0151243 -0.026445 -0.0538011 -0.0877846 -0.0129519 0.0221312 -0.07061 -0.0742144 -0.0134448 -0.106797 -0.0653947 -0.0225627 0.0120483 -0.00672111 0.0215317 0.00227801 0.130056 0.0591691 0.0157534 -0.00229938 -0.0624397 -0.0303118 -0.0605221 -0.0541103 -0.0048657 -0.0583422 -0.121147 -0.073754
internal_weight=0 31361.8 20147.3 14222.1 4581.46 2500.9 2080.56 1189.75 11214.4 10612.1 9640.66 2049.24 527.453 302.978 5925.21 1988.87 3936.34 4186.13 8431.49 609.177 1224.46 3828.38 6754.75 621.192 6528.67 4679.35 370.306 4309.04 1521.79 252.231
internal_count=5000000 4979019 2201477 1665856 325375 153584 171791 123443 2777542 2719385 1340481 84133 26865 23079 535621 204267 331354 808845 20981 43069 110566 729283 1490746 60728 1431359 995497 62938 932559 57268 21293
is_linear=0
shrinkage=0.1


Tree=5
num_leaves=31
num_cat=0
split_feature=1 3 2 1 2 2 1 2 3 0 3 1 2 0 1 0 0 1 1 0 0 3 0 0 3 0 1 1 0 3
split_gain=16312.1 2011.05 733.58 250.785 163.344 559.567 208.531 148.826 143.815 84.563 79.196 75.3971 73.3066 57.1981 54.6959 84.8789 55.6409 51.5252 49.7526 86.2857 92.7715 84.8655 88.8886 83.3159 83.0528 80.4796 80.0458 70.2097 69.5336 82.3036
threshold=0.012470736255887857 0.025280347002117346 0.11106696773425438 0.013517379365671383 0.063120881544370983 0.061235169572778678 0.065579970934848811 0.027868153367028831 0.017894091098471825 16832.500000000004 0.071974484726437707 0.066291103818916897 0.0067152577423387752 27954.500000000004 0.1361670802935171 5726.0000000000009 1482.0000000000002 0.012840362236035735 0.060837604366522129 23688.000000000004 18667.500000000004 0.058971836909889053 26827.500000000004 19964.000000000004 0.10983385751768437 19878.000000000004 0.060086974408316902 0.055986620624978882 16086.500000000002 0.047387525094358021
decision_type=2 2 2 2 2 2 2 2 2 2 2 2 2 2 2 2 2 2 2 2 2 2 2 2 2 2 2 2 2 2
left_child=12 3 4 17 5 7 -6 -3 -5 10 -8 -7 -1 18 -4 16 -16 -2 19 20 28 27 -23 25 -20 -22 -25 -21 -9 -30
right_child=1 2 14 8 6 11 9 13 -10 -11 -12 -13 -14 -15 15 -17 -18 -19 24 21 23 22 -24 26 -26 -27 -28 -29 29 -31
leaf_value=0.13300651888340986 0.012814372978176062 -0.036260986031318776 0.027329736913163073 -0.093129167219513573 0.072083882050342593 -0.10383605157464011 -0.063256956572022668 -0.010482134515744465 -0.06669392504435262 0.0072441644696062072 -0.014097520232077844 -0.0023626801045035614 0.11423547477607986 0.061127504667506896 0.10148602934712403 0.080412123224626528 -0.021050371097401401 -0.039838819211440314 -0.039087946525100468 -0.041095823611395819 0.02153948586442531 -0.046100321730826718 0.089315939284112134 0.0013608144726157394 0.029238402596980524 0.10919827700887497 -0.15629073419935335 -0.12971346793697824 -0.091503549588568989 -0.018425304247629986
leaf_weight=4339.6619936211064 316.21801561908796 4802.5383556447923 807.52670288085938 3561.7173474431038 331.67756295204163 998.75311152637005 416.33577425405383 4750.2664067829028 4874.3634869456291 1459.8106967099011 1539.4703884720802 79.016622141003609 3996.4380673109554 98.077494382858276 48.257370133884251 679.26984816417098 159.65228609647602 450.81345367431641 1518.7118957326747 832.98758587334305 404.63457255251706 96.249141558073461 97.65497899055481 1126.8919658660889 201.5049991607666 141.313232421875 33.153915405273438 100.15328407287598 242.08057071082294 424.11768001690507
leaf_count=2761 19626 581878 44383 1192371 43631 31259 38213 711764 1194741 150932 181416 7098 18220 8435 751 10867 1951 76657 140216 158581 55449 15058 5696 155516 9322 6824 2086 17436 46299 70563
internal_value=0 -0.0337898 -0.0169724 -0.0728773 -0.0224046 -0.026819 -0.00361731 -0.0217762 -0.0778549 -0.0109684 -0.0245622 -0.0963965 0.124007 -0.0148667 0.0461601 0.0632997 0.00739123 -0.0181319 -0.0156143 -0.0123884 -0.00832017 -0.0380983 0.0220987 0.0120157 -0.0310842 0.0442291 -0.00314484 -0.0506071 -0.0147252 -0.0449802
internal_weight=0 30593.2 21390.1 9203.11 19695.4 15948.1 3747.29 14870.3 8436.08 3415.62 1955.81 1077.77 8336.1 10067.8 1694.71 887.18 207.91 767.031 9969.72 8249.5 7122.46 1127.04 193.904 1705.99 1720.22 545.948 1160.05 933.141 5416.46 666.198
internal_count=5000000 4979019 2495624 2483395 2437672 2023480 414192 1985123 2387112 370561 219629 38357 20981 1403245 57952 13569 2702 96283 1394810 1245272 1048501 196771 20754 219875 149538 62273 157602 176017 828626 116862
is_linear=0
shrinkage=0.1


Tree=6
num_leaves=31
num_cat=0
split_feature=1 3 2 3 0 1 0 1 0 0 0 0 0 0 2 0 1 1 2 1 1 0 2 2 0 2 2 1 3 2
split_gain=14764.9 1816.32 582.013 236.737 226.375 220.266 177.107 148.02 146.014 111.573 149.19 106.964 126.527 100.308 98.5996 93.0641 90.645 79.3571 71.2395 67.8183 65.5067 64.8128 61.8937 126.482 51.9607 50.239 48.9188 48.0571 44.0684 42.3753
threshold=0.012470736255887857 0.031888836148065973 0.10208082049119142 0.021212903767735929 18994.000000000004 0.013635581604743383 20424.500000000004 0.057615567929711571 19538.000000000004 26899.000000000004 26827.500000000004 19964.000000000004 19878.000000000004 19062.000000000004 0.033128838438510562 20776.000000000004 0.01323838660857622 0.086747752017407712 0.0072785807378375174 0.049333171490616064 0.051376767264707551 27781.500000000004 0.063120881544370983 0.073775258571479041 20519.000000000004 0.12720355378276302 0.043522111366939072 0.044261528514459865 0.017894091098471825 0.063120881544370983
decision_type=2 2 2 2 2 2 2 2 2 2 2 2 2 2 2 2 2 2 2 2 2 2 2 2 2 2 2 2 2 2
left_child=18 3 4 5 14 -2 7 8 13 10 15 12 -9 -6 20 24 -5 -11 -1 -12 -3 -19 -17 -24 -8 -4 -10 -26 -7 -16
right_child=1 2 25 16 6 28 9 11 26 17 19 -13 -14 -15 29 22 -18 21 -20 -21 -22 -23 23 -25 27 -27 -28 -29 -30 -31
leaf_value=0.12684870452716487 -0.026021357731101126 -0.019791696974065437 0.021603535613827954 0.089116371670701883 -0.18111923692505805 -0.089847577337810056 -0.034315634724763115 -0.04432823569157486 -0.077410095631080034 -0.063282593324490113 -0.075872228006015119 -0.098015598105677018 0.06204048967795274 -0.01456829918582463 0.0012536909980511283 -0.016849419941479298 -0.048309185547863516 -0.0556229708243587 0.10804245546419507 0.10560303673383227 -0.063954832355783711 0.095950521027711649 -0.083054304910862908 -0.0086867508766181132 -0.080109013318410638 0.053078744613948306 -0.13548136130147481 0.06958530976687026 -0.072291676579404301 -0.014959683868999577
leaf_weight=4687.8391802654223 787.95413880934939 2124.900093655102 991.83143615722656 48.456260602455586 41.040902256965637 3345.9749940796755 90.471328735351562 269.87478065490723 223.34258136316203 909.13098275661469 24.260084552690387 147.80861282348633 190.95674705505371 304.13268280029297 5074.0131855010986 2313.4154934585094 5057.7482180595398 52.750354647636414 3531.8096639974974 136.21929319389164 398.91973213851452 60.641743421554565 479.07870438694954 437.58723640441895 23.82023548707366 1037.6500244140625 413.8746704144869 215.165886644274 2496.7413638667203 2362.5965194702148
leaf_count=3475 112717 190675 77933 1788 6263 1174800 10102 26774 18431 85882 2741 14175 3311 21503 820432 332030 916779 4671 17506 4254 55860 1972 34192 44814 3082 19509 27521 13748 705743 247317
internal_value=0 -0.0324757 -0.0128027 -0.0631891 -0.0190925 -0.0756522 -0.0338739 -0.0627447 -0.0867529 -0.0241883 -0.0161468 -0.0239938 -0.000251768 -0.0343711 -0.00969342 -0.020399 -0.0470051 -0.053444 0.118768 0.0781689 -0.0267722 0.0254381 -0.025563 -0.0475536 0.0302303 0.0376964 -0.115128 0.054665 -0.0823455 -0.00389727
internal_weight=0 30060.4 18323.5 11736.9 16294 6630.67 6333.57 1591.03 982.391 4742.54 3720.02 608.64 460.832 345.174 9960.43 3559.54 5106.2 1022.52 8219.65 160.479 2523.82 113.392 3230.08 916.666 329.457 2029.48 637.217 238.986 5842.72 7436.61
internal_count=5000000 4979019 2067192 2911827 1969750 1993260 655466 117978 73718 537488 444963 44260 30085 27766 1314284 437968 918567 92525 20981 6995 246535 6643 411036 79006 26932 97442 45952 16830 1880543 1067749
is_linear=0
shrinkage=0.1


Tree=7
num_leaves=31
num_cat=0
split_feature=1 3 3 1 3 2 3 3 1 2 3 0 2 2 3 2 3 1 2 1 3 0 2 1 1 2 0 2 1 0
split_gain=13460.1 1670.96 564.573 203.912 137.916 131.929 98.0971 76.4494 156.711 122.509 159.852 105.3 68.8009 60.1784 81.3682 68.3763 61.3864 159.316 99.1258 81.6044 70.0425 59.9492 54.6829 49.4856 50.3152 44.9854 44.911 42.9291 68.4058 46.5294
threshold=0.012470736255887857 0.027665477929968128 0.10983385751768437 0.01305619251850265 0.020650231382099937 0.057710097375292417 0.05939356490275273 0.060481348653025901 0.059600322430727042 0.063120881544370983 0.068836322427100402 20154.000000000004 0.0072785807378375174 0.048381259738487635 0.048890298474551293 0.026022815165626104 0.05939356490275273 0.056686995058741398 0.056692778703979159 0.05639701060854857 0.076290870574748551 15470.500000000002 0.11735371316472953 0.013751417622175679 0.02524812049874341 0.013296568771152506 27901.000000000004 0.054118828347465765 0.057231393746766453 15871.000000000002
decision_type=2 2 2 2 2 2 2 2 2 2 2 2 2 2 2 2 2 2 2 2 2 2 2 2 2 2 2 2 2 2
left_child=12 3 5 -2 -5 13 -7 8 -8 -9 11 21 -1 15 -15 23 17 -16 20 -20 -18 -11 -4 -3 -25 -26 -12 28 -19 -30
right_child=1 2 22 4 -6 6 7 9 -10 10 26 -13 -14 14 16 -17 18 27 19 -21 -22 -23 -24 24 25 -27 -28 -29 29 -31
leaf_value=0.12254048337264006 -0.0040368270997917259 0.059896788847073758 0.01285645123172701 -0.07855727814728064 -0.053328782804318478 0.068299138691521571 -0.15183864828493038 0.023141194554780541 0.015340277945083393 -0.053636635017331617 -0.0026493337684514893 0.018890296838994264 0.10389174459735331 -0.12484615770408541 -0.02960908973521478 -0.016380732168821095 0.032846017050616905 0.049865893372331077 -0.12058938350783757 0.019436953493919672 -0.053346735988913409 -0.12169533484268694 0.043365097476770066 -0.066000785328398037 -0.10021581625195974 -0.028095640602495447 -0.15485441487963614 -0.064058182056566923 -0.17210210446167049 -0.076885608838959438
leaf_weight=4601.33291651318 514.06466584140435 54.598433567676693 1006.9037628173828 5584.3632877939381 3540.7833465463482 167.2534019947052 109.9700870513916 1050.1953048706055 114.39970970153809 503.60871295630932 2629.2149990461767 160.77300480753183 3470.3789141583256 104.55895972251892 1898.1905086040497 6440.1411264687777 403.88575673103333 20.996887445449829 121.05630798637867 63.424725338816643 122.98999762535095 174.19019857794046 1410.4500427246094 476.43636149168015 89.618700057733804 2476.1583867804147 19.530291948467493 251.22071838378906 146.90124886122067 78.879525255295448
leaf_count=3475 39028 1736 72337 1857052 783857 26808 3906 92392 11744 31846 312061 15495 17506 15135 346691 842466 68132 3770 6625 9549 16661 9062 39507 47595 16765 261683 2078 31624 7634 5780
internal_value=0 -0.031088 -0.0146699 -0.0653158 -0.068768 -0.0208681 -0.0069748 -0.00961867 -0.0665989 -0.00680113 -0.0158182 -0.0538689 0.114523 -0.0262396 -0.0380779 -0.0222523 -0.0351585 -0.0428164 -0.00936295 -0.0724482 0.0127258 -0.0711273 0.0306573 -0.034463 -0.0361565 -0.0306147 -0.0037716 -0.0931578 -0.122781 -0.138837
internal_weight=0 29734.8 20095.5 9639.21 9125.15 17678.2 4929.14 4761.88 224.37 4537.51 3487.32 838.572 8071.71 12749.1 3212.1 9536.95 3107.55 2396.19 711.357 184.481 526.876 677.799 2417.35 3096.81 3042.21 2565.78 2648.75 497.998 246.778 225.781
internal_count=5000000 4979019 2299082 2679937 2640909 2187238 505392 478584 15650 462934 370542 56403 20981 1681846 511601 1170245 496466 395499 100967 16174 84793 40908 111844 327779 326043 278448 314139 48808 17184 13414
is_linear=0
shrinkage=0.1


Tree=8
num_leaves=31
num_cat=0
split_feature=1 3 1 1 2 3 3 1 2 0 3 2 0 0 0 2 1 0 1 2 1 3 1 1 1 1 1 3 2 3
split_gain=12341.8 1551.14 488.666 171.437 120.468 137.913 113.079 100.256 67.908 67.5828 140.843 92.1129 47.6441 49.7987 151.071 58.5398 43.4266 41.3185 40.8589 40.2244 50.7993 39.9541 55.1351 38.3297 37.6114 59.5015 41.3036 35.5957 132.974 35.3079
threshold=0.012470736255887857 0.027665477929968128 0.10843855730809711 0.01305619251850265 0.062190445545392721 0.059865682493924204 0.018735861740065193 0.044261528514459865 0.0076866752666160587 13702.500000000002 0.061530185086308774 0.060394691161470872 10534.500000000002 2893.0000000000005 3007.0000000000005 0.057710097375292417 0.014563791766971625 2359.0000000000005 0.062203654354808242 0.052305108391287831 0.066291103818916897 0.14136409338933256 0.1361670802935171 0.048675234726213761 0.055094045625319624 0.058465264185006541 0.060086974408316902 0.015513160256949991 0.011941646478455506 0.055908566712878451
decision_type=2 2 2 2 2 2 2 2 2 2 2 2 2 2 2 2 2 2 2 2 2 2 2 2 2 2 2 2 2 2
left_child=8 3 4 -2 5 7 16 -3 -1 10 11 -7 13 17 18 19 -5 -12 -15 -16 -21 22 -4 -6 -11 -26 -27 28 -10 -9
right_child=1 2 21 6 23 9 -8 29 27 24 12 -13 -14 14 15 -17 -18 -19 -20 20 -22 -23 -24 -25 25 26 -28 -29 -30 -31
leaf_value=0.11853228250205833 -0.0078051954499247858 -0.026086349157892749 0.021612679467583426 -0.05957428277798487 -0.15377141435298788 -0.058797589639588969 -0.056352608390748342 -0.01241845098939014 0.10186963204426931 -0.059562094528794567 -0.048526558193415947 -0.15648555704987263 -0.077485442694274279 0.17734891101296138 -0.025726528656594201 -0.062584985510144964 -0.084578527349322488 -0.15404764708623753 -0.19007932018979623 0.087836621136380952 -0.049685179158858214 0.042528831809762455 -0.072614998327935318 -0.0026911201209659143 0.053612944950727652 -0.10720112410465062 -0.022735284920929924 0.11399032075688049 0.027349489217695845 0.0074516313862882187
leaf_weight=4743.9889363841794 522.57548196334392 6621.462064105086 1032.6210174560547 890.95936318766326 16.87156930565834 187.54550084471703 4786.715573345311 2936.318107843399 1764.9507072945125 308.1510511636734 207.30069270730019 198.88605499267578 262.35250067710876 46.042862864211202 242.62961647473276 282.89349815249443 3151.4483090639114 45.198670625686646 3.2394418995827428 84.782695421949029 39.316711947321892 1164.90869140625 66.0701904296875 3591.8389883935452 99.362474918365479 60.71336555480957 1246.206916809082 1112.7377573130652 277.03767018020153 1285.9102170169353
leaf_count=4023 39028 713936 73353 286521 1058 20781 1174734 609499 8566 28885 19951 5937 22551 408 30693 15351 1179654 5401 460 8274 3769 16600 4156 405890 7748 6078 103539 2551 5841 194764
internal_value=0 -0.0298318 -0.0141325 -0.0634586 -0.0197076 -0.0238648 -0.0667526 -0.0184081 0.110971 -0.041716 -0.056496 -0.109075 -0.0397561 -0.0293522 -0.0156007 -0.0284062 -0.0790675 -0.0674154 0.153197 -0.00204088 0.0442675 0.0296264 0.0159463 -0.00339746 -0.0279208 -0.0209875 -0.0266592 0.0996007 0.0917594 -0.00636687
internal_weight=0 29382.3 20030.6 9351.7 17767 14158.3 8829.12 10843.7 7898.72 3314.62 1600.19 386.432 1213.76 951.404 698.905 649.623 4042.41 252.499 49.2823 366.729 124.099 2263.6 1098.69 3608.71 1714.43 1406.28 1306.92 3154.73 2041.99 4222.23
internal_count=5000000 4979019 2299082 2679937 2204973 1798025 2640909 1518199 20981 279826 133576 26718 106858 84307 58955 58087 1466175 25352 868 42736 12043 94109 77509 406948 146250 117365 109617 16958 14407 804263
is_linear=0
shrinkage=0.1


Tree=9
num_leaves=31
num_cat=0
split_feature=1 3 2 3 1 3 2 0 2 3 2 3 0 0 0 0 0 3 0 0 0 1 0 0 3 0 3 0 3 0
split_gain=11387.9 1437.16 410.361 148.142 165.437 140.772 128.794 72.5417 68.7263 69.0572 83.6964 59.9632 58.9623 60.2738 57.3601 47.7345 46.9204 42.659 40.688 205.016 88.66 87.6521 73.6947 90.5165 88.1364 67.9357 54.5044 49.7765 44.1406 122.393
threshold=0.012470736255887857 0.031888836148065973 0.11106696773425438 0.022176340603433663 0.013635581604743383 0.022335980774681501 0.059626348611252593 20650.500000000004 0.010536138055545792 0.012641759700732925 0.012171209124133447 0.023241449954699383 8800.5000000000018 18994.000000000004 26022.000000000004 26125.500000000004 25761.000000000004 0.017894091098471825 7955.0000000000009 8065.0000000000009 7720.5000000000009 0.03617934120795574 8985.0000000000018 9141.0000000000018 0.039391090130533567 10665.000000000002 0.10983385751768437 8869.0000000000018 0.033709952185625232 6278.0000000000009
decision_type=2 2 2 2 2 2 2 2 2 2 2 2 2 2 2 2 2 2 2 2 2 2 2 2 2 2 2 2 2 2
left_child=8 3 6 4 -2 12 18 -8 -1 10 -10 -7 -5 -14 16 -16 -9 -6 20 21 28 -20 27 24 -24 -25 -27 -21 29 -3
right_child=1 2 -4 5 17 11 7 14 9 -11 -12 -13 13 -15 15 -17 -18 -19 19 22 -22 -23 23 25 -26 26 -28 -29 -30 -31
leaf_value=0.11314197579064794 -0.023906067815273449 -0.062466652510517209 0.036132060377214899 -0.13511453429832709 -0.081319835357558379 -0.077745914284462869 0.0051311654539727978 -0.034306929667032568 0.078970630125315078 0.10328185100241399 -0.025325215190313458 -0.042048294428384647 0.095019357029216295 -0.085570117349080391 0.085525840682397325 -0.0071398262786936638 -0.18676949945831078 -0.064072818439747145 -0.037122893291910534 -0.049045646816997156 -0.130875580366245 0.11296374247752083 0.085726217872049162 -0.053429016347089936 -0.13961729941718964 -0.018726015745244289 0.042766098445919019 -0.15804452387408685 -0.03257915050746573 0.064892323046093353
leaf_weight=5974.576745006023 781.72756570018828 137.43372135143727 1642.4976501464844 15.810075933113692 2952.1420089928433 541.55339813232422 3472.86674284935 830.94156718254089 407.43173108296469 1229.185752668418 94.857505694031715 3589.0038986206055 124.37459032703191 21.707457790151238 63.288837909698486 456.963951587677 20.687855243682861 2788.9459989340976 50.84616203699261 391.60732448101044 87.299797058105469 165.77823190297931 135.75554708158597 566.73719331622124 19.901009524706751 6939.9022349049337 147.1999741862528 46.916179656982422 2854.2145546618849 167.32523101568222
leaf_count=9412 113466 18037 57952 5782 1174800 119117 362118 86662 3781 4418 3370 643402 7243 6179 1511 37924 3622 841838 1019 36838 12483 4599 1019 83008 3054 935412 5613 7317 405044 3960
internal_value=0 -0.0287005 -0.0115429 -0.0575707 -0.0670648 -0.0431434 -0.0162727 -0.00255965 0.108058 0.0905156 0.0592743 -0.0467286 0.0483304 0.0681842 -0.0220287 0.00413297 -0.0380106 -0.0729415 -0.0219457 -0.0182955 -0.0314638 0.0777353 -0.0208176 -0.0185777 0.0569156 -0.020113 -0.0174488 -0.0607071 -0.0287165 0.00745868
internal_weight=0 29013.4 18198.2 10815.3 6522.82 4292.45 16555.7 4844.75 7706.05 1731.47 502.289 4130.56 161.892 146.082 1371.88 520.253 851.629 5741.09 11710.9 8464.64 3246.27 216.624 8248.02 7809.5 155.657 7653.84 7087.1 438.524 3158.97 304.759
internal_count=5000000 4979019 2067192 2911827 2130104 781723 2009240 491837 20981 11569 7151 762519 19204 13422 129719 39435 90284 2016638 1517403 1077879 439524 5618 1072261 1028106 4073 1024033 941025 44155 427041 21997
is_linear=0
shrinkage=0.1


Tree=10
num_leaves=31
num_cat=0
split_feature=1 1 2 3 1 1 2 0 3 1 1 0 0 0 0 3 3 0 2 0 0 0 0 0 0 0 0 1 0 3
split_gain=10531.1 1336.86 357.365 169.777 147.336 77.5464 60.7998 59.401 53.2835 37.9038 70.6174 36.8317 38.7585 116.143 76.3215 48.0103 70.0218 39.6628 37.6351 35.8744 56.3462 64.1839 54.5227 49.7474 48.2822 63.9993 42.4189 85.5637 38.6376 44.9186
threshold=0.012470736255887857 0.031790197878612432 0.083560987149874227 0.021343563573611894 0.013751417622175679 0.01323838660857622 0.0076866752666160587 27846.500000000004 0.12310704454373696 0.055986620624978882 0.049619025203985666 366.50000000000006 4193.5000000000009 4036.0000000000005 4776.0000000000009 0.062057614767812332 0.061530185086308774 575.50000000000011 0.058271072121003208 14237.500000000002 15470.500000000002 15230.500000000002 16914.000000000004 17017.000000000004 6776.0000000000009 6636.5000000000009 19062.000000000004 0.082821067234734522 19964.000000000004 0.076290870574748551
decision_type=2 2 2 2 2 2 2 2 2 2 2 2 2 2 2 2 2 2 2 2 2 2 2 2 2 2 2 2 2 2
left_child=6 3 9 4 -2 -5 -1 8 -4 10 -3 -11 13 15 -14 16 -13 -17 -18 24 21 -21 -22 -24 25 -16 27 -25 29 -28
right_child=1 2 7 5 -6 -7 -8 -9 -10 11 -12 12 14 -15 19 17 18 -19 -20 20 22 -23 23 26 -26 -27 28 -29 -30 -31
leaf_value=0.11303050212810405 -0.026588693396659757 -0.015621089724993865 0.0047285312674117362 0.047689212581640994 -0.072422854496227346 -0.043205018974859871 0.094618706016716347 0.11509385657174552 0.031830161789457856 -0.098190412360461415 -0.037218941864709837 -0.0070430508440940719 -0.11996336295136355 0.094852439004329034 -0.0092610547129639842 0.082405432690559624 -0.080937775084408109 -0.029741990621718135 0.12851155116967086 -0.0010515054562367718 -0.049188655775264413 0.08021600694402245 0.077258752232682956 -0.058786258561999954 -0.033157668565376414 0.10686120221182518 0.039000092163775535 0.043814909875198191 -0.0089699511505180653 -0.054945456919713136
leaf_weight=4488.8588172246527 814.75888935034163 5787.0479853795841 1347.2045097351074 95.501307812286541 5038.2785713672638 5467.3497507572174 2987.0011640244629 66.231269836425781 1571.8449211120605 47.948687989264727 2050.2064008479938 169.63446674309671 66.464792966842651 133.80265426635742 385.30241298675537 33.633358919993043 9.6928040981292707 505.6868399977684 74.656706094741821 272.76296424865723 333.22669696807861 150.97450637817383 69.338081359863281 364.04341077804565 1339.1341271400452 54.129520416259766 345.37976258993149 104.64425420761108 1833.2825765609741 59.690811693668365
leaf_count=4023 131082 744564 165343 2447 1882761 976661 16958 2259 47971 9593 380445 27558 8508 6233 42827 2550 914 54106 1209 22144 38818 6618 2681 34894 165896 2527 16824 5650 188476 7460
internal_value=0 -0.0276304 -0.0100019 -0.0541537 -0.0660426 -0.0416446 0.105674 0.021447 0.0193222 -0.0166177 -0.021271 -0.0108777 -0.0102137 0.00866991 -0.0134688 -0.00586606 0.0299822 -0.0227482 0.104443 -0.0121363 -0.00630575 0.0279035 -0.0109673 -0.00637995 -0.0237194 0.00504296 -0.00852227 -0.0358784 -0.00279418 0.0251564
internal_weight=0 28591.9 17176 11415.9 5853.04 5562.85 7475.86 2985.28 2919.05 14190.7 7837.25 6353.43 6305.48 927.107 5378.37 793.304 253.984 539.32 84.3495 5311.91 3533.34 423.737 3109.61 2776.38 1778.57 439.432 2707.04 468.688 2238.35 405.071
internal_count=5000000 4979019 1986068 2992951 2013843 979108 20981 215573 213314 1770495 1125009 645486 635893 92570 543323 86337 29681 56656 2123 534815 323565 28762 294803 255985 211250 45354 253304 40544 212760 24284
is_linear=0
shrinkage=0.1


Tree=11
num_leaves=31
num_cat=0
split_feature=1 3 2 2 1 3 2 3 0 0 0 1 3 0 1 3 2 2 2 0 3 0 0 0 3 3 0 3 3 2
split_gain=9750.17 1237.29 344.503 111.325 111.041 136.904 60.878 54.7101 77.0344 92.582 73.7028 45.1727 44.699 40.2508 36.5055 33.5245 109.377 32.2117 31.8053 29.6194 35.9188 29.1692 35.6568 27.4403 28.7936 26.6983 43.1775 25.4318 25.2923 25.2732
threshold=0.012470736255887857 0.031481747428741158 0.10208082049119142 0.056692778703979159 0.012840362236035735 0.022176340603433663 0.0076866752666160587 0.022335980774681501 18864.000000000004 11152.500000000002 18994.000000000004 0.014421339959238793 0.017894091098471825 8800.5000000000018 0.039734823434151981 0.013415896219368567 0.012171209124133447 0.031132061890835699 0.016152157941385373 27954.500000000004 0.067032143350905807 109.50000000000001 233.50000000000003 27901.000000000004 0.10983385751768437 0.05939356490275273 22469.500000000004 0.052520753907149227 0.12310704454373696 0.019775354686096654
decision_type=2 2 2 2 2 2 2 2 2 2 2 2 2 2 2 2 2 2 2 2 2 2 2 2 2 2 2 2 2 2
left_child=6 4 3 19 -2 11 -1 8 9 13 -10 -6 -13 -7 -5 16 -8 18 -9 21 -21 27 -23 24 29 26 -16 -3 -4 -24
right_child=1 2 28 14 5 7 15 17 10 -11 -12 12 -14 -15 25 -17 -18 -19 -20 20 -22 22 23 -25 -26 -27 -28 -29 -30 -31
leaf_value=0.11091733489823979 0.0032579173658562849 0.074364527692197979 0.008753138483951331 -0.20851354763731345 -0.046663271443985278 -0.12842213380149123 0.089512151514176796 -0.064098350754561398 0.14247351377126777 -0.16632301685249676 -0.079836348207584798 -0.080561475335664559 -0.061286154257514158 0.06268412761119084 -0.015528984022751782 0.10453622234056888 -0.016585898237939461 -0.16190606686020789 -0.03995046236625957 0.042801865662254926 -0.21235569641826851 -0.13378158894710077 -0.041664626773066045 -0.18460739504443416 0.01991434040451125 -0.0017780552763210266 -0.10849376520256193 -0.16187530202990696 0.034860241525581669 -0.021631405856319213
leaf_weight=4344.2795570160815 320.42881807312369 47.6895031274762 494.13861083984375 8.7388993799686414 968.7471345635131 13.708241303451357 1544.7458146822173 661.27069127559662 58.586745915934443 39.479299390688539 20.005336441099644 2265.0653946006496 2566.0034766590397 56.223131699487567 435.59794470760971 1253.6377977854572 103.68736350536346 23.385915756225586 3113.6619735956192 105.5026891361922 5.8214504588395348 28.856227874755859 674.58201917330734 10.42698287963867 159.07111660810187 5000.259159504436 56.432141244411469 5.0383378099650136 1490.0982666015625 9472.403906754218
leaf_count=4023 19844 2364 55843 602 281526 5778 9230 142010 125 5599 6169 999030 830166 1513 39268 3981 3747 6096 595211 8121 459 9365 82691 2538 7602 500785 10828 1795 41599 1322092
internal_value=0 -0.02667 -0.0109446 -0.0158156 -0.054669 -0.0565657 0.103426 -0.042299 0.0103586 -0.0438939 0.0858853 -0.0663715 -0.0703235 0.0252227 -0.00429008 0.0922115 0.0828385 -0.0449054 -0.0441805 -0.0218485 0.029459 -0.0223978 -0.022776 -0.0224655 -0.0223014 -0.00396513 -0.0261913 0.0517909 0.0283587 -0.0229632
internal_weight=0 28101.2 17994.7 16010.4 10106.6 9786.14 7246.35 3986.32 188.003 109.411 78.5921 5799.82 4831.07 69.9314 5501.03 2902.07 1648.43 3798.32 3774.93 10509.4 111.324 10398.1 10345.3 10316.5 10306.1 5492.29 492.03 52.7278 1984.24 10147
internal_count=5000000 4979019 2085952 1988510 2893067 2873223 20981 762501 19184 12890 6294 2110722 1829196 7291 551483 16958 12977 743317 737221 1437027 8580 1428447 1424288 1414923 1412385 550881 50096 4159 97442 1404783
is_linear=0
shrinkage=0.1


Tree=12
num_leaves=31
num_cat=0
split_feature=1 3 3 1 3 2 2 2 2 0 0 0 0 3 1 0 3 0 0 0 0 3 0 2 3 1 3 2 3 0
split_gain=9036.34 1137.85 335.875 114.299 100.978 74.0211 62.5832 50.98 36.6994 36.2896 89.179 38.1612 33.4331 33.1147 31.5356 28.9316 27.7333 43.1701 43.7649 33.3179 128.61 53.9007 41.1068 29.0054 26.3651 28.055 25.6177 55.6108 63.4244 25.0594
threshold=0.012470736255887857 0.029158703644196548 0.086420617669801331 0.013405133377967697 0.021212903767735929 0.11106696773425438 0.0080242662131416315 0.054513976191934099 0.016007771948311173 13133.500000000002 15871.000000000002 12918.500000000002 27781.500000000004 0.079197625518303921 0.012840362236035735 650.50000000000011 0.073071429540303892 1145.5000000000002 1580.0000000000002 2893.0000000000005 3007.0000000000005 0.062057614767812332 3663.5000000000005 0.059626348611252593 0.088845174392851889 0.10183370453932486 0.022768014305990677 0.01182332566735988 0.012641759700732925 1829.5000000000002
decision_type=2 2 2 2 2 2 2 2 2 2 2 2 2 2 2 2 2 2 2 2 2 2 2 2 2 2 2 2 2 2
left_child=6 3 7 -2 -5 12 -1 8 -3 11 -11 -7 -4 16 -10 -15 17 -9 23 29 21 -21 -22 -19 -14 -26 27 -8 -29 -20
right_child=1 2 5 4 -6 9 26 13 14 10 -12 -13 24 15 -16 -17 -18 18 19 20 22 -23 -24 -25 25 -27 -28 28 -30 -31
leaf_value=0.10885834608540212 -0.015340416183038649 -0.057520411476163408 0.00042046272263580159 -0.067737748358238661 -0.045395801132287784 0.040653493431124815 0.09481031250739147 -0.079987547596955588 0.097663170528203141 -0.065113635388778721 0.029419446639668778 0.1243304159414326 0.13717471339336856 0.066528829922640059 -0.021678853931710512 -0.04428095724444478 0.011059634003821497 0.10705373956341034 -0.0074852058915862831 0.13867911519353199 -0.090307987813570537 -0.10716679492497752 -0.010504758214799927 -0.0049772613593920554 -0.12396527448258861 0.061548824761340153 0.10954630214793995 0.0073851005254626824 0.07906631427794733 -0.093710689159616153
leaf_weight=4344.326551454069 671.40011699241586 289.69690788420849 2132.7416605949402 4759.3275756139774 3518.5006087522488 667.76353230327368 1532.8625647511799 87.932179570198059 22.191517020342872 114.22591622173786 789.71148683875799 59.345420837402344 31.80483078956604 25.141982816159725 9891.3152491014916 374.98978445678949 694.03075408935547 53.065405711531639 56.731744155287743 77.782424420118332 65.923372998833656 10.072919517755507 3090.4726215004921 40.939269259572029 10.599290132522581 35.303574562072754 509.33293647808023 170.55412204097956 446.81704537384212 83.042763710021973
leaf_count=4540 77726 39517 223597 1917746 782070 26365 7874 13815 310 5743 25647 197 181 2105 1383370 60713 72815 4533 6632 756 8066 704 307374 3032 1561 1182 956 4910 2701 13262
internal_value=0 -0.0256972 -0.0116665 -0.0550227 -0.0582413 0.014692 0.101462 -0.018479 -0.0224369 0.0308517 0.0174738 0.0474831 0.00276799 -0.00981311 -0.0214117 -0.0373183 -0.00722961 -0.0107892 -0.00903969 -0.0109093 -0.00884973 0.110492 -0.0121715 0.058264 0.0671976 0.0187123 0.0893809 0.0846043 0.0592638 -0.0587134
internal_weight=0 27654.1 18704.8 8949.23 8277.83 3841.5 7003.89 14863.3 10203.2 1631.05 903.937 727.109 2210.45 4660.13 9913.51 400.132 4259.99 3565.96 3478.03 3384.03 3244.25 87.8553 3156.4 94.0047 77.7077 45.9029 2659.57 2150.23 617.371 139.775
internal_count=5000000 4979019 2201477 2777542 2699816 284473 20981 1917004 1423197 57952 31390 26562 226521 493807 1383680 62818 430989 358174 344359 336794 316900 1460 315440 7565 2924 2743 16441 15485 7611 19894
is_linear=0
shrinkage=0.1


Tree=13
num_leaves=31
num_cat=0
split_feature=1 3 1 2 3 1 3 2 1 1 0 0 0 0 3 0 3 1 1 0 0 0 0 0 3 2 3 0 0 0
split_gain=8399.1 1047.7 310.259 105.982 96.5409 115.684 67.3114 56.8498 49.091 36.8124 34.4201 44.8292 43.0439 34.7786 31.3821 30.9253 27.6827 32.2973 27.3708 25.5064 84.4526 51.5114 40.1986 29.3167 25.2828 83.0904 23.3817 23.3028 50.1507 41.3297
threshold=0.012470736255887857 0.031888836148065973 0.10843855730809711 0.057710097375292417 0.022176340603433663 0.013517379365671383 0.022335980774681501 0.0076866752666160587 0.022284530707938802 0.1361670802935171 18864.000000000004 8869.0000000000018 18994.000000000004 8800.5000000000018 0.017894091098471825 1243.0000000000002 0.025513938195968876 0.014497948780803155 0.01323838660857622 13005.000000000002 12643.500000000002 5482.5000000000009 15871.000000000002 12392.500000000002 0.012967209598220316 0.01182332566735988 0.11383876908960856 27846.500000000004 27901.000000000004 27713.500000000004
decision_type=2 2 2 2 2 2 2 2 2 2 2 2 2 2 2 2 2 2 2 2 2 2 2 2 2 2 2 2 2 2
left_child=7 4 3 18 5 -2 8 -1 10 15 11 13 -12 -6 -7 -4 17 -8 -3 20 21 -17 -21 -23 25 -9 -24 29 -29 -5
right_child=1 2 9 27 6 14 16 24 -10 -11 12 -13 -14 -15 -16 19 -18 -19 -20 22 -22 23 26 -25 -26 -27 -28 28 -30 -31
leaf_value=0.10744201411430671 -0.021746405468514168 0.066943474181372406 -0.11137722960855717 -0.0036566403808661191 -0.12596198311376872 -0.072687070747342639 0.026579967031329657 0.088782211581228357 -0.1309855186769226 0.038161085290166472 0.12751530036735298 -0.10909136178823449 -0.06303992009264768 0.086167316558319329 -0.056798965560571381 0.042937254594414227 -0.035479618630643514 -0.056053389633875128 -0.021359151310201743 -0.073995166791535366 0.11113737480839665 -0.050685747215060896 0.044571779444903842 0.047107228184463237 0.099238134886468099 0.01659662852491434 -0.0032938338660798202 0.10899476718486344 -0.062854351199374978 -0.12950007435239394
leaf_weight=4035.9507765750895 709.22325495071709 35.223421851173043 19.881643131375313 5049.4352974891663 9.3930357433855516 2541.893468761351 49.013328552246094 1288.0120671128388 18.76617431640625 1082.4033203125 59.31946630962193 27.326802622061223 14.814605847932397 43.620998382568359 2433.240014588926 215.88934109732509 2402.6535720825195 1352.5707015991211 10242.79034605762 64.770656201988459 104.24195259809494 141.24185987189412 139.47565687820315 39.152458250522614 1238.8393122344278 181.99018294364214 380.36692452430725 50.671273708343506 25.541635036468506 26.233215808868408
leaf_count=4023 94960 703 3730 514858 4524 1192371 4972 7390 4354 18600 109 5297 4749 171 842773 10499 408711 348836 1448378 7252 869 18216 8707 1595 4480 5088 24641 1092 3626 4426
internal_value=0 -0.0247054 -0.0101923 -0.0151889 -0.0511687 -0.0595303 -0.0392188 0.0999206 0.0217417 0.0250535 0.0402955 -0.00504823 0.0894356 0.0485822 -0.0649165 0.0122143 -0.0419949 -0.0531637 -0.0210565 0.0144787 0.0310479 0.0099805 0.000292667 -0.0294609 0.0887143 0.0798454 0.00954868 -0.00348294 0.0514021 -0.00430705
internal_weight=0 27279.2 17617.3 15429.9 9661.84 5684.36 3977.48 6744.79 173.241 2187.42 154.475 80.3408 74.1341 53.014 4975.13 1105.02 3804.24 1401.58 10278 1085.14 500.526 396.284 584.613 180.394 2708.84 1470 519.843 5151.88 76.2129 5075.67
internal_count=5000000 4979019 2067192 1973083 2911827 2130104 781723 20981 19204 94109 14850 9992 4858 4695 2035144 75509 762519 353808 1449081 71779 31179 30310 40600 19811 16958 12478 33348 524002 4718 519284
is_linear=0
shrinkage=0.1


Tree=14
num_leaves=31
num_cat=0
split_feature=1 3 2 3 1 3 3 2 0 0 0 1 1 0 0 0 3 3 0 2 3 0 0 0 2 0 1 2 1 0
split_gain=7795.36 946.298 310.178 92.75 105.999 77.2338 67.6234 55.523 32.1006 46.9398 44.1626 42.2175 31.3513 30.4782 42.7659 45.9781 30.3489 29.355 36.8677 29.0221 27.6537 43.6157 26.7674 25.6387 25.4706 25.961 25.4169 25.2955 25.0117 24.6836
threshold=0.012470736255887857 0.031888836148065973 0.10208082049119142 0.022176340603433663 0.013751417622175679 0.022335980774681501 0.057711637767220034 0.0076866752666160587 26827.500000000004 26899.000000000004 27429.000000000004 0.064750831897125785 0.022284530707938802 19797.000000000004 27099.500000000004 26545.500000000004 0.017894091098471825 0.12310704454373696 20519.000000000004 0.044027240998585536 0.058004029749218686 8710.5000000000018 22469.500000000004 27901.000000000004 0.12720355378276302 18418.500000000004 0.054732355363012915 0.018966202926051234 0.01305619251850265 8800.5000000000018
decision_type=2 2 2 2 2 2 2 2 2 2 2 2 2 2 2 2 2 2 2 2 2 2 2 2 2 2 2 2 2 2
left_child=7 3 6 4 -2 12 28 -1 19 -10 26 -12 29 24 15 17 -6 -15 -19 22 21 -21 -8 -13 25 -4 -11 -7 -3 -5
right_child=1 2 13 5 16 27 8 -9 9 10 11 23 -14 14 -16 -17 -18 18 -20 20 -22 -23 -24 -25 -26 -27 -28 -29 -30 -31
leaf_value=0.10599317771254098 -0.024331364254620846 0.077349011065499296 0.014247870151960074 -0.12313719001430966 -0.071681972017068871 -0.052991991100659996 -0.019421047163733524 0.087119900766312847 0.060810382301489052 0.049072065406990557 -0.036180108819558188 0.069938434286543408 -0.10919678719820172 -0.049119934587213886 0.060166398199916551 -0.1792416254869279 -0.055578109989601769 -0.080572392606073767 0.024544171846199808 -0.079196745185662776 -0.0082931809195247175 0.069542103458962445 -0.068398745068123032 -0.038431385016757302 0.049699333770233167 0.07353293306294155 -0.067047771933803374 -0.03506653037250556 -0.021412732042304764 0.054220139136093415
leaf_weight=3874.76961411292 806.31233460223302 25.725071011809632 563.28540928661823 8.3198434654623252 2328.232386574382 1133.9490073919296 698.12419182062149 2607.8537050215527 161.06907749176025 22.466063439846039 81.641133017838001 133.55897109955549 14.669264793395994 94.017552107572556 128.24343481659889 14.672212541103361 2352.9421349314507 37.224784256890416 321.87266409210861 24.673215867951512 5968.8244702517986 98.103215781971812 132.81456482410431 26.097055077552795 682.57699584960938 85.011259183287621 117.10819345712662 2574.6657997369766 8023.8589813224971 138.11033623456024
leaf_count=4023 131823 369 51163 4524 1157448 251613 86369 16958 3463 1958 7139 8466 4354 12438 4531 1671 840833 1941 8063 4816 628699 10644 16777 3194 13583 4052 14420 510906 1183436 10326
internal_value=0 -0.0238037 -0.0100395 -0.0494588 -0.0578194 -0.037603 -0.0147394 0.0984008 -0.0078834 0.0155542 -0.00358445 0.0223135 0.0301804 0.0278006 0.0090075 -0.00501766 -0.0635875 0.000623842 0.0136476 -0.00971824 -0.00732685 0.0396515 -0.0272495 0.0522245 0.0362171 0.0220219 -0.048357 -0.0405474 -0.0210971 0.0441431
internal_weight=0 26798.2 17441 9357.2 5487.49 3869.71 15514.1 6482.62 7464.48 541.94 380.871 241.297 161.099 1926.9 596.031 467.787 4681.17 453.115 359.097 6922.54 6091.6 122.776 830.939 159.656 1330.87 648.297 139.574 3708.61 8049.58 146.43
internal_count=5000000 4979019 2067192 2911827 2130104 781723 1969750 20981 785945 38640 35177 18799 19204 97442 28644 24113 1998281 22442 10004 747305 644159 15460 103146 11660 68798 55215 16378 762519 1183805 14850
is_linear=0
shrinkage=0.1


Tree=15
num_leaves=31
num_cat=0
split_feature=1 1 1 3 1 1 2 2 3 0 3 2 0 0 0 0 0 3 0 0 3 1 1 1 1 0 1 3 0 0
split_gain=7224.74 875.014 313.484 101.61 89.4027 64.4489 56.8257 47.5671 35.0805 31.4436 27.8282 27.7032 24.3432 21.8571 21.2247 97.4489 39.0968 38.288 35.8634 34.2677 34.1298 38.8753 30.5685 26.2917 35.6714 22.6108 21.2838 21.4796 55.3384 21.0554
threshold=0.012470736255887857 0.031790197878612432 0.10843855730809711 0.021126095005856719 0.013751417622175679 0.012840362236035735 0.0076866752666160587 0.06435068043909041 0.14136409338933256 26728.000000000004 0.088845174392851889 0.022386973155999853 6636.5000000000009 1645.0000000000002 2774.5000000000005 3262.0000000000005 1370.5000000000002 0.062726574482342118 1243.0000000000002 1482.0000000000002 0.061530185086308774 0.059095425236829091 0.036920738989290512 0.044261528514459865 0.053691887109100979 3663.5000000000005 0.047581346705907461 0.051376767264707551 3007.0000000000005 23891.500000000004
decision_type=2 2 2 2 2 2 2 2 2 2 2 2 2 2 2 2 2 2 2 2 2 2 2 2 2 2 2 2 2 2
left_child=6 3 7 4 -2 12 -1 11 13 -9 -11 29 -5 -4 16 17 18 20 -13 -18 21 26 -21 -24 -25 -17 -16 -28 -29 -3
right_child=1 2 8 5 -6 -7 -8 9 -10 10 -12 14 -14 -15 15 25 19 -19 -20 22 -22 -23 23 24 -26 -27 27 28 -30 -31
leaf_value=0.10476819342474071 -0.025969955407622699 -0.026901093896420782 -0.070208879785395625 -0.26451847812129053 -0.062972649532030703 -0.03773811141983912 0.085295503022100705 -0.0058180064666257239 0.039521902518873858 0.051637811020705721 -0.043180385821813147 -0.023796804418075759 0.089020874546355183 0.016349757729452862 -0.0098577543307098725 -0.064269882180510454 -0.12474187185449244 -0.085038333164573321 0.045133368393455338 -0.13855084376717239 0.10867697092872841 -0.1919444535459543 0.020147520683695352 -0.098475542100256552 -0.021418471675815749 -0.015315922646744216 0.11378592466784115 0.075947386167705369 -0.16661600711305657 -0.068053209083342101
leaf_weight=3711.8190899157999 781.47482612379827 905.52065180614591 30.050807368010283 2.0279363071931575 3970.3960022926331 5107.3783936500549 2513.3898889888078 2921.4787496328354 1098.3922119140625 170.33921068906784 37.826593339443207 394.74523298628628 49.171923047219025 998.01459180191159 55.361921141156927 95.361338973045349 56.242546081542969 20.931109732948244 93.325202941894531 29.593973387032747 82.008369617164135 7.5356965344399205 74.060274377465248 90.109687030315399 180.23815565928817 8893.0948038939387 50.579866556217894 43.726394291035831 11.98284327983856 144.11855328083038
leaf_count=4023 130880 102934 5066 244 1843769 1017410 16958 350138 16600 11578 7324 65941 648 72443 8633 19811 7986 3167 6451 5606 750 1241 9731 30406 28385 1202968 3398 2598 4635 18278
internal_value=0 -0.0228551 -0.00873773 -0.0463373 -0.0568873 -0.036619 0.0969062 -0.0140447 0.0270958 -0.0031424 0.034408 -0.0170834 0.0750178 0.0138196 -0.0154884 -0.0140504 -0.0299892 0.0449054 -0.0106165 -0.0519657 0.0557331 0.0300701 -0.0410216 -0.0326412 -0.0471024 -0.0158353 0.0404198 0.0666075 0.0237729 -0.0325514
internal_weight=0 26395.1 16484.6 9910.45 4751.87 5158.58 6225.21 14358.2 2126.46 3129.64 208.166 11228.5 51.1999 1028.07 10178.9 9260.58 918.315 272.126 488.07 430.245 251.195 169.187 374.002 344.408 270.348 8988.46 161.651 106.289 55.7092 1049.64
internal_count=5000000 4979019 1986068 2992951 1974649 1018302 20981 1891959 94109 369040 18902 1522919 892 77509 1401707 1247201 154506 24422 72392 82114 21255 20505 74128 68522 58791 1222779 19264 10631 7233 121212
is_linear=0
shrinkage=0.1


Tree=16
num_leaves=31
num_cat=0
split_feature=1 1 2 3 1 1 2 3 1 3 2 0 2 2 0 0 0 0 0 3 0 0 0 0 1 3 3 3 0 0
split_gain=6699.49 800.42 300.6 91.4974 88.57 58.1875 57.8899 48.7189 51.4068 41.5806 74.6284 35.2387 34.0031 30.114 29.997 55.3166 47.9591 29.7081 29.2089 24.8865 26.7982 25.9261 52.9655 29.6327 21.0167 34.7985 20.5494 23.1666 19.4371 29.7288
threshold=0.012470736255887857 0.031790197878612432 0.11106696773425438 0.022176340603433663 0.01305619251850265 0.055986620624978882 0.0095898643727936432 0.022335980774681501 0.014497948780803155 0.013415896219368567 0.012171209124133447 26827.500000000004 0.019514247530720393 0.06933093129369404 18864.000000000004 18994.000000000004 8869.0000000000018 8800.5000000000018 26279.500000000004 0.086420617669801331 26022.000000000004 25432.500000000004 25214.000000000004 24744.000000000004 0.014563791766971625 0.017894091098471825 0.098569319991957075 0.10670501951035101 1580.0000000000002 10338.500000000002
decision_type=2 2 2 2 2 2 2 2 2 2 2 2 2 2 2 2 2 2 2 2 2 2 2 2 2 2 2 2 2 2
left_child=6 3 5 4 -2 13 -1 14 -9 10 -8 18 -10 -3 16 -16 17 -5 19 21 -21 22 23 -7 -6 -26 -22 -28 -14 -30
right_child=1 2 -4 7 24 11 9 8 12 -11 -12 -13 28 -15 15 -17 -18 -19 -20 20 26 -23 -24 -25 25 -27 27 -29 29 -31
leaf_value=0.10173226351458549 -0.012217688812824201 -0.018953112927075952 0.033382021788472167 -0.12060084092028189 -0.042994854650546865 -0.010832521860575973 0.074218117162777889 0.018086136960990609 -0.053603444620667101 0.093334148676161743 -0.020879049632002343 0.018225850563985624 -0.0020731779001914668 -0.19744636213769506 0.11178121336126892 -0.083379574439664705 -0.11016883260581455 0.075743137439202995 -0.062400233515671436 -0.00047286108458173396 -0.04107461914828716 -0.061931878021942499 0.0880523086584971 -0.08699499057769533 -0.071772676727883386 -0.052684040347402275 0.13061584518070468 -0.02338266290526805 -0.050842798033539097 -0.028692768022758049
leaf_weight=4280.5208296905548 461.19295860501006 7333.0832765256055 1553.0726776123047 9.4153605191968364 762.28586220741272 4666.0344528700225 620.65249675419182 165.96421542018652 1117.6554227480665 971.89045443153009 95.176505573093891 529.22064113616943 187.81566895451397 9.464225769042967 58.964778993278742 19.269743679091334 35.966272972524166 42.451576232910156 99.263482570648193 1902.4006233513355 14.650070309638975 100.22676229476929 53.873023509979248 51.650037288665771 1718.0387433734722 2150.3396533760242 39.785746335983276 12.947526812553404 861.71628365106881 2041.4107830282301
leaf_count=7388 38306 1124219 57952 5782 299348 504494 5928 13192 271117 3918 3747 40119 35904 851 125 6179 6888 230 14307 207454 919 18949 4004 11456 964625 827825 482 862 176383 347047
internal_value=0 -0.0219344 -0.00847301 -0.0448054 -0.054009 -0.0128614 0.0955481 -0.0344846 -0.0365028 0.0798634 0.061574 -0.00664758 -0.0386555 -0.0191832 0.0186792 0.0637117 -0.0214321 0.040101 -0.00854412 -0.00776273 0.00172231 -0.0115978 -0.0105405 -0.0116664 -0.0581712 -0.0611618 0.0636976 0.0928048 -0.0332504 -0.0352674
internal_weight=0 25998.2 16365.7 9632.49 5091.86 14812.6 5968.24 4540.63 4374.56 1687.72 715.829 7470.05 4208.6 7342.55 166.068 78.2345 87.8332 51.8669 6940.83 6841.57 1969.78 4871.78 4771.56 4717.68 4630.66 3868.38 67.3833 52.7333 3090.94 2903.13
internal_count=5000000 4979019 1986068 2992951 2130104 1928116 20981 862847 843643 13593 9675 803046 830451 1125070 19204 6304 12900 6012 762927 748620 209717 538903 519954 515950 2091798 1792450 2263 1344 559334 523430
is_linear=0
shrinkage=0.1


Tree=17
num_leaves=31
num_cat=0
split_feature=1 2 2 1 1 3 2 3 0 0 0 2 3 0 0 0 0 0 0 2 0 3 0 1 3 0 0 3 2 0
split_gain=6209.15 736.645 256.215 100.764 88.7989 59.8898 58.0802 53.3558 39.6348 87.8834 30.5438 29.8908 29.5095 55.0832 50.5229 30.6826 47.7856 46.2766 36.2072 31.0998 30.9573 31.6334 80.6154 52.4421 35.2953 29.3282 26.0486 23.848 89.4788 22.1048
threshold=0.012470736255887857 0.027459501652886211 0.11106696773425438 0.027633148352374941 0.013517379365671383 0.060481348653025901 0.0076866752666160587 0.017894091098471825 23222.000000000004 23558.000000000004 27216.500000000004 0.019514247530720393 0.060980249014470966 20241.500000000004 19878.000000000004 4193.5000000000009 2893.0000000000005 10125.500000000002 2359.0000000000005 0.081085843230101401 3007.0000000000005 0.068836322427100402 4130.5000000000009 0.07265769503516549 0.10670501951035101 10243.000000000002 4130.5000000000009 0.012641759700732925 0.011941646478455506 27004.500000000004
decision_type=2 2 2 2 2 2 2 2 2 2 2 2 2 2 2 2 2 2 2 2 2 2 2 2 2 2 2 2 2 2
left_child=6 3 5 4 11 -3 -1 -6 -5 -10 29 -2 13 14 -7 16 18 -17 -14 25 -18 26 23 -23 -25 -19 -22 28 -8 -9
right_child=1 2 -4 8 7 12 27 10 9 -11 -12 -13 15 -15 -16 17 20 19 -20 -21 21 22 -24 24 -26 -27 -28 -29 -30 -31
leaf_value=0.10268001450440785 -0.020798407019864656 -0.017759322461104728 0.031242024657411934 -0.031130670594511897 -0.064546756141934933 0.017598626049575627 0.082040942552338597 -0.044625710078462208 0.072946110250704785 -0.022757214603559596 -0.090294004547780971 0.057152488216309305 0.00035164476352079051 -0.093683677270764876 0.12544774674550258 -0.028673156426946039 0.083623516010795207 0.082981787573014942 -0.070714153688666834 0.010536344470800846 0.0054769572680180758 0.060776578589760634 0.127576275785099 -0.10599021394049211 0.030252059310065051 -0.010400394334879326 -0.096692707375294021 0.092802141628177431 -0.004481998285712962 0.030818400677100528
leaf_weight=3387.0223741573645 717.61482086672913 7347.9933983209776 1554.7392425537109 1991.6805217266083 2098.4493663215544 160.67462035128847 1083.3191039926605 4584.8442391736899 124.93991780281067 413.55429649353027 146.96434783935547 52.81235209107399 473.13960368512198 31.985322355758399 59.529685894027352 979.58189023658633 94.93438196182251 33.991932712495327 84.495762348175049 1032.6260633468628 131.53610037639737 79.008060030639172 76.836414337158203 49.733077179640532 30.785227604210377 3179.2756962333806 30.796543121337891 1101.3147937336471 134.34742693603039 39.167941451072693
leaf_count=4023 96968 1196065 57952 250755 1192371 12958 7542 1381923 3256 49684 58466 1275 58096 4521 372 133353 2359 2832 17015 115307 7661 3601 1582 8108 1729 309812 957 4897 4519 10041
internal_value=0 -0.0210243 -0.00725383 -0.0419192 -0.0476475 -0.0115668 0.0943319 -0.051258 -0.0246227 -0.000552397 -0.0454131 -0.0154549 -0.00459745 0.0289426 0.0467544 -0.00594504 0.00964279 -0.00908101 -0.0104166 -0.00456086 0.0323032 0.0200831 0.0434266 0.00289568 -0.0538996 -0.00941254 -0.0139059 0.082139 0.0724947 -0.0439867
internal_weight=0 25601.7 15431.7 10170 7639.85 13876.9 5706 6869.43 2530.17 538.494 4770.98 770.427 6528.93 252.19 220.204 6276.74 1051.27 5225.48 557.635 4245.89 493.63 398.695 236.363 159.526 80.5183 3213.27 162.333 2318.98 1217.67 4624.01
internal_count=5000000 4979019 1934280 3044739 2741044 1876328 20981 2642801 303695 52940 1450430 98243 680263 17851 13330 662412 101108 561304 75111 427951 25997 23638 15020 13438 9837 312644 8618 16958 12061 1391964
is_linear=0
shrinkage=0.1


Tree=18
num_leaves=31
num_cat=0
split_feature=1 3 1 3 1 2 3 2 3 3 3 3 0 0 0 0 0 0 0 2 3 0 0 1 2 0 1 0 0 2
split_gain=5750.63 683.135 246.434 70.5163 72.8466 69.4887 64.6216 57.1895 36.3568 38.8508 28.1524 28.134 61.8598 34.9448 33.3244 29.7785 39.8908 27.8964 41.6633 26.9412 25.9555 36.7312 99.9727 45.109 36.983 25.9139 23.2177 23.0335 46.6849 24.3244
threshold=0.012470736255887857 0.033256303356999688 0.10843855730809711 0.022176340603433663 0.014421339959238793 0.054513976191934099 0.022335980774681501 0.0076866752666160587 0.032763729834994322 0.027665477929968128 0.14136409338933256 0.033709952185625232 10125.500000000002 5376.0000000000009 366.50000000000006 6524.0000000000009 7227.0000000000009 25130.000000000004 24847.500000000004 0.015873834162141772 0.036602105361292721 23222.000000000004 23446.000000000004 0.023149459517911732 0.02829803192545375 19797.000000000004 0.012840362236035735 8985.0000000000018 7858.0000000000009 0.021778510318186995
decision_type=2 2 2 2 2 2 2 2 2 2 2 2 2 2 2 2 2 2 2 2 2 2 2 2 2 2 2 2 2 2
left_child=7 3 5 4 26 11 -5 -1 9 -8 -4 12 13 14 -3 -15 -17 18 -11 -6 21 23 -23 -13 -25 -26 -2 28 29 -18
right_child=1 2 10 6 19 -7 8 -9 -10 17 -12 20 -14 15 -16 16 27 -19 -20 -21 -22 22 -24 24 25 -27 -28 -29 -30 -31
leaf_value=0.10172113091493824 -0.0034492001121333134 0.091740773726444402 0.012023268898665892 0.031460942262289994 -0.065429008681499451 -0.0044100911537509968 -0.043558313699108668 0.080864435974367224 -0.090379762213343248 -0.022398513255492941 0.035207749178523144 0.014607845034485915 -0.037166003488349961 0.11205556345359857 -0.13238721254632851 -0.21955000085733373 -0.23379534630509982 -0.058663405074560949 0.067831066582462726 -0.04820440269983467 -0.0178053147863926 0.099472725480196381 -0.049282353552327046 -0.085816404111761946 -0.027045345067619256 -0.10471874929412379 -0.036618690084752083 0.079749660063790598 -0.15902249315342779 0.056394583097243149
leaf_weight=3224.7912986301671 283.97505266661756 9.7523759754840302 1005.0755462646484 150.74836985487491 1948.0383359158877 5977.8375326395035 1968.2410011291504 2219.5873211168218 116.05608367919922 1733.2872476577759 1093.6485595703125 107.00488268584013 185.77309184335172 62.057960852980614 20.746380820870399 6.1545476019382468 3.0511735565960398 205.23184704780579 52.731637716293335 1700.9633125697728 6821.8980312347412 69.53921639919281 128.97006809711456 247.84115228056908 348.93877614056692 48.981905373279005 821.52339553833008 73.472017198801041 14.669697299599646 54.191294010728598
leaf_count=4023 19382 335 77509 19204 1059818 661767 530629 16958 19929 237877 16600 5615 13201 693 3884 551 157 30393 2944 769378 1131525 541 15597 29338 40454 7776 281526 958 931 507
internal_value=0 -0.0200913 -0.00787703 -0.0422324 -0.0505868 -0.0126102 -0.0328338 0.0932182 -0.035212 -0.033595 0.0241047 -0.0185859 0.00631752 0.0394114 -0.0607194 0.0537087 0.0298146 -0.0237468 -0.0197345 -0.0573998 -0.0199631 -0.0354376 0.00282761 -0.0455283 -0.0554931 -0.0366065 -0.0280983 0.040371 0.000138133 0.0409267
internal_weight=0 25260.4 16279.6 8980.8 4754.5 14180.9 4226.3 5444.38 4075.55 3959.49 2098.72 8203.04 429.869 244.095 30.4988 213.597 151.539 1991.25 1786.02 3649 7773.17 951.276 198.509 752.767 645.762 397.921 1105.5 145.384 71.9122 57.2425
internal_count=5000000 4979019 2007939 2971080 2130104 1913830 840976 20981 821772 801843 94109 1252063 21217 8016 4219 3797 3104 271214 240821 1829196 1230846 99321 16138 83183 77568 48230 300908 2553 1595 664
is_linear=0
shrinkage=0.1


Tree=19
num_leaves=31
num_cat=0
split_feature=1 1 2 1 2 2 3 2 2 1 2 3 2 3 3 0 1 0 0 2 0 0 3 0 3 0 0 3 3 3
split_gain=5314.13 649.267 220.445 68.6896 75.3472 58.6678 53.5418 50.0406 46.2373 31.9417 27.3989 31.2482 37.0115 25.6634 24.9125 22.2677 22.0267 24.7001 24.8535 21.3148 20.2319 98.6639 80.6148 39.4267 72.0533 67.5888 81.7518 32.9972 32.8161 32.8157
threshold=0.012470736255887857 0.031790197878612432 0.10208082049119142 0.012840362236035735 0.018655603439651419 0.010536138055545792 0.012641759700732925 0.051062044995593608 0.012171209124133447 0.014421339959238793 0.01636391670058485 0.016453375941842773 0.01547411589196492 0.017894091098471825 0.031091817822412326 12918.500000000002 0.086747752017407712 27846.500000000004 27901.000000000004 0.015673333939918151 6278.0000000000009 9141.0000000000018 0.045077556455520799 7955.0000000000009 0.033709952185625232 8065.0000000000009 8800.5000000000018 0.033256303356999688 0.038634449422529533 0.040814661337749872
decision_type=2 2 2 2 2 2 2 2 2 2 2 2 2 2 2 2 2 2 2 2 2 2 2 2 2 2 2 2 2 2
left_child=5 3 7 10 9 -1 8 20 -7 -5 11 15 -13 -11 -15 -2 -9 -18 -19 -14 -3 22 23 24 27 28 -27 -22 -25 -26
right_child=1 2 -4 4 -6 6 -8 16 -10 13 -12 12 19 14 -16 -17 17 18 -20 -21 21 -23 -24 25 29 26 -28 -29 -30 -31
leaf_value=0.0978505494026429 -0.035532031918566902 -0.028039458745795616 0.025140330562342023 -0.033643657783725016 -0.032392969954114934 0.059377889021413971 0.086764001149775324 -0.0079618555325964221 -0.026972972252231549 -0.065035223647853829 0.077229208829099727 -0.2477830523250161 0.10160551903579183 -0.047153160990632811 -0.14647992992332107 0.025723103036056884 0.0042129496868654861 0.1172888615054601 -0.093273059096280336 -0.24049082727598081 -0.023842305175872339 -0.020697141249759635 -0.028835106600037505 0.01459530613678618 -0.096692010824574612 -0.06138568201357824 0.060649044181607617 0.07845929632569533 0.12492514677610132 0.0048339670555762552
leaf_weight=3992.8777090388321 95.232214995143295 1408.5265355126467 1867.4637603759766 847.59137493600429 3948.8468030072254 291.80127988301683 827.7330141463317 5748.5342712402344 78.742924183607101 1545.0937829054019 44.810187971990672 11.265208273754981 7.4247914254665357 2216.2260970893258 25.542332305572927 157.48792854801286 1164.7864162921906 34.462368845939636 6.6946200132369986 2.4132976308465004 43.808726474642754 4732.9515652193222 306.85537803173065 33.971421718597412 71.115975856781006 83.035391807556152 161.97903442382812 112.48395538330078 130.5980658531189 57.640944957733154
leaf_count=9412 8605 242992 97441 286430 873586 3781 4418 719614 3370 999030 782 1143 80 807151 6631 9326 124018 86 1048 187 2249 707093 59070 817 9485 8958 3846 1184 825 7342
internal_value=0 -0.0192113 -0.00714542 -0.0408506 -0.0425431 0.0920268 0.072621 -0.0114223 0.0410278 -0.0511916 0.00474098 -0.00712145 -0.124023 -0.0551193 -0.0482849 0.00264041 -0.00538418 0.00690315 0.0830387 0.0176888 -0.017301 -0.0146633 0.0138519 0.0327089 0.00415085 0.0525838 0.0192915 0.0497842 0.10215 -0.0512416
internal_weight=0 24866.8 15964.9 8901.93 8583.3 5191.15 1198.28 14097.4 370.544 4634.45 318.634 273.823 21.1033 3786.86 2241.77 252.72 6954.48 1205.94 41.157 9.83809 7142.97 5734.44 1001.49 694.634 285.05 409.584 245.014 156.293 164.569 128.757
internal_count=5000000 4979019 1986068 2992951 2972828 20981 11569 1888627 7151 2099242 20123 19341 1410 1812812 813782 17931 844766 125152 1134 267 1043861 800869 93776 34706 20260 14446 12804 3433 1642 16827
is_linear=0
shrinkage=0.1


Tree=20
num_leaves=31
num_cat=0
split_feature=1 1 1 1 3 2 2 3 3 0 0 0 0 3 2 3 3 2 0 0 0 0 0 0 0 0 1 1 0 0
split_gain=4907.4 593.82 200.558 61.233 71.9679 60.2432 48.3152 35.1422 34.5729 33.9038 50.3862 40.8792 26.0128 23.3129 78.9303 23.1822 23.0589 22.3263 18.263 17.7734 17.5329 23.0758 25.2365 21.6412 30.3489 32.0035 19.9775 18.5376 21.8159 76.9755
threshold=0.012470736255887857 0.031790197878612432 0.10843855730809711 0.01305619251850265 0.022176340603433663 0.0076866752666160587 0.058956242693066999 0.022335980774681501 0.019233375624174574 18994.000000000004 18864.000000000004 8869.0000000000018 8800.5000000000018 0.013918890178089947 0.011941646478455506 0.14136409338933256 0.025280347002117346 0.013719632436021563 1580.0000000000002 1370.5000000000002 4871.5000000000009 13133.500000000002 13005.000000000002 17241.000000000004 22041.500000000004 21923.500000000004 0.015981966271728827 0.018070667681218077 19964.000000000004 20154.000000000004
decision_type=2 2 2 2 2 2 2 2 2 2 2 2 2 2 2 2 2 2 2 2 2 2 2 2 2 2 2 2 2 2
left_child=5 3 6 8 20 -1 -3 9 -2 10 11 12 -6 14 -7 -4 -9 -18 19 -19 -5 22 -22 -23 25 27 -27 -25 -29 -30
right_child=1 2 15 4 7 13 -8 16 -10 -11 -12 -13 -14 -15 -16 -17 17 18 -20 -21 21 23 -24 24 -26 26 -28 28 29 -31
leaf_value=0.10013358869157446 -0.017187501913458993 -0.015365153439342956 0.011020691065941718 -0.065568441495922877 -0.11972393076294457 0.078508323858566167 -0.0027621005646039161 -0.046528803926800116 0.053223467910385937 -0.10403613852310588 0.10351483860261548 -0.10512929598868211 0.072200974536777512 0.090630642224970387 0.00121132136962307 0.032158956800563847 -0.070355504281549616 -0.011478774074745951 -0.029816165012609488 0.069910255031987056 -0.039420049980561388 -0.071837230260118762 0.048897465153645243 -0.050543252984465908 -0.061320710557577422 0.18713128599003714 -0.012208895880710408 -0.041397320055543169 0.20487119471459903 -0.018320035661001818
leaf_weight=2909.1612230104147 416.85488147826982 9180.8022046089172 987.43891906738281 685.47854845013353 8.5433209429320396 1054.7219782451866 4548.9946856498718 1085.2485046386719 83.745490836183308 21.252362187951803 57.304801907390356 32.82429507933557 40.727451324462891 826.52968455804512 151.02010004594922 1093.2132568359375 127.67723041633144 164.5191893610172 2601.1436315905303 32.05970573425293 1176.754116922617 528.31587564945221 33.269336700439453 419.87223347555846 850.29727739095688 10.401426711119713 9.7308460092172009 167.61711295414716 18.041661977767944 107.67458772659302
leaf_count=4023 37433 1407149 77509 376337 5777 8233 484810 333628 2201 6164 125 6877 230 3518 5207 16600 33989 27780 443112 3837 589263 292460 12184 240799 461085 2492 4185 67624 1757 43612
internal_value=0 -0.0183424 -0.00680502 -0.039359 -0.041437 0.090905 -0.0111895 -0.0322426 -0.00540844 0.0136183 0.0315554 -0.0186744 0.0389221 0.0776945 0.0688268 0.0221271 -0.0340796 -0.0294613 -0.0275951 0.00179482 -0.0510074 -0.0480027 -0.0369918 -0.0543114 -0.0484646 -0.033558 0.0907811 -0.0370678 -0.0177794 0.0137104
internal_weight=0 24489.8 15810.4 8679.35 8178.75 4941.43 13729.8 4171.3 500.6 160.652 139.4 82.0951 49.2708 2032.27 1205.74 2080.65 4010.65 2925.4 2797.72 196.579 4007.45 3321.97 1210.02 2111.95 1583.64 733.338 20.1323 713.206 293.333 125.716
internal_count=5000000 4979019 1986068 2992951 2953317 20981 1891959 861519 39634 19173 13009 12884 6007 16958 13440 94109 842346 508718 474729 31617 2091798 1715461 601447 1114014 821554 360469 6677 353792 112993 45369
is_linear=0
shrinkage=0.1


Tree=21
num_leaves=31
num_cat=0
split_feature=1 3 2 2 1 1 3 1 0 3 3 0 1 0 0 0 1 0 0 0 3 3 3 3 0 0 0 0 3 0
split_gain=4529.04 534.611 193.33 59.8485 46.5775 44.9309 49.9255 28.8609 28.5132 49.7736 37.522 74.3211 40.0311 47.1585 38.356 36.2857 34.5139 31.656 30.2214 107.009 47.7226 96.348 28.1911 50.1393 31.6726 49.4223 30.7451 29.6527 27.876 42.1623
threshold=0.012470736255887857 0.032302169620002506 0.10208082049119142 0.0067152577423387752 0.055986620624978882 0.012840362236035735 0.018735861740065193 0.014563791766971625 11477.500000000002 0.034263210735740172 0.036602105361292721 10665.000000000002 0.045034908310324549 11383.000000000002 8985.0000000000018 10910.000000000002 0.046890006571904987 6278.0000000000009 7624.5000000000009 8209.0000000000018 0.04282146956332028 0.044674524254745322 0.048032313818961295 0.049304468310798322 17569.000000000004 19461.000000000004 12392.500000000002 21722.000000000004 0.039391090130533567 26380.000000000004
decision_type=2 2 2 2 2 2 2 2 2 2 2 2 2 2 2 2 2 2 2 2 2 2 2 2 2 2 2 2 2 2
left_child=3 5 4 -1 8 -2 7 -7 9 17 11 14 18 16 -11 -13 -14 -3 -12 20 -20 -22 27 24 -24 -26 -25 -10 29 -29
right_child=1 2 -4 -5 -6 6 -8 -9 22 10 12 15 13 -15 -16 -17 -18 -19 19 -21 21 -23 23 26 25 -27 -28 28 -30 -31
leaf_value=0.1008814802091326 -0.00090267689392972141 -0.025118260916520155 0.023287061098813872 0.078286906100056772 -0.0051111104322620867 -0.035558408335337861 -0.034592629495655412 -0.05877558941752329 -0.038468743098246425 -0.060072522711897981 -0.012090120063560222 0.10755687802635593 -0.073686700315114914 0.11447200323733203 -0.18450115299652561 -0.10123286350405547 -0.020873684848988106 0.031308401428647041 0.10041603982962051 -0.020078192194786029 -0.22984507214698954 0.062723357888730624 -0.032255267205248676 -0.10305300825838092 0.10053058163933737 0.0048651493842100917 -0.017383571542821365 0.010486567998875866 -0.036465754786621646 -0.054988174972309151
leaf_weight=2409.3601637528809 300.0228644964518 130.14109403465409 1852.9526824951172 2283.2929419512511 6910.833637336269 766.29505655201501 5036.7140188511985 1777.0644667744637 1391.890376487514 179.60772994160652 708.77609314769506 37.217255830764771 141.55459063593298 23.886841058731079 28.737706154584885 10.721621274948118 983.27992183621973 421.21954125165939 161.53741749492474 296.2326238155365 14.333982706069945 52.420687115518376 72.724316306877881 43.059556213906035 90.908390134572983 133.02071496052667 1544.0056520795915 491.7004462480545 402.42738342285156 122.94137394428253
leaf_count=2761 19857 17950 97442 18220 763560 304929 1427068 1179654 206874 25227 99133 730 42947 1874 5278 1280 221893 14548 2938 40270 1030 2074 17313 12838 5079 25699 315417 36718 72203 17196
internal_value=0 -0.0174835 -0.00711625 0.0898877 -0.0110303 -0.0388574 -0.0403597 -0.0517804 -0.0164974 -0.00933605 -0.0150467 -0.051404 -0.0111349 -0.0245673 -0.0772353 0.0608607 -0.0275199 0.0179897 0.00137627 0.019573 0.0710246 -9.87762e-05 -0.0218186 -0.0126544 0.0250814 0.0437024 -0.0197079 -0.0289848 -0.0160057 -0.00260977
internal_weight=0 24126.2 16246.1 4692.65 14393.2 7880.1 7580.07 2543.36 7482.35 3189.67 2638.31 256.284 2382.02 1148.72 208.345 47.9389 1124.83 551.361 1233.3 524.525 228.292 66.7547 4292.68 1883.72 296.653 223.929 1587.07 2408.96 1017.07 614.642
internal_count=5000000 4979019 2047511 20981 1950069 2931508 2911651 1484583 1186509 477172 444674 32515 412159 266714 30505 2010 264840 32498 145445 46312 6042 3104 709337 376346 48091 30778 328255 332991 126117 53914
is_linear=0
shrinkage=0.1


Tree=22
num_leaves=31
num_cat=0
split_feature=1 3 2 2 1 3 3 2 3 3 2 3 0 0 0 3 2 0 0 0 0 2 1 3 2 3 0 0 0 1
split_gain=4171.35 515.807 171.913 61.86 46.6475 53.4844 53.4956 33.026 24.7107 27.2363 23.4226 24.623 34.0425 90.5109 30.2192 25.6869 25.0779 23.2298 22.8143 35.65 27.166 22.4423 28.6097 21.6653 58.7395 28.2932 21.517 21.0827 35.5304 20.5376
threshold=0.012470736255887857 0.033256303356999688 0.083560987149874227 0.0076866752666160587 0.01305619251850265 0.022176340603433663 0.022335980774681501 0.11735371316472953 0.032763729834994322 0.027665477929968128 0.030133555515020279 0.03484530367358072 13387.000000000002 22699.000000000004 23446.000000000004 0.035348299091052027 0.020034456789457963 24391.000000000004 10995.500000000002 11152.500000000002 10125.500000000002 0.028723734576359836 0.044706646027475441 0.018281781021140194 0.011941646478455506 0.012641759700732925 27846.500000000004 19062.000000000004 23147.000000000004 0.1361670802935171
decision_type=2 2 2 2 2 2 2 2 2 2 2 2 2 2 2 2 2 2 2 2 2 2 2 2 2 2 2 2 2 2
left_child=3 4 10 -1 -2 -6 -7 26 9 -8 11 12 -3 -14 -15 27 -16 -18 20 -20 -11 -17 -23 24 -5 -26 29 -13 -29 -4
right_child=1 2 7 23 5 6 8 -9 -10 18 -12 15 13 14 16 21 17 -19 19 -21 -22 22 -24 -25 25 -27 -28 28 -30 -31
leaf_value=0.098706953408055034 -0.0062997807901587245 0.019038397589297724 0.00034002872511731215 0.07878580476422109 -0.047401207044770993 0.029067506221803374 -0.040535350050743331 0.028158285862911289 -0.08166775742333314 -0.033150532555245853 -0.0089267788222240959 -0.1544302876180822 -0.12706283610057359 0.071816726708252066 -0.18668107607657169 -0.020126867455676073 -0.16635036907035969 0.018769905791350506 0.089115313216536346 -0.018092724952254242 -0.11735372911150105 -0.10648103455305678 -0.019735460131631643 0.092881516235117409 -0.0090008645958367783 0.055486602332277979 0.085859983904758783 0.053629349196760795 -0.20685309209993155 0.03991662671695189
leaf_weight=2604.3792453524002 465.98642999469303 318.1595756507013 1276.0272091627121 1089.2145271851914 3763.7968795216875 144.17243231169414 1781.5135650634766 1308.3751525878906 101.51480102539062 616.51783561706543 10681.00199508667 27.920515678590164 67.967916339635849 54.974493056535721 8.6509565971791726 1475.2854706346989 7.7657876294106236 53.321166476234794 31.833837509155273 1209.3475214242935 40.853951811790466 71.57447954826057 81.102646263316274 488.4520323734032 121.35448433412239 154.84591953828931 33.188198328018188 16.861955429194499 7.5952373272739342 146.13785636425018
leaf_count=4023 39259 14758 170986 8749 2091798 19173 529938 39507 19914 101072 1540118 5678 10292 715 1769 192970 582 2375 698 160798 8430 9705 10622 1675 4519 2015 1735 1377 1388 3362
internal_value=0 -0.0166342 -0.00600021 0.0887687 -0.037022 -0.0388837 -0.0307176 0.0166291 -0.0329969 -0.0316543 -0.0108589 -0.0202768 -0.00105089 -0.0342229 0.0163746 -0.0261217 -0.0273306 -0.00476384 -0.0233208 -0.0153431 -0.0383835 -0.023904 -0.0604015 0.0748071 0.0683413 0.0271527 0.00626429 -0.0950514 -0.0272641 0.00440681
internal_weight=0 23791.4 15635.9 4458.25 8155.54 7689.55 3925.75 2763.73 3781.58 3680.07 12872.2 2191.18 510.84 192.68 124.712 1680.34 69.7379 61.087 1898.55 1241.18 657.372 1627.96 152.677 1853.87 1365.41 276.2 1455.35 52.3777 24.4572 1422.17
internal_count=5000000 4979019 2007939 20981 2971080 2931821 840023 215590 820850 800936 1792349 252231 30491 15733 5441 221740 4726 2957 270998 161496 109502 213297 20327 16958 15283 6534 176083 8443 2765 174348
is_linear=0
shrinkage=0.1


Tree=23
num_leaves=31
num_cat=0
split_feature=1 1 1 2 1 2 2 2 3 2 0 0 1 1 3 0 1 0 0 0 3 3 0 0 1 1 1 0 2 1
split_gain=3842.8 472.987 158.329 60.9368 49.5708 56.3471 39.9937 36.2243 22.7986 69.3964 21.9029 29.6097 20.6342 23.5794 16.7798 21.5895 21.2695 18.2644 37.0078 29.6947 16.4832 16.164 29.0073 24.271 24.2182 17.8887 39.2475 48.5739 34.4104 32.9927
threshold=0.012470736255887857 0.031790197878612432 0.10843855730809711 0.0080242662131416315 0.013405133377967697 0.015942261780851143 0.06933093129369404 0.013552994169114213 0.012641759700732925 0.01182332566735988 27781.500000000004 27713.500000000004 0.017769167027289628 0.014497948780803155 0.14136409338933256 24109.500000000004 0.1361670802935171 22469.500000000004 22699.000000000004 20776.000000000004 0.10352691641650125 0.029158703644196548 3663.5000000000005 27216.500000000004 0.028965090703175392 0.029261364733655051 0.027633148352374941 11713.500000000002 0.026694801930929945 0.026757878800581999
decision_type=2 2 2 2 2 2 2 2 2 2 2 2 2 2 2 2 2 2 2 2 2 2 2 2 2 2 2 2 2 2
left_child=3 4 6 -1 7 -6 20 -2 9 -5 11 14 13 -7 15 16 17 19 -19 -4 -3 22 -14 24 -24 26 28 -28 -23 -30
right_child=1 2 10 8 5 12 -8 -9 -10 -11 -12 -13 21 -15 -16 -17 -18 18 -20 -21 -22 25 23 -25 -26 -27 27 -29 29 -31
leaf_value=0.097527346464594211 -0.023249737083752848 -0.011666666058102335 0.017061456758650111 0.07388156303839237 -0.049816327521687985 0.00070345371518135472 0.0030910132676284074 0.030269317931399461 0.084912669684493236 -0.0043127762753876553 0.069551127177935018 -0.11362572004520544 -0.061685615729123268 -0.051828001764791021 0.027964121288889421 -0.041101920614153242 -0.062113259908921137 0.12281322016468384 -0.015685298998955249 -0.076750777725054911 -0.078558098858933459 -0.055259118093138188 -0.026522859780212894 -0.086933620034944342 -0.13190105894031681 -0.032122576426195454 -0.068298420274404997 0.061016716611268056 0.0068582144843565875 -0.11239971252512426
leaf_weight=2554.0668944705139 463.48412832460599 11168.445576667786 681.80337016377598 718.43803567241412 2532.6956790538388 96.610813274804968 2119.8999824523926 173.92762246885104 815.36176050140057 134.79164404049516 86.576605796813965 16.902898788452148 308.65693068002656 739.40667390823364 1041.5617218017578 77.522619359195232 35.093201160430908 44.801622115075588 33.885406736284494 35.497878785245121 36.960371971130371 194.9539596833165 2388.5247620642185 70.689893752336502 22.010224580764771 582.66998291015625 37.036137850955129 134.66124602966011 303.96712395083159 25.114222407341003
leaf_count=4540 68493 1592493 54789 6639 1434875 17837 293054 10392 4892 4910 1500 1078 123425 364052 16279 8608 3674 438 3452 4291 6412 23508 755371 35918 5860 102104 9427 11710 24428 5551
internal_value=0 -0.0158111 -0.00552115 0.0878176 -0.03541 -0.0377038 -0.00950443 -0.00864624 0.0729553 0.0615286 0.0203248 0.0181582 -0.0314486 -0.0457574 0.0193004 0.009369 0.0140769 0.0174359 0.0631709 0.0124189 -0.0118873 -0.0285082 -0.0327751 -0.0291787 -0.0274851 -0.0191966 -0.00837113 0.0331227 -0.0219664 -0.00224309
internal_weight=0 23453.4 15379 4222.66 8074.41 7437 13325.3 637.412 1668.59 853.23 2053.65 1967.07 4904.3 836.017 1950.17 908.604 831.081 795.988 78.687 717.301 11205.4 4068.28 2789.88 2481.22 2410.53 1278.4 695.733 171.697 524.035 329.081
internal_count=5000000 4979019 1986068 20981 2992951 2914066 1891959 78885 16441 11549 94109 92609 1479191 381889 91531 75252 66644 62970 3890 59080 1598905 1097302 920574 797149 761231 176728 74624 21137 53487 29979
is_linear=0
shrinkage=0.1


Tree=24
num_leaves=31
num_cat=0
split_feature=1 3 1 2 1 3 2 0 0 0 0 0 0 0 0 0 0 0 1 1 3 0 0 3 2 3 2 1 0 0
split_gain=3532.46 425.863 161.542 60.202 39.9388 40.3815 30.6183 23.0171 48.3267 28.2636 55.1236 64.7508 62.2094 52.1872 37.4663 30.9604 30.253 61.91 29.1674 27.8674 26.0721 24.6254 23.6987 21.5303 20.5864 20.2754 66.3774 19.3673 16.703 64.8134
threshold=0.012470736255887857 0.033256303356999688 0.10843855730809711 0.0076866752666160587 0.012840362236035735 0.025513938195968876 0.065469456925378769 6097.5000000000009 6278.0000000000009 13133.500000000002 17569.000000000004 20302.000000000004 18864.000000000004 17746.500000000004 18994.000000000004 19964.000000000004 8593.0000000000018 8869.0000000000018 0.01799020116456072 0.014497948780803155 0.024094408157007117 12643.500000000002 8800.5000000000018 0.032763729834994322 0.014854912366192368 0.013415896219368567 0.01182332566735988 0.019740478613919178 9694.0000000000018 7955.0000000000009
decision_type=2 2 2 2 2 2 2 2 2 2 2 2 2 2 2 2 2 2 2 2 2 2 2 2 2 2 2 2 2 2
left_child=3 4 6 -1 24 7 28 -6 -9 16 -11 12 13 20 -14 19 -10 22 -17 -16 -12 -19 -18 -7 -2 26 -5 -20 29 -3
right_child=1 2 -4 25 5 23 -8 8 9 10 11 -13 14 -15 15 18 17 21 27 -21 -22 -23 -24 -25 -26 -27 -28 -29 -30 -31
leaf_value=0.097247726645755289 -0.0095633138489959052 -0.01340889768610562 0.020877810926346871 0.074163167339922106 -0.054651784008883979 -0.023701222124862552 0.00015011735901209638 0.10814914380560373 -0.048119511979835619 -0.068783364127312271 0.0040308926415605377 -0.047786646177383707 0.082759398777019946 -0.06534313477126287 0.051465973627213446 -0.033794463270112686 -0.028703793964680143 -0.032913066219768319 0.14784806378140267 -0.047703602791809532 0.16035576144382307 0.019625350316119495 0.080123907529473556 -0.074353021094513042 0.06225443731963113 0.085297612568928136 0.0017905539540863794 0.022323374702031537 -0.014684571341762265 0.018164298705754121
leaf_weight=2318.9103082642396 245.33193626144202 2932.0052240418736 2036.0404663085938 824.08983163646189 970.6651115444256 2495.2444803911494 2703.1459095478058 22.665495008230209 422.60200979560614 679.24450601637363 46.7236667573452 1334.0242710858583 78.391435623168945 215.59025764465332 37.578101782128215 25.041069880127907 26.218696594238281 651.66530513763428 30.868615254759789 115.21430620737374 13.825945422053335 103.36395645141602 84.498260498046875 86.839668273925781 47.668457780906465 705.28253016050439 149.75737871974707 20.424552917480469 6909.5754165761173 835.42725563049316
leaf_count=4023 18767 453560 94109 7626 552666 447796 350041 7654 216276 381945 18766 706048 9940 108613 10089 14726 15224 313450 4167 63686 1005 42426 10966 19919 1122 3981 5351 5829 1022661 87568
internal_value=0 -0.0149786 -0.00536386 0.0868058 -0.0340951 -0.0355174 -0.00935702 -0.0408696 -0.0374464 -0.0382958 -0.0443032 -0.0356323 -0.00785201 -0.0423044 0.023085 0.00266847 -0.0261866 -0.0154803 0.0546748 -0.0233136 0.0397262 -0.0257205 0.0543526 -0.0254047 0.00212077 0.0723852 0.0630338 0.0978651 -0.011764 -0.00640755
internal_weight=0 23169.9 15416.2 3998.04 7753.69 7460.69 13380.2 4878.61 3907.94 3885.27 2596.93 1917.68 583.658 276.14 307.518 229.127 1288.35 865.746 76.3342 152.792 60.5496 755.029 110.717 2582.08 293 1679.13 973.847 51.2932 10677 3767.43
internal_count=5000000 4979019 2007939 20981 2971080 2951191 1913830 2483476 1930810 1923156 1324814 942869 236821 128384 108437 98497 598342 382066 24722 73775 19771 355876 26190 467715 19889 16958 12977 9996 1563789 541128
is_linear=0
shrinkage=0.1


Tree=25
num_leaves=31
num_cat=0
split_feature=1 3 3 2 1 3 3 3 3 2 1 3 0 0 2 2 2 1 0 0 1 0 0 1 0 0 0 0 3 3
split_gain=3240.56 378.016 153.125 61.6333 38.7345 46.9002 36.7993 29.1476 25.1088 48.912 20.9276 20.4296 32.9293 31.4968 40.501 20.8707 19.206 19.018 18.8548 43.4551 24.888 19.3866 57.5878 41.7678 45.4943 44.1661 26.8043 26.7548 25.6152 27.2636
threshold=0.012470736255887857 0.031888836148065973 0.12310704454373696 0.0088121958067920517 0.01323838660857622 0.018573664156706002 0.055548055750859311 0.051709434773021611 0.015683770995341944 0.011941646478455506 0.052304279975063143 0.051014935329313567 3098.0000000000005 3262.0000000000005 0.040533635626569829 0.038226653157954864 0.052305108391287831 0.015043714574163919 27781.500000000004 27713.500000000004 0.086747752017407712 4193.5000000000009 2893.0000000000005 0.086747752017407712 3921.0000000000005 3007.0000000000005 11152.500000000002 11477.500000000002 0.056276733889262749 0.068836322427100402
decision_type=2 2 2 2 2 2 2 2 2 2 2 2 2 2 2 2 2 2 2 2 2 2 2 2 2 2 2 2 2 2
left_child=3 4 6 -1 -2 17 7 11 9 -5 -9 -3 -13 -14 15 -15 -4 -6 19 21 -20 22 -8 25 -25 28 -23 -28 -24 -30
right_child=1 2 16 8 5 -7 18 10 -10 -11 -12 12 13 14 -16 -17 -18 -19 20 -21 -22 26 23 24 -26 -27 27 -29 29 -31
leaf_value=0.095144765710544116 -0.0067674401137707138 -0.013198910909944307 -0.040335244825820599 0.070349630580329545 -0.034701080783087347 -0.029925687213731175 -0.013330369352354023 -0.05333278119951871 0.08539501977637047 0.010624447336526725 -0.020215069959142795 -0.16288273316711252 0.13255205405287937 0.026045717154031662 -0.027542348427676208 0.12820683087948986 0.025446628852326011 -0.055402082785001361 -0.0043005343759717008 -0.13938924148693455 0.068257638219985248 -0.019242226626117302 -0.21708676022316378 -0.0096728451019592408 0.12285787569532497 -0.0017351032572360016 0.048378182482018271 -0.0045876978907471123 0.084796419068983442 -0.08306757525987607
leaf_weight=2456.484255982763 505.02282882179134 5327.0864133194555 45.676020711660385 624.78193619556259 672.21003690443467 4551.5823360971408 712.80018711090088 296.10751342773438 524.27979396737646 175.67500067874789 536.56833648681641 9.7476192289032024 24.224189758300781 54.615244052372873 113.15092208096758 31.548203468322754 1568.8118790686131 1306.0660152435303 111.37184727191925 24.024106979370117 82.138363718986511 1395.8090376853943 3.1498229141579932 37.789737343788147 82.333921432495117 381.03819584846497 97.296966552734375 4814.0789856910706 121.77697207033634 10.510461947764268
leaf_count=5926 58324 779557 3047 6694 410269 1446815 109533 95729 2475 5886 144083 4035 279 5522 29602 510 53397 996419 8414 5478 2904 226586 287 5081 1199 32207 10994 546143 1771 834
internal_value=0 -0.0141519 -0.00560395 0.0857692 -0.0334493 -0.0355129 -0.00890707 -0.0145434 0.0683838 0.0572418 -0.031992 -0.0119304 0.0170348 0.0248803 0.0117942 0.0634514 0.0235856 -0.048368 -0.00433088 -0.0051076 0.0264979 -0.00468626 0.00619253 0.0280523 0.081165 0.0156992 -0.00701374 -0.00353842 0.0647487 0.0714593
internal_weight=0 22916.5 15881.7 3781.22 7034.88 6529.86 14267.2 6393.05 1324.74 800.457 832.676 5560.37 233.286 223.539 199.314 86.1634 1614.49 1978.28 7874.12 7680.61 193.51 7656.58 1349.4 636.599 120.124 516.475 6307.18 4911.38 135.437 132.287
internal_count=5000000 4979019 2067192 20981 2911827 2853503 2010748 1059317 15055 12580 239812 819505 39948 35913 35634 6032 56444 1406688 951431 940113 11318 934635 150912 41379 6280 35099 783723 557137 2892 2605
is_linear=0
shrinkage=0.1


Tree=26
num_leaves=31
num_cat=0
split_feature=1 1 1 2 1 2 2 1 0 0 3 1 2 2 3 2 2 0 0 0 3 1 1 3 1 0 0 2 1 0
split_gain=2972.82 349.575 135.578 60.7609 43.4042 54.1693 29.4378 24.776 21.4949 28.5126 20.1612 18.4928 16.0887 16.0502 59.0636 17.8978 15.9035 15.7736 21.2165 32.121 42.8685 38.3447 50.524 23.9546 23.6695 23.5908 20.7286 20.2446 19.9737 19.4505
threshold=0.012470736255887857 0.031790197878612432 0.10843855730809711 0.0067152577423387752 0.013751417622175679 0.015942261780851143 0.056275363564451959 0.017769167027289628 6776.0000000000009 7528.0000000000009 0.01913324775082292 0.017118160064129969 0.043522111366939072 0.011209450530047618 0.012641759700732925 0.012171209124133447 0.015140055036635824 26022.000000000004 21923.500000000004 19878.000000000004 0.062726574482342118 0.060837604366522129 0.057615567929711571 0.062726574482342118 0.058465264185006541 19538.000000000004 22323.500000000004 0.056692778703979159 0.045357530517547852 26899.000000000004
decision_type=2 2 2 2 2 2 2 2 2 2 2 2 2 2 2 2 2 2 2 2 2 2 2 2 2 2 2 2 2 2
left_child=3 4 6 -1 10 -6 -3 11 -8 -10 16 -7 -4 -5 15 -15 -2 18 19 20 24 22 -21 27 -11 -26 28 -20 -25 -19
right_child=1 2 12 13 5 7 8 -9 9 17 -12 -13 -14 14 -16 -17 -18 29 23 21 -22 -23 -24 26 25 -27 -28 -29 -30 -31
leaf_value=0.097665256594763647 -0.014511269831295963 -0.012212233038120683 -0.041011593527189798 0.079610325609276889 -0.046426171344499154 -0.035378983870628329 0.0086732452438759815 -0.024115488926400343 -0.075000026739176995 -0.008921117202034699 0.025497925649610238 -0.072679467634043357 0.020883344674127065 0.036043329816707326 0.078015372406789407 -0.026096794271627085 -0.17920771013993467 0.031185207920803888 0.043954920453028144 -0.044197508789252368 -0.0025164032456115623 -0.0028600894765938548 0.072463940115671435 0.17037191536068233 -0.048084516582662447 -0.20895582384755207 -0.012857124344382104 -0.10734023591405265 -0.14294702214816596 -0.0079832300543869628
leaf_weight=1802.1912543207436 611.18810035288334 7760.3043681383133 42.909449458122253 1036.5338439941406 2179.0926432581036 578.19986868189881 1293.9828263521194 3898.7838573455811 59.294403553009033 201.92064732313156 143.7061428129673 172.58904361724854 1973.5845233201981 136.99193120405835 529.29214924234839 70.052352163940668 5.9198361188173285 249.91527199745178 10.532320618629454 46.740797996520996 1754.7628286480904 405.52760410308838 180.41130924224854 2.2617778831627247 296.83202970027924 9.4044109582900983 396.71975402534008 55.181002378463745 20.259307692060247 257.32101678848267
leaf_count=2761 126000 1310554 5048 8040 1380090 272918 137603 1097302 15614 24542 8603 105770 89061 2757 4053 3370 2268 21160 1525 4932 202495 33505 5452 19 27623 944 59659 14356 5937 26039
internal_value=0 -0.0133997 -0.00455984 0.084735 -0.0308919 -0.0334162 -0.00830177 -0.0273188 -0.00251165 -0.00617842 -0.00823564 -0.0439535 0.0195663 0.0715908 0.0603018 0.0150185 -0.0160912 -0.00512879 -0.00759611 -0.00435403 -0.0099231 0.015565 0.0484587 -0.0269542 -0.0354998 -0.0530248 -0.0181551 -0.0830911 -0.111481 0.0113151
internal_weight=0 22607.3 15017.9 3575.06 7589.48 6828.67 13001.4 4649.57 5241.07 3947.08 760.814 750.789 2016.49 1772.87 736.336 207.044 617.108 3887.79 3380.55 2895.6 2262.92 632.68 227.152 484.954 508.157 306.236 419.241 65.7133 22.5211 507.236
internal_count=5000000 4979019 1986068 20981 2992951 2856080 1891959 1475990 581405 443802 136871 378688 94109 18220 10180 6127 128268 428188 380989 299493 255604 43889 10384 81496 53109 28567 65615 15881 5956 47199
is_linear=0
shrinkage=0.1


Tree=27
num_leaves=31
num_cat=0
split_feature=1 2 3 2 1 1 1 1 1 3 3 3 2 2 1 1 2 1 0 0 0 0 0 0 0 3 1 2 0 0
split_gain=2723.79 317.506 119.755 60.2945 44.7248 47.7095 32.9271 25.2823 24.8385 29.0796 24.7928 21.8174 20.8952 20.6744 19.9177 24.608 18.225 22.7151 18.0337 41.2902 39.3559 34.6368 32.8455 26.1544 23.9374 23.3818 46.8737 29.9205 26.2682 78.1739
threshold=0.012470736255887857 0.027868153367028831 0.10983385751768437 0.0067152577423387752 0.028624908758902803 0.014421339959238793 0.017769167027289628 0.093988082154699101 0.029261364733655051 0.029158703644196548 0.058463592306871447 0.014835995407788294 0.028723734576359836 0.029170331694387663 0.017495772540371581 0.021082925857294304 0.0191676559517753 0.030918811103808241 23688.000000000004 24630.500000000004 18864.000000000004 20776.000000000004 20650.500000000004 15871.000000000002 15230.500000000002 0.045077556455520799 0.044261528514459865 0.043522111366939072 6440.5000000000009 8065.0000000000009
decision_type=2 2 2 2 2 2 2 2 2 2 2 2 2 2 2 2 2 2 2 2 2 2 2 2 2 2 2 2 2 2
left_child=3 4 10 -1 5 11 -7 -4 9 -6 12 -2 14 -12 -3 -16 17 -10 20 -20 23 22 -22 24 25 26 27 28 -14 -30
right_child=1 2 7 -5 8 6 -8 -9 16 -11 13 -13 18 -15 15 -17 -18 -19 19 -21 21 -23 -24 -25 -26 -27 -28 -29 29 -31
leaf_value=0.097004869931101759 -0.02260808318569045 -0.23146632588281368 -0.038480958725187843 0.070285282445676486 -0.018549776838787217 -0.048822458396154927 -0.031283385855426338 0.020429438719524032 -0.092288409924762685 0.075947866241352968 -0.098172690229999929 0.0088509806051405761 -0.030611689841685826 -0.0025836508266732115 0.083017083499958441 0.0037739792166800036 -0.012830323636310693 -0.027023357491639529 -0.086362616234294975 -0.018431089302106459 0.015338620576556839 -0.011254340019817765 0.098037077192956179 -0.037701478871982719 0.020249940145529055 -0.023973643943136721 0.052060482365048746 -0.13656105358746715 0.041501678640010198 -0.021424885695234909
leaf_weight=1693.3876557662988 728.45307755676913 3.3221528709691475 75.533637046813965 1684.777110149822 68.233163062715903 1529.4215174913406 3566.330558784306 2050.7887506484985 60.434315020684153 62.295598868047819 22.711553573608398 316.117051190231 417.49271755246446 6036.8696002960205 45.396486688405275 286.54679987579584 1474.7850886583328 453.49974393611774 104.62123975902796 618.06179332733154 472.35650929063559 611.55899143218994 53.462276458740234 496.76216761767864 202.42157272994518 1515.2410369254649 126.07393670082092 18.935122847557068 298.13240935280919 584.41876601101831
leaf_count=2761 256321 504 13329 18220 13536 1139949 1333227 98515 15824 5053 4715 56201 74806 696064 786 35093 169105 76057 32369 141985 76315 101739 3468 115716 31933 374892 12907 5375 16569 76666
internal_value=0 -0.0126762 -0.00352439 0.0836791 -0.0282335 -0.0325566 -0.0365475 0.0183368 -0.0157079 0.0265498 -0.00742588 -0.0130877 -0.0120667 -0.00294192 0.0121729 0.0146112 -0.0184815 -0.034698 -0.013539 -0.0282654 -0.0113204 0.00492703 0.0237469 -0.0163701 -0.0130196 -0.0152946 -0.00619396 -0.0117622 -0.00994449 -0.00016782
internal_weight=0 22300.3 14040.7 3378.16 8259.57 6140.32 5095.75 2126.32 2119.25 130.529 11914.4 1044.57 5854.8 6059.58 335.265 331.943 1988.72 513.934 5519.54 722.683 4796.86 1137.38 525.819 3659.48 3162.72 2960.29 1445.05 1318.98 1300.04 882.551
internal_count=5000000 4979019 1913746 20981 3065273 2785698 2473176 111844 279575 18589 1801902 312522 1101123 700779 36383 35879 260986 91881 1064740 174354 890386 181522 79783 708864 593148 561215 186323 173416 168041 93235
is_linear=0
